{"learner":{"attributes":{"scikit_learn":"{\"_estimator_type\": \"regressor\"}"},"feature_names":["goals_pg","assists_pg","plus_minus_pg","pp_points_pg","shots_pg","hits_pg","blocked_shots_pg","pp1_status","team_pp_percentage","opponent_goals_against_per_game","avg_prediction_error","prediction_accuracy","last_prediction_error","prediction_trend"],"feature_types":["float","float","float","float","float","float","float","int","float","float","float","float","float","float"],"gradient_booster":{"model":{"gbtree_model_param":{"num_parallel_tree":"1","num_trees":"100"},"iteration_indptr":[0,1,2,3,4,5,6,7,8,9,10,11,12,13,14,15,16,17,18,19,20,21,22,23,24,25,26,27,28,29,30,31,32,33,34,35,36,37,38,39,40,41,42,43,44,45,46,47,48,49,50,51,52,53,54,55,56,57,58,59,60,61,62,63,64,65,66,67,68,69,70,71,72,73,74,75,76,77,78,79,80,81,82,83,84,85,86,87,88,89,90,91,92,93,94,95,96,97,98,99,100],"tree_info":[0,0,0,0,0,0,0,0,0,0,0,0,0,0,0,0,0,0,0,0,0,0,0,0,0,0,0,0,0,0,0,0,0,0,0,0,0,0,0,0,0,0,0,0,0,0,0,0,0,0,0,0,0,0,0,0,0,0,0,0,0,0,0,0,0,0,0,0,0,0,0,0,0,0,0,0,0,0,0,0,0,0,0,0,0,0,0,0,0,0,0,0,0,0,0,0,0,0,0,0],"trees":[{"base_weights":[8.510408E-8,-1.5862817E0,4.5216007E0,-2.3244221E0,2.6525268E-1,3.74875E0,1.0290444E1,-2.40042E0,-1.5819564E0,6.692602E-1,-9.034212E-1,4.8792224E0,1.8005049E0,1.3929375E1,1.7276219E0,-2.4109323E-1,-1.4905666E0,-1.6389323E0,1.9301836E-1,-3.430584E-1,1.6122249E0,-1.5410525E0,-5.546448E-1,3.8910363E0,7.5440545E0,6.838198E-1,3.4127975E0,1.1291486E1,1.9818381E0,7.107361E-1,5.653018E0,-2.2781454E-1,2.944182E0,-1.3917305E0,-1.973463E0,6.4418197E-1,-3.224847E-2,-9.9430335E-1,5.3178144E-1,6.910999E-1,2.3144855E0,4.2470476E-1,-1.6755626E0,2.980284E-1,-1.2198831E0,3.1975012E0,4.9824758E0,7.68761E0,2.4418195E-1,4.9778646E-1,4.538561E0,2.911806E0,7.1796455E0,4.8282337E0,1.2261522E1,3.4052274E0,-3.4411913E-1,7.074704E-1,-1.6863466E-3,5.6331366E-1,-1.21686354E-1,-1.662191E-1,-9.126028E-2,-1.6863466E-3,-2.011497E-1,7.831365E-2,1.8313646E-2,-6.462714E-2,-1.91651E-1,1.7223515E-1,1.2063801E-2,5.1033884E-2,2.570489E-1,-2.2469817E-1,2.4896382E-1,-2.6686354E-2,7.441821E-2,-1.6698163E-2,-1.8120125E-1,-2.2469817E-1,6.250553E-2,-7.6612346E-2,-2.0596312E-1,2.7289948E-1,6.154696E-1,1.4796457E-1,5.289066E-1,7.7858055E-1,-1.0168635E-1,-9.6686356E-2,1.3331364E-1,3.4378298E-2,3.5718942E-1,6.8747044E-1,-8.915138E-3,3.9789474E-1,1.2066889E-1,-1.4891514E-1,9.5329887E-1,7.733018E-1,-1.6224848E-1,1.2688507E0,3.4775153E-1,-1.21686354E-1,4.5730183E-1,-1.3542096E-1,3.0247045E-1],"categories":[],"categories_nodes":[],"categories_segments":[],"categories_sizes":[],"default_left":[0,0,0,0,0,0,0,0,0,0,0,0,0,0,0,0,0,0,0,0,0,0,0,0,0,0,0,0,0,0,0,0,0,0,0,0,0,0,0,0,0,0,0,0,0,0,0,0,0,0,0,0,0,0,0,0,0,0,0,0,0,0,0,0,0,0,0,0,0,0,0,0,0,0,0,0,0,0,0,0,0,0,0,0,0,0,0,0,0,0,0,0,0,0,0,0,0,0,0,0,0,0,0,0,0,0,0],"id":0,"left_children":[1,3,5,7,9,11,13,15,17,19,21,23,25,27,29,-1,31,33,35,37,39,41,43,45,47,49,51,53,-1,55,57,-1,59,61,63,65,-1,67,69,71,73,75,77,79,81,83,85,87,89,91,93,95,97,99,101,103,105,-1,-1,-1,-1,-1,-1,-1,-1,-1,-1,-1,-1,-1,-1,-1,-1,-1,-1,-1,-1,-1,-1,-1,-1,-1,-1,-1,-1,-1,-1,-1,-1,-1,-1,-1,-1,-1,-1,-1,-1,-1,-1,-1,-1,-1,-1,-1,-1,-1,-1],"loss_changes":[1.883507E4,2.6574663E3,3.0020918E3,7.4634766E1,2.626496E2,1.3192842E3,2.4686973E3,8.44873E0,1.3665619E1,3.9479498E2,3.0947136E1,9.7395215E2,3.9916058E2,6.4615625E2,9.577419E1,0E0,6.6083405E1,7.838623E0,1.3706198E0,1.1447575E2,1.3683063E2,1.3932327E1,5.3683254E1,1.9601514E2,1.05012695E2,9.3116425E1,1.5082556E2,1.9785156E2,0E0,6.086006E1,4.0423264E1,0E0,4.042134E1,8.461136E0,3.835785E0,4.8772216E-2,0E0,3.567151E1,4.1888786E1,3.0621895E1,1.02267395E2,1.0823565E0,9.372177E0,3.636053E1,1.8617393E1,2.242749E2,1.0708496E2,9.3390625E1,5.245281E0,5.937024E1,6.5478905E1,1.4440588E2,2.1820258E2,1.4371234E2,8.714795E1,3.7950546E1,5.8541145E1,0E0,0E0,0E0,0E0,0E0,0E0,0E0,0E0,0E0,0E0,0E0,0E0,0E0,0E0,0E0,0E0,0E0,0E0,0E0,0E0,0E0,0E0,0E0,0E0,0E0,0E0,0E0,0E0,0E0,0E0,0E0,0E0,0E0,0E0,0E0,0E0,0E0,0E0,0E0,0E0,0E0,0E0,0E0,0E0,0E0,0E0,0E0,0E0,0E0,0E0],"parents":[2147483647,0,0,1,1,2,2,3,3,4,4,5,5,6,6,7,7,8,8,9,9,10,10,11,11,12,12,13,13,14,14,16,16,17,17,18,18,19,19,20,20,21,21,22,22,23,23,24,24,25,25,26,26,27,27,29,29,30,30,32,32,33,33,34,34,35,35,37,37,38,38,39,39,40,40,41,41,42,42,43,43,44,44,45,45,46,46,47,47,48,48,49,49,50,50,51,51,52,52,53,53,54,54,55,55,56,56],"right_children":[2,4,6,8,10,12,14,16,18,20,22,24,26,28,30,-1,32,34,36,38,40,42,44,46,48,50,52,54,-1,56,58,-1,60,62,64,66,-1,68,70,72,74,76,78,80,82,84,86,88,90,92,94,96,98,100,102,104,106,-1,-1,-1,-1,-1,-1,-1,-1,-1,-1,-1,-1,-1,-1,-1,-1,-1,-1,-1,-1,-1,-1,-1,-1,-1,-1,-1,-1,-1,-1,-1,-1,-1,-1,-1,-1,-1,-1,-1,-1,-1,-1,-1,-1,-1,-1,-1,-1,-1,-1],"split_conditions":[3.6833334E0,1.23E0,1.2035E1,7.3E-1,2.9E0,5.73E0,1.495E1,4.935065E-1,9.025E-1,2.06E0,2.47E0,7.42E0,1E0,1.883E1,4.868421E-1,-2.4109323E-1,3.2857144E-1,8.1E-1,4.7E-1,2.5E-1,1E-2,5.609756E-1,4.58E0,1.16E0,1E-2,1.0235E1,1E-2,1.234375E0,1.9818381E0,1.3105E1,4.0425533E-1,-2.2781454E-1,5.30303E-1,1E-2,-6.8E-1,1.3333334E-2,-3.224847E-2,1.5E0,3.5E-1,2.5E-1,2.1052632E-1,1.3333334E-2,2.51E0,1.0344828E-1,7.8947365E-2,5E-1,-2.9411766E-1,5.31E0,1.8367347E-1,2.97E-1,1.617E1,2.4266667E0,1.63E-1,7.4074075E-2,3.9130434E-1,1.6438356E-1,7.5E-1,7.074704E-1,-1.6863466E-3,5.6331366E-1,-1.21686354E-1,-1.662191E-1,-9.126028E-2,-1.6863466E-3,-2.011497E-1,7.831365E-2,1.8313646E-2,-6.462714E-2,-1.91651E-1,1.7223515E-1,1.2063801E-2,5.1033884E-2,2.570489E-1,-2.2469817E-1,2.4896382E-1,-2.6686354E-2,7.441821E-2,-1.6698163E-2,-1.8120125E-1,-2.2469817E-1,6.250553E-2,-7.6612346E-2,-2.0596312E-1,2.7289948E-1,6.154696E-1,1.4796457E-1,5.289066E-1,7.7858055E-1,-1.0168635E-1,-9.6686356E-2,1.3331364E-1,3.4378298E-2,3.5718942E-1,6.8747044E-1,-8.915138E-3,3.9789474E-1,1.2066889E-1,-1.4891514E-1,9.5329887E-1,7.733018E-1,-1.6224848E-1,1.2688507E0,3.4775153E-1,-1.21686354E-1,4.5730183E-1,-1.3542096E-1,3.0247045E-1],"split_indices":[10,10,10,10,12,12,12,0,13,10,10,10,7,10,0,0,3,12,12,11,12,4,12,12,13,10,13,4,0,10,3,0,0,12,13,0,0,12,12,11,5,0,9,1,2,11,2,12,0,8,12,4,8,2,2,0,1,0,0,0,0,0,0,0,0,0,0,0,0,0,0,0,0,0,0,0,0,0,0,0,0,0,0,0,0,0,0,0,0,0,0,0,0,0,0,0,0,0,0,0,0,0,0,0,0,0,0],"split_type":[0,0,0,0,0,0,0,0,0,0,0,0,0,0,0,0,0,0,0,0,0,0,0,0,0,0,0,0,0,0,0,0,0,0,0,0,0,0,0,0,0,0,0,0,0,0,0,0,0,0,0,0,0,0,0,0,0,0,0,0,0,0,0,0,0,0,0,0,0,0,0,0,0,0,0,0,0,0,0,0,0,0,0,0,0,0,0,0,0,0,0,0,0,0,0,0,0,0,0,0,0,0,0,0,0,0,0],"sum_hessian":[2.624E3,1.943E3,6.81E2,1.389E3,5.54E2,6.02E2,7.9E1,1.258E3,1.31E2,4.12E2,1.42E2,3.8E2,2.22E2,5.5E1,2.4E1,1.242E3,1.6E1,1.27E2,4E0,1.99E2,2.13E2,4.9E1,9.3E1,2.79E2,1.01E2,1.32E2,9E1,4E1,1.5E1,2E1,4E0,1.4E1,2E0,7.6E1,5.1E1,2E0,2E0,1.14E2,8.5E1,9.3E1,1.2E2,3E0,4.6E1,4.1E1,5.2E1,1.73E2,1.06E2,9.9E1,2E0,1.27E2,5E0,8.1E1,9E0,6E0,3.4E1,5E0,1.5E1,3E0,1E0,1E0,1E0,4.7E1,2.9E1,1E0,5E1,1E0,1E0,8.4E1,3E1,2.1E1,6.4E1,8.6E1,7E0,4E0,1.16E2,1E0,2E0,4E0,4.2E1,4E0,3.7E1,3.5E1,1.7E1,1.51E2,2.2E1,9E0,9.7E1,9.8E1,1E0,1E0,1E0,1.22E2,5E0,3E0,2E0,4.9E1,3.2E1,2E0,7E0,4E0,2E0,3.2E1,2E0,1E0,4E0,1.2E1,3E0],"tree_param":{"num_deleted":"0","num_feature":"14","num_nodes":"107","size_leaf_vector":"1"}},{"base_weights":[3.555122E-3,-1.4280434E0,4.084235E0,-2.0922844E0,2.3812458E-1,3.3816228E0,9.329124E0,-2.1603997E0,-1.4267603E0,6.18946E-1,-7.7562535E-1,4.397281E0,1.6311858E0,1.2611608E1,1.6031978E0,-2.1700332E0,-1.3289328E0,-1.4786353E0,1.8659231E-1,-2.7632046E-1,1.5155804E0,1.1884245E0,-8.644796E-1,3.5075228E0,6.7966447E0,6.234839E-1,3.0860558E0,9.9260845E0,1.7318884E0,6.6359895E-1,5.2288733E0,-2.1809831E-1,-1.8137354E0,-2.0725937E-1,2.8323488E0,-1.2559015E0,-1.7800175E0,6.1197287E-1,-3.009857E-2,-8.9215493E-1,5.3860134E-1,6.1898816E-1,2.2598305E0,1.9457224E-1,-4.698802E-1,-1.1943308E0,-3.5784593E-1,2.8828568E0,4.4905543E0,6.925618E0,2.3197286E-1,4.5106697E-1,4.1977973E0,2.6269498E0,6.5421195E0,1.0269532E1,-1.3907394E-1,3.1206405E0,-2.9926655E-1,6.544102E-1,-1.6020298E-3,-1.8659844E-1,-4.9508926E-2,-1.1029563E-1,5.3514796E-1,-1.499435E-1,-8.243846E-2,-1.6020298E-3,-1.8142915E-1,7.439797E-2,1.7397964E-2,-5.6826737E-2,-1.6565819E-1,1.5427832E-1,1.804985E-2,4.598915E-2,2.5079066E-1,-2.067223E-1,2.4426177E-1,-8.762629E-2,1.7144263E-2,-1.3480635E-1,5.115027E-2,3.1899463E-2,-8.310793E-2,2.457891E-1,5.565986E-1,9.160199E-2,4.731612E-1,7.0150894E-1,-9.6602045E-2,-9.185203E-2,1.2664796E-1,3.0968418E-2,3.2742366E-1,6.359102E-1,-8.320793E-3,4.3969783E-1,1.7266332E-1,-1.3898747E-1,8.6988527E-1,4.4327042E-1,1.125625E0,-1.1560203E-1,4.207177E-1,2.8167975E-1,-1.235035E-1],"categories":[],"categories_nodes":[],"categories_segments":[],"categories_sizes":[],"default_left":[0,0,0,0,0,0,0,0,0,0,0,0,0,0,0,0,0,0,0,0,0,0,0,0,0,0,0,0,0,0,0,0,0,0,0,0,0,0,0,0,0,0,0,0,0,0,0,0,0,0,0,0,0,0,0,0,0,0,0,0,0,0,0,0,0,0,0,0,0,0,0,0,0,0,0,0,0,0,0,0,0,0,0,0,0,0,0,0,0,0,0,0,0,0,0,0,0,0,0,0,0,0,0,0,0,0,0],"id":1,"left_children":[1,3,5,7,9,11,13,15,17,19,21,23,25,27,29,31,33,35,37,39,41,43,45,47,49,51,53,55,-1,57,59,-1,61,-1,63,65,67,69,-1,71,73,75,77,-1,79,81,83,85,87,89,91,93,95,97,99,101,-1,103,105,-1,-1,-1,-1,-1,-1,-1,-1,-1,-1,-1,-1,-1,-1,-1,-1,-1,-1,-1,-1,-1,-1,-1,-1,-1,-1,-1,-1,-1,-1,-1,-1,-1,-1,-1,-1,-1,-1,-1,-1,-1,-1,-1,-1,-1,-1,-1,-1],"loss_changes":[1.5340809E4,2.151995E3,2.481707E3,5.9929688E1,2.1474211E2,1.0648687E3,2.0085986E3,7.2006836E0,1.1323334E1,3.247204E2,2.7553528E1,7.8954004E2,3.2501074E2,5.360156E2,8.169715E1,8.935547E-1,5.84782E1,6.356842E0,1.2212261E0,1.02357475E2,1.3339355E2,9.705072E0,2.3971214E1,1.5899268E2,8.475391E1,8.00707E1,1.2720386E2,1.6197827E2,0E0,5.061572E1,3.459601E1,0E0,2.0387726E0,0E0,3.564309E1,6.8557205E0,3.1148224E0,4.4016957E-2,0E0,2.7778885E1,3.1366362E1,2.679506E1,9.205176E1,0E0,9.320964E-1,2.3766838E1,1.9163017E1,1.8472095E2,8.786426E1,7.738428E1,4.733866E0,5.0076912E1,5.6044456E1,1.2308215E2,1.831622E2,1.6319873E2,0E0,3.274407E1,5.0133476E1,0E0,0E0,0E0,0E0,0E0,0E0,0E0,0E0,0E0,0E0,0E0,0E0,0E0,0E0,0E0,0E0,0E0,0E0,0E0,0E0,0E0,0E0,0E0,0E0,0E0,0E0,0E0,0E0,0E0,0E0,0E0,0E0,0E0,0E0,0E0,0E0,0E0,0E0,0E0,0E0,0E0,0E0,0E0,0E0,0E0,0E0,0E0,0E0],"parents":[2147483647,0,0,1,1,2,2,3,3,4,4,5,5,6,6,7,7,8,8,9,9,10,10,11,11,12,12,13,13,14,14,15,15,16,16,17,17,18,18,19,19,20,20,21,21,22,22,23,23,24,24,25,25,26,26,27,27,29,29,30,30,32,32,34,34,35,35,36,36,37,37,39,39,40,40,41,41,42,42,44,44,45,45,46,46,47,47,48,48,49,49,50,50,51,51,52,52,53,53,54,54,55,55,57,57,58,58],"right_children":[2,4,6,8,10,12,14,16,18,20,22,24,26,28,30,32,34,36,38,40,42,44,46,48,50,52,54,56,-1,58,60,-1,62,-1,64,66,68,70,-1,72,74,76,78,-1,80,82,84,86,88,90,92,94,96,98,100,102,-1,104,106,-1,-1,-1,-1,-1,-1,-1,-1,-1,-1,-1,-1,-1,-1,-1,-1,-1,-1,-1,-1,-1,-1,-1,-1,-1,-1,-1,-1,-1,-1,-1,-1,-1,-1,-1,-1,-1,-1,-1,-1,-1,-1,-1,-1,-1,-1,-1,-1],"split_conditions":[3.6833334E0,1.23E0,1.2035E1,7.3E-1,2.8E0,5.73E0,1.495E1,4.935065E-1,9.025E-1,2.0833333E0,1.39E-1,7.42E0,1E0,1.735E1,4.868421E-1,6E-1,2.61E-1,8.1E-1,4.7E-1,2.5E-1,1E-2,2.3943663E-1,2.5E-1,1.16E0,1E-2,1.0235E1,1E-2,5.833333E-1,1.7318884E0,1.3105E1,4.0425533E-1,-2.1809831E-1,2.79E-1,-2.0725937E-1,2.5333333E-1,1E-2,-6.8E-1,1.3333334E-2,-3.009857E-2,1.48E0,3.5E-1,2.5E-1,2.1052632E-1,1.9457224E-1,2.5490198E-1,3.54E0,3.82E0,5E-1,-3.2352942E-1,5.31E0,1.8367347E-1,2.97E-1,1.617E1,2.78E0,1.63E-1,1.234375E0,-1.3907394E-1,1.6438356E-1,1.2972972E0,6.544102E-1,-1.6020298E-3,-1.8659844E-1,-4.9508926E-2,-1.1029563E-1,5.3514796E-1,-1.499435E-1,-8.243846E-2,-1.6020298E-3,-1.8142915E-1,7.439797E-2,1.7397964E-2,-5.6826737E-2,-1.6565819E-1,1.5427832E-1,1.804985E-2,4.598915E-2,2.5079066E-1,-2.067223E-1,2.4426177E-1,-8.762629E-2,1.7144263E-2,-1.3480635E-1,5.115027E-2,3.1899463E-2,-8.310793E-2,2.457891E-1,5.565986E-1,9.160199E-2,4.731612E-1,7.0150894E-1,-9.6602045E-2,-9.185203E-2,1.2664796E-1,3.0968418E-2,3.2742366E-1,6.359102E-1,-8.320793E-3,4.3969783E-1,1.7266332E-1,-1.3898747E-1,8.6988527E-1,4.4327042E-1,1.125625E0,-1.1560203E-1,4.207177E-1,2.8167975E-1,-1.235035E-1],"split_indices":[10,10,10,10,12,12,12,0,13,10,8,10,7,10,0,10,8,12,12,11,12,0,11,12,13,10,13,0,0,10,3,0,8,0,1,12,13,0,0,12,12,11,5,0,0,9,12,11,2,12,0,8,12,9,8,4,0,0,4,0,0,0,0,0,0,0,0,0,0,0,0,0,0,0,0,0,0,0,0,0,0,0,0,0,0,0,0,0,0,0,0,0,0,0,0,0,0,0,0,0,0,0,0,0,0,0,0],"split_type":[0,0,0,0,0,0,0,0,0,0,0,0,0,0,0,0,0,0,0,0,0,0,0,0,0,0,0,0,0,0,0,0,0,0,0,0,0,0,0,0,0,0,0,0,0,0,0,0,0,0,0,0,0,0,0,0,0,0,0,0,0,0,0,0,0,0,0,0,0,0,0,0,0,0,0,0,0,0,0,0,0,0,0,0,0,0,0,0,0,0,0,0,0,0,0,0,0,0,0,0,0,0,0,0,0,0,0],"sum_hessian":[2.624E3,1.943E3,6.81E2,1.389E3,5.54E2,6.02E2,7.9E1,1.258E3,1.31E2,4.03E2,1.51E2,3.8E2,2.22E2,5.5E1,2.4E1,1.242E3,1.6E1,1.27E2,4E0,2.02E2,2.01E2,6E0,1.45E2,2.79E2,1.01E2,1.32E2,9E1,3.7E1,1.8E1,2E1,4E0,1.2E3,4.2E1,1.4E1,2E0,7.6E1,5.1E1,2E0,2E0,1.15E2,8.7E1,9.2E1,1.09E2,4E0,2E0,8.7E1,5.8E1,1.73E2,1.06E2,9.9E1,2E0,1.27E2,5E0,8.1E1,9E0,3.6E1,1E0,5E0,1.5E1,3E0,1E0,4E1,2E0,1E0,1E0,4.7E1,2.9E1,1E0,5E1,1E0,1E0,8.2E1,3.3E1,2.2E1,6.5E1,8.6E1,6E0,4E0,1.05E2,1E0,1E0,8E1,7E0,2.4E1,3.4E1,1.51E2,2.2E1,7E0,9.9E1,9.8E1,1E0,1E0,1E0,1.22E2,5E0,3E0,2E0,2.6E1,5.5E1,2E0,7E0,6E0,3E1,1E0,4E0,3E0,1.2E1],"tree_param":{"num_deleted":"0","num_feature":"14","num_nodes":"107","size_leaf_vector":"1"}},{"base_weights":[6.3603544E-3,-1.2642215E0,3.7531343E0,-1.8724772E0,2.7233762E-1,3.457092E0,1.4202145E1,-1.9445477E0,-1.2424827E0,6.4288765E-1,-6.928495E-1,4.4766574E0,1.8985375E0,1.6336764E0,-1.9165349E-1,-1.9533952E0,-1.1832399E0,-1.2894182E0,7.540578E-2,-1.7404217E-2,1.6152033E0,-1.2546245E0,-3.8007253E-1,3.240049E0,7.0217323E0,7.1721584E-1,3.3612485E0,-1.9630663E-1,-1.6378527E0,-1.8791515E-1,2.6907315E0,-1.0607115E0,-1.59318E0,5.813742E-1,-3.2292202E-2,-5.420033E-1,6.907189E-1,6.0688275E-1,2.4467633E0,4.2774633E-1,-1.3599102E0,3.6576122E-1,-9.622207E-1,2.6769955E0,4.1135855E0,6.3453507E0,1.0133691E1,5.239057E-1,4.4257283E0,2.9667141E0,7.6783533E0,-1.6839369E-1,-4.6208337E-2,-1.0478085E-1,5.083906E-1,-1.3390015E-1,-6.328484E-2,-1.5219331E-3,-1.6201238E-1,7.067807E-2,1.652807E-2,-9.882929E-2,-1.129797E-2,1.6909069E-1,2.947699E-2,2.5924822E-2,9.385466E-2,-1.62673E-1,2.6077774E-1,-2.1196634E-2,7.116394E-2,-1.8671992E-1,-1.03642784E-1,-2.9111689E-2,1.4648026E-1,-5.839878E-2,-1.7492817E-1,2.3183556E-1,5.008766E-1,2.5146265E-2,4.3523484E-1,5.663556E-1,8.589143E-1,1.0876113E0,-2.3573747E-1,7.730152E-2,-6.915732E-2,8.3624505E-2,6.908779E-1,4.2037487E-1,1.0277847E-1,1.067638E0,1.2617238E-1],"categories":[],"categories_nodes":[],"categories_segments":[],"categories_sizes":[],"default_left":[0,0,0,0,0,0,0,0,0,0,0,0,0,0,0,0,0,0,0,0,0,0,0,0,0,0,0,0,0,0,0,0,0,0,0,0,0,0,0,0,0,0,0,0,0,0,0,0,0,0,0,0,0,0,0,0,0,0,0,0,0,0,0,0,0,0,0,0,0,0,0,0,0,0,0,0,0,0,0,0,0,0,0,0,0,0,0,0,0,0,0,0,0],"id":2,"left_children":[1,3,5,7,9,11,13,15,17,19,21,23,25,-1,-1,27,29,31,33,35,37,39,41,43,45,47,49,-1,51,-1,53,55,57,59,-1,61,63,65,67,69,71,73,75,77,79,81,83,85,87,89,91,-1,-1,-1,-1,-1,-1,-1,-1,-1,-1,-1,-1,-1,-1,-1,-1,-1,-1,-1,-1,-1,-1,-1,-1,-1,-1,-1,-1,-1,-1,-1,-1,-1,-1,-1,-1,-1,-1,-1,-1,-1,-1],"loss_changes":[1.2501274E4,1.8333015E3,2.0079775E3,6.1376465E1,1.9965654E2,1.0212041E3,6.5064014E2,6.168457E0,9.190048E0,2.5875897E2,2.675824E1,1.2078281E3,4.433957E2,0E0,0E0,5.78125E-1,5.08873E1,8.175156E0,1.3969864E0,8.990123E1,1.3518716E2,1.0323822E1,4.4204704E1,1.1932764E2,2.030166E2,1.0091394E2,1.73094E2,0E0,1.5518188E0,0E0,3.2167892E1,9.154503E0,2.4838104E0,3.9725304E-2,0E0,2.650251E1,4.029199E1,8.404022E0,6.2616394E1,8.7728333E-1,6.5979385E0,3.291356E1,1.5946911E1,1.2553552E2,9.296301E1,1.1504443E2,2.2038574E2,4.2319237E1,5.661267E1,2.5232147E2,1.5966443E2,0E0,0E0,0E0,0E0,0E0,0E0,0E0,0E0,0E0,0E0,0E0,0E0,0E0,0E0,0E0,0E0,0E0,0E0,0E0,0E0,0E0,0E0,0E0,0E0,0E0,0E0,0E0,0E0,0E0,0E0,0E0,0E0,0E0,0E0,0E0,0E0,0E0,0E0,0E0,0E0,0E0,0E0],"parents":[2147483647,0,0,1,1,2,2,3,3,4,4,5,5,6,6,7,7,8,8,9,9,10,10,11,11,12,12,15,15,16,16,17,17,18,18,19,19,20,20,21,21,22,22,23,23,24,24,25,25,26,26,28,28,30,30,31,31,32,32,33,33,35,35,36,36,37,37,38,38,39,39,40,40,41,41,42,42,43,43,44,44,45,45,46,46,47,47,48,48,49,49,50,50],"right_children":[2,4,6,8,10,12,14,16,18,20,22,24,26,-1,-1,28,30,32,34,36,38,40,42,44,46,48,50,-1,52,-1,54,56,58,60,-1,62,64,66,68,70,72,74,76,78,80,82,84,86,88,90,92,-1,-1,-1,-1,-1,-1,-1,-1,-1,-1,-1,-1,-1,-1,-1,-1,-1,-1,-1,-1,-1,-1,-1,-1,-1,-1,-1,-1,-1,-1,-1,-1,-1,-1,-1,-1,-1,-1,-1,-1,-1,-1],"split_conditions":[3.75E0,1.3066666E0,1.883E1,7.3E-1,2.8E0,5.48E0,9.7E0,4.935065E-1,9.025E-1,2.47E0,2.47E0,7.53E0,1E0,1.6336764E0,-1.9165349E-1,6E-1,2.61E-1,8.1E-1,4.7E-1,2.5E-1,1E-2,5.609756E-1,4.58E0,1.16E0,1.353E1,2.97E-1,4.935065E-1,-1.9630663E-1,2.79E-1,-1.8791515E-1,2.5333333E-1,1E-2,-6.8E-1,1.3333334E-2,-3.2292202E-2,1.83E0,3.5E-1,2.9033334E0,2.1052632E-1,1.3333334E-2,9.69697E-1,3.075E0,7.8947365E-2,5E-1,-3.2352942E-1,1.24E0,4E0,2.48E-1,1.5945946E0,2.4266667E0,2.49E-1,-1.6839369E-1,-4.6208337E-2,-1.0478085E-1,5.083906E-1,-1.3390015E-1,-6.328484E-2,-1.5219331E-3,-1.6201238E-1,7.067807E-2,1.652807E-2,-9.882929E-2,-1.129797E-2,1.6909069E-1,2.947699E-2,2.5924822E-2,9.385466E-2,-1.62673E-1,2.6077774E-1,-2.1196634E-2,7.116394E-2,-1.8671992E-1,-1.03642784E-1,-2.9111689E-2,1.4648026E-1,-5.839878E-2,-1.7492817E-1,2.3183556E-1,5.008766E-1,2.5146265E-2,4.3523484E-1,5.663556E-1,8.589143E-1,1.0876113E0,-2.3573747E-1,7.730152E-2,-6.915732E-2,8.3624505E-2,6.908779E-1,4.2037487E-1,1.0277847E-1,1.067638E0,1.2617238E-1],"split_indices":[10,10,10,10,12,12,12,0,13,10,10,10,7,0,0,10,8,12,12,11,12,4,12,12,10,8,0,0,8,0,1,12,13,0,0,10,12,10,5,0,5,10,2,11,2,12,12,8,4,4,8,0,0,0,0,0,0,0,0,0,0,0,0,0,0,0,0,0,0,0,0,0,0,0,0,0,0,0,0,0,0,0,0,0,0,0,0,0,0,0,0,0,0],"split_type":[0,0,0,0,0,0,0,0,0,0,0,0,0,0,0,0,0,0,0,0,0,0,0,0,0,0,0,0,0,0,0,0,0,0,0,0,0,0,0,0,0,0,0,0,0,0,0,0,0,0,0,0,0,0,0,0,0,0,0,0,0,0,0,0,0,0,0,0,0,0,0,0,0,0,0,0,0,0,0,0,0,0,0,0,0,0,0,0,0,0,0,0,0],"sum_hessian":[2.624E3,1.96E3,6.64E2,1.404E3,5.56E2,6.47E2,1.7E1,1.258E3,1.46E2,4.02E2,1.54E2,3.9E2,2.57E2,1.5E1,2E0,1.242E3,1.6E1,1.41E2,5E0,2.4E2,1.62E2,5.4E1,1E2,2.64E2,1.26E2,1.43E2,1.14E2,1.2E3,4.2E1,1.4E1,2E0,8.3E1,5.8E1,2E0,3E0,1.38E2,1.02E2,7.4E1,8.8E1,3E0,5.1E1,4.4E1,5.6E1,1.63E2,1.01E2,1.06E2,2E1,1.37E2,6E0,1.06E2,8E0,4E1,2E0,1E0,1E0,4.9E1,3.4E1,1E0,5.7E1,1E0,1E0,6.7E1,7.1E1,2.8E1,7.4E1,3.7E1,3.7E1,3E0,8.5E1,1E0,2E0,1.8E1,3.3E1,2.8E1,1.6E1,3.9E1,1.7E1,1.43E2,2E1,6E0,9.5E1,8.4E1,2.2E1,1.9E1,1E0,1.14E2,2.3E1,3E0,3E0,6.4E1,4.2E1,5E0,3E0],"tree_param":{"num_deleted":"0","num_feature":"14","num_nodes":"93","size_leaf_vector":"1"}},{"base_weights":[8.337935E-3,-1.1380804E0,3.3889666E0,-1.6855861E0,2.4501401E-1,2.7950103E0,7.697333E0,-1.750248E0,-1.1203147E0,5.6681186E-1,-6.647513E-1,3.6472535E0,1.350168E0,1.041874E1,1.2934873E0,-1.7583864E0,-1.0522281E0,-1.1630167E0,7.7017486E-2,-2.5525602E-2,1.444767E0,-1.2188983E0,-3.8089463E-1,2.7213151E0,5.118648E0,5.390142E-1,2.5068328E0,8.452839E0,1.4805192E0,4.9694088E-1,4.3802853E0,-1.7729987E-1,-1.5756117E0,-1.7086954E-1,2.5808513E0,-9.5698774E-1,-1.4366338E0,5.523055E-1,-2.9870292E-2,-4.8940518E-1,6.064773E-1,9.2761797E-1,2.949502E0,-5.8373284E-1,-1.5688739E0,8.259413E-1,-6.62757E-1,2.3343132E0,4.5369325E0,5.2380195E0,-2.793194E-1,3.392769E-1,3.1866736E0,2.0843897E0,5.677939E0,3.623684E0,9.17716E0,2.72934E0,-3.7126762E-1,5.514509E-1,-7.830548E-3,-8.180832E-2,-1.6233204E-1,4.82971E-1,-9.584331E-2,-1.2077794E-1,-5.7137158E-2,-1.5391834E-1,-7.802223E-2,6.714417E-2,1.5701665E-2,-1.0607644E-1,-1.895525E-2,1.5276468E-1,2.5166703E-2,4.3208215E-2,1.6149648E-1,4.3134817E-1,1.3801184E-1,-1.1610826E-1,5.199021E-3,-1.735798E-1,-5.8405776E-2,-1.8634073E-1,1.2519474E-1,-9.6047446E-2,7.193683E-3,1.6867465E-1,3.184906E-1,8.481769E-2,5.05445E-1,4.6419874E-1,6.8594295E-1,-1.0294514E-1,9.855383E-2,5.399696E-2,-1.545404E-1,5.2740043E-1,-7.409901E-2,3.08107E-1,8.754862E-2,-1.4716008E-1,7.649274E-1,6.12737E-1,-1.7570208E-1,1.2023143E0,7.371788E-1,-1.13687E-1,3.7299562E-1,2.4617934E-1,-1.2144196E-1],"categories":[],"categories_nodes":[],"categories_segments":[],"categories_sizes":[],"default_left":[0,0,0,0,0,0,0,0,0,0,0,0,0,0,0,0,0,0,0,0,0,0,0,0,0,0,0,0,0,0,0,0,0,0,0,0,0,0,0,0,0,0,0,0,0,0,0,0,0,0,0,0,0,0,0,0,0,0,0,0,0,0,0,0,0,0,0,0,0,0,0,0,0,0,0,0,0,0,0,0,0,0,0,0,0,0,0,0,0,0,0,0,0,0,0,0,0,0,0,0,0,0,0,0,0,0,0,0,0,0,0],"id":3,"left_children":[1,3,5,7,9,11,13,15,17,19,21,23,25,27,29,31,33,35,37,39,41,43,45,47,49,51,53,55,-1,57,59,-1,61,-1,63,65,67,69,-1,71,73,75,77,79,81,83,85,87,89,91,93,95,97,99,101,103,105,107,109,-1,-1,-1,-1,-1,-1,-1,-1,-1,-1,-1,-1,-1,-1,-1,-1,-1,-1,-1,-1,-1,-1,-1,-1,-1,-1,-1,-1,-1,-1,-1,-1,-1,-1,-1,-1,-1,-1,-1,-1,-1,-1,-1,-1,-1,-1,-1,-1,-1,-1,-1,-1],"loss_changes":[1.0177345E4,1.485384E3,1.6802075E3,4.9394287E1,1.6344443E2,7.166509E2,1.3807212E3,5.3015137E0,7.605438E0,2.1429568E2,2.2501282E1,4.874419E2,2.0412186E2,3.5776025E2,5.9292698E1,5.263672E-1,4.4954857E1,6.630142E0,1.2364278E0,7.27106E1,1.2644061E2,9.976517E0,3.388324E1,1.4961304E2,9.2318115E1,6.766756E1,1.0872998E2,1.1015723E2,0E0,4.171526E1,2.571701E1,0E0,2.3221893E0,0E0,2.8507006E1,7.433487E0,2.770668E0,3.5852015E-2,0E0,2.4298206E1,3.393378E1,4.1877815E1,8.395236E1,7.0340214E0,4.0822678E0,2.4100788E1,1.7567589E1,9.928284E1,7.01637E1,1.0152344E2,4.8098044E0,4.697996E1,7.7692955E1,9.489871E1,1.5219806E2,1.0506707E2,9.119995E1,2.7452023E1,4.120887E1,0E0,0E0,0E0,0E0,0E0,0E0,0E0,0E0,0E0,0E0,0E0,0E0,0E0,0E0,0E0,0E0,0E0,0E0,0E0,0E0,0E0,0E0,0E0,0E0,0E0,0E0,0E0,0E0,0E0,0E0,0E0,0E0,0E0,0E0,0E0,0E0,0E0,0E0,0E0,0E0,0E0,0E0,0E0,0E0,0E0,0E0,0E0,0E0,0E0,0E0,0E0,0E0],"parents":[2147483647,0,0,1,1,2,2,3,3,4,4,5,5,6,6,7,7,8,8,9,9,10,10,11,11,12,12,13,13,14,14,15,15,16,16,17,17,18,18,19,19,20,20,21,21,22,22,23,23,24,24,25,25,26,26,27,27,29,29,30,30,32,32,34,34,35,35,36,36,37,37,39,39,40,40,41,41,42,42,43,43,44,44,45,45,46,46,47,47,48,48,49,49,50,50,51,51,52,52,53,53,54,54,55,55,56,56,57,57,58,58],"right_children":[2,4,6,8,10,12,14,16,18,20,22,24,26,28,30,32,34,36,38,40,42,44,46,48,50,52,54,56,-1,58,60,-1,62,-1,64,66,68,70,-1,72,74,76,78,80,82,84,86,88,90,92,94,96,98,100,102,104,106,108,110,-1,-1,-1,-1,-1,-1,-1,-1,-1,-1,-1,-1,-1,-1,-1,-1,-1,-1,-1,-1,-1,-1,-1,-1,-1,-1,-1,-1,-1,-1,-1,-1,-1,-1,-1,-1,-1,-1,-1,-1,-1,-1,-1,-1,-1,-1,-1,-1,-1,-1,-1,-1],"split_conditions":[3.75E0,1.3066666E0,1.2035E1,7.3E-1,2.9E0,5.73E0,1.495E1,4.935065E-1,9.025E-1,2.47E0,2.47E0,6.355E0,1E0,1.883E1,3.108108E0,4E-1,3.2857144E-1,8.1E-1,4.7E-1,2.5E-1,2.5E-1,9.516129E-1,3.41E0,2.5E-1,1E-2,1.0033334E1,1E-2,1.234375E0,1.4805192E0,1.3105E1,4.6666667E-1,-1.7729987E-1,5E-1,-1.7086954E-1,5.30303E-1,1E-2,3.49E0,1.3333334E-2,-2.9870292E-2,1.615E0,3.5E-1,7E-2,1.0416666E0,3.3333334E-1,1.617647E0,1.0344828E-1,3.3333334E-1,1.31E0,7.3913044E-1,1.14E0,2.7631578E-1,2.9333332E-1,1.617E1,2.2972972E0,1.63E-1,7.4074075E-2,2.11E-1,1.6438356E-1,1.2972972E0,5.514509E-1,-7.830548E-3,-8.180832E-2,-1.6233204E-1,4.82971E-1,-9.584331E-2,-1.2077794E-1,-5.7137158E-2,-1.5391834E-1,-7.802223E-2,6.714417E-2,1.5701665E-2,-1.0607644E-1,-1.895525E-2,1.5276468E-1,2.5166703E-2,4.3208215E-2,1.6149648E-1,4.3134817E-1,1.3801184E-1,-1.1610826E-1,5.199021E-3,-1.735798E-1,-5.8405776E-2,-1.8634073E-1,1.2519474E-1,-9.6047446E-2,7.193683E-3,1.6867465E-1,3.184906E-1,8.481769E-2,5.05445E-1,4.6419874E-1,6.8594295E-1,-1.0294514E-1,9.855383E-2,5.399696E-2,-1.545404E-1,5.2740043E-1,-7.409901E-2,3.08107E-1,8.754862E-2,-1.4716008E-1,7.649274E-1,6.12737E-1,-1.7570208E-1,1.2023143E0,7.371788E-1,-1.13687E-1,3.7299562E-1,2.4617934E-1,-1.2144196E-1],"split_indices":[10,10,10,10,12,12,12,0,13,10,10,10,7,10,4,10,3,12,12,11,11,4,12,11,13,10,13,4,0,10,6,0,11,0,0,12,9,0,0,10,12,12,5,11,6,1,11,12,4,12,0,0,12,4,8,2,8,0,4,0,0,0,0,0,0,0,0,0,0,0,0,0,0,0,0,0,0,0,0,0,0,0,0,0,0,0,0,0,0,0,0,0,0,0,0,0,0,0,0,0,0,0,0,0,0,0,0,0,0,0,0],"split_type":[0,0,0,0,0,0,0,0,0,0,0,0,0,0,0,0,0,0,0,0,0,0,0,0,0,0,0,0,0,0,0,0,0,0,0,0,0,0,0,0,0,0,0,0,0,0,0,0,0,0,0,0,0,0,0,0,0,0,0,0,0,0,0,0,0,0,0,0,0,0,0,0,0,0,0,0,0,0,0,0,0,0,0,0,0,0,0,0,0,0,0,0,0,0,0,0,0,0,0,0,0,0,0,0,0,0,0,0,0,0,0],"sum_hessian":[2.624E3,1.96E3,6.64E2,1.404E3,5.56E2,5.85E2,7.9E1,1.258E3,1.46E2,4.11E2,1.45E2,3.67E2,2.18E2,5.5E1,2.4E1,1.242E3,1.6E1,1.41E2,5E0,2.46E2,1.65E2,4.8E1,9.7E1,2.27E2,1.4E2,1.29E2,8.9E1,4E1,1.5E1,2E1,4E0,1.142E3,1E2,1.4E1,2E0,8.3E1,5.8E1,2E0,3E0,1.42E2,1.04E2,1.24E2,4.1E1,1.8E1,3E1,1.8E1,7.9E1,1.89E2,3.8E1,1.37E2,3E0,1.21E2,8E0,8E1,9E0,6E0,3.4E1,5E0,1.5E1,3E0,1E0,7E0,9.3E1,1E0,1E0,4.9E1,3.4E1,4.9E1,9E0,1E0,1E0,4.8E1,9.4E1,2.8E1,7.6E1,7.3E1,5.1E1,2.1E1,2E1,9E0,9E0,2.5E1,5E0,2E0,1.6E1,5.6E1,2.3E1,1.09E2,8E1,5E0,3.3E1,1.03E2,3.4E1,2E0,1E0,1.1E2,1.1E1,5E0,3E0,4.3E1,3.7E1,2E0,7E0,4E0,2E0,1.1E1,2.3E1,1E0,4E0,3E0,1.2E1],"tree_param":{"num_deleted":"0","num_feature":"14","num_nodes":"111","size_leaf_vector":"1"}},{"base_weights":[1.0607402E-2,-1.0013484E0,3.1378808E0,-1.4900078E0,3.2154113E-1,2.5853052E0,6.9874086E0,-1.5609121E0,-7.995878E-1,6.8688035E-1,-6.0594016E-1,3.4173641E0,1.2428639E0,9.445742E0,1.2012453E0,-1.5827667E0,-1.2706252E0,-4.8173895E-1,-1.1876988E0,1.4770082E-1,1.4441785E0,-6.618111E-1,1.6267378E0,2.7421339E0,5.012357E0,4.6317223E-2,1.9693122E0,7.665519E0,1.3417205E0,4.3855447E-1,4.164298E0,-1.5906279E-1,-9.3428415E-1,-1.3710861E0,-9.8778296E-1,-1.0066938E0,2.4870688E-1,-1.4489372E0,-7.803036E-1,-2.3801084E-1,7.44111E-1,9.3906504E-1,2.8873355E0,8.697109E-1,-7.3215264E-1,-9.368402E-2,2.7935442E-1,2.23637E0,3.4831204E0,5.7055273E0,3.640423E0,3.1027837E0,-1.893894E-1,1.4155245E0,4.132036E0,3.323749E0,8.314858E0,1.8572245E0,-7.802167E-1,5.2425677E-1,-7.4390173E-3,-1.5492876E-1,2.4521609E-1,-4.12732E-2,-1.3935335E-1,-1.12034254E-1,-1.2742857E-2,-1.16255306E-1,-2.540846E-2,3.3896666E-2,-1.3198031E-1,-1.4506221E-2,-1.5630755E-1,-9.610411E-2,-3.321284E-2,-2.9852627E-2,2.5846913E-1,-3.0518591E-2,9.961004E-2,5.2725125E-2,1.5458013E-1,4.3498513E-1,1.1342018E-1,-6.938385E-2,1.2459423E-1,-9.854377E-2,-1.5865553E-2,1.9112623E-1,4.360199E-1,4.2456985E-3,3.7473205E-1,4.4119677E-1,7.932096E-1,-1.5468562E-1,4.14362E-1,-7.277906E-3,6.3026065E-1,5.27896E-2,-6.998465E-2,1.9463904E-1,-3.0378413E-1,6.9084264E-2,5.301912E-1,6.467328E-1,-6.507673E-2,1.092102E0,6.665325E-1,-1.3112627E-1,2.8132543E-1,-1.7947483E-1,9.990773E-2],"categories":[],"categories_nodes":[],"categories_segments":[],"categories_sizes":[],"default_left":[0,0,0,0,0,0,0,0,0,0,0,0,0,0,0,0,0,0,0,0,0,0,0,0,0,0,0,0,0,0,0,0,0,0,0,0,0,0,0,0,0,0,0,0,0,0,0,0,0,0,0,0,0,0,0,0,0,0,0,0,0,0,0,0,0,0,0,0,0,0,0,0,0,0,0,0,0,0,0,0,0,0,0,0,0,0,0,0,0,0,0,0,0,0,0,0,0,0,0,0,0,0,0,0,0,0,0,0,0,0,0],"id":4,"left_children":[1,3,5,7,9,11,13,15,17,19,21,23,25,27,29,31,33,35,37,39,41,43,45,47,49,51,53,55,-1,57,59,-1,61,63,65,67,69,71,73,75,77,79,81,83,85,-1,-1,87,89,91,93,95,97,99,101,103,105,107,109,-1,-1,-1,-1,-1,-1,-1,-1,-1,-1,-1,-1,-1,-1,-1,-1,-1,-1,-1,-1,-1,-1,-1,-1,-1,-1,-1,-1,-1,-1,-1,-1,-1,-1,-1,-1,-1,-1,-1,-1,-1,-1,-1,-1,-1,-1,-1,-1,-1,-1,-1,-1],"loss_changes":[8.310381E3,1.2830206E3,1.3475693E3,6.968579E1,1.8203731E2,6.2461816E2,1.1265991E3,6.3188477E0,1.6328247E1,1.5698976E2,2.0037354E1,3.5996997E2,1.8853152E2,2.930752E2,5.4671062E1,4.7180176E0,1.401886E0,2.9776108E1,5.3614426E0,5.2166683E1,1.13921875E2,1.6688477E1,1.4581899E1,8.4402466E1,7.622974E1,6.0383266E1,1.5583917E2,8.795386E1,0E0,3.775875E1,2.3242233E1,0E0,3.920458E1,9.092102E-1,3.1646347E0,4.9831657E0,5.1192904E0,5.1308594E0,1.7868633E0,2.434434E1,2.3836628E1,2.916845E1,1.0018979E2,4.982277E0,2.0615585E1,0E0,0E0,9.4547E1,8.892505E1,1.5509717E2,1.02987854E2,6.1426117E1,2.8928635E1,2.6360413E2,1.0503299E2,9.166816E1,7.767139E1,3.3980595E1,2.3454893E1,0E0,0E0,0E0,0E0,0E0,0E0,0E0,0E0,0E0,0E0,0E0,0E0,0E0,0E0,0E0,0E0,0E0,0E0,0E0,0E0,0E0,0E0,0E0,0E0,0E0,0E0,0E0,0E0,0E0,0E0,0E0,0E0,0E0,0E0,0E0,0E0,0E0,0E0,0E0,0E0,0E0,0E0,0E0,0E0,0E0,0E0,0E0,0E0,0E0,0E0,0E0,0E0],"parents":[2147483647,0,0,1,1,2,2,3,3,4,4,5,5,6,6,7,7,8,8,9,9,10,10,11,11,12,12,13,13,14,14,15,15,16,16,17,17,18,18,19,19,20,20,21,21,22,22,23,23,24,24,25,25,26,26,27,27,29,29,30,30,32,32,33,33,34,34,35,35,36,36,37,37,38,38,39,39,40,40,41,41,42,42,43,43,44,44,47,47,48,48,49,49,50,50,51,51,52,52,53,53,54,54,55,55,56,56,57,57,58,58],"right_children":[2,4,6,8,10,12,14,16,18,20,22,24,26,28,30,32,34,36,38,40,42,44,46,48,50,52,54,56,-1,58,60,-1,62,64,66,68,70,72,74,76,78,80,82,84,86,-1,-1,88,90,92,94,96,98,100,102,104,106,108,110,-1,-1,-1,-1,-1,-1,-1,-1,-1,-1,-1,-1,-1,-1,-1,-1,-1,-1,-1,-1,-1,-1,-1,-1,-1,-1,-1,-1,-1,-1,-1,-1,-1,-1,-1,-1,-1,-1,-1,-1,-1,-1,-1,-1,-1,-1,-1,-1,-1,-1,-1,-1],"split_conditions":[3.83E0,1.4433334E0,1.2035E1,9.2E-1,2.9E0,5.73E0,1.495E1,6E-1,7E-1,2.6066666E0,1.6225E0,7.42E0,5.263158E-2,1.883E1,4.868421E-1,4.935065E-1,2.31E-1,1E-2,5E-1,2.5E-1,2.5E-1,1.26E-1,4.255319E-2,1.16E0,1.0526316E0,-1.5625E-1,3.26E0,1.234375E0,1.3417205E0,2.3783784E0,4.0425533E-1,-1.5906279E-1,2.61E-1,1.5277778E-1,3.08E0,9.836066E-2,3.75E0,2.55E0,1.3728814E0,3.69E0,3.7777779E-1,7E-2,1.0416666E0,6.451613E-2,3.3333334E-1,-9.368402E-2,2.7935442E-1,5E-1,-2.9411766E-1,1E-2,1.16E0,5.98E0,7.936508E-2,3.17E0,7.09E0,1E-2,2.11E-1,1.76E-1,2.8307693E0,5.2425677E-1,-7.4390173E-3,-1.5492876E-1,2.4521609E-1,-4.12732E-2,-1.3935335E-1,-1.12034254E-1,-1.2742857E-2,-1.16255306E-1,-2.540846E-2,3.3896666E-2,-1.3198031E-1,-1.4506221E-2,-1.5630755E-1,-9.610411E-2,-3.321284E-2,-2.9852627E-2,2.5846913E-1,-3.0518591E-2,9.961004E-2,5.2725125E-2,1.5458013E-1,4.3498513E-1,1.1342018E-1,-6.938385E-2,1.2459423E-1,-9.854377E-2,-1.5865553E-2,1.9112623E-1,4.360199E-1,4.2456985E-3,3.7473205E-1,4.4119677E-1,7.932096E-1,-1.5468562E-1,4.14362E-1,-7.277906E-3,6.3026065E-1,5.27896E-2,-6.998465E-2,1.9463904E-1,-3.0378413E-1,6.9084264E-2,5.301912E-1,6.467328E-1,-6.507673E-2,1.092102E0,6.665325E-1,-1.3112627E-1,2.8132543E-1,-1.7947483E-1,9.990773E-2],"split_indices":[10,10,10,10,12,12,12,10,12,10,13,10,3,10,0,0,8,12,11,11,11,8,0,12,5,2,9,4,0,4,3,0,8,5,9,2,9,9,5,9,6,12,5,1,11,0,0,11,2,12,5,10,0,9,12,12,8,8,4,0,0,0,0,0,0,0,0,0,0,0,0,0,0,0,0,0,0,0,0,0,0,0,0,0,0,0,0,0,0,0,0,0,0,0,0,0,0,0,0,0,0,0,0,0,0,0,0,0,0,0,0],"split_type":[0,0,0,0,0,0,0,0,0,0,0,0,0,0,0,0,0,0,0,0,0,0,0,0,0,0,0,0,0,0,0,0,0,0,0,0,0,0,0,0,0,0,0,0,0,0,0,0,0,0,0,0,0,0,0,0,0,0,0,0,0,0,0,0,0,0,0,0,0,0,0,0,0,0,0,0,0,0,0,0,0,0,0,0,0,0,0,0,0,0,0,0,0,0,0,0,0,0,0,0,0,0,0,0,0,0,0,0,0,0,0],"sum_hessian":[2.624E3,1.983E3,6.41E2,1.448E3,5.35E2,5.62E2,7.9E1,1.312E3,1.36E2,3.84E2,1.51E2,3.46E2,2.16E2,5.5E1,2.4E1,1.216E3,9.6E1,7.6E1,6E1,2.25E2,1.59E2,1.48E2,3E0,2.45E2,1.01E2,8.2E1,1.34E2,4E1,1.5E1,2E1,4E0,1.2E3,1.6E1,6.8E1,2.8E1,4.4E1,3.2E1,3.5E1,2.5E1,1.37E2,8.8E1,1.19E2,4E1,6E0,1.42E2,1E0,2E0,1.48E2,9.7E1,6.5E1,3.6E1,5E0,7.7E1,1.08E2,2.6E1,6E0,3.4E1,9E0,1.1E1,3E0,1E0,1.4E1,2E0,2E0,6.6E1,2.4E1,4E0,3.6E1,8E0,3.1E1,1E0,3E0,3.2E1,1.7E1,8E0,1.35E2,2E0,1.7E1,7.1E1,7.2E1,4.7E1,2.1E1,1.9E1,1E0,5E0,9.8E1,4.4E1,1.3E2,1.8E1,7E0,9E1,4.3E1,2.2E1,3E0,3.3E1,3E0,2E0,3.2E1,4.5E1,9.7E1,1.1E1,7E0,1.9E1,3E0,3E0,1.1E1,2.3E1,2E0,7E0,7E0,4E0],"tree_param":{"num_deleted":"0","num_feature":"14","num_nodes":"111","size_leaf_vector":"1"}},{"base_weights":[1.2644321E-2,-9.0107954E-1,2.8363445E0,-1.3276395E0,3.3436552E-1,2.333162E0,6.3420362E0,-1.405106E0,-6.954855E-1,7.205948E-1,-5.150148E-1,3.082833E0,1.1236279E0,8.566918E0,1.1046188E0,-1.4234406E0,-1.1269658E0,-1.003606E0,-4.5863527E-1,2.3269743E-1,1.3219923E0,-4.0849438E-1,-1.6880928E0,2.4720104E0,4.525769E0,4.038015E-1,2.1742392E0,6.741456E0,1.1766952E0,-1.3270746E-1,2.691462E0,-1.4316241E-1,-8.575791E-1,-1.5460595E0,-1.0311538E0,-1.1180251E0,1.8588452E-1,-1.28705E0,-2.9757455E-1,-1.331498E-1,7.715763E-1,8.751832E-1,2.6070292E0,3.8273364E-1,-6.128976E-1,1.4653194E-2,-1.8531893E-1,2.3738575E0,6.002486E0,5.649108E0,3.740701E0,2.5503603E-1,3.4357815E0,2.7144623E0,2.0175779E-1,7.0311427E0,-1.9884793E-1,2.1820605E0,-1.5082974E0,3.5248985E0,-7.0600176E-1,4.4656166E-1,-1.3727798E-1,-6.2081482E-2,-1.7419612E-1,-8.231E-2,-1.2113386E-1,-4.3480925E-2,-1.2836525E-1,6.989127E-2,-1.5910923E-2,-9.797311E-3,-1.4624487E-1,-5.935193E-2,9.988345E-3,-1.9839708E-2,2.4123786E-1,-9.86602E-2,9.295992E-2,4.7524847E-2,1.4908366E-1,3.988196E-1,1.02645256E-1,-2.6147828E-2,2.6288146E-1,-9.5357694E-2,-5.8930344E-3,2.2224867E-1,4.6694756E-1,1.127974E-1,6.751794E-1,4.409089E-1,1.0058047E0,3.1845E-1,6.370116E-1,-1.5342126E-2,1.1596706E-1,6.1504936E-1,5.4080218E-2,-6.779597E-3,3.5556683E-1,5.08522E-1,-1.7650776E-1,3.0744678E-1,7.697775E-1,-1.746276E-2,4.596958E-1,-3.1426113E-2,-1.975133E-1,-1.2280233E-1,4.2725167E-1,-9.88332E-2,-7.0670606E-3],"categories":[],"categories_nodes":[],"categories_segments":[],"categories_sizes":[],"default_left":[0,0,0,0,0,0,0,0,0,0,0,0,0,0,0,0,0,0,0,0,0,0,0,0,0,0,0,0,0,0,0,0,0,0,0,0,0,0,0,0,0,0,0,0,0,0,0,0,0,0,0,0,0,0,0,0,0,0,0,0,0,0,0,0,0,0,0,0,0,0,0,0,0,0,0,0,0,0,0,0,0,0,0,0,0,0,0,0,0,0,0,0,0,0,0,0,0,0,0,0,0,0,0,0,0,0,0,0,0,0,0,0,0],"id":5,"left_children":[1,3,5,7,9,11,13,15,17,19,21,23,25,27,29,31,33,35,37,39,41,43,45,47,49,51,53,55,-1,57,59,-1,61,63,65,67,69,71,73,75,77,79,81,83,85,-1,-1,87,89,91,93,95,97,99,101,103,-1,105,107,109,111,-1,-1,-1,-1,-1,-1,-1,-1,-1,-1,-1,-1,-1,-1,-1,-1,-1,-1,-1,-1,-1,-1,-1,-1,-1,-1,-1,-1,-1,-1,-1,-1,-1,-1,-1,-1,-1,-1,-1,-1,-1,-1,-1,-1,-1,-1,-1,-1,-1,-1,-1,-1],"loss_changes":[6.775271E3,1.0459948E3,1.1176929E3,7.125464E1,1.6767947E2,5.070376E2,9.227473E2,5.0913086E0,1.1435188E1,1.0268286E2,1.9303513E1,2.946504E2,1.6322995E2,2.478003E2,4.944324E1,4.45874E0,1.8590317E0,9.734863E0,1.2158964E1,3.8546463E1,8.786246E1,2.4170546E1,4.209118E0,7.099658E1,6.882202E1,5.7760757E1,9.322336E1,1.100813E2,0E0,5.1053776E1,3.3635864E1,0E0,6.0980583E1,1.4561653E0,1.7395706E0,6.684044E0,1.3501439E0,2.9851513E0,9.46933E0,1.9910994E1,2.286591E1,2.8345596E1,8.3227936E1,4.5542892E1,2.2213383E1,0E0,0E0,7.336694E1,1.429921E1,1.7433984E2,7.185077E1,4.636599E1,4.382802E1,1.6173227E2,2.010751E2,7.392627E1,0E0,3.494971E1,4.953476E0,3.722708E1,4.6827364E-1,0E0,0E0,0E0,0E0,0E0,0E0,0E0,0E0,0E0,0E0,0E0,0E0,0E0,0E0,0E0,0E0,0E0,0E0,0E0,0E0,0E0,0E0,0E0,0E0,0E0,0E0,0E0,0E0,0E0,0E0,0E0,0E0,0E0,0E0,0E0,0E0,0E0,0E0,0E0,0E0,0E0,0E0,0E0,0E0,0E0,0E0,0E0,0E0,0E0,0E0,0E0,0E0],"parents":[2147483647,0,0,1,1,2,2,3,3,4,4,5,5,6,6,7,7,8,8,9,9,10,10,11,11,12,12,13,13,14,14,15,15,16,16,17,17,18,18,19,19,20,20,21,21,22,22,23,23,24,24,25,25,26,26,27,27,29,29,30,30,32,32,33,33,34,34,35,35,36,36,37,37,38,38,39,39,40,40,41,41,42,42,43,43,44,44,47,47,48,48,49,49,50,50,51,51,52,52,53,53,54,54,55,55,57,57,58,58,59,59,60,60],"right_children":[2,4,6,8,10,12,14,16,18,20,22,24,26,28,30,32,34,36,38,40,42,44,46,48,50,52,54,56,-1,58,60,-1,62,64,66,68,70,72,74,76,78,80,82,84,86,-1,-1,88,90,92,94,96,98,100,102,104,-1,106,108,110,112,-1,-1,-1,-1,-1,-1,-1,-1,-1,-1,-1,-1,-1,-1,-1,-1,-1,-1,-1,-1,-1,-1,-1,-1,-1,-1,-1,-1,-1,-1,-1,-1,-1,-1,-1,-1,-1,-1,-1,-1,-1,-1,-1,-1,-1,-1,-1,-1,-1,-1,-1,-1],"split_conditions":[3.83E0,1.525E0,1.2035E1,9.2E-1,2.8E0,5.73E0,1.495E1,6.25E-1,2.5E-1,2.6066666E0,2.2535211E-1,7.42E0,1E0,1.735E1,4.025974E-1,3.2465754E0,-2.739726E-1,3.51E0,6.666667E-1,2.5E-1,2.5E-1,3.29E0,-3.561644E-1,4.2666668E-1,6.119403E-1,1.0235E1,1.780822E-1,5.833333E-1,1.1766952E0,1.2972972E0,2.54E-1,-1.4316241E-1,3.4266667E0,3.5714287E-1,5.6E-1,3.448276E-1,6.849315E-2,1.55E-1,1.23E0,3.69E0,3.1578946E-1,7E-2,1.0416666E0,3.075E0,2.26E-1,1.4653194E-2,-1.8531893E-1,3.69E0,3.9473686E-1,5.6E-1,2.78E0,1.7012987E0,-1.5625E-1,3.4848484E-1,4.4871795E-1,1.234375E0,-1.9884793E-1,4.0425533E-1,1.48E1,1.74E1,4.868421E-1,4.4656166E-1,-1.3727798E-1,-6.2081482E-2,-1.7419612E-1,-8.231E-2,-1.2113386E-1,-4.3480925E-2,-1.2836525E-1,6.989127E-2,-1.5910923E-2,-9.797311E-3,-1.4624487E-1,-5.935193E-2,9.988345E-3,-1.9839708E-2,2.4123786E-1,-9.86602E-2,9.295992E-2,4.7524847E-2,1.4908366E-1,3.988196E-1,1.02645256E-1,-2.6147828E-2,2.6288146E-1,-9.5357694E-2,-5.8930344E-3,2.2224867E-1,4.6694756E-1,1.127974E-1,6.751794E-1,4.409089E-1,1.0058047E0,3.1845E-1,6.370116E-1,-1.5342126E-2,1.1596706E-1,6.1504936E-1,5.4080218E-2,-6.779597E-3,3.5556683E-1,5.08522E-1,-1.7650776E-1,3.0744678E-1,7.697775E-1,-1.746276E-2,4.596958E-1,-3.1426113E-2,-1.975133E-1,-1.2280233E-1,4.2725167E-1,-9.88332E-2,-7.0670606E-3],"split_indices":[10,10,10,10,12,12,12,10,11,10,3,10,7,10,0,4,2,9,4,11,11,12,2,0,5,10,2,0,0,4,8,0,4,5,12,6,0,8,10,9,6,12,5,10,8,0,0,9,1,5,12,4,2,1,1,4,0,1,10,12,0,0,0,0,0,0,0,0,0,0,0,0,0,0,0,0,0,0,0,0,0,0,0,0,0,0,0,0,0,0,0,0,0,0,0,0,0,0,0,0,0,0,0,0,0,0,0,0,0,0,0,0,0],"split_type":[0,0,0,0,0,0,0,0,0,0,0,0,0,0,0,0,0,0,0,0,0,0,0,0,0,0,0,0,0,0,0,0,0,0,0,0,0,0,0,0,0,0,0,0,0,0,0,0,0,0,0,0,0,0,0,0,0,0,0,0,0,0,0,0,0,0,0,0,0,0,0,0,0,0,0,0,0,0,0,0,0,0,0,0,0,0,0,0,0,0,0,0,0,0,0,0,0,0,0,0,0,0,0,0,0,0,0,0,0,0,0,0,0],"sum_hessian":[2.624E3,1.983E3,6.41E2,1.474E3,5.09E2,5.62E2,7.9E1,1.312E3,1.62E2,3.5E2,1.59E2,3.46E2,2.16E2,5.5E1,2.4E1,1.227E3,8.5E1,6.9E1,9.3E1,1.94E2,1.56E2,1.47E2,1.2E1,2.45E2,1.01E2,1.29E2,8.7E1,3.7E1,1.8E1,1.4E1,1E1,1.208E3,1.9E1,1.3E1,7.2E1,6.3E1,6E0,1.4E1,7.9E1,1.16E2,7.8E1,1.17E2,3.9E1,3E1,1.17E2,1E0,1.1E1,2.4E2,5E0,3.9E1,6.2E1,1.24E2,5E0,6.8E1,1.9E1,3.6E1,1E0,5E0,9E0,8E0,2E0,1E0,1.8E1,3E0,1E1,3.6E1,3.6E1,1.3E1,5E1,2E0,4E0,2E0,1.2E1,4.5E1,3.4E1,1.14E2,2E0,6E0,7.2E1,7.2E1,4.5E1,2E1,1.9E1,2.4E1,6E0,7.2E1,4.5E1,2.27E2,1.3E1,1E0,4E0,3.2E1,7E0,5.3E1,9E0,8.6E1,3.8E1,2E0,3E0,1.6E1,5.2E1,5E0,1.4E1,6E0,3E1,3E0,2E0,3E0,6E0,1E0,7E0,1E0,1E0],"tree_param":{"num_deleted":"0","num_feature":"14","num_nodes":"113","size_leaf_vector":"1"}},{"base_weights":[1.4457425E-2,-8.1082964E-1,2.5648546E0,-1.1918387E0,3.1335792E-1,2.109313E0,5.738669E0,-1.2648038E0,-6.212803E-1,6.1470914E-1,-5.931826E-1,2.8020043E0,1.0406265E0,8.261522E0,1.8951646E0,-1.2809613E0,-1.0193822E0,-3.807699E-1,-9.764464E-1,8.236672E-2,1.1191866E0,-8.498959E-1,-2.000165E-2,2.0531058E0,3.875561E0,4.0344337E-1,1.9954478E0,6.6561832E0,1.105619E0,6.8681474E0,1.168928E0,-1.2885801E-1,-7.56357E-1,-1.0566254E0,-3.4670404E-1,-7.1624935E-1,1.0399793E-1,-1.0318819E0,1.6849172E-1,-4.7726184E-3,2.2988772E0,7.082467E-1,2.2575428E0,1.1042374E0,-9.5737505E-1,1.0036163E0,-4.42878E-1,1.7448053E0,3.7073927E0,3.9859798E0,-8.475616E-1,2.710962E-1,3.203725E0,4.187999E0,1.4944172E0,7.5564313E0,3.4159179E0,9.5648855E-1,-6.110332E-2,3.8057557E-1,3.7048612E0,4.242336E-1,-1.242727E-1,-1.0833862E-1,-2.706326E-2,2.3291504E-2,-5.092109E-2,-9.253936E-2,-1.6521629E-2,6.541042E-2,-1.8412592E-2,-1.3020518E-1,-7.631063E-2,7.0817046E-2,-7.252723E-2,2.5520785E-2,-4.6466466E-2,-2.0552719E-2,2.7505326E-1,3.597529E-2,1.17652915E-1,3.1913546E-1,8.8154756E-2,1.2675592E-1,2.2547532E-2,8.348265E-2,-1.0586869E-1,1.7685555E-1,2.0458058E-2,-1.0375079E-1,3.687825E-2,1.17173135E-1,2.4956512E-1,-1.8412219E-1,3.9537206E-1,3.4573907E-1,5.5310494E-1,-1.5099858E-1,5.6985535E-2,6.696486E-2,-6.423879E-2,5.740461E-1,5.0024208E-2,7.8585124E-1,1.19983904E-1,-3.6277148E-1,1.8389349E-1,-2.2728395E-1,8.060686E-1,4.9264136E-1,-4.3340236E-1,2.2435473E-1,-8.867773E-2,5.969283E-1,-1.3041283E-1],"categories":[],"categories_nodes":[],"categories_segments":[],"categories_sizes":[],"default_left":[0,0,0,0,0,0,0,0,0,0,0,0,0,0,0,0,0,0,0,0,0,0,0,0,0,0,0,0,0,0,0,0,0,0,0,0,0,0,0,0,0,0,0,0,0,0,0,0,0,0,0,0,0,0,0,0,0,0,0,0,0,0,0,0,0,0,0,0,0,0,0,0,0,0,0,0,0,0,0,0,0,0,0,0,0,0,0,0,0,0,0,0,0,0,0,0,0,0,0,0,0,0,0,0,0,0,0,0,0,0,0,0,0,0,0],"id":6,"left_children":[1,3,5,7,9,11,13,15,17,19,21,23,25,27,29,31,33,35,37,39,41,43,45,47,49,51,53,55,-1,57,59,-1,61,63,65,67,69,71,73,75,77,79,81,83,85,87,89,91,93,95,97,99,101,103,105,107,109,-1,-1,111,113,-1,-1,-1,-1,-1,-1,-1,-1,-1,-1,-1,-1,-1,-1,-1,-1,-1,-1,-1,-1,-1,-1,-1,-1,-1,-1,-1,-1,-1,-1,-1,-1,-1,-1,-1,-1,-1,-1,-1,-1,-1,-1,-1,-1,-1,-1,-1,-1,-1,-1,-1,-1,-1,-1],"loss_changes":[5.527205E3,8.501715E2,9.1610205E2,6.0911133E1,1.3777774E2,4.1385596E2,7.6007104E2,3.9006348E0,1.4149788E1,1.0142151E2,1.8523045E1,2.662019E2,1.3486723E2,1.4175464E2,1.1115317E2,3.9334717E0,1.7881851E0,1.6825344E1,4.4898376E0,3.5742844E1,8.915352E1,1.9329655E1,1.7759033E1,9.7065E1,7.586987E1,4.9163754E1,9.151099E1,7.045044E1,0E0,8.652202E1,5.856629E1,0E0,5.389634E1,1.4105377E0,6.8375516E-1,6.877079E0,6.935883E0,3.7263794E0,2.4429984E0,2.1520351E1,8.483204E0,2.3076607E1,6.271762E1,4.318018E-1,1.5954231E1,6.9727526E0,1.4379105E1,7.151593E1,4.964978E1,9.1948975E1,4.616198E0,4.7759438E1,3.827651E1,1.6606036E2,1.3725636E2,1.4223181E2,1.26707466E2,0E0,0E0,5.8654545E1,8.7181946E1,0E0,0E0,0E0,0E0,0E0,0E0,0E0,0E0,0E0,0E0,0E0,0E0,0E0,0E0,0E0,0E0,0E0,0E0,0E0,0E0,0E0,0E0,0E0,0E0,0E0,0E0,0E0,0E0,0E0,0E0,0E0,0E0,0E0,0E0,0E0,0E0,0E0,0E0,0E0,0E0,0E0,0E0,0E0,0E0,0E0,0E0,0E0,0E0,0E0,0E0,0E0,0E0,0E0,0E0],"parents":[2147483647,0,0,1,1,2,2,3,3,4,4,5,5,6,6,7,7,8,8,9,9,10,10,11,11,12,12,13,13,14,14,15,15,16,16,17,17,18,18,19,19,20,20,21,21,22,22,23,23,24,24,25,25,26,26,27,27,29,29,30,30,32,32,33,33,34,34,35,35,36,36,37,37,38,38,39,39,40,40,41,41,42,42,43,43,44,44,45,45,46,46,47,47,48,48,49,49,50,50,51,51,52,52,53,53,54,54,55,55,56,56,59,59,60,60],"right_children":[2,4,6,8,10,12,14,16,18,20,22,24,26,28,30,32,34,36,38,40,42,44,46,48,50,52,54,56,-1,58,60,-1,62,64,66,68,70,72,74,76,78,80,82,84,86,88,90,92,94,96,98,100,102,104,106,108,110,-1,-1,112,114,-1,-1,-1,-1,-1,-1,-1,-1,-1,-1,-1,-1,-1,-1,-1,-1,-1,-1,-1,-1,-1,-1,-1,-1,-1,-1,-1,-1,-1,-1,-1,-1,-1,-1,-1,-1,-1,-1,-1,-1,-1,-1,-1,-1,-1,-1,-1,-1,-1,-1,-1,-1,-1,-1],"split_conditions":[3.83E0,1.5466666E0,1.2035E1,9.2E-1,3.29E0,5.48E0,1.05E1,6.25E-1,8.1E-1,2.47E0,3.3333334E-1,6.355E0,1E0,1.883E1,1.7741935E-1,3.2465754E0,1E0,1E-2,1.6727272E0,8.65E-1,2.5E-1,1.26E-1,3.82E0,2.5E-1,1E-2,1.0235E1,-1.8518518E-1,5.7894737E-1,1.105619E0,3.0985916E-1,4.868421E-1,-1.2885801E-1,3.4266667E0,2.87E-1,-2.413793E-1,4.6511628E-2,2.92E0,2.5E-1,5.7971016E-2,1.4E0,3.3333335E-2,7E-2,1.0416666E0,4.084507E-1,2.48E0,1.5068494E-1,3.1233332E0,1.31E0,6.896552E-2,1.14E0,2.7631578E-1,9.7E0,-1.5625E-1,3.0985916E-1,1.4285715E-1,2.2666667E-1,3.75E-1,9.5648855E-1,-6.110332E-2,2.62E0,4.0425533E-1,4.242336E-1,-1.242727E-1,-1.0833862E-1,-2.706326E-2,2.3291504E-2,-5.092109E-2,-9.253936E-2,-1.6521629E-2,6.541042E-2,-1.8412592E-2,-1.3020518E-1,-7.631063E-2,7.0817046E-2,-7.252723E-2,2.5520785E-2,-4.6466466E-2,-2.0552719E-2,2.7505326E-1,3.597529E-2,1.17652915E-1,3.1913546E-1,8.8154756E-2,1.2675592E-1,2.2547532E-2,8.348265E-2,-1.0586869E-1,1.7685555E-1,2.0458058E-2,-1.0375079E-1,3.687825E-2,1.17173135E-1,2.4956512E-1,-1.8412219E-1,3.9537206E-1,3.4573907E-1,5.5310494E-1,-1.5099858E-1,5.6985535E-2,6.696486E-2,-6.423879E-2,5.740461E-1,5.0024208E-2,7.8585124E-1,1.19983904E-1,-3.6277148E-1,1.8389349E-1,-2.2728395E-1,8.060686E-1,4.9264136E-1,-4.3340236E-1,2.2435473E-1,-8.867773E-2,5.969283E-1,-1.3041283E-1],"split_indices":[10,10,10,10,12,12,12,10,12,10,11,10,7,10,5,4,7,12,6,13,11,8,12,11,13,10,2,1,0,0,0,0,4,8,2,2,9,11,0,12,1,12,5,1,9,1,10,12,1,12,0,12,2,0,0,5,0,0,0,9,3,0,0,0,0,0,0,0,0,0,0,0,0,0,0,0,0,0,0,0,0,0,0,0,0,0,0,0,0,0,0,0,0,0,0,0,0,0,0,0,0,0,0,0,0,0,0,0,0,0,0,0,0,0,0],"split_type":[0,0,0,0,0,0,0,0,0,0,0,0,0,0,0,0,0,0,0,0,0,0,0,0,0,0,0,0,0,0,0,0,0,0,0,0,0,0,0,0,0,0,0,0,0,0,0,0,0,0,0,0,0,0,0,0,0,0,0,0,0,0,0,0,0,0,0,0,0,0,0,0,0,0,0,0,0,0,0,0,0,0,0,0,0,0,0,0,0,0,0,0,0,0,0,0,0,0,0,0,0,0,0,0,0,0,0,0,0,0,0,0,0,0,0],"sum_hessian":[2.624E3,1.983E3,6.41E2,1.481E3,5.02E2,5.62E2,7.9E1,1.312E3,1.69E2,3.77E2,1.25E2,3.4E2,2.22E2,4.7E1,3.2E1,1.227E3,8.5E1,1.02E2,6.7E1,1.84E2,1.93E2,8.6E1,3.9E1,2.02E2,1.38E2,1.34E2,8.8E1,3.2E1,1.5E1,3E0,2.9E1,1.208E3,1.9E1,8E1,5E0,6E1,4.2E1,6.4E1,3E0,1.78E2,6E0,1.43E2,5E1,4E0,8.2E1,1.1E1,2.8E1,1.72E2,3E1,1.35E2,3E0,1.29E2,5E0,1.5E1,7.3E1,2.4E1,8E0,2E0,1E0,2.3E1,6E0,1E0,1.8E1,7.7E1,3E0,1E0,4E0,4.3E1,1.7E1,1.4E1,2.8E1,3E1,3.4E1,2E0,1E0,1.14E2,6.4E1,1E0,5E0,8.3E1,6E1,2.9E1,2.1E1,3E0,1E0,4E0,7.8E1,5E0,6E0,1.6E1,1.2E1,9.9E1,7.3E1,1E0,2.9E1,1.03E2,3.2E1,2E0,1E0,9E1,3.9E1,2E0,3E0,6E0,9E0,4E0,6.9E1,1E0,2.3E1,7E0,1E0,9E0,1.4E1,4E0,2E0],"tree_param":{"num_deleted":"0","num_feature":"14","num_nodes":"115","size_leaf_vector":"1"}},{"base_weights":[1.5589733E-2,-7.141294E-1,2.371582E0,-1.0728319E0,3.0173156E-1,1.9489429E0,5.2053175E0,-1.1383172E0,-5.6074226E-1,6.347408E-1,-4.202688E-1,2.5776613E0,9.58119E-1,7.027691E0,9.1498756E-1,-1.144742E0,-6.6572326E-1,-3.267183E-1,-8.5992575E-1,2.0171733E-1,1.1096338E0,-3.0795598E-1,-1.6176684E0,2.0959337E0,3.8251195E0,2.6799537E-2,1.5337684E0,5.6886816E0,1.0019673E0,2.8620103E-1,3.3728933E0,-1.16634466E-1,-9.784721E-1,4.030219E-1,-1.1249949E-1,-6.464124E-1,2.091751E-1,-9.466255E-1,1.0514646E-1,-1.3138556E-1,6.987175E-1,7.1147656E-1,2.2783003E0,-1.4796762E0,-1.8858427E-1,1.910807E-2,-1.7715014E0,1.9507117E0,4.1538954E0,4.904891E0,2.9944446E0,2.663738E0,-1.7902423E-1,9.8731625E-1,3.7026205E0,3.7854414E0,6.7553377E0,1.5230354E0,-7.6834434E-1,4.217082E-1,-1.9307136E-4,-9.958743E-2,-2.572309E-2,-8.349575E-2,-1.4961255E-2,7.1523935E-2,-6.23453E-3,-1.2298961E-1,-6.9062516E-2,-4.6418373E-2,6.4819E-2,-8.935114E-2,8.177588E-3,-1.2446761E-1,8.2397096E-2,3.643074E-2,1.2352979E-1,-1.8116027E-1,2.630333E-1,-1.875639E-4,-1.5932089E-1,2.3466304E-2,-5.3792514E-2,-4.232678E-2,-1.8485819E-1,1.3412099E-1,2.4286364E-1,5.542916E-1,2.612002E-1,3.7353882E-1,8.8236046E-1,2.5634432E-1,6.70557E-1,4.031429E-1,-2.0873585E-1,5.2987594E-2,-6.6828035E-2,1.4791296E-1,-2.9884824E-1,9.23464E-2,4.4901943E-1,5.247183E-1,-2.2770135E-1,8.2112116E-1,3.7504062E-1,-1.0930681E-1,2.3136948E-1,6.78758E-2,-1.5767403E-1],"categories":[],"categories_nodes":[],"categories_segments":[],"categories_sizes":[],"default_left":[0,0,0,0,0,0,0,0,0,0,0,0,0,0,0,0,0,0,0,0,0,0,0,0,0,0,0,0,0,0,0,0,0,0,0,0,0,0,0,0,0,0,0,0,0,0,0,0,0,0,0,0,0,0,0,0,0,0,0,0,0,0,0,0,0,0,0,0,0,0,0,0,0,0,0,0,0,0,0,0,0,0,0,0,0,0,0,0,0,0,0,0,0,0,0,0,0,0,0,0,0,0,0,0,0,0,0,0,0],"id":7,"left_children":[1,3,5,7,9,11,13,15,17,19,21,23,25,27,29,31,33,35,37,39,41,43,45,47,49,51,53,55,-1,57,59,-1,61,-1,-1,63,65,67,69,71,73,75,77,79,81,-1,83,85,87,89,91,93,95,97,99,101,103,105,107,-1,-1,-1,-1,-1,-1,-1,-1,-1,-1,-1,-1,-1,-1,-1,-1,-1,-1,-1,-1,-1,-1,-1,-1,-1,-1,-1,-1,-1,-1,-1,-1,-1,-1,-1,-1,-1,-1,-1,-1,-1,-1,-1,-1,-1,-1,-1,-1,-1,-1],"loss_changes":[4.5146265E3,7.309293E2,7.335945E2,4.905957E1,1.2625357E2,3.351687E2,6.190564E2,3.2246094E0,1.1621784E1,7.360086E1,2.1826063E1,1.9089233E2,1.1361496E2,1.6735376E2,3.7672127E1,3.5065918E0,4.7668243E1,1.675344E1,6.291218E0,3.1381168E1,7.7947556E1,2.1121105E1,4.2339325E0,6.3922363E1,6.693396E1,4.498193E1,1.5160211E2,5.7662354E1,0E0,2.8560474E1,1.4253082E1,0E0,1.68927E0,0E0,0E0,5.5888996E0,5.128642E0,4.081787E0,2.465077E0,1.8593033E1,1.9525253E1,2.3009224E1,6.6675674E1,2.345913E0,2.082629E1,0E0,5.685501E-1,6.2866882E1,1.7647705E1,1.4119244E2,6.9183655E1,4.740323E1,2.7060305E1,2.1168753E2,5.2762054E1,1.625975E2,7.8574585E1,2.3213493E1,1.5108206E1,0E0,0E0,0E0,0E0,0E0,0E0,0E0,0E0,0E0,0E0,0E0,0E0,0E0,0E0,0E0,0E0,0E0,0E0,0E0,0E0,0E0,0E0,0E0,0E0,0E0,0E0,0E0,0E0,0E0,0E0,0E0,0E0,0E0,0E0,0E0,0E0,0E0,0E0,0E0,0E0,0E0,0E0,0E0,0E0,0E0,0E0,0E0,0E0,0E0,0E0],"parents":[2147483647,0,0,1,1,2,2,3,3,4,4,5,5,6,6,7,7,8,8,9,9,10,10,11,11,12,12,13,13,14,14,15,15,16,16,17,17,18,18,19,19,20,20,21,21,22,22,23,23,24,24,25,25,26,26,27,27,29,29,30,30,32,32,35,35,36,36,37,37,38,38,39,39,40,40,41,41,42,42,43,43,44,44,46,46,47,47,48,48,49,49,50,50,51,51,52,52,53,53,54,54,55,55,56,56,57,57,58,58],"right_children":[2,4,6,8,10,12,14,16,18,20,22,24,26,28,30,32,34,36,38,40,42,44,46,48,50,52,54,56,-1,58,60,-1,62,-1,-1,64,66,68,70,72,74,76,78,80,82,-1,84,86,88,90,92,94,96,98,100,102,104,106,108,-1,-1,-1,-1,-1,-1,-1,-1,-1,-1,-1,-1,-1,-1,-1,-1,-1,-1,-1,-1,-1,-1,-1,-1,-1,-1,-1,-1,-1,-1,-1,-1,-1,-1,-1,-1,-1,-1,-1,-1,-1,-1,-1,-1,-1,-1,-1,-1,-1,-1],"split_conditions":[3.94E0,1.5466666E0,1.2035E1,9.2E-1,2.8E0,5.73E0,1.495E1,3.2465754E0,7E-1,2.6066666E0,2.2535211E-1,7.745E0,5.263158E-2,1.883E1,3.108108E0,4E-1,3.4266667E0,1E-2,3.49E0,2.5E-1,2.5E-1,1.6666668E-2,-3.561644E-1,3.69E0,6.119403E-1,-1.5625E-1,3.26E0,1E0,1.0019673E0,2.3783784E0,4.6666667E-1,-1.16634466E-1,2.87E-1,4.030219E-1,-1.1249949E-1,4.6511628E-2,2.86E0,2.5E-1,1.9178082E-1,6.3380283E-1,2.837838E-1,7E-2,8.333333E-1,2.48E0,3.82E0,1.910807E-2,2.51E0,1.09375E-1,7.8571427E-1,5.6E-1,2.6666667E0,1.3235295E-1,7.936508E-2,3.17E0,7.09E0,1.139E1,3.23E0,1.76E-1,3.768116E-1,4.217082E-1,-1.9307136E-4,-9.958743E-2,-2.572309E-2,-8.349575E-2,-1.4961255E-2,7.1523935E-2,-6.23453E-3,-1.2298961E-1,-6.9062516E-2,-4.6418373E-2,6.4819E-2,-8.935114E-2,8.177588E-3,-1.2446761E-1,8.2397096E-2,3.643074E-2,1.2352979E-1,-1.8116027E-1,2.630333E-1,-1.875639E-4,-1.5932089E-1,2.3466304E-2,-5.3792514E-2,-4.232678E-2,-1.8485819E-1,1.3412099E-1,2.4286364E-1,5.542916E-1,2.612002E-1,3.7353882E-1,8.8236046E-1,2.5634432E-1,6.70557E-1,4.031429E-1,-2.0873585E-1,5.2987594E-2,-6.6828035E-2,1.4791296E-1,-2.9884824E-1,9.23464E-2,4.4901943E-1,5.247183E-1,-2.2770135E-1,8.2112116E-1,3.7504062E-1,-1.0930681E-1,2.3136948E-1,6.78758E-2,-1.5767403E-1],"split_indices":[10,10,10,10,12,12,12,4,12,10,3,10,3,10,4,10,4,12,9,11,11,0,2,9,5,2,9,7,0,4,6,0,8,0,0,2,9,11,1,5,6,12,4,9,12,0,9,0,6,5,5,1,0,9,12,12,9,8,5,0,0,0,0,0,0,0,0,0,0,0,0,0,0,0,0,0,0,0,0,0,0,0,0,0,0,0,0,0,0,0,0,0,0,0,0,0,0,0,0,0,0,0,0,0,0,0,0,0,0],"split_type":[0,0,0,0,0,0,0,0,0,0,0,0,0,0,0,0,0,0,0,0,0,0,0,0,0,0,0,0,0,0,0,0,0,0,0,0,0,0,0,0,0,0,0,0,0,0,0,0,0,0,0,0,0,0,0,0,0,0,0,0,0,0,0,0,0,0,0,0,0,0,0,0,0,0,0,0,0,0,0,0,0,0,0,0,0,0,0,0,0,0,0,0,0,0,0,0,0,0,0,0,0,0,0,0,0,0,0,0,0],"sum_hessian":[2.624E3,2.004E3,6.2E2,1.481E3,5.23E2,5.41E2,7.9E1,1.312E3,1.69E2,3.58E2,1.65E2,3.3E2,2.11E2,5.5E1,2.4E1,1.293E3,1.9E1,9.6E1,7.3E1,1.88E2,1.7E2,1.52E2,1.3E1,2.4E2,9E1,8.1E1,1.3E2,4E1,1.5E1,2E1,4E0,1.139E3,1.54E2,1E0,1.8E1,6E1,3.6E1,6.7E1,6E0,1.13E2,7.5E1,1.28E2,4.2E1,1.3E1,1.39E2,1E0,1.2E1,2.26E2,1.4E1,3.7E1,5.3E1,5E0,7.6E1,1.05E2,2.5E1,1.6E1,2.4E1,9E0,1.1E1,3E0,1E0,1.5E2,4E0,4.3E1,1.7E1,1.2E1,2.4E1,3E1,3.7E1,3E0,3E0,2.4E1,8.9E1,4E0,7.1E1,7.8E1,5E1,3E0,3.9E1,1E0,1.2E1,6.3E1,7.6E1,1E0,1.1E1,1.01E2,1.25E2,6E0,8E0,3E1,7E0,4.9E1,4E0,4E0,1E0,3.1E1,4.5E1,9.4E1,1.1E1,6E0,1.9E1,1.3E1,3E0,1.5E1,9E0,2E0,7E0,4E0,7E0],"tree_param":{"num_deleted":"0","num_feature":"14","num_nodes":"109","size_leaf_vector":"1"}},{"base_weights":[1.6490815E-2,-7.609304E-1,1.8265115E0,-1.0039765E0,-5.138074E-3,1.4816765E0,4.5919423E0,-1.0346813E0,-7.035119E-1,3.1697962E-1,-4.3237638E-1,2.0341344E0,6.2977445E-1,6.488277E0,1.5891517E0,-1.0411059E0,-5.846248E-1,-7.352561E-1,2.4984066E-1,-6.0923528E-2,7.882355E-1,-4.9546614E-1,2.672482E0,1.5019559E0,3.2343106E0,-2.8557602E-1,1.1537064E0,3.7221746E0,7.58383E0,5.8634396E0,1.0052048E0,-1.050488E-1,-9.3723506E-1,3.8287082E-1,-1.0184164E-1,-8.0533135E-1,-2.9085925E-1,4.7629037E-1,-5.9889276E-2,-1.52815E-1,1.3242178E0,4.5683372E-1,1.9497526E0,-9.858308E-1,-2.559462E-1,5.498719E-2,3.1967282E-1,1.2291487E0,2.6290536E0,2.6868067E0,4.399025E0,-6.1305964E-1,1.2767397E0,1.7920699E0,3.5729003E-1,4.492916E0,-4.3048427E-1,1.5127341E-1,8.004226E0,8.478614E-1,-9.910422E-2,1.5341296E0,-1.5424914E0,-3.6077626E-2,-9.722297E-2,-9.301414E-2,-5.7259895E-2,6.4778E-2,-4.393921E-2,5.8213007E-2,1.323055E-2,-8.563978E-3,-4.1941405E-4,-1.14410415E-1,-1.1381301E-2,1.902919E-1,4.8067324E-2,2.5448227E-2,1.6358013E-1,2.1932004E-1,-1.946498E-1,-1.7366819E-1,-5.8693316E-2,-1.0262481E-2,-8.313593E-2,8.1725635E-2,1.8535596E-1,3.0125824E-1,-9.66332E-3,1.9381331E-1,3.4774625E-1,5.4882115E-1,-4.3229267E-1,-7.065102E-2,3.6183935E-1,6.510534E-2,3.303879E-1,3.2491994E-1,1.0023087E-1,-1.294339E-1,8.929505E-2,4.9647104E-2,5.376982E-1,-2.421557E-1,2.648467E-1,6.717923E-1,1.3101698E0,2.0573197E-1,-1.1793708E-1,-2.7116967E-2,-1.7425218E-1],"categories":[],"categories_nodes":[],"categories_segments":[],"categories_sizes":[],"default_left":[0,0,0,0,0,0,0,0,0,0,0,0,0,0,0,0,0,0,0,0,0,0,0,0,0,0,0,0,0,0,0,0,0,0,0,0,0,0,0,0,0,0,0,0,0,0,0,0,0,0,0,0,0,0,0,0,0,0,0,0,0,0,0,0,0,0,0,0,0,0,0,0,0,0,0,0,0,0,0,0,0,0,0,0,0,0,0,0,0,0,0,0,0,0,0,0,0,0,0,0,0,0,0,0,0,0,0,0,0,0,0],"id":8,"left_children":[1,3,5,7,9,11,13,15,17,19,21,23,25,27,29,31,33,35,37,39,41,43,45,47,49,51,53,55,57,59,61,-1,63,-1,-1,65,67,69,71,73,75,77,79,81,83,-1,-1,85,87,89,91,93,95,97,99,101,-1,103,105,-1,-1,107,109,-1,-1,-1,-1,-1,-1,-1,-1,-1,-1,-1,-1,-1,-1,-1,-1,-1,-1,-1,-1,-1,-1,-1,-1,-1,-1,-1,-1,-1,-1,-1,-1,-1,-1,-1,-1,-1,-1,-1,-1,-1,-1,-1,-1,-1,-1,-1,-1],"loss_changes":[3.6951548E3,3.3743774E2,7.4560034E2,1.2095825E1,6.1791267E1,3.2957886E2,4.8509302E2,3.0316162E0,4.178459E0,4.5638824E1,3.91299E1,2.672318E2,1.3365312E2,1.323833E2,8.146455E1,2.2387695E-1,4.218856E1,3.7518387E0,3.7921596E-1,1.8403784E1,4.2991173E1,2.2063587E1,2.6932888E0,8.809015E1,7.1079834E1,5.296927E1,8.934708E1,1.2451607E2,1.1439966E2,8.010533E1,4.5487663E1,0E0,1.9086075E0,0E0,0E0,2.662613E0,2.9335861E0,3.220278E-2,3.9433464E-3,5.0891895E0,3.4787607E0,2.1054642E1,2.7982407E1,1.7550468E1,1.1295467E1,0E0,0E0,6.0467987E1,5.9877747E1,4.7127075E1,4.0371863E2,3.6168118E1,2.0679356E1,1.0952014E2,7.193277E1,5.3860443E1,0E0,2.5687979E1,1.414751E2,0E0,0E0,4.0757607E1,1.053299E0,0E0,0E0,0E0,0E0,0E0,0E0,0E0,0E0,0E0,0E0,0E0,0E0,0E0,0E0,0E0,0E0,0E0,0E0,0E0,0E0,0E0,0E0,0E0,0E0,0E0,0E0,0E0,0E0,0E0,0E0,0E0,0E0,0E0,0E0,0E0,0E0,0E0,0E0,0E0,0E0,0E0,0E0,0E0,0E0,0E0,0E0,0E0,0E0],"parents":[2147483647,0,0,1,1,2,2,3,3,4,4,5,5,6,6,7,7,8,8,9,9,10,10,11,11,12,12,13,13,14,14,15,15,16,16,17,17,18,18,19,19,20,20,21,21,22,22,23,23,24,24,25,25,26,26,27,27,28,28,29,29,30,30,32,32,35,35,36,36,37,37,38,38,39,39,40,40,41,41,42,42,43,43,44,44,47,47,48,48,49,49,50,50,51,51,52,52,53,53,54,54,55,55,57,57,58,58,61,61,62,62],"right_children":[2,4,6,8,10,12,14,16,18,20,22,24,26,28,30,32,34,36,38,40,42,44,46,48,50,52,54,56,58,60,62,-1,64,-1,-1,66,68,70,72,74,76,78,80,82,84,-1,-1,86,88,90,92,94,96,98,100,102,-1,104,106,-1,-1,108,110,-1,-1,-1,-1,-1,-1,-1,-1,-1,-1,-1,-1,-1,-1,-1,-1,-1,-1,-1,-1,-1,-1,-1,-1,-1,-1,-1,-1,-1,-1,-1,-1,-1,-1,-1,-1,-1,-1,-1,-1,-1,-1,-1,-1,-1,-1,-1,-1],"split_conditions":[3.075E0,1.23E0,1.14E1,7.3E-1,1.4E0,4.64E0,1.05E1,3.2465754E0,9.025E-1,1E-2,3.73E0,6.355E0,4.9266667E0,1.353E1,1.7741935E-1,3.8E-1,3.4266667E0,1.0909091E-1,4.7E-1,2.5E-1,2.57E0,8.9285713E-1,2.03125E-1,2.5E-1,1E-2,2.0833333E0,9.75E0,1.5517241E-1,2.2666667E-1,3.0985916E-1,1.7058823E0,-1.050488E-1,5E-1,3.8287082E-1,-1.0184164E-1,3.16E0,8.62069E-2,1.3333334E-2,5.970149E-2,1.1111111E-1,2.1621622E-1,2.2077923E-1,2.98E0,4.6666667E-1,3.8E0,5.498719E-2,3.1967282E-1,1.31E0,2.4E0,8.73E0,9.83E0,3.4666666E-1,1.7972972E0,1.88E-1,6.495E0,1.47E-1,-4.3048427E-1,2.6785713E-1,1E-2,8.478614E-1,-9.910422E-2,2.54E-1,1.875E-1,-3.6077626E-2,-9.722297E-2,-9.301414E-2,-5.7259895E-2,6.4778E-2,-4.393921E-2,5.8213007E-2,1.323055E-2,-8.563978E-3,-4.1941405E-4,-1.14410415E-1,-1.1381301E-2,1.902919E-1,4.8067324E-2,2.5448227E-2,1.6358013E-1,2.1932004E-1,-1.946498E-1,-1.7366819E-1,-5.8693316E-2,-1.0262481E-2,-8.313593E-2,8.1725635E-2,1.8535596E-1,3.0125824E-1,-9.66332E-3,1.9381331E-1,3.4774625E-1,5.4882115E-1,-4.3229267E-1,-7.065102E-2,3.6183935E-1,6.510534E-2,3.303879E-1,3.2491994E-1,1.0023087E-1,-1.294339E-1,8.929505E-2,4.9647104E-2,5.376982E-1,-2.421557E-1,2.648467E-1,6.717923E-1,1.3101698E0,2.0573197E-1,-1.1793708E-1,-2.7116967E-2,-1.7425218E-1],"split_indices":[10,10,10,10,12,12,12,4,13,12,9,10,10,10,5,10,4,2,12,11,10,5,1,11,12,5,12,2,5,0,5,0,11,0,0,9,1,0,0,5,1,0,10,6,12,0,0,12,5,10,10,3,4,8,10,8,0,0,12,0,0,8,1,0,0,0,0,0,0,0,0,0,0,0,0,0,0,0,0,0,0,0,0,0,0,0,0,0,0,0,0,0,0,0,0,0,0,0,0,0,0,0,0,0,0,0,0,0,0,0,0],"split_type":[0,0,0,0,0,0,0,0,0,0,0,0,0,0,0,0,0,0,0,0,0,0,0,0,0,0,0,0,0,0,0,0,0,0,0,0,0,0,0,0,0,0,0,0,0,0,0,0,0,0,0,0,0,0,0,0,0,0,0,0,0,0,0,0,0,0,0,0,0,0,0,0,0,0,0,0,0,0,0,0,0,0,0,0,0,0,0,0,0,0,0,0,0,0,0,0,0,0,0,0,0,0,0,0,0,0,0,0,0,0,0],"sum_hessian":[2.624E3,1.836E3,7.88E2,1.389E3,4.47E2,7.02E2,8.6E1,1.258E3,1.31E2,2.55E2,1.92E2,4.25E2,2.77E2,5.2E1,3.4E1,1.239E3,1.9E1,1.27E2,4E0,1.42E2,1.13E2,1.89E2,3E0,2.96E2,1.29E2,1.01E2,1.76E2,1.6E1,3.6E1,3E0,3.1E1,1.128E3,1.11E2,1E0,1.8E1,1.09E2,1.8E1,2E0,2E0,1.34E2,8E0,8.9E1,2.4E1,6.1E1,1.28E2,1E0,2E0,2.4E2,5.6E1,9E1,3.9E1,8.4E1,1.7E1,9.7E1,7.9E1,1.5E1,1E0,2E0,3.4E1,2E0,1E0,2.6E1,5E0,7E0,1.04E2,6.9E1,4E1,2E0,1.6E1,1E0,1E0,1E0,1E0,4E0,1.3E2,4E0,4E0,7.7E1,1.2E1,2.3E1,1E0,2E1,4.1E1,1.02E2,2.6E1,1.46E2,9.4E1,4.9E1,7E0,4.8E1,4.2E1,3.5E1,4E0,8.3E1,1E0,1.4E1,3E0,3.3E1,6.4E1,1.9E1,6E1,3E0,1.2E1,1E0,1E0,2.9E1,5E0,2.2E1,4E0,1E0,4E0],"tree_param":{"num_deleted":"0","num_feature":"14","num_nodes":"111","size_leaf_vector":"1"}},{"base_weights":[1.6912594E-2,-5.811671E-1,1.9478835E0,-8.48655E-1,3.1403285E-1,1.5986073E0,4.289881E0,-9.22158E-1,-4.2900786E-1,5.941505E-1,-4.37663E-1,2.0009613E0,4.9358544E-1,5.8031445E0,7.2857577E-1,-9.27783E-1,-5.121109E-1,-1.737605E-1,-7.360807E-1,3.1659478E-1,1.2216402E0,-6.664E-1,1.0958063E-1,1.4658458E0,2.7601712E0,5.74421E-2,2.3295665E0,4.6596217E0,8.370726E0,-2.7204648E-1,2.0268264E0,-9.40971E-2,-7.553406E-1,3.637273E-1,-9.219349E-2,-5.007208E-1,2.9836673E-1,-1.0483363E0,-4.7485885E-1,7.4287385E-2,8.225499E-1,6.17774E-1,1.8745178E0,1.0015172E0,-7.566728E-1,1.077324E0,-2.2790264E-1,1.2966913E0,4.254741E0,3.8465154E0,2.055222E0,4.7873485E-1,-2.6845512E-1,7.4898303E-3,3.8316462E0,3.0163627E0,5.590653E0,4.180418E-1,9.0161484E-1,1.6996422E0,-1.427855E0,6.163832E-1,3.5960817E0,-1.1327913E-1,-6.8344E-2,-9.699323E-2,-3.273006E-2,8.099578E-3,1.1209651E-1,-1.1412531E-1,2.3583282E-2,-6.292897E-2,3.447808E-2,-1.4872679E-1,1.6625917E-2,3.514922E-2,1.9628054E-1,-8.239929E-2,8.4519826E-2,-1.8811916E-1,2.1603508E-1,1.1136848E-1,2.7642334E-2,8.3221994E-2,-8.45411E-2,1.4659753E-1,1.278534E-2,-7.783996E-2,3.3778787E-2,1.0727097E-1,2.6493287E-1,6.289404E-1,-2.5860017E-2,2.354966E-1,6.0194725E-1,2.2376919E-1,-2.9290947E-1,-1.2932963E-2,1.8509215E-1,-7.708596E-2,1.251351E-1,4.5332786E-1,4.180211E-2,4.2417008E-1,-2.0264108E-1,3.7717268E-1,7.941869E-1,-4.1593738E-2,3.9538676E-1,-3.9447792E-2,-1.814377E-1,-1.2590872E-1,1.1388095E-1,4.611426E-1,1.3820438E-1],"categories":[],"categories_nodes":[],"categories_segments":[],"categories_sizes":[],"default_left":[0,0,0,0,0,0,0,0,0,0,0,0,0,0,0,0,0,0,0,0,0,0,0,0,0,0,0,0,0,0,0,0,0,0,0,0,0,0,0,0,0,0,0,0,0,0,0,0,0,0,0,0,0,0,0,0,0,0,0,0,0,0,0,0,0,0,0,0,0,0,0,0,0,0,0,0,0,0,0,0,0,0,0,0,0,0,0,0,0,0,0,0,0,0,0,0,0,0,0,0,0,0,0,0,0,0,0,0,0,0,0,0,0,0,0],"id":9,"left_children":[1,3,5,7,9,11,13,15,17,19,21,23,25,27,29,31,33,35,37,39,41,43,45,47,49,51,53,55,57,59,61,-1,63,-1,-1,65,67,69,71,73,75,77,79,81,83,85,87,89,91,93,95,97,-1,99,101,103,105,-1,-1,107,109,111,113,-1,-1,-1,-1,-1,-1,-1,-1,-1,-1,-1,-1,-1,-1,-1,-1,-1,-1,-1,-1,-1,-1,-1,-1,-1,-1,-1,-1,-1,-1,-1,-1,-1,-1,-1,-1,-1,-1,-1,-1,-1,-1,-1,-1,-1,-1,-1,-1,-1,-1,-1,-1],"loss_changes":[3.0326777E3,4.8037396E2,5.0112256E2,4.7229614E1,9.754027E1,2.3999109E2,4.2690735E2,2.5533447E0,1.8056152E1,5.8306305E1,1.5845057E1,1.5724121E2,1.16775826E2,1.25416626E2,3.302785E1,2.2319336E0,3.736367E1,1.9908354E1,8.066822E0,2.8749111E1,3.9449783E1,1.4158333E1,1.2656219E1,1.05345245E2,1.1692273E2,1.3875182E2,9.763373E1,4.5863525E1,5.5810547E0,3.661026E1,2.2130234E1,0E0,1.858284E0,0E0,0E0,5.8667183E0,9.386084E0,5.877228E0,7.6850433E0,2.3226315E1,4.0131676E1,1.8730532E1,5.6665833E1,9.881163E-2,1.2688179E1,3.5026999E0,9.293851E0,6.471942E1,1.21007095E2,1.900119E2,9.841266E1,8.7014694E1,0E0,1.2582516E1,3.8821854E1,1.1364015E2,7.6962524E1,0E0,0E0,3.025852E1,3.2784977E0,8.292425E0,4.866867E0,0E0,0E0,0E0,0E0,0E0,0E0,0E0,0E0,0E0,0E0,0E0,0E0,0E0,0E0,0E0,0E0,0E0,0E0,0E0,0E0,0E0,0E0,0E0,0E0,0E0,0E0,0E0,0E0,0E0,0E0,0E0,0E0,0E0,0E0,0E0,0E0,0E0,0E0,0E0,0E0,0E0,0E0,0E0,0E0,0E0,0E0,0E0,0E0,0E0,0E0,0E0,0E0],"parents":[2147483647,0,0,1,1,2,2,3,3,4,4,5,5,6,6,7,7,8,8,9,9,10,10,11,11,12,12,13,13,14,14,15,15,16,16,17,17,18,18,19,19,20,20,21,21,22,22,23,23,24,24,25,25,26,26,27,27,28,28,29,29,30,30,32,32,35,35,36,36,37,37,38,38,39,39,40,40,41,41,42,42,43,43,44,44,45,45,46,46,47,47,48,48,49,49,50,50,51,51,53,53,54,54,55,55,56,56,59,59,60,60,61,61,62,62],"right_children":[2,4,6,8,10,12,14,16,18,20,22,24,26,28,30,32,34,36,38,40,42,44,46,48,50,52,54,56,58,60,62,-1,64,-1,-1,66,68,70,72,74,76,78,80,82,84,86,88,90,92,94,96,98,-1,100,102,104,106,-1,-1,108,110,112,114,-1,-1,-1,-1,-1,-1,-1,-1,-1,-1,-1,-1,-1,-1,-1,-1,-1,-1,-1,-1,-1,-1,-1,-1,-1,-1,-1,-1,-1,-1,-1,-1,-1,-1,-1,-1,-1,-1,-1,-1,-1,-1,-1,-1,-1,-1,-1,-1,-1,-1,-1,-1],"split_conditions":[3.94E0,1.83E0,1.2035E1,9.2E-1,3.29E0,7.68E0,1.495E1,3.2465754E0,8.5E-1,2.5E-1,3.3333334E-1,6.355E0,3.26E0,1.883E1,4.025974E-1,6E-1,3.4266667E0,1E-2,2.5E-1,3.075E0,2.57E0,1.26E-1,3.82E0,1E-2,6.3380283E-1,3.18E0,3.508772E-2,1E0,2.8985508E-2,1.2972972E0,6.4285713E-1,-9.40971E-2,-2.739726E-1,3.637273E-1,-9.219349E-2,1.79E-1,1.5466666E0,3.49E0,1.695E0,2.6666668E-1,1.19E0,3.3783785E-1,8.333333E-1,4.084507E-1,2.48E0,2.2222222E-1,3.1233332E0,2.5E-1,1.4E0,1E-2,2.5E-1,1.36E0,-2.6845512E-1,1.4E0,1.7307693E0,1.139E1,1.04E0,4.180418E-1,9.0161484E-1,4.0425533E-1,1.48E1,1.74E1,9.245283E-1,-1.1327913E-1,-6.8344E-2,-9.699323E-2,-3.273006E-2,8.099578E-3,1.1209651E-1,-1.1412531E-1,2.3583282E-2,-6.292897E-2,3.447808E-2,-1.4872679E-1,1.6625917E-2,3.514922E-2,1.9628054E-1,-8.239929E-2,8.4519826E-2,-1.8811916E-1,2.1603508E-1,1.1136848E-1,2.7642334E-2,8.3221994E-2,-8.45411E-2,1.4659753E-1,1.278534E-2,-7.783996E-2,3.3778787E-2,1.0727097E-1,2.6493287E-1,6.289404E-1,-2.5860017E-2,2.354966E-1,6.0194725E-1,2.2376919E-1,-2.9290947E-1,-1.2932963E-2,1.8509215E-1,-7.708596E-2,1.251351E-1,4.5332786E-1,4.180211E-2,4.2417008E-1,-2.0264108E-1,3.7717268E-1,7.941869E-1,-4.1593738E-2,3.9538676E-1,-3.9447792E-2,-1.814377E-1,-1.2590872E-1,1.1388095E-1,4.611426E-1,1.3820438E-1],"split_indices":[10,10,10,10,12,12,12,4,12,11,11,10,9,10,0,10,4,12,11,10,10,8,12,13,5,9,3,7,3,4,5,0,2,0,0,8,10,9,10,5,12,6,4,1,9,1,10,11,6,12,11,5,0,5,5,12,12,0,0,1,10,12,5,0,0,0,0,0,0,0,0,0,0,0,0,0,0,0,0,0,0,0,0,0,0,0,0,0,0,0,0,0,0,0,0,0,0,0,0,0,0,0,0,0,0,0,0,0,0,0,0,0,0,0,0],"split_type":[0,0,0,0,0,0,0,0,0,0,0,0,0,0,0,0,0,0,0,0,0,0,0,0,0,0,0,0,0,0,0,0,0,0,0,0,0,0,0,0,0,0,0,0,0,0,0,0,0,0,0,0,0,0,0,0,0,0,0,0,0,0,0,0,0,0,0,0,0,0,0,0,0,0,0,0,0,0,0,0,0,0,0,0,0,0,0,0,0,0,0,0,0,0,0,0,0,0,0,0,0,0,0,0,0,0,0,0,0,0,0,0,0,0,0],"sum_hessian":[2.624E3,2.004E3,6.2E2,1.543E3,4.61E2,5.41E2,7.9E1,1.312E3,2.31E2,3.36E2,1.25E2,3.96E2,1.45E2,5.5E1,2.4E1,1.293E3,1.9E1,1.27E2,1.04E2,2.34E2,1.02E2,8.8E1,3.7E1,2.34E2,1.62E2,1.18E2,2.7E1,4E1,1.5E1,1.4E1,1E1,1.197E3,9.6E1,1E0,1.8E1,7.5E1,5.2E1,4.6E1,5.8E1,1.59E2,7.5E1,5.4E1,4.8E1,4E0,8.4E1,9E0,2.8E1,2.22E2,1.2E1,6.2E1,1E2,1.03E2,1.5E1,1.1E1,1.6E1,1.6E1,2.4E1,3E0,1.2E1,5E0,9E0,6E0,4E0,1.3E1,8.3E1,1.9E1,5.6E1,4.2E1,1E1,4.3E1,3E0,4.9E1,9E0,8E0,1.51E2,5.4E1,2.1E1,7E0,4.7E1,3E0,4.5E1,3E0,1E0,4E0,8E1,6E0,3E0,1.4E1,1.4E1,1.92E2,3E1,8E0,4E0,3.8E1,2.4E1,9.7E1,3E0,7.2E1,3.1E1,7E0,4E0,1.3E1,3E0,1.3E1,3E0,1.5E1,9E0,3E0,2E0,3E0,6E0,1E0,5E0,2E0,2E0],"tree_param":{"num_deleted":"0","num_feature":"14","num_nodes":"115","size_leaf_vector":"1"}},{"base_weights":[1.7458618E-2,-5.142173E-1,1.7934911E0,-7.638754E-1,2.9328537E-1,1.4691215E0,3.9038026E0,-8.299454E-1,-3.8666102E-1,5.9353006E-1,-3.0716047E-1,1.8568344E0,4.472877E-1,5.2712684E0,6.8452716E-1,-8.352178E-1,-4.4732308E-1,-1.5645885E-1,-6.636059E-1,5.191782E-1,2.628184E0,-3.5862574E-1,1.3599883E0,1.5406243E0,2.8921635E0,5.088865E-2,2.1160092E0,4.0900726E0,7.3562245E0,1.3523868E-1,2.8546336E0,-8.509169E-2,-7.143653E-1,3.4554094E-1,-8.345937E-2,-4.5235556E-1,2.707979E-1,-9.45429E-1,-4.2785522E-1,4.637213E-1,2.8455016E-1,3.042097E0,-7.554739E-2,-4.341166E-1,7.8695244E-1,-6.8489276E-2,2.0424318E-1,1.2250066E0,3.0204298E0,3.037389E0,-2.235024E0,1.2454628E0,-7.4620086E-1,1.0744919E-2,3.477607E0,4.2843833E0,-1.5497093E-1,8.625614E0,5.351212E-1,1.7950096E0,-4.9562785E-1,3.5681948E-1,1.9395351E-5,-8.009692E-2,-5.4234065E-2,-8.7778874E-2,-2.9514471E-2,5.047127E-3,9.448436E-2,-1.0297215E-1,2.1814538E-2,-1.3652433E-1,-2.9597653E-2,1.6081851E-2,7.5190715E-2,3.8036987E-1,1.5197557E-1,8.798444E-2,-5.0609928E-2,-2.0989418E-2,1.2441573E-1,1.3021053E-1,-1.5713511E-1,1.0751536E-1,3.8789806E-1,3.4976393E-1,1.1043527E-1,3.1769394E-3,-3.3843055E-1,-2.7186586E-2,3.2092598E-1,-2.5965739E-2,-2.4328744E-1,-7.034093E-2,1.1512428E-1,4.1123316E-1,3.8666952E-2,3.2921505E-1,6.330374E-1,1.0875803E0,5.312856E-1,-9.888089E-2,2.549535E-1,2.8653687E-1,-9.107189E-2],"categories":[],"categories_nodes":[],"categories_segments":[],"categories_sizes":[],"default_left":[0,0,0,0,0,0,0,0,0,0,0,0,0,0,0,0,0,0,0,0,0,0,0,0,0,0,0,0,0,0,0,0,0,0,0,0,0,0,0,0,0,0,0,0,0,0,0,0,0,0,0,0,0,0,0,0,0,0,0,0,0,0,0,0,0,0,0,0,0,0,0,0,0,0,0,0,0,0,0,0,0,0,0,0,0,0,0,0,0,0,0,0,0,0,0,0,0,0,0,0,0,0,0,0,0],"id":10,"left_children":[1,3,5,7,9,11,13,15,17,19,21,23,25,27,29,31,33,35,37,39,41,43,45,47,49,51,53,55,57,59,61,-1,63,-1,-1,65,67,69,71,73,-1,75,-1,77,79,-1,-1,81,83,85,87,89,91,93,95,97,-1,99,-1,101,103,-1,-1,-1,-1,-1,-1,-1,-1,-1,-1,-1,-1,-1,-1,-1,-1,-1,-1,-1,-1,-1,-1,-1,-1,-1,-1,-1,-1,-1,-1,-1,-1,-1,-1,-1,-1,-1,-1,-1,-1,-1,-1,-1,-1],"loss_changes":[2.4796409E3,4.0765674E2,4.0840002E2,3.8159485E1,8.635647E1,2.075592E2,3.4857166E2,2.2751465E0,1.4686947E1,4.6893913E1,1.4215774E1,1.2027661E2,9.6468346E1,1.0782605E2,2.9414307E1,1.847168E0,3.3112137E1,1.6304752E1,6.5716896E0,3.8544792E1,1.7704163E1,1.3832613E1,8.376426E0,1.3361346E2,7.2313354E1,1.1423909E2,8.0225296E1,4.8282593E1,2.2001953E0,2.287863E1,1.0183395E1,0E0,1.8747864E0,0E0,0E0,4.824011E0,7.8233542E0,4.8344154E0,6.8895903E0,2.6328629E1,0E0,5.813484E0,0E0,1.4348904E1,4.818773E0,0E0,0E0,5.4651398E1,8.1005554E1,7.264984E1,7.923068E0,1.4389929E2,5.8454357E1,1.058369E1,3.176207E1,5.4273132E1,0E0,1.6761719E1,0E0,1.5123777E1,2.4931458E1,0E0,0E0,0E0,0E0,0E0,0E0,0E0,0E0,0E0,0E0,0E0,0E0,0E0,0E0,0E0,0E0,0E0,0E0,0E0,0E0,0E0,0E0,0E0,0E0,0E0,0E0,0E0,0E0,0E0,0E0,0E0,0E0,0E0,0E0,0E0,0E0,0E0,0E0,0E0,0E0,0E0,0E0,0E0,0E0],"parents":[2147483647,0,0,1,1,2,2,3,3,4,4,5,5,6,6,7,7,8,8,9,9,10,10,11,11,12,12,13,13,14,14,15,15,16,16,17,17,18,18,19,19,20,20,21,21,22,22,23,23,24,24,25,25,26,26,27,27,28,28,29,29,30,30,32,32,35,35,36,36,37,37,38,38,39,39,41,41,43,43,44,44,47,47,48,48,49,49,50,50,51,51,52,52,53,53,54,54,55,55,57,57,59,59,60,60],"right_children":[2,4,6,8,10,12,14,16,18,20,22,24,26,28,30,32,34,36,38,40,42,44,46,48,50,52,54,56,58,60,62,-1,64,-1,-1,66,68,70,72,74,-1,76,-1,78,80,-1,-1,82,84,86,88,90,92,94,96,98,-1,100,-1,102,104,-1,-1,-1,-1,-1,-1,-1,-1,-1,-1,-1,-1,-1,-1,-1,-1,-1,-1,-1,-1,-1,-1,-1,-1,-1,-1,-1,-1,-1,-1,-1,-1,-1,-1,-1,-1,-1,-1,-1,-1,-1,-1,-1,-1],"split_conditions":[4E0,1.83E0,1.2035E1,9.2E-1,2.81E0,7.68E0,1.495E1,3.2465754E0,8.5E-1,3.69E0,1.495E0,7.995E0,3.26E0,1.735E1,3.108108E0,4E-1,3.4266667E0,1E-2,2.5E-1,6.666667E-1,1.6727272E0,2E0,4.255319E-2,2.0930232E-1,7.09E0,2.78E0,3.508772E-2,5.833333E-1,3E0,1.3105E1,4.6666667E-1,-8.509169E-2,2.31E-1,3.4554094E-1,-8.345937E-2,1.79E-1,1.495E0,3.49E0,1.02E0,7E-2,2.8455016E-1,3.3333334E-1,-7.554739E-2,1.26E-1,2.64E0,-6.8489276E-2,2.0424318E-1,7.88E0,1E-2,1.780822E-1,1.3333334E-2,2.0895523E-1,3.18E0,1.4E0,1.7307693E0,2.2666667E-1,-1.5497093E-1,5.185185E-1,5.351212E-1,1.6438356E-1,6.849315E-2,3.5681948E-1,1.9395351E-5,-8.009692E-2,-5.4234065E-2,-8.7778874E-2,-2.9514471E-2,5.047127E-3,9.448436E-2,-1.0297215E-1,2.1814538E-2,-1.3652433E-1,-2.9597653E-2,1.6081851E-2,7.5190715E-2,3.8036987E-1,1.5197557E-1,8.798444E-2,-5.0609928E-2,-2.0989418E-2,1.2441573E-1,1.3021053E-1,-1.5713511E-1,1.0751536E-1,3.8789806E-1,3.4976393E-1,1.1043527E-1,3.1769394E-3,-3.3843055E-1,-2.7186586E-2,3.2092598E-1,-2.5965739E-2,-2.4328744E-1,-7.034093E-2,1.1512428E-1,4.1123316E-1,3.8666952E-2,3.2921505E-1,6.330374E-1,1.0875803E0,5.312856E-1,-9.888089E-2,2.549535E-1,2.8653687E-1,-9.107189E-2],"split_indices":[10,10,10,10,12,12,12,4,12,9,13,10,9,10,4,10,4,12,11,11,6,6,0,3,12,9,3,0,9,10,6,0,8,0,0,8,10,9,12,12,0,11,0,8,9,0,0,10,12,2,0,0,9,5,5,2,0,6,0,0,0,0,0,0,0,0,0,0,0,0,0,0,0,0,0,0,0,0,0,0,0,0,0,0,0,0,0,0,0,0,0,0,0,0,0,0,0,0,0,0,0,0,0,0,0],"split_type":[0,0,0,0,0,0,0,0,0,0,0,0,0,0,0,0,0,0,0,0,0,0,0,0,0,0,0,0,0,0,0,0,0,0,0,0,0,0,0,0,0,0,0,0,0,0,0,0,0,0,0,0,0,0,0,0,0,0,0,0,0,0,0,0,0,0,0,0,0,0,0,0,0,0,0,0,0,0,0,0,0,0,0,0,0,0,0,0,0,0,0,0,0,0,0,0,0,0,0,0,0,0,0,0,0],"sum_hessian":[2.624E3,2.02E3,6.04E2,1.543E3,4.77E2,5.25E2,7.9E1,1.312E3,2.31E2,3.18E2,1.59E2,3.8E2,1.45E2,5.5E1,2.4E1,1.293E3,1.9E1,1.27E2,1.04E2,3.08E2,1E1,1.55E2,4E0,2.93E2,8.7E1,1.18E2,2.7E1,3.7E1,1.8E1,2E1,4E0,1.139E3,1.54E2,1E0,1.8E1,7.5E1,5.2E1,4.6E1,5.8E1,3.02E2,6E0,9E0,1E0,1.46E2,9E0,1E0,3E0,2.43E2,5E1,8.5E1,2E0,4.7E1,7.1E1,1.1E1,1.6E1,3.6E1,1E0,9E0,9E0,5E0,1.5E1,3E0,1E0,1E2,5.4E1,1.9E1,5.6E1,4E1,1.2E1,4.3E1,3E0,6E0,5.2E1,1.48E2,1.54E2,5E0,4E0,7E0,1.39E2,3E0,6E0,2.37E2,6E0,1.6E1,3.4E1,6.8E1,1.7E1,1E0,1E0,2.7E1,2E1,5.6E1,1.5E1,7E0,4E0,1.3E1,3E0,2.6E1,1E1,4E0,5E0,1E0,4E0,1E0,1.4E1],"tree_param":{"num_deleted":"0","num_feature":"14","num_nodes":"105","size_leaf_vector":"1"}},{"base_weights":[1.7872415E-2,-4.623568E-1,1.6220466E0,-6.742965E-1,3.2107338E-1,1.3243246E0,3.5592928E0,-7.469183E-1,-3.3011445E-1,5.952614E-1,-3.3993778E-1,1.6727086E0,4.0611488E-1,4.7970214E0,6.4440954E-1,-7.5186557E-1,-3.894867E-1,-1.0605721E-1,-6.0530454E-1,3.6433426E-1,1.1343172E0,-5.329409E-1,1.627352E-1,1.5192704E0,3.6281846E0,4.6005502E-2,1.9220756E0,3.7023096E0,6.73397E0,1.261521E-1,2.692209E0,-7.600659E-1,-5.5331445E-1,3.2826388E-1,-7.5552694E-2,-3.6773816E-1,3.0321735E-1,-8.8441634E-1,-3.805657E-1,9.5298074E-2,7.995357E-1,-2.6230732E-1,1.458708E0,9.8841584E-1,-6.133255E-1,1.0206702E0,-1.1884158E-1,1.2404317E0,2.4936025E0,1.480016E0,4.8047533E0,1.127036E0,-6.7532045E-1,1.3402353E-2,3.156311E0,6.33404E0,3.0109212E0,7.92494E0,4.8696032E-1,1.6415209E0,-4.499957E-1,3.3651692E-1,1.8429757E-5,-7.6650225E-2,-6.884E-2,-4.4967927E-2,-9.7470485E-2,-7.573946E-2,-2.4692496E-2,4.5547285E-3,7.918485E-2,-3.4475427E-2,-1.0602826E-1,-1.01955704E-1,-2.464247E-2,-2.0003238E-1,1.7516585E-2,5.0364267E-2,1.8236195E-1,-2.944871E-1,2.5706757E-2,2.220006E-1,6.374099E-2,1.4154528E-1,-3.5986584E-2,-9.537448E-2,-1.8097868E-2,1.5839691E-1,2.5323719E-2,-6.164297E-2,3.534968E-2,1.1177726E-1,3.3165342E-1,3.00586E-1,9.600534E-2,-9.436263E-2,1.8167429E-1,5.387007E-1,-2.2556484E-1,4.6607956E-2,4.9317694E-1,-2.3414725E-2,-2.2047925E-1,-6.41861E-2,1.0591433E-1,3.491066E-1,-1.0998831E-1,3.1376854E-1,7.946885E-1,4.83612E-2,3.978842E-1,1.000574E0,4.8701176E-1,8.880809E-3,3.1646308E-1,-1.0728717E-1,1.6868503E-1],"categories":[],"categories_nodes":[],"categories_segments":[],"categories_sizes":[],"default_left":[0,0,0,0,0,0,0,0,0,0,0,0,0,0,0,0,0,0,0,0,0,0,0,0,0,0,0,0,0,0,0,0,0,0,0,0,0,0,0,0,0,0,0,0,0,0,0,0,0,0,0,0,0,0,0,0,0,0,0,0,0,0,0,0,0,0,0,0,0,0,0,0,0,0,0,0,0,0,0,0,0,0,0,0,0,0,0,0,0,0,0,0,0,0,0,0,0,0,0,0,0,0,0,0,0,0,0,0,0,0,0,0,0,0,0,0,0],"id":11,"left_children":[1,3,5,7,9,11,13,15,17,19,21,23,25,27,29,31,33,35,37,39,41,43,45,47,49,51,53,55,57,59,61,63,65,-1,-1,67,69,71,73,75,77,79,81,83,85,87,89,91,93,95,97,99,101,103,105,107,109,111,-1,113,115,-1,-1,-1,-1,-1,-1,-1,-1,-1,-1,-1,-1,-1,-1,-1,-1,-1,-1,-1,-1,-1,-1,-1,-1,-1,-1,-1,-1,-1,-1,-1,-1,-1,-1,-1,-1,-1,-1,-1,-1,-1,-1,-1,-1,-1,-1,-1,-1,-1,-1,-1,-1,-1,-1,-1,-1],"loss_changes":[2.0229746E3,3.3578326E2,3.4422656E2,3.952069E1,7.831737E1,1.6758264E2,2.855354E2,2.0288696E0,1.7138477E1,3.7553932E1,1.2407945E1,1.0880469E2,7.961467E1,9.381128E1,2.6192554E1,1.6863403E0,2.9363035E1,1.6711906E1,7.504326E0,2.5097069E1,4.1610382E1,1.1857237E1,8.817982E0,9.335394E1,6.1130554E1,9.3554375E1,6.591875E1,5.0071533E1,3.5964355E0,1.907328E1,9.057507E0,4.425049E-2,1.9635925E0,0E0,0E0,4.285166E0,7.644176E0,4.8544273E0,5.8345156E0,2.2778322E1,2.392912E1,2.5835646E1,4.4853622E1,3.3882027E0,1.277916E1,3.4895277E0,6.7987447E0,6.70863E1,5.8388824E1,1.0691486E1,8.203717E1,1.18410034E2,4.8066616E1,8.902652E0,2.806105E1,1.1151733E1,7.6355286E1,1.4835571E1,0E0,1.39086685E1,2.3105616E1,0E0,0E0,0E0,0E0,0E0,0E0,0E0,0E0,0E0,0E0,0E0,0E0,0E0,0E0,0E0,0E0,0E0,0E0,0E0,0E0,0E0,0E0,0E0,0E0,0E0,0E0,0E0,0E0,0E0,0E0,0E0,0E0,0E0,0E0,0E0,0E0,0E0,0E0,0E0,0E0,0E0,0E0,0E0,0E0,0E0,0E0,0E0,0E0,0E0,0E0,0E0,0E0,0E0,0E0,0E0,0E0],"parents":[2147483647,0,0,1,1,2,2,3,3,4,4,5,5,6,6,7,7,8,8,9,9,10,10,11,11,12,12,13,13,14,14,15,15,16,16,17,17,18,18,19,19,20,20,21,21,22,22,23,23,24,24,25,25,26,26,27,27,28,28,29,29,30,30,31,31,32,32,35,35,36,36,37,37,38,38,39,39,40,40,41,41,42,42,43,43,44,44,45,45,46,46,47,47,48,48,49,49,50,50,51,51,52,52,53,53,54,54,55,55,56,56,57,57,59,59,60,60],"right_children":[2,4,6,8,10,12,14,16,18,20,22,24,26,28,30,32,34,36,38,40,42,44,46,48,50,52,54,56,58,60,62,64,66,-1,-1,68,70,72,74,76,78,80,82,84,86,88,90,92,94,96,98,100,102,104,106,108,110,112,-1,114,116,-1,-1,-1,-1,-1,-1,-1,-1,-1,-1,-1,-1,-1,-1,-1,-1,-1,-1,-1,-1,-1,-1,-1,-1,-1,-1,-1,-1,-1,-1,-1,-1,-1,-1,-1,-1,-1,-1,-1,-1,-1,-1,-1,-1,-1,-1,-1,-1,-1,-1,-1,-1,-1,-1,-1,-1],"split_conditions":[4E0,1.995E0,1.2035E1,9.2E-1,3.29E0,7.68E0,1.495E1,3.2465754E0,8.5E-1,2.5E-1,3.3333334E-1,3.611111E-1,3.26E0,1.735E1,4.868421E-1,7.3E-1,3.4266667E0,1E-2,2.5E-1,3.075E0,3.9473683E-2,2.48E0,3.82E0,7.995E0,1E-2,2.78E0,3.508772E-2,1.61E-1,3E0,1.3105E1,4.0425533E-1,3.8E-1,1.5396825E0,3.2826388E-1,-7.5552694E-2,1.79E-1,1.495E0,1.51E0,3.75E-1,1.2676056E-1,1.48E0,1.52E-1,1.0416666E0,-1.2987013E-2,5.479452E-2,1.5068494E-1,3.1233332E0,1E-2,2.5E-1,1.904762E-1,1.2307693E0,2.69E0,3.18E0,1.4E0,1.8571428E0,1.46E-1,5.522388E-1,5.185185E-1,4.8696032E-1,6.779661E-2,7.5E-1,3.3651692E-1,1.8429757E-5,-7.6650225E-2,-6.884E-2,-4.4967927E-2,-9.7470485E-2,-7.573946E-2,-2.4692496E-2,4.5547285E-3,7.918485E-2,-3.4475427E-2,-1.0602826E-1,-1.01955704E-1,-2.464247E-2,-2.0003238E-1,1.7516585E-2,5.0364267E-2,1.8236195E-1,-2.944871E-1,2.5706757E-2,2.220006E-1,6.374099E-2,1.4154528E-1,-3.5986584E-2,-9.537448E-2,-1.8097868E-2,1.5839691E-1,2.5323719E-2,-6.164297E-2,3.534968E-2,1.1177726E-1,3.3165342E-1,3.00586E-1,9.600534E-2,-9.436263E-2,1.8167429E-1,5.387007E-1,-2.2556484E-1,4.6607956E-2,4.9317694E-1,-2.3414725E-2,-2.2047925E-1,-6.41861E-2,1.0591433E-1,3.491066E-1,-1.0998831E-1,3.1376854E-1,7.946885E-1,4.83612E-2,3.978842E-1,1.000574E0,4.8701176E-1,8.880809E-3,3.1646308E-1,-1.0728717E-1,1.6868503E-1],"split_indices":[10,10,10,10,12,12,12,4,12,11,11,3,9,10,0,10,4,12,11,10,0,9,12,10,12,9,3,8,9,10,3,10,5,0,0,8,10,12,6,5,12,8,5,2,2,1,10,13,0,5,5,9,9,5,5,8,6,6,0,2,1,0,0,0,0,0,0,0,0,0,0,0,0,0,0,0,0,0,0,0,0,0,0,0,0,0,0,0,0,0,0,0,0,0,0,0,0,0,0,0,0,0,0,0,0,0,0,0,0,0,0,0,0,0,0,0,0],"split_type":[0,0,0,0,0,0,0,0,0,0,0,0,0,0,0,0,0,0,0,0,0,0,0,0,0,0,0,0,0,0,0,0,0,0,0,0,0,0,0,0,0,0,0,0,0,0,0,0,0,0,0,0,0,0,0,0,0,0,0,0,0,0,0,0,0,0,0,0,0,0,0,0,0,0,0,0,0,0,0,0,0,0,0,0,0,0,0,0,0,0,0,0,0,0,0,0,0,0,0,0,0,0,0,0,0,0,0,0,0,0,0,0,0,0,0,0,0],"sum_hessian":[2.624E3,2.02E3,6.04E2,1.59E3,4.3E2,5.25E2,7.9E1,1.312E3,2.78E2,3.04E2,1.26E2,3.8E2,1.45E2,5.5E1,2.4E1,1.293E3,1.9E1,1.54E2,1.24E2,2.14E2,9E1,9.1E1,3.5E1,3.54E2,2.6E1,1.18E2,2.7E1,3.7E1,1.8E1,2E1,4E0,1.239E3,5.4E1,1E0,1.8E1,9.4E1,6E1,5.4E1,7E1,1.33E2,8.1E1,1.7E1,7.3E1,4E0,8.7E1,8E0,2.7E1,2.77E2,7.7E1,1E1,1.6E1,4.7E1,7.1E1,1.1E1,1.6E1,6E0,3.1E1,9E0,9E0,5E0,1.5E1,3E0,1E0,1.128E3,1.11E2,4.5E1,9E0,2.1E1,7.3E1,4E1,2E1,1.4E1,4E1,1.1E1,5.9E1,4E0,1.29E2,6.4E1,1.7E1,2E0,1.5E1,3.7E1,3.6E1,3E0,1E0,4.8E1,3.9E1,4E0,4E0,1.3E1,1.4E1,2.63E2,1.4E1,5.7E1,2E1,1E0,9E0,1.5E1,1E0,4.1E1,6E0,5.6E1,1.5E1,7E0,4E0,1.5E1,1E0,3E0,3E0,9E0,2.2E1,4E0,5E0,3E0,2E0,1.2E1,3E0],"tree_param":{"num_deleted":"0","num_feature":"14","num_nodes":"117","size_leaf_vector":"1"}},{"base_weights":[1.835845E-2,-3.6353365E-1,1.6914464E0,-6.0706735E-1,3.4417745E-1,1.545307E0,5.421458E0,-6.722534E-1,-2.9812017E-1,6.216791E-1,-2.8182736E-1,2.017236E0,9.3889093E-1,6.392358E0,-1.563827E-1,-6.769015E-1,-3.3790246E-1,-9.555915E-2,-5.469109E-1,5.6291646E-1,2.739606E0,-4.7939593E-1,7.749923E-1,1.852481E0,4.826969E0,2.3697129E-1,1.6251838E0,7.545442E0,4.296093E-1,-6.841767E-1,-5.005728E-1,3.118507E-1,-6.839507E-2,-3.3202147E-1,2.7426842E-1,-7.985294E-1,-3.4429222E-1,2.4025162E-1,9.229283E-1,-7.428823E-2,3.2090914E0,-5.239063E-1,2.920539E-1,-9.4145703E-1,1.4228225E0,1.2362449E0,2.4837165E0,6.697834E-1,1.2161771E0,7.5243674E-2,2.8659818E0,-1.5689789E0,1.9409801E0,1.9103222E-1,8.011042E-1,-6.922285E-2,-6.360366E-2,-5.6253996E-2,4.7073961E-4,-6.850978E-2,-2.225661E-2,-4.002143E-2,4.306589E-2,-8.6348526E-2,2.4552917E-2,-1.2050109E-1,-2.4630263E-2,-2.0363884E-1,3.101453E-2,4.160175E-2,1.8174995E-1,1.1704116E-1,3.6243698E-1,-6.360421E-2,7.439017E-2,6.3129547E-3,-1.2868409E-1,3.339503E-2,2.120908E-1,-2.8928158E-1,1.4260684E-1,2.8390685E-1,-1.8156655E-1,1.823484E-1,-9.1017865E-2,9.042012E-2,-4.3404065E-2,3.9266402E-1,-1.2186543E-1,1.6843481E-1,-2.1176095E-1,9.2901003E-1,1.604018E-1],"categories":[],"categories_nodes":[],"categories_segments":[],"categories_sizes":[],"default_left":[0,0,0,0,0,0,0,0,0,0,0,0,0,0,0,0,0,0,0,0,0,0,0,0,0,0,0,0,0,0,0,0,0,0,0,0,0,0,0,0,0,0,0,0,0,0,0,0,0,0,0,0,0,0,0,0,0,0,0,0,0,0,0,0,0,0,0,0,0,0,0,0,0,0,0,0,0,0,0,0,0,0,0,0,0,0,0,0,0,0,0,0,0],"id":12,"left_children":[1,3,5,7,9,11,13,15,17,19,21,23,25,27,-1,29,31,33,35,37,39,41,43,45,47,49,51,53,-1,55,57,-1,-1,59,61,63,65,67,69,-1,71,73,-1,75,77,79,81,-1,83,85,87,89,91,-1,-1,-1,-1,-1,-1,-1,-1,-1,-1,-1,-1,-1,-1,-1,-1,-1,-1,-1,-1,-1,-1,-1,-1,-1,-1,-1,-1,-1,-1,-1,-1,-1,-1,-1,-1,-1,-1,-1,-1],"loss_changes":[1.67783E3,3.6869644E2,2.576317E2,3.184082E1,9.537233E1,1.3289917E2,1.320727E2,1.8118286E0,1.4008028E1,4.5750748E1,3.565777E1,1.1326843E2,9.9813126E1,6.258789E0,0E0,1.3174438E0,2.6054592E1,1.3645859E1,6.0978966E0,4.287478E1,1.8733757E1,2.317062E1,3.1362648E1,9.456604E1,8.64285E1,4.4003452E1,1.0895935E2,8.309692E0,0E0,4.0405273E-2,1.724741E0,0E0,0E0,3.5189E0,6.6067986E0,3.941986E0,5.6914463E0,3.1978756E1,7.860077E1,0E0,3.377571E0,2.0660824E1,0E0,2.8569813E0,1.449424E1,1.05234634E2,1.9307336E2,0E0,9.4078E0,4.2187786E1,3.0779633E1,2.1415535E1,2.2283035E2,0E0,0E0,0E0,0E0,0E0,0E0,0E0,0E0,0E0,0E0,0E0,0E0,0E0,0E0,0E0,0E0,0E0,0E0,0E0,0E0,0E0,0E0,0E0,0E0,0E0,0E0,0E0,0E0,0E0,0E0,0E0,0E0,0E0,0E0,0E0,0E0,0E0,0E0,0E0,0E0],"parents":[2147483647,0,0,1,1,2,2,3,3,4,4,5,5,6,6,7,7,8,8,9,9,10,10,11,11,12,12,13,13,15,15,16,16,17,17,18,18,19,19,20,20,21,21,22,22,23,23,24,24,25,25,26,26,27,27,29,29,30,30,33,33,34,34,35,35,36,36,37,37,38,38,40,40,41,41,43,43,44,44,45,45,46,46,48,48,49,49,50,50,51,51,52,52],"right_children":[2,4,6,8,10,12,14,16,18,20,22,24,26,28,-1,30,32,34,36,38,40,42,44,46,48,50,52,54,-1,56,58,-1,-1,60,62,64,66,68,70,-1,72,74,-1,76,78,80,82,-1,84,86,88,90,92,-1,-1,-1,-1,-1,-1,-1,-1,-1,-1,-1,-1,-1,-1,-1,-1,-1,-1,-1,-1,-1,-1,-1,-1,-1,-1,-1,-1,-1,-1,-1,-1,-1,-1,-1,-1,-1,-1,-1,-1],"split_conditions":[4.89E0,1.995E0,1.883E1,9.2E-1,3.41E0,5.48E0,9.7E0,3.2465754E0,8.5E-1,3.73E0,2.0833333E0,3.69E0,1E0,3E0,-1.563827E-1,7.3E-1,3.4266667E0,1E-2,2.5E-1,3.075E0,1.3235295E-1,3.9473686E-1,4.0350878E-1,1.7142857E0,7.619048E-1,2.97E-1,2.57E0,3.0769232E-1,4.296093E-1,2.1E-1,1.2727273E-1,3.118507E-1,-6.839507E-2,1.79E-1,5.2E-1,3.49E0,1.02E0,2.1052632E-1,9.3E-1,-7.428823E-2,5.0793654E-1,1E-2,2.920539E-1,4.1666668E-2,2.78E0,2.48E0,3.59E0,6.697834E-1,1E-1,1.0344828E-1,3.015873E-1,7.36E0,1.7741935E-1,1.9103222E-1,8.011042E-1,-6.922285E-2,-6.360366E-2,-5.6253996E-2,4.7073961E-4,-6.850978E-2,-2.225661E-2,-4.002143E-2,4.306589E-2,-8.6348526E-2,2.4552917E-2,-1.2050109E-1,-2.4630263E-2,-2.0363884E-1,3.101453E-2,4.160175E-2,1.8174995E-1,1.1704116E-1,3.6243698E-1,-6.360421E-2,7.439017E-2,6.3129547E-3,-1.2868409E-1,3.339503E-2,2.120908E-1,-2.8928158E-1,1.4260684E-1,2.8390685E-1,-1.8156655E-1,1.823484E-1,-9.1017865E-2,9.042012E-2,-4.3404065E-2,3.9266402E-1,-1.2186543E-1,1.6843481E-1,-2.1176095E-1,9.2901003E-1,1.604018E-1],"split_indices":[10,10,10,10,12,12,12,4,12,9,5,9,7,9,0,10,4,12,11,10,1,3,6,4,6,8,9,0,0,10,2,0,0,8,5,9,12,5,12,0,6,13,0,0,9,9,9,0,0,0,0,12,5,0,0,0,0,0,0,0,0,0,0,0,0,0,0,0,0,0,0,0,0,0,0,0,0,0,0,0,0,0,0,0,0,0,0,0,0,0,0,0,0],"split_type":[0,0,0,0,0,0,0,0,0,0,0,0,0,0,0,0,0,0,0,0,0,0,0,0,0,0,0,0,0,0,0,0,0,0,0,0,0,0,0,0,0,0,0,0,0,0,0,0,0,0,0,0,0,0,0,0,0,0,0,0,0,0,0,0,0,0,0,0,0,0,0,0,0,0,0,0,0,0,0,0,0,0,0,0,0,0,0,0,0,0,0,0,0],"sum_hessian":[2.624E3,2.137E3,4.87E2,1.59E3,5.47E2,4.7E2,1.7E1,1.312E3,2.78E2,3.79E2,1.68E2,2.63E2,2.07E2,1.5E1,2E0,1.293E3,1.9E1,1.54E2,1.24E2,3.7E2,9E0,1.42E2,2.6E1,2.5E2,1.3E1,1.03E2,1.04E2,8E0,7E0,1.239E3,5.4E1,1E0,1.8E1,9.4E1,6E1,5.4E1,7E1,1.96E2,1.74E2,1E0,8E0,1.41E2,1E0,7E0,1.9E1,1.28E2,1.22E2,8E0,5E0,9.8E1,5E0,9E0,9.5E1,1E0,7E0,1.05E3,1.89E2,4.8E1,6E0,2.1E1,7.3E1,1.1E1,4.9E1,5.1E1,3E0,6E0,6.4E1,5E0,1.91E2,1.12E2,6.2E1,2E0,6E0,1.3E2,1.1E1,2E0,5E0,8E0,1.1E1,5E0,1.23E2,1.13E2,9E0,4E0,1E0,3.7E1,6.1E1,4E0,1E0,1E0,8E0,3E0,9.2E1],"tree_param":{"num_deleted":"0","num_feature":"14","num_nodes":"93","size_leaf_vector":"1"}},{"base_weights":[1.8041912E-2,-3.2687995E-1,1.5291585E0,-5.4651135E-1,3.1136903E-1,1.3951939E0,4.94961E0,-5.955983E-1,-2.0602915E-1,6.436663E-1,-1.3066666E-1,1.1316407E0,2.3494816E0,5.841981E0,-1.4595717E-1,-5.9835035E-1,2.8637892E-1,-3.7469976E-3,-5.4851025E-1,3.6802158E-1,1.4837201E0,-2.5185865E-1,1.6716862E0,6.327587E-1,1.7306901E0,-2.1478643E0,2.5090723E0,2.7781177E-1,6.335325E-1,-6.112095E-1,-4.6719345E-1,4.3966016E-1,3.763807E-2,-7.316322E-1,4.440861E-2,-3.101672E-1,-1.0420657E0,4.1963974E-1,-2.7436462E-1,8.08173E-1,2.777748E0,-1.4980781E-1,-1.5564005E0,2.987138E0,-2.584216E-1,1.4922506E0,1.4241393E-1,1.9439398E0,-1.2035503E0,-6.5216616E-2,-2.4290419E-1,2.9673376E0,9.7244847E-1,-6.1586615E-2,-2.9193942E-2,-5.296073E-2,-8.126105E-3,5.2264E-2,1.3685024E-2,-1.0458112E-3,6.6915215E-3,-3.812781E-3,-1.1401093E-1,1.7247846E-3,1.10698275E-1,-7.4372165E-2,-1.5954365E-3,-7.784413E-2,-1.8881506E-1,1.4612734E-2,1.14387386E-1,9.5670216E-2,-1.9367032E-1,3.5227856E-1,-1.0559654E-1,1.13427915E-1,-2.2766104E-2,9.882011E-2,-1.9905008E-1,5.1467266E-2,3.2318625E-1,-9.28052E-2,9.437695E-2,9.160636E-2,2.520747E-1,-5.0027944E-2,1.16036974E-1,2.3701273E-1,5.4692823E-2,1.1294788E-1,-1.783104E-1,4.2517385E-1,2.1990488E-1,2.8415975E-1,-2.4585326E-1],"categories":[],"categories_nodes":[],"categories_segments":[],"categories_sizes":[],"default_left":[0,0,0,0,0,0,0,0,0,0,0,0,0,0,0,0,0,0,0,0,0,0,0,0,0,0,0,0,0,0,0,0,0,0,0,0,0,0,0,0,0,0,0,0,0,0,0,0,0,0,0,0,0,0,0,0,0,0,0,0,0,0,0,0,0,0,0,0,0,0,0,0,0,0,0,0,0,0,0,0,0,0,0,0,0,0,0,0,0,0,0,0,0,0,0],"id":13,"left_children":[1,3,5,7,9,11,13,15,17,19,21,23,25,27,-1,29,31,33,35,37,39,41,43,45,47,49,51,-1,-1,53,55,57,59,61,63,65,67,69,-1,71,73,75,77,79,81,83,85,87,89,-1,-1,91,93,-1,-1,-1,-1,-1,-1,-1,-1,-1,-1,-1,-1,-1,-1,-1,-1,-1,-1,-1,-1,-1,-1,-1,-1,-1,-1,-1,-1,-1,-1,-1,-1,-1,-1,-1,-1,-1,-1,-1,-1,-1,-1],"loss_changes":[1.3686946E3,2.9987396E2,2.1670532E2,2.6468048E1,8.057831E1,1.15800476E2,1.114754E2,3.545166E0,1.39920635E1,7.193114E1,5.1970688E1,1.0978006E2,7.788043E1,6.5844116E0,0E0,2.0520935E0,1.740886E-1,4.519115E0,8.499453E0,3.921794E1,6.506673E1,2.9321611E1,3.8856396E1,8.576273E1,1.0746155E2,9.808731E-2,6.6124146E1,0E0,0E0,1.691925E0,3.0401669E0,3.8579106E-3,4.924163E-3,2.2227755E0,3.4730062E0,6.6211123E0,3.8833542E0,4.6185207E1,0E0,2.3052937E1,7.79827E1,2.0952091E1,1.9640812E1,3.7822952E0,6.511033E0,4.1543686E1,8.6285095E1,9.217975E1,1.8239367E1,0E0,0E0,6.4659546E1,1.608985E2,0E0,0E0,0E0,0E0,0E0,0E0,0E0,0E0,0E0,0E0,0E0,0E0,0E0,0E0,0E0,0E0,0E0,0E0,0E0,0E0,0E0,0E0,0E0,0E0,0E0,0E0,0E0,0E0,0E0,0E0,0E0,0E0,0E0,0E0,0E0,0E0,0E0,0E0,0E0,0E0,0E0,0E0],"parents":[2147483647,0,0,1,1,2,2,3,3,4,4,5,5,6,6,7,7,8,8,9,9,10,10,11,11,12,12,13,13,15,15,16,16,17,17,18,18,19,19,20,20,21,21,22,22,23,23,24,24,25,25,26,26,29,29,30,30,31,31,32,32,33,33,34,34,35,35,36,36,37,37,39,39,40,40,41,41,42,42,43,43,44,44,45,45,46,46,47,47,48,48,51,51,52,52],"right_children":[2,4,6,8,10,12,14,16,18,20,22,24,26,28,-1,30,32,34,36,38,40,42,44,46,48,50,52,-1,-1,54,56,58,60,62,64,66,68,70,-1,72,74,76,78,80,82,84,86,88,90,-1,-1,92,94,-1,-1,-1,-1,-1,-1,-1,-1,-1,-1,-1,-1,-1,-1,-1,-1,-1,-1,-1,-1,-1,-1,-1,-1,-1,-1,-1,-1,-1,-1,-1,-1,-1,-1,-1,-1,-1,-1,-1,-1,-1,-1],"split_conditions":[4.89E0,1.995E0,1.883E1,1.23E0,2.31E0,3.31E0,9.7E0,9.025E-1,1.51E0,9.3E-1,5.675E-1,1E0,-3.1034482E-1,2.8985508E-2,-1.4595717E-1,7.3E-1,4.7E-1,1.25E-1,5.882353E-2,2.42E0,3.7E0,2.4868422E0,5.9E0,1.5E-1,1.7741935E0,3.783784E-1,1.7333333E-1,2.7781177E-1,6.335325E-1,3.2465754E0,1.0909091E-1,1.3333334E-2,5.970149E-2,1.21E-1,7.5E-1,3.3333334E-1,1.9E0,2.5E-1,-2.7436462E-1,3.61E0,2.4E0,-1.67E0,4.117647E-1,1.63E-1,3.015873E-1,8.575E0,1.3466667E0,3.16E0,1E-2,-6.5216616E-2,-2.4290419E-1,7.2E-1,2.16E-1,-6.1586615E-2,-2.9193942E-2,-5.296073E-2,-8.126105E-3,5.2264E-2,1.3685024E-2,-1.0458112E-3,6.6915215E-3,-3.812781E-3,-1.1401093E-1,1.7247846E-3,1.10698275E-1,-7.4372165E-2,-1.5954365E-3,-7.784413E-2,-1.8881506E-1,1.4612734E-2,1.14387386E-1,9.5670216E-2,-1.9367032E-1,3.5227856E-1,-1.0559654E-1,1.13427915E-1,-2.2766104E-2,9.882011E-2,-1.9905008E-1,5.1467266E-2,3.2318625E-1,-9.28052E-2,9.437695E-2,9.160636E-2,2.520747E-1,-5.0027944E-2,1.16036974E-1,2.3701273E-1,5.4692823E-2,1.1294788E-1,-1.783104E-1,4.2517385E-1,2.1990488E-1,2.8415975E-1,-2.4585326E-1],"split_indices":[10,10,10,10,12,9,12,13,12,12,13,7,2,3,0,10,12,8,3,13,10,4,12,12,5,1,2,0,0,4,2,0,0,8,11,11,10,11,0,10,5,13,5,8,1,10,5,9,12,0,0,5,8,0,0,0,0,0,0,0,0,0,0,0,0,0,0,0,0,0,0,0,0,0,0,0,0,0,0,0,0,0,0,0,0,0,0,0,0,0,0,0,0,0,0],"split_type":[0,0,0,0,0,0,0,0,0,0,0,0,0,0,0,0,0,0,0,0,0,0,0,0,0,0,0,0,0,0,0,0,0,0,0,0,0,0,0,0,0,0,0,0,0,0,0,0,0,0,0,0,0,0,0,0,0,0,0,0,0,0,0,0,0,0,0,0,0,0,0,0,0,0,0,0,0,0,0,0,0,0,0,0,0,0,0,0,0,0,0,0,0,0,0],"sum_hessian":[2.624E3,2.137E3,4.87E2,1.59E3,5.47E2,4.7E2,1.7E1,1.389E3,2.01E2,3.12E2,2.35E2,3.7E2,1E2,1.5E1,2E0,1.385E3,4E0,1.27E2,7.4E1,2.36E2,7.6E1,2.21E2,1.4E1,2.03E2,1.67E2,3E0,9.7E1,3E0,1.2E1,1.258E3,1.27E2,2E0,2E0,7E0,1.2E2,5.1E1,2.3E1,2.33E2,3E0,5.1E1,2.5E1,2.06E2,1.5E1,8E0,6E0,7.3E1,1.3E2,1.56E2,1.1E1,1E0,2E0,7.4E1,2.3E1,1.239E3,1.9E1,1.09E2,1.8E1,1E0,1E0,1E0,1E0,3E0,4E0,1.18E2,2E0,2E1,3.1E1,1.9E1,4E0,1.7E2,6.3E1,4.9E1,2E0,2.1E1,4E0,1.1E1,1.95E2,2E0,1.3E1,1E0,7E0,4E0,2E0,4.8E1,2.5E1,8E1,5E1,1.19E2,3.7E1,2E0,9E0,2.6E1,4.8E1,1.5E1,8E0],"tree_param":{"num_deleted":"0","num_feature":"14","num_nodes":"95","size_leaf_vector":"1"}},{"base_weights":[1.6892342E-2,-2.9421923E-1,1.3798834E0,-4.921294E-1,2.8090727E-1,1.1030723E0,2.7778316E0,-5.360962E-1,-1.8714911E-1,5.793103E-1,-1.1604636E-1,1.3677294E0,1.0781542E-1,3.77444E0,4.343152E-1,-5.386248E-1,2.7205998E-1,5.5000603E-2,-4.298434E-1,3.3060607E-1,1.337279E0,-2.267159E-1,1.5295991E0,1.5541811E0,-5.0508755E-1,1.131721E0,-5.084882E-1,4.9574933E0,2.4143333E0,-7.8967735E-2,2.0728726E0,-5.6237817E-2,-4.7887576E-1,4.1767716E-1,3.5756152E-2,-1.5993474E-1,5.092574E-1,-5.771035E-1,-2.5304366E-2,3.7822706E-1,-2.5378728E-1,1.050842E0,4.0515275E0,-1.1116742E-1,-1.221628E0,2.7300525E0,-2.3235491E-1,8.6993694E-1,1.9644607E0,1.1012762E-1,-1.4930494E0,-9.228253E-1,2.5133173E0,-1.118057E0,1.1915659E0,7.015907E-1,5.8149066E0,3.062303E0,-2.2390602E0,1.0113827E0,-8.9014995E-1,-1.4695205E-1,3.0752552E0,-4.9420163E-2,1.1657683E-1,4.96508E-2,1.3000774E-2,-9.9352E-4,6.356943E-3,-5.2912842E-2,-3.153056E-3,6.2032856E-2,-1.5225096E-1,6.1024018E-2,-6.1856087E-2,2.0145543E-2,-6.173858E-2,1.3160013E-2,1.0312736E-1,7.522572E-2,3.024176E-1,1.17621325E-1,4.334711E-1,-2.3732204E-2,1.17758036E-1,-5.83995E-2,-4.1043863E-1,4.8893906E-2,2.9490742E-1,9.388289E-2,-8.8859424E-2,1.2438742E-1,-1.4724999E-2,5.165471E-1,1.8455252E-1,-2.8801692E-1,-2.224016E-2,9.730426E-2,-1.7784767E-1,4.00128E-3,4.533293E-1,-1.6391686E-1,1.236424E-1,2.1486354E-1,-1.9775343E-1,-2.2471403E-1,2.7377412E-1,-1.8666707E-1,6.230048E-1,3.845739E-1,1.24222375E-1,-5.337715E-2,-2.629566E-1,2.852328E-1,7.7922954E-3,-1.2147518E-1,1.3402358E-1,3.886437E-1,1.23898804E-1],"categories":[],"categories_nodes":[],"categories_segments":[],"categories_sizes":[],"default_left":[0,0,0,0,0,0,0,0,0,0,0,0,0,0,0,0,0,0,0,0,0,0,0,0,0,0,0,0,0,0,0,0,0,0,0,0,0,0,0,0,0,0,0,0,0,0,0,0,0,0,0,0,0,0,0,0,0,0,0,0,0,0,0,0,0,0,0,0,0,0,0,0,0,0,0,0,0,0,0,0,0,0,0,0,0,0,0,0,0,0,0,0,0,0,0,0,0,0,0,0,0,0,0,0,0,0,0,0,0,0,0,0,0,0,0,0,0,0,0],"id":14,"left_children":[1,3,5,7,9,11,13,15,17,19,21,23,25,27,29,31,33,35,37,39,41,43,45,47,49,51,53,55,57,59,61,-1,63,65,67,69,71,73,75,77,-1,79,81,83,85,87,89,91,93,-1,95,97,99,101,103,105,107,109,111,113,115,-1,117,-1,-1,-1,-1,-1,-1,-1,-1,-1,-1,-1,-1,-1,-1,-1,-1,-1,-1,-1,-1,-1,-1,-1,-1,-1,-1,-1,-1,-1,-1,-1,-1,-1,-1,-1,-1,-1,-1,-1,-1,-1,-1,-1,-1,-1,-1,-1,-1,-1,-1,-1,-1,-1,-1,-1,-1],"loss_changes":[1.113517E3,2.4349261E2,1.8577594E2,2.1233398E1,6.497901E1,1.0758386E2,1.8520624E2,2.9870605E0,1.1894849E1,5.8561516E1,4.3327766E1,1.1357324E2,5.5475662E1,7.813928E1,2.1189777E1,1.6977844E0,1.5711495E-1,1.0040304E1,6.0022163E0,3.3334038E1,5.5606964E1,2.5385439E1,3.2361496E1,8.082611E1,4.9255043E1,9.5991615E1,5.832874E1,1.01743286E2,9.1283905E1,1.858974E1,2.5824152E1,0E0,1.06835785E1,3.4817457E-3,4.4440534E-3,3.3017378E0,8.391587E0,4.020054E0,3.8836634E0,3.7552063E1,0E0,3.9558792E1,6.011505E-1,3.2795757E1,3.9880318E1,2.9757614E0,6.214276E0,4.2783943E1,6.0137634E1,0E0,3.2847717E1,2.444136E1,9.973889E1,5.2331535E1,4.9744743E1,4.217645E1,8.816406E1,3.0870605E1,1.2601109E0,1.5243773E1,1.0315904E1,0E0,2.6324844E0,0E0,0E0,0E0,0E0,0E0,0E0,0E0,0E0,0E0,0E0,0E0,0E0,0E0,0E0,0E0,0E0,0E0,0E0,0E0,0E0,0E0,0E0,0E0,0E0,0E0,0E0,0E0,0E0,0E0,0E0,0E0,0E0,0E0,0E0,0E0,0E0,0E0,0E0,0E0,0E0,0E0,0E0,0E0,0E0,0E0,0E0,0E0,0E0,0E0,0E0,0E0,0E0,0E0,0E0,0E0,0E0],"parents":[2147483647,0,0,1,1,2,2,3,3,4,4,5,5,6,6,7,7,8,8,9,9,10,10,11,11,12,12,13,13,14,14,15,15,16,16,17,17,18,18,19,19,20,20,21,21,22,22,23,23,24,24,25,25,26,26,27,27,28,28,29,29,30,30,32,32,33,33,34,34,35,35,36,36,37,37,38,38,39,39,41,41,42,42,43,43,44,44,45,45,46,46,47,47,48,48,50,50,51,51,52,52,53,53,54,54,55,55,56,56,57,57,58,58,59,59,60,60,62,62],"right_children":[2,4,6,8,10,12,14,16,18,20,22,24,26,28,30,32,34,36,38,40,42,44,46,48,50,52,54,56,58,60,62,-1,64,66,68,70,72,74,76,78,-1,80,82,84,86,88,90,92,94,-1,96,98,100,102,104,106,108,110,112,114,116,-1,118,-1,-1,-1,-1,-1,-1,-1,-1,-1,-1,-1,-1,-1,-1,-1,-1,-1,-1,-1,-1,-1,-1,-1,-1,-1,-1,-1,-1,-1,-1,-1,-1,-1,-1,-1,-1,-1,-1,-1,-1,-1,-1,-1,-1,-1,-1,-1,-1,-1,-1,-1,-1,-1,-1,-1,-1],"split_conditions":[4.89E0,1.995E0,1.2035E1,1.23E0,2.31E0,9.7E0,1.495E1,9.025E-1,7.5E-1,9.3E-1,5.675E-1,2.9032257E-1,5.0793654E-1,3.04E0,3.31E0,1.2E-1,4.7E-1,2.5E-1,1.0178572E0,2.42E0,4.52E0,4.52E0,5.9E0,1.14754096E-1,1E-2,9.245283E-1,1.0033334E1,6.0606062E-2,4.9E0,2.62E0,-2.5E-1,-5.6237817E-2,6.849315E-1,1.3333334E-2,5.970149E-2,1.81E-1,2.1066666E0,-8.2E-1,2.8E0,2.5E-1,-2.5378728E-1,1E-2,7.462686E-2,4.27E0,1.8815789E0,1.63E-1,5.540541E-1,9.210526E-2,1.7741935E-1,1.1012762E-1,2.49E-1,2.78E0,6.495E0,3.3E0,1.7142858E-1,2.63E0,2.45E0,2.753623E-1,7.936508E-2,1.26E1,5.30303E-1,-1.4695205E-1,-6.5789476E-2,-4.9420163E-2,1.1657683E-1,4.96508E-2,1.3000774E-2,-9.9352E-4,6.356943E-3,-5.2912842E-2,-3.153056E-3,6.2032856E-2,-1.5225096E-1,6.1024018E-2,-6.1856087E-2,2.0145543E-2,-6.173858E-2,1.3160013E-2,1.0312736E-1,7.522572E-2,3.024176E-1,1.17621325E-1,4.334711E-1,-2.3732204E-2,1.17758036E-1,-5.83995E-2,-4.1043863E-1,4.8893906E-2,2.9490742E-1,9.388289E-2,-8.8859424E-2,1.2438742E-1,-1.4724999E-2,5.165471E-1,1.8455252E-1,-2.8801692E-1,-2.224016E-2,9.730426E-2,-1.7784767E-1,4.00128E-3,4.533293E-1,-1.6391686E-1,1.236424E-1,2.1486354E-1,-1.9775343E-1,-2.2471403E-1,2.7377412E-1,-1.8666707E-1,6.230048E-1,3.845739E-1,1.24222375E-1,-5.337715E-2,-2.629566E-1,2.852328E-1,7.7922954E-3,-1.2147518E-1,1.3402358E-1,3.886437E-1,1.23898804E-1],"split_indices":[10,10,10,10,12,12,12,13,12,12,13,2,6,9,9,10,12,11,6,13,10,10,12,0,12,5,10,3,12,9,2,0,1,0,0,8,6,13,12,11,0,13,5,10,4,8,5,0,5,0,8,9,10,9,2,9,9,3,0,10,0,0,2,0,0,0,0,0,0,0,0,0,0,0,0,0,0,0,0,0,0,0,0,0,0,0,0,0,0,0,0,0,0,0,0,0,0,0,0,0,0,0,0,0,0,0,0,0,0,0,0,0,0,0,0,0,0,0,0],"split_type":[0,0,0,0,0,0,0,0,0,0,0,0,0,0,0,0,0,0,0,0,0,0,0,0,0,0,0,0,0,0,0,0,0,0,0,0,0,0,0,0,0,0,0,0,0,0,0,0,0,0,0,0,0,0,0,0,0,0,0,0,0,0,0,0,0,0,0,0,0,0,0,0,0,0,0,0,0,0,0,0,0,0,0,0,0,0,0,0,0,0,0,0,0,0,0,0,0,0,0,0,0,0,0,0,0,0,0,0,0,0,0,0,0,0,0,0,0,0,0],"sum_hessian":[2.624E3,2.137E3,4.87E2,1.59E3,5.47E2,4.08E2,7.9E1,1.389E3,2.01E2,3.12E2,2.35E2,3.22E2,8.6E1,5.5E1,2.4E1,1.385E3,4E0,1.01E2,1E2,2.36E2,7.6E1,2.21E2,1.4E1,2.93E2,2.9E1,3.2E1,5.4E1,2.8E1,2.7E1,1.9E1,5E0,9.85E2,4E2,2E0,2E0,6.9E1,3.2E1,7.3E1,2.7E1,2.33E2,3E0,7E1,6E0,1.99E2,2.2E1,8E0,6E0,1.11E2,1.82E2,1.1E1,1.8E1,1.3E1,1.9E1,4E1,1.4E1,5E0,2.3E1,2.4E1,3E0,8E0,1.1E1,1E0,4E0,3.97E2,3E0,1E0,1E0,1E0,1E0,1.7E1,5.2E1,3.1E1,1E0,2E0,7.1E1,2E1,7E0,1.7E2,6.3E1,6.2E1,8E0,1E0,5E0,1.82E2,1.7E1,1.9E1,3E0,1E0,7E0,2E0,4E0,8.1E1,3E1,5E0,1.77E2,8E0,1E1,4E0,9E0,9E0,1E1,3.3E1,7E0,1.1E1,3E0,2E0,3E0,1E0,2.2E1,1.6E1,8E0,1E0,2E0,2E0,6E0,1E1,1E0,2E0,2E0],"tree_param":{"num_deleted":"0","num_feature":"14","num_nodes":"119","size_leaf_vector":"1"}},{"base_weights":[1.6334053E-2,-3.698158E-1,9.15372E-1,-4.7619E-1,2.7479143E-3,7.336276E-1,2.516911E0,-4.9584138E-1,-3.287205E-1,1.5612648E-1,-3.5103452E-1,1.049911E0,2.4702449E-1,3.4091005E0,4.1773024E-1,-4.9988344E-1,-2.2044262E-1,-3.624278E-1,5.127688E-1,-7.210165E-2,3.9465085E-1,-2.3037116E-1,-1.151114E0,8.3354414E-1,1.8933625E0,1.20804325E-1,1.6576332E0,4.478482E0,2.1797738E0,-8.960778E-3,2.1262865E0,-4.933844E-1,-5.534275E-1,2.9188904E-1,-5.3929646E-2,-1.3647233E-1,-3.4175718E-1,8.0768935E-2,-1.4968832E-2,-2.412733E-1,2.416018E-1,-1.6163687E-1,4.504861E-1,-3.0902722E-1,6.779214E-1,-1.8046975E0,-5.297826E-2,5.3077894E-1,1.4814253E0,2.3783414E0,5.211955E-1,-2.9650724E-1,6.887673E-1,-1.1849622E-1,3.6060011E0,9.5431995E-1,5.356336E0,2.7764246E0,-2.0942376E0,1.3902291E0,-5.330969E-1,2.726755E-1,-1.3779449E-2,-5.0129987E-2,-3.9531037E-2,-5.2472007E-2,-7.8242145E-2,-2.644501E-2,-6.2729135E-2,-1.0523716E-2,-7.870389E-2,5.6850266E-2,-1.3419126E-2,3.5688754E-2,2.1377607E-1,-5.0995905E-2,3.7516567E-3,-2.3725614E-2,1.4575146E-1,-7.8619115E-2,-2.1288872E-1,5.582863E-2,-4.0914137E-2,4.5822885E-2,3.7909484E-1,1.2605585E-1,4.112299E-1,1.1639842E-1,4.9917284E-1,2.3923568E-1,-5.4910153E-1,-1.0085284E-2,-1.1093807E-1,1.9734684E-2,2.1208791E-1,1.859452E-1,-8.978259E-2,-6.556242E-2,4.6258765E-1,-2.0973308E-1,2.5944465E-1,-1.773337E-1,5.7610184E-1,9.085112E-2,3.4523627E-1,-5.0708294E-2,-2.4542616E-1,-1.3419896E-2,2.9593903E-1,1.3076901E-1,-1.0584855E-1],"categories":[],"categories_nodes":[],"categories_segments":[],"categories_sizes":[],"default_left":[0,0,0,0,0,0,0,0,0,0,0,0,0,0,0,0,0,0,0,0,0,0,0,0,0,0,0,0,0,0,0,0,0,0,0,0,0,0,0,0,0,0,0,0,0,0,0,0,0,0,0,0,0,0,0,0,0,0,0,0,0,0,0,0,0,0,0,0,0,0,0,0,0,0,0,0,0,0,0,0,0,0,0,0,0,0,0,0,0,0,0,0,0,0,0,0,0,0,0,0,0,0,0,0,0,0,0,0,0,0,0],"id":15,"left_children":[1,3,5,7,9,11,13,15,17,19,21,23,25,27,29,31,33,35,37,39,41,43,45,47,49,51,53,55,57,59,61,63,65,-1,-1,-1,67,-1,-1,69,71,-1,73,75,77,79,81,83,85,87,89,91,93,95,97,99,101,103,105,107,109,-1,-1,-1,-1,-1,-1,-1,-1,-1,-1,-1,-1,-1,-1,-1,-1,-1,-1,-1,-1,-1,-1,-1,-1,-1,-1,-1,-1,-1,-1,-1,-1,-1,-1,-1,-1,-1,-1,-1,-1,-1,-1,-1,-1,-1,-1,-1,-1,-1,-1],"loss_changes":[9.116423E2,7.280374E1,2.2780841E2,3.978241E0,2.2248228E1,1.0901282E2,1.4840527E2,1.2912903E0,5.0361404E0,1.5597715E1,1.1705811E1,7.689465E1,4.983104E1,6.385663E1,1.8244694E1,1.5844727E-1,2.1593914E1,2.9520836E0,1.4885068E0,7.859542E0,1.6448158E1,7.996752E0,1.138796E1,6.6691284E1,5.6656494E1,6.1591766E1,8.002005E1,8.460565E1,7.721709E1,1.6141813E1,7.1732826E0,6.673889E-1,4.177513E-1,0E0,0E0,0E0,3.4321423E0,0E0,0E0,7.044583E0,6.4643354E0,0E0,2.0872978E1,7.0519304E0,6.767E0,1.6281853E0,1.752387E0,5.408293E1,5.8153137E1,1.9729916E2,2.8313205E2,2.3744457E1,7.699605E1,2.170862E1,5.0842407E1,4.047706E1,7.6576965E1,2.8428314E1,1.0411415E0,1.4749587E1,1.6858227E1,0E0,0E0,0E0,0E0,0E0,0E0,0E0,0E0,0E0,0E0,0E0,0E0,0E0,0E0,0E0,0E0,0E0,0E0,0E0,0E0,0E0,0E0,0E0,0E0,0E0,0E0,0E0,0E0,0E0,0E0,0E0,0E0,0E0,0E0,0E0,0E0,0E0,0E0,0E0,0E0,0E0,0E0,0E0,0E0,0E0,0E0,0E0,0E0,0E0,0E0],"parents":[2147483647,0,0,1,1,2,2,3,3,4,4,5,5,6,6,7,7,8,8,9,9,10,10,11,11,12,12,13,13,14,14,15,15,16,16,17,17,18,18,19,19,20,20,21,21,22,22,23,23,24,24,25,25,26,26,27,27,28,28,29,29,30,30,31,31,32,32,36,36,39,39,40,40,42,42,43,43,44,44,45,45,46,46,47,47,48,48,49,49,50,50,51,51,52,52,53,53,54,54,55,55,56,56,57,57,58,58,59,59,60,60],"right_children":[2,4,6,8,10,12,14,16,18,20,22,24,26,28,30,32,34,36,38,40,42,44,46,48,50,52,54,56,58,60,62,64,66,-1,-1,-1,68,-1,-1,70,72,-1,74,76,78,80,82,84,86,88,90,92,94,96,98,100,102,104,106,108,110,-1,-1,-1,-1,-1,-1,-1,-1,-1,-1,-1,-1,-1,-1,-1,-1,-1,-1,-1,-1,-1,-1,-1,-1,-1,-1,-1,-1,-1,-1,-1,-1,-1,-1,-1,-1,-1,-1,-1,-1,-1,-1,-1,-1,-1,-1,-1,-1,-1,-1],"split_conditions":[3.075E0,1.3966666E0,1.2035E1,7.3E-1,2.4E0,4.64E0,1.495E1,3.2465754E0,2.8E0,2.0833333E0,3.943662E-1,7.745E0,4.25E-2,3.04E0,4.868421E-1,2.5490198E-1,3.4266667E0,1.24E-1,7.5E-1,2.5E-1,2.1052632E-1,3.54E0,3.13E0,1.48E0,1.0033334E1,6.495E0,3.030303E-1,1.6944444E0,4.9E0,1.2972972E0,4.0425533E-1,4E-1,4.2E-1,2.9188904E-1,-5.3929646E-2,-1.3647233E-1,2.54E-1,8.0768935E-2,-1.4968832E-2,1.5E0,5E-1,-1.6163687E-1,1E-2,3.3333334E-1,1.9444445E-1,1.795E0,2.3943663E-1,6.666667E-1,1E-2,1E-2,1E-2,9.13E0,1.4533334E0,5.540541E-1,1.5142857E0,2.63E0,2.45E0,1.353E1,7.936508E-2,4.0425533E-1,1.3105E1,2.726755E-1,-1.3779449E-2,-5.0129987E-2,-3.9531037E-2,-5.2472007E-2,-7.8242145E-2,-2.644501E-2,-6.2729135E-2,-1.0523716E-2,-7.870389E-2,5.6850266E-2,-1.3419126E-2,3.5688754E-2,2.1377607E-1,-5.0995905E-2,3.7516567E-3,-2.3725614E-2,1.4575146E-1,-7.8619115E-2,-2.1288872E-1,5.582863E-2,-4.0914137E-2,4.5822885E-2,3.7909484E-1,1.2605585E-1,4.112299E-1,1.1639842E-1,4.9917284E-1,2.3923568E-1,-5.4910153E-1,-1.0085284E-2,-1.1093807E-1,1.9734684E-2,2.1208791E-1,1.859452E-1,-8.978259E-2,-6.556242E-2,4.6258765E-1,-2.0973308E-1,2.5944465E-1,-1.773337E-1,5.7610184E-1,9.085112E-2,3.4523627E-1,-5.0708294E-2,-2.4542616E-1,-1.3419896E-2,2.9593903E-1,1.3076901E-1,-1.0584855E-1],"split_indices":[10,10,10,10,12,12,12,4,5,10,1,10,13,9,0,0,4,8,11,11,5,9,12,12,10,10,1,4,12,4,3,10,10,0,0,0,8,0,0,12,11,0,13,11,1,10,0,11,13,12,12,12,5,5,4,9,9,10,0,1,10,0,0,0,0,0,0,0,0,0,0,0,0,0,0,0,0,0,0,0,0,0,0,0,0,0,0,0,0,0,0,0,0,0,0,0,0,0,0,0,0,0,0,0,0,0,0,0,0,0,0],"split_type":[0,0,0,0,0,0,0,0,0,0,0,0,0,0,0,0,0,0,0,0,0,0,0,0,0,0,0,0,0,0,0,0,0,0,0,0,0,0,0,0,0,0,0,0,0,0,0,0,0,0,0,0,0,0,0,0,0,0,0,0,0,0,0,0,0,0,0,0,0,0,0,0,0,0,0,0,0,0,0,0,0,0,0,0,0,0,0,0,0,0,0,0,0,0,0,0,0,0,0,0,0,0,0,0,0,0,0,0,0,0,0],"sum_hessian":[2.624E3,1.836E3,7.88E2,1.428E3,4.08E2,7.09E2,7.9E1,1.258E3,1.7E2,2.85E2,1.23E2,4.29E2,2.8E2,5.5E1,2.4E1,1.239E3,1.9E1,1.64E2,6E0,1.46E2,1.39E2,1.08E2,1.5E1,3.43E2,8.6E1,2.58E2,2.2E1,2.8E1,2.7E1,2E1,4E0,1.114E3,1.25E2,1E0,1.8E1,2E0,1.62E2,4E0,2E0,9.5E1,5.1E1,3E0,1.36E2,1E2,8E0,9E0,6E0,2.35E2,1.08E2,6.3E1,2.3E1,1.49E2,1.09E2,1.2E1,1E1,6E0,2.2E1,2.4E1,3E0,5E0,1.5E1,3E0,1E0,1.027E3,8.7E1,1.14E2,1.1E1,1.29E2,3.3E1,7.7E1,1.8E1,2.7E1,2.4E1,1.3E2,6E0,6.3E1,3.7E1,4E0,4E0,3E0,6E0,2E0,4E0,2.31E2,4E0,1.01E2,7E0,4.4E1,1.9E1,1.8E1,5E0,1.21E2,2.8E1,8.2E1,2.7E1,3E0,9E0,2E0,8E0,2E0,4E0,1E0,2.1E1,7E0,1.7E1,1E0,2E0,3E0,2E0,3E0,1.2E1],"tree_param":{"num_deleted":"0","num_feature":"14","num_nodes":"111","size_leaf_vector":"1"}},{"base_weights":[1.573858E-2,-2.4047922E-1,1.1382343E0,-3.9029846E-1,2.4855381E-1,9.121906E-1,2.2796547E0,-4.3429735E-1,-1.4211799E-1,4.4070944E-1,-2.7708933E-1,6.365835E-1,1.6940055E0,3.0786984E0,3.9861062E-1,-4.3655944E-1,2.7961296E-1,6.360267E-2,-3.3862036E-1,2.5513667E-1,9.713013E-1,-4.867229E-1,8.840987E-1,7.513544E-1,-1.3452168E0,4.5021267E0,1.3870444E0,4.046098E0,1.9667951E0,-7.1390443E-3,2.0230372E0,-4.476666E-1,-3.4803033E-1,4.1442323E-2,5.159835E-2,-1.7810968E-1,4.273396E-1,-1.383862E0,-2.6611575E-1,1.7386721E-1,1.1781383E0,1.4259361E0,1.13693774E-1,-5.3892326E-1,2.7320585E-1,-1.1115618E-1,1.2784623E0,5.277802E-1,1.8050122E0,-2.1063976E-1,9.028966E-2,1.0575588E-1,4.7673497E-1,-2.1588884E-1,1.5231794E0,5.2702093E-1,4.7572803E0,2.516226E0,-1.9588474E0,1.2982928E0,-4.9622977E-1,2.594249E-1,-1.3090479E-2,-4.516167E-2,-1.8650038E-2,-7.969796E-2,-3.157802E-2,3.7840605E-4,7.3613464E-3,-2.0529386E-2,9.031676E-2,7.113258E-2,1.4818753E-3,-2.381496E-2,-1.5135138E-1,-8.364665E-2,-1.6385918E-2,3.056694E-2,-3.1750884E-2,1.3640714E-2,2.6677045E-1,-2.4307203E-1,1.5290079E-1,4.415424E-2,-2.4555567E-1,1.2836765E-1,-6.168694E-2,3.9537665E-2,2.1176171E-1,9.925234E-3,1.1540864E-1,4.7040412E-1,1.223681E-1,1.8520276E-1,-7.5252517E-3,-1.9575088E-1,2.258663E-1,-1.68467E-1,5.1106113E-1,3.283035E-1,1.0377097E-1,-4.817288E-2,-2.2906439E-1,-1.2413407E-2,2.7620977E-1,1.2096133E-1,-9.8293304E-2],"categories":[],"categories_nodes":[],"categories_segments":[],"categories_sizes":[],"default_left":[0,0,0,0,0,0,0,0,0,0,0,0,0,0,0,0,0,0,0,0,0,0,0,0,0,0,0,0,0,0,0,0,0,0,0,0,0,0,0,0,0,0,0,0,0,0,0,0,0,0,0,0,0,0,0,0,0,0,0,0,0,0,0,0,0,0,0,0,0,0,0,0,0,0,0,0,0,0,0,0,0,0,0,0,0,0,0,0,0,0,0,0,0,0,0,0,0,0,0,0,0,0,0,0,0,0,0],"id":16,"left_children":[1,3,5,7,9,11,13,15,17,19,21,23,25,27,29,31,33,35,37,39,41,43,45,47,49,51,53,55,57,59,61,63,65,-1,67,69,71,73,75,77,79,81,83,85,-1,-1,87,89,91,-1,-1,-1,-1,-1,93,95,97,99,101,103,105,-1,-1,-1,-1,-1,-1,-1,-1,-1,-1,-1,-1,-1,-1,-1,-1,-1,-1,-1,-1,-1,-1,-1,-1,-1,-1,-1,-1,-1,-1,-1,-1,-1,-1,-1,-1,-1,-1,-1,-1,-1,-1,-1,-1,-1,-1],"loss_changes":[7.552326E2,1.567409E2,1.2382977E2,1.7813751E1,5.0826767E1,8.7050385E1,1.1901575E2,2.3668518E0,1.0046837E1,3.5986725E1,3.329255E1,7.0156456E1,8.512561E1,5.227887E1,1.6492205E1,1.2070618E0,1.3230997E-1,1.0802319E1,9.256406E0,2.0348404E1,3.6878204E1,2.0794844E1,1.7948421E1,6.689171E1,3.0992605E1,4.094055E0,5.0112732E1,7.007126E1,6.532125E1,1.40522175E1,6.4913826E0,1.1826172E0,2.0504398E0,0E0,2.8793542E-3,2.3605433E0,5.7298193E0,8.2790756E-1,6.8615932E0,1.6482454E1,3.3774117E1,2.836235E1,2.972329E1,