{"learner":{"attributes":{"scikit_learn":"{\"_estimator_type\": \"regressor\"}"},"feature_names":["goals_pg","assists_pg","plus_minus_pg","pp_points_pg","shots_pg","hits_pg","blocked_shots_pg","pp1_status","team_pp_percentage","opponent_goals_against_per_game","avg_prediction_error","prediction_accuracy","last_prediction_error","prediction_trend"],"feature_types":["float","float","float","float","float","float","float","int","float","float","float","float","float","float"],"gradient_booster":{"model":{"gbtree_model_param":{"num_parallel_tree":"1","num_trees":"100"},"iteration_indptr":[0,1,2,3,4,5,6,7,8,9,10,11,12,13,14,15,16,17,18,19,20,21,22,23,24,25,26,27,28,29,30,31,32,33,34,35,36,37,38,39,40,41,42,43,44,45,46,47,48,49,50,51,52,53,54,55,56,57,58,59,60,61,62,63,64,65,66,67,68,69,70,71,72,73,74,75,76,77,78,79,80,81,82,83,84,85,86,87,88,89,90,91,92,93,94,95,96,97,98,99,100],"tree_info":[0,0,0,0,0,0,0,0,0,0,0,0,0,0,0,0,0,0,0,0,0,0,0,0,0,0,0,0,0,0,0,0,0,0,0,0,0,0,0,0,0,0,0,0,0,0,0,0,0,0,0,0,0,0,0,0,0,0,0,0,0,0,0,0,0,0,0,0,0,0,0,0,0,0,0,0,0,0,0,0,0,0,0,0,0,0,0,0,0,0,0,0,0,0,0,0,0,0,0,0],"trees":[{"base_weights":[-8.417566E-8,-2.204889E0,3.384433E0,-2.859246E0,-4.4404688E-1,2.3100626E0,6.698976E0,-2.9542716E0,-2.2275376E0,1.3571794E-1,-1.1151768E0,3.163637E0,9.666613E-1,6.134018E0,1.772069E1,-2.9641478E0,-1.9480597E0,-2.3157883E0,-1.0293096E0,-7.335787E-1,8.6103797E-1,-1.316767E0,-2.7256054E-1,2.7833328E0,6.6085978E0,-6.5165037E-1,1.6812409E0,5.7176256E0,1.7462486E1,2.1008065E0,2.6065526E0,-2.9658565E-1,-3.4563184E-2,-2.777602E-1,2.572491E0,-2.1013365E0,-2.6365888E0,6.906137E-1,-1.873876E0,-1.1280273E0,-4.9919013E-2,1.13122664E-1,2.2662156E0,-1.7469001E0,-8.7849975E-1,-7.945587E-1,5.607013E-1,1.6159303E0,3.653121E0,5.5667596E0,1.2241099E1,-1.1350378E0,1.450039E0,9.228027E-1,2.787791E0,7.593391E0,3.4790208E0,2.1120145E0,5.7815523E0,7.8543687E-1,-1.7608425E-1,5.354368E-1,-1.4956318E-1,-1.7944263E-1,-2.4314225E-1,-2.655274E-1,-6.456318E-2,1.5436816E-2,7.6698914E-2,3.915763E-3,-2.3033455E-1,-1.5856382E-1,-8.3527654E-2,-2.7307456E-2,2.1469891E-1,-1.4667571E-2,1.3924871E-1,9.084453E-2,3.5484454E-1,-3.534741E-2,-1.9173963E-1,-2.0959914E-1,-5.4653645E-2,-9.759117E-2,2.5043684E-1,-8.9301094E-2,9.552813E-2,1.09134495E-1,3.4900564E-1,2.568175E-1,4.617307E-1,1.9278628E-1,6.236808E-1,1.5436816E-2,1.3732644E0,-1.377074E-1,6.465259E-2,-1.1061734E-1,4.5715785E-1,4.8277434E-2,2.8053385E-1,2.3020504E-1,7.6578635E-1,6.581683E-1,1.0257431E0,6.2906764E-2,4.313123E-1,1.17249094E-1,9.804368E-1],"categories":[],"categories_nodes":[],"categories_segments":[],"categories_sizes":[],"default_left":[0,0,0,0,0,0,0,0,0,0,0,0,0,0,0,0,0,0,0,0,0,0,0,0,0,0,0,0,0,0,0,0,0,0,0,0,0,0,0,0,0,0,0,0,0,0,0,0,0,0,0,0,0,0,0,0,0,0,0,0,0,0,0,0,0,0,0,0,0,0,0,0,0,0,0,0,0,0,0,0,0,0,0,0,0,0,0,0,0,0,0,0,0,0,0,0,0,0,0,0,0,0,0,0,0,0,0,0,0],"id":0,"left_children":[1,3,5,7,9,11,13,15,17,19,21,23,25,27,29,31,33,35,37,39,41,43,45,47,49,51,53,55,57,-1,59,-1,-1,-1,61,63,65,67,69,71,73,75,77,79,81,83,85,87,89,91,93,95,97,99,101,103,105,-1,107,-1,-1,-1,-1,-1,-1,-1,-1,-1,-1,-1,-1,-1,-1,-1,-1,-1,-1,-1,-1,-1,-1,-1,-1,-1,-1,-1,-1,-1,-1,-1,-1,-1,-1,-1,-1,-1,-1,-1,-1,-1,-1,-1,-1,-1,-1,-1,-1,-1,-1],"loss_changes":[2.6237445E4,2.4518066E3,4.9236963E3,8.658203E1,2.2504971E2,1.1998232E3,2.0021895E3,7.6015625E0,1.9505371E1,1.9672281E2,4.51644E1,8.2140137E2,4.740683E2,1.4284922E3,7.4021436E2,4.9316406E0,6.714516E1,7.668457E0,2.4535553E1,3.823664E1,1.7840576E2,3.9184235E1,2.349845E1,5.820093E2,3.0155078E2,1.2965305E2,2.3577448E2,1.2920996E3,3.4786597E2,0E0,1.0550745E2,0E0,0E0,0E0,4.195922E1,7.7938232E0,1.0013428E0,1.2733722E-1,9.127682E0,1.0732491E1,2.6569656E1,3.7430447E1,9.94939E1,2.4980225E1,4.290818E1,2.2186958E1,1.2898797E1,2.409928E2,3.3439746E2,1.220791E2,1.6013123E2,4.53042E1,1.965606E2,1.3946841E2,2.5441425E2,3.9067773E2,3.4197363E2,0E0,6.267009E1,0E0,0E0,0E0,0E0,0E0,0E0,0E0,0E0,0E0,0E0,0E0,0E0,0E0,0E0,0E0,0E0,0E0,0E0,0E0,0E0,0E0,0E0,0E0,0E0,0E0,0E0,0E0,0E0,0E0,0E0,0E0,0E0,0E0,0E0,0E0,0E0,0E0,0E0,0E0,0E0,0E0,0E0,0E0,0E0,0E0,0E0,0E0,0E0,0E0,0E0],"parents":[2147483647,0,0,1,1,2,2,3,3,4,4,5,5,6,6,7,7,8,8,9,9,10,10,11,11,12,12,13,13,14,14,15,15,16,16,17,17,18,18,19,19,20,20,21,21,22,22,23,23,24,24,25,25,26,26,27,27,28,28,30,30,34,34,35,35,36,36,37,37,38,38,39,39,40,40,41,41,42,42,43,43,44,44,45,45,46,46,47,47,48,48,49,49,50,50,51,51,52,52,53,53,54,54,55,55,56,56,58,58],"right_children":[2,4,6,8,10,12,14,16,18,20,22,24,26,28,30,32,34,36,38,40,42,44,46,48,50,52,54,56,58,-1,60,-1,-1,-1,62,64,66,68,70,72,74,76,78,80,82,84,86,88,90,92,94,96,98,100,102,104,106,-1,108,-1,-1,-1,-1,-1,-1,-1,-1,-1,-1,-1,-1,-1,-1,-1,-1,-1,-1,-1,-1,-1,-1,-1,-1,-1,-1,-1,-1,-1,-1,-1,-1,-1,-1,-1,-1,-1,-1,-1,-1,-1,-1,-1,-1,-1,-1,-1,-1,-1,-1],"split_conditions":[2.7325E0,1.21E0,7.715E0,6.45E-1,1.45E0,4.38E0,1.883E1,4.868421E-1,7.125E-1,1.6666667E-1,8.325E-1,4E-1,4E0,6.6825E0,9.84E0,1.1E0,1E0,8.9E-1,9.7E-1,2.02E0,2.175E0,6.760563E-1,1.0638298E-1,3.82E0,3.9075E0,2.0975E0,1.8051949E0,7E0,1.411E1,2.1008065E0,2.0512821E-1,-2.9658565E-1,-3.4563184E-2,-2.777602E-1,5.294118E-1,8E-1,2.93E0,7.6E-1,3.3333335E-2,1.51E0,3.7662336E-1,6E-1,1.2987013E-2,1.71E0,1.6133333E0,3.75E0,1.6133333E0,2.5E-1,1.516129E0,-5.75E-2,1.1111111E-1,3.47E0,3.4625E0,2.5E-3,1.4027778E0,1.1296667E1,2.9032257E-1,2.1120145E0,2.7222223E0,7.8543687E-1,-1.7608425E-1,5.354368E-1,-1.4956318E-1,-1.7944263E-1,-2.4314225E-1,-2.655274E-1,-6.456318E-2,1.5436816E-2,7.6698914E-2,3.915763E-3,-2.3033455E-1,-1.5856382E-1,-8.3527654E-2,-2.7307456E-2,2.1469891E-1,-1.4667571E-2,1.3924871E-1,9.084453E-2,3.5484454E-1,-3.534741E-2,-1.9173963E-1,-2.0959914E-1,-5.4653645E-2,-9.759117E-2,2.5043684E-1,-8.9301094E-2,9.552813E-2,1.09134495E-1,3.4900564E-1,2.568175E-1,4.617307E-1,1.9278628E-1,6.236808E-1,1.5436816E-2,1.3732644E0,-1.377074E-1,6.465259E-2,-1.1061734E-1,4.5715785E-1,4.8277434E-2,2.8053385E-1,2.3020504E-1,7.6578635E-1,6.581683E-1,1.0257431E0,6.2906764E-2,4.313123E-1,1.17249094E-1,9.804368E-1],"split_indices":[10,10,10,10,12,12,10,0,13,11,13,11,10,13,12,12,7,12,12,10,10,6,0,10,13,13,4,12,12,0,0,0,0,0,0,11,12,5,1,10,2,11,3,12,10,9,10,11,4,13,1,9,10,13,6,10,1,0,4,0,0,0,0,0,0,0,0,0,0,0,0,0,0,0,0,0,0,0,0,0,0,0,0,0,0,0,0,0,0,0,0,0,0,0,0,0,0,0,0,0,0,0,0,0,0,0,0,0,0],"split_type":[0,0,0,0,0,0,0,0,0,0,0,0,0,0,0,0,0,0,0,0,0,0,0,0,0,0,0,0,0,0,0,0,0,0,0,0,0,0,0,0,0,0,0,0,0,0,0,0,0,0,0,0,0,0,0,0,0,0,0,0,0,0,0,0,0,0,0,0,0,0,0,0,0,0,0,0,0,0,0,0,0,0,0,0,0,0,0,0,0,0,0,0,0,0,0,0,0,0,0,0,0,0,0,0,0,0,0,0,0],"sum_hessian":[3.514E3,2.128E3,1.386E3,1.551E3,5.77E2,1.048E3,3.38E2,1.345E3,2.06E2,3.1E2,2.67E2,6.4E2,4.08E2,3.23E2,1.5E1,1.33E3,1.5E1,1.91E2,1.5E1,1.41E2,1.69E2,2.15E2,5.2E1,5.78E2,6.2E1,1.25E2,2.83E2,3.13E2,1E1,1.2E1,3E0,1.329E3,1E0,1.3E1,2E0,1.19E2,7.2E1,5E0,1E1,8.9E1,5.2E1,1.11E2,5.8E1,1.07E2,1.08E2,3.2E1,2E1,2.48E2,3.3E2,5.4E1,8E0,1.02E2,2.3E1,1.69E2,1.14E2,1.69E2,1.44E2,7E0,3E0,1E0,2E0,1E0,1E0,6.5E1,5.4E1,7.1E1,1E0,1E0,4E0,2E0,8E0,3.3E1,5.6E1,4.8E1,4E0,9.3E1,1.8E1,2.9E1,2.9E1,1.2E1,9.5E1,2.2E1,8.6E1,3.1E1,1E0,4E0,1.6E1,1.95E2,5.3E1,1.57E2,1.73E2,9E0,4.5E1,1E0,7E0,9E1,1.2E1,1.3E1,1E1,1.38E2,3.1E1,1.05E2,9E0,1.25E2,4.4E1,3.3E1,1.11E2,2E0,1E0],"tree_param":{"num_deleted":"0","num_feature":"14","num_nodes":"109","size_leaf_vector":"1"}},{"base_weights":[3.4568766E-3,-2.0876322E0,2.910509E0,-2.5740368E0,-5.5526894E-1,1.9676992E0,6.052966E0,-2.6658835E0,-2.042656E0,-7.775394E-2,-1.1447885E0,2.65037E0,8.11232E-1,5.5372453E0,1.6118006E1,-2.6751127E0,-1.7464966E0,-2.1145988E0,-9.347714E-1,-8.3754224E-1,5.559214E-1,-1.308746E0,-1.7106946E-1,2.2999496E0,5.7332716E0,-6.3820195E-1,1.5177815E0,5.1527996E0,1.600803E1,1.906886E0,2.4982352E0,-2.6766607E-1,-3.2835018E-2,-2.5288388E-1,2.4865987E0,-1.9534581E0,-2.3899736E0,6.369082E-1,-1.707072E0,-1.431738E0,-6.0884446E-1,3.881621E-1,3.9275515E0,-8.65665E-1,-1.7289633E0,6.7260206E-1,-1.004678E0,6.830159E-1,2.9694874E0,4.8789682E0,1.11712885E1,-1.0286144E0,1.1832237E0,6.5134484E-1,2.332281E0,6.843957E0,3.1345272E0,1.7619684E1,-5.425632E-3,7.46165E-1,-1.643453E-1,-1.3567518E-1,5.08665E-1,-1.6607256E-1,-2.2519024E-1,-6.1286807E-2,-2.4054968E-1,1.4664972E-2,7.0562996E-2,3.6547107E-3,-2.0986037E-1,-1.5735804E-1,2.5475204E-3,4.4256713E-2,-6.616651E-2,2.0334851E-2,2.0897634E-1,1.592432E-1,4.5431134E-1,-2.46486E-1,-6.882416E-2,8.7122805E-2,-1.7935549E-1,1.1016816E-1,-9.973269E-2,9.83186E-2,-1.5008764E-1,2.3367396E-2,2.7246138E-1,1.5328696E-1,3.4257412E-1,3.5553062E-1,6.0915273E-1,1.4664972E-2,1.2531037E0,-1.1285315E-1,1.3952671E-1,-1.0756796E-1,4.1559806E-1,-1.0095574E-1,1.0607548E-1,1.5653123E-1,4.074679E-1,3.479973E-1,7.5399536E-1,3.6415288E-1,-8.971048E-2,1.9200594E0,1.6957437E-1],"categories":[],"categories_nodes":[],"categories_segments":[],"categories_sizes":[],"default_left":[0,0,0,0,0,0,0,0,0,0,0,0,0,0,0,0,0,0,0,0,0,0,0,0,0,0,0,0,0,0,0,0,0,0,0,0,0,0,0,0,0,0,0,0,0,0,0,0,0,0,0,0,0,0,0,0,0,0,0,0,0,0,0,0,0,0,0,0,0,0,0,0,0,0,0,0,0,0,0,0,0,0,0,0,0,0,0,0,0,0,0,0,0,0,0,0,0,0,0,0,0,0,0,0,0,0,0,0,0],"id":1,"left_children":[1,3,5,7,9,11,13,15,17,19,21,23,25,27,29,31,33,35,37,39,41,43,45,47,49,51,53,55,57,-1,59,-1,-1,-1,61,63,65,67,69,71,73,75,77,79,81,83,85,87,89,91,93,95,97,99,101,103,105,107,-1,-1,-1,-1,-1,-1,-1,-1,-1,-1,-1,-1,-1,-1,-1,-1,-1,-1,-1,-1,-1,-1,-1,-1,-1,-1,-1,-1,-1,-1,-1,-1,-1,-1,-1,-1,-1,-1,-1,-1,-1,-1,-1,-1,-1,-1,-1,-1,-1,-1,-1],"loss_changes":[2.1373426E4,1.5228076E3,4.3462773E3,7.030078E1,1.3897418E2,8.923379E2,1.670417E3,6.5283203E0,1.6594421E1,1.323854E2,3.505841E1,7.559956E2,4.3313754E2,1.2217588E3,5.954004E2,3.8613281E0,5.927587E1,5.0047607E0,2.050819E1,1.61147E1,8.33188E1,3.3693268E1,2.3884378E1,6.9191724E2,2.799873E2,1.0006099E2,1.989032E2,1.0502969E3,2.8571118E2,0E0,9.449054E1,0E0,0E0,0E0,3.6880043E1,8.753357E0,6.2231445E-1,9.866834E-2,7.5862007E0,7.0676956E0,5.4021606E0,4.4860035E1,2.8272781E0,2.4974648E1,1.7685852E1,1.3279787E1,1.8244017E1,1.7274725E2,2.916731E2,8.106384E1,1.3307898E2,2.9426125E1,1.7234973E2,9.558948E1,1.8873102E2,3.7178662E2,2.9965308E2,2.1918384E2,0E0,0E0,0E0,0E0,0E0,0E0,0E0,0E0,0E0,0E0,0E0,0E0,0E0,0E0,0E0,0E0,0E0,0E0,0E0,0E0,0E0,0E0,0E0,0E0,0E0,0E0,0E0,0E0,0E0,0E0,0E0,0E0,0E0,0E0,0E0,0E0,0E0,0E0,0E0,0E0,0E0,0E0,0E0,0E0,0E0,0E0,0E0,0E0,0E0,0E0,0E0],"parents":[2147483647,0,0,1,1,2,2,3,3,4,4,5,5,6,6,7,7,8,8,9,9,10,10,11,11,12,12,13,13,14,14,15,15,16,16,17,17,18,18,19,19,20,20,21,21,22,22,23,23,24,24,25,25,26,26,27,27,28,28,30,30,34,34,35,35,36,36,37,37,38,38,39,39,40,40,41,41,42,42,43,43,44,44,45,45,46,46,47,47,48,48,49,49,50,50,51,51,52,52,53,53,54,54,55,55,56,56,57,57],"right_children":[2,4,6,8,10,12,14,16,18,20,22,24,26,28,30,32,34,36,38,40,42,44,46,48,50,52,54,56,58,-1,60,-1,-1,-1,62,64,66,68,70,72,74,76,78,80,82,84,86,88,90,92,94,96,98,100,102,104,106,108,-1,-1,-1,-1,-1,-1,-1,-1,-1,-1,-1,-1,-1,-1,-1,-1,-1,-1,-1,-1,-1,-1,-1,-1,-1,-1,-1,-1,-1,-1,-1,-1,-1,-1,-1,-1,-1,-1,-1,-1,-1,-1,-1,-1,-1,-1,-1,-1,-1,-1,-1],"split_conditions":[2.5325E0,1.21E0,7.715E0,6E-1,1.41E0,4.38E0,1.883E1,4.868421E-1,7.125E-1,1.6666667E-1,1.285E0,4E-1,4E0,6.6825E0,9.84E0,1.1E0,2.97E-1,8.9E-1,9.7E-1,1.51E0,1.27E0,8.163265E-2,2.99E0,3.2833333E0,3.9075E0,2.0975E0,1.6129032E0,7E0,6.935484E-1,1.906886E0,2.0512821E-1,-2.6766607E-1,-3.2835018E-2,-2.5288388E-1,2.535211E-1,8E-1,-3.8235295E-1,7.6E-1,3.3333335E-2,3.57E0,5.555556E-1,1E0,2.5E-3,-3.69863E-1,1.24E-1,1.5479453E0,-2.4657534E-1,2.5E-3,7.3529415E-2,1.255814E0,1.1111111E-1,1.03E1,3.4625E0,-1.9175E0,3.26E0,-1.7375E0,1.7777778E0,2.07E-1,-5.425632E-3,7.46165E-1,-1.643453E-1,-1.3567518E-1,5.08665E-1,-1.6607256E-1,-2.2519024E-1,-6.1286807E-2,-2.4054968E-1,1.4664972E-2,7.0562996E-2,3.6547107E-3,-2.0986037E-1,-1.5735804E-1,2.5475204E-3,4.4256713E-2,-6.616651E-2,2.0334851E-2,2.0897634E-1,1.592432E-1,4.5431134E-1,-2.46486E-1,-6.882416E-2,8.7122805E-2,-1.7935549E-1,1.1016816E-1,-9.973269E-2,9.83186E-2,-1.5008764E-1,2.3367396E-2,2.7246138E-1,1.5328696E-1,3.4257412E-1,3.5553062E-1,6.0915273E-1,1.4664972E-2,1.2531037E0,-1.1285315E-1,1.3952671E-1,-1.0756796E-1,4.1559806E-1,-1.0095574E-1,1.0607548E-1,1.5653123E-1,4.074679E-1,3.479973E-1,7.5399536E-1,3.6415288E-1,-8.971048E-2,1.9200594E0,1.6957437E-1],"split_indices":[10,10,10,10,12,12,10,0,13,11,13,11,10,13,12,12,8,12,12,10,12,0,9,10,13,13,4,12,1,0,0,0,0,0,1,11,2,5,1,9,4,7,13,2,8,6,2,13,0,4,1,12,10,13,9,13,5,8,0,0,0,0,0,0,0,0,0,0,0,0,0,0,0,0,0,0,0,0,0,0,0,0,0,0,0,0,0,0,0,0,0,0,0,0,0,0,0,0,0,0,0,0,0,0,0,0,0,0,0],"split_type":[0,0,0,0,0,0,0,0,0,0,0,0,0,0,0,0,0,0,0,0,0,0,0,0,0,0,0,0,0,0,0,0,0,0,0,0,0,0,0,0,0,0,0,0,0,0,0,0,0,0,0,0,0,0,0,0,0,0,0,0,0,0,0,0,0,0,0,0,0,0,0,0,0,0,0,0,0,0,0,0,0,0,0,0,0,0,0,0,0,0,0,0,0,0,0,0,0,0,0,0,0,0,0,0,0,0,0,0,0],"sum_hessian":[3.514E3,2.044E3,1.47E3,1.551E3,4.93E2,1.132E3,3.38E2,1.319E3,2.32E2,2.73E2,2.2E2,7.11E2,4.21E2,3.23E2,1.5E1,1.304E3,1.5E1,2.17E2,1.5E1,1.24E2,1.49E2,1.88E2,3.2E1,6.4E2,7.1E1,1.38E2,2.83E2,3.13E2,1E1,1.2E1,3E0,1.303E3,1E0,1.3E1,2E0,1.42E2,7.5E1,5E0,1E1,3.3E1,9.1E1,1.43E2,6E0,9.3E1,9.5E1,1.6E1,1.6E1,1.88E2,4.52E2,6.3E1,8E0,1.14E2,2.4E1,1.38E2,1.45E2,1.69E2,1.44E2,9E0,1E0,1E0,2E0,1E0,1E0,7.5E1,6.7E1,1E0,7.4E1,1E0,4E0,2E0,8E0,3E1,3E0,4E0,8.7E1,1.3E2,1.3E1,2E0,4E0,8E0,8.5E1,2E0,9.3E1,1.3E1,3E0,3E0,1.3E1,1.55E2,3.3E1,1.1E2,3.42E2,3.2E1,3.1E1,1E0,7E0,1.1E2,4E0,1.4E1,1E1,2.7E1,1.11E2,1.02E2,4.3E1,3E1,1.39E2,1.28E2,1.6E1,8E0,1E0],"tree_param":{"num_deleted":"0","num_feature":"14","num_nodes":"109","size_leaf_vector":"1"}},{"base_weights":[5.7001235E-3,-1.8683722E0,2.6417117E0,-2.3172739E0,-4.82333E-1,1.884962E0,5.84097E0,-2.3862243E0,-1.7427104E0,-1.0425315E0,-4.470553E-2,2.5114708E0,8.7342817E-1,5.2842526E0,1.4661749E1,-2.3940926E0,-1.5643402E0,-2.4320617E0,-1.5652372E0,-7.248161E-1,-1.4801453E0,4.9735582E-1,-7.896673E-1,1.5076228E0,3.3972905E0,-5.7197386E-1,1.5064582E0,4.9370785E0,1.5776683E1,1.7308655E0,2.3938668E0,-2.3981292E0,-1.0780988E0,-2.2940178E-1,2.362269E0,-4.925933E-2,-2.4772766E0,-1.66913E0,-6.020412E-1,-1.2931175E0,-5.181453E-1,-1.4618382E-1,-1.6978076E0,2.983633E-1,3.2561269E0,-1.0140378E0,-5.064144E-2,8.7792134E-1,3.7544467E0,3.0906878E0,7.075672E0,-1.1635958E0,4.4023192E-1,9.9790245E-1,3.099293E0,6.2069297E0,2.3399687E0,1.6109566E-1,1.7570221E0,7.0885676E-1,-1.5338895E-1,-2.4197231E-1,-2.2115405E-1,-4.2320456E-2,-1.2997447E-1,-1.2889141E-1,4.8323175E-1,-9.304989E-2,-2.5493786E-1,-1.4053658E-1,-1.9850212E-1,5.8742195E-2,-1.255515E-1,-1.4461638E-1,-1.1621671E-2,-6.898201E-2,3.8709308E-4,-1.6260862E-1,1.1670039E-1,-1.979598E-1,-1.1490251E-2,9.676526E-3,1.9291729E-1,-1.5512216E-1,3.891984E-1,-1.7860681E-1,-6.82843E-2,8.650827E-2,-8.487349E-2,3.960036E-2,2.1256272E-1,1.439234E-1,4.8157382E-1,2.081949E-1,3.967055E-1,4.285675E-1,9.074691E-1,-1.9862632E-1,-7.8656964E-2,-1.3827068E-1,2.0521334E-1,5.4117676E-2,2.6475176E-1,4.498745E-1,9.227098E-2,4.8801175E-1,8.7306625E-1,4.5177522E-1,5.712115E-3],"categories":[],"categories_nodes":[],"categories_segments":[],"categories_sizes":[],"default_left":[0,0,0,0,0,0,0,0,0,0,0,0,0,0,0,0,0,0,0,0,0,0,0,0,0,0,0,0,0,0,0,0,0,0,0,0,0,0,0,0,0,0,0,0,0,0,0,0,0,0,0,0,0,0,0,0,0,0,0,0,0,0,0,0,0,0,0,0,0,0,0,0,0,0,0,0,0,0,0,0,0,0,0,0,0,0,0,0,0,0,0,0,0,0,0,0,0,0,0,0,0,0,0,0,0,0,0,0,0],"id":2,"left_children":[1,3,5,7,9,11,13,15,17,19,21,23,25,27,29,31,33,35,37,39,41,43,45,47,49,51,53,55,57,-1,59,61,63,-1,65,-1,67,69,71,73,75,77,79,81,83,85,87,89,91,93,95,97,99,101,103,105,107,-1,-1,-1,-1,-1,-1,-1,-1,-1,-1,-1,-1,-1,-1,-1,-1,-1,-1,-1,-1,-1,-1,-1,-1,-1,-1,-1,-1,-1,-1,-1,-1,-1,-1,-1,-1,-1,-1,-1,-1,-1,-1,-1,-1,-1,-1,-1,-1,-1,-1,-1,-1],"loss_changes":[1.7369305E4,1.2774932E3,3.526126E3,5.732617E1,1.23513145E2,7.4751465E2,1.2926045E3,5.1992188E0,1.6991333E1,2.9654282E1,1.150762E2,6.4401465E2,4.1626385E2,8.837822E2,4.781162E2,4.6811523E0,5.1261627E1,1.6735535E0,1.2804626E1,1.459864E1,2.646428E1,8.960933E1,1.9846512E1,4.8340485E2,4.1459082E2,8.375144E1,2.5288141E2,8.3304736E2,1.7494934E2,0E0,8.463164E1,1.40625E-1,3.2086945E-1,0E0,3.328424E1,0E0,1.19664E0,7.5421143E0,1.2396763E1,5.9560204E0,8.695524E0,2.9105104E1,3.5010315E1,5.077236E1,3.966198E1,2.23041E1,2.1928396E1,1.61507E2,1.7735278E2,3.0910596E2,1.2284924E2,2.5732368E1,1.5563416E2,1.8014185E2,2.273468E2,5.333384E2,4.2729504E2,0E0,0E0,0E0,0E0,0E0,0E0,0E0,0E0,0E0,0E0,0E0,0E0,0E0,0E0,0E0,0E0,0E0,0E0,0E0,0E0,0E0,0E0,0E0,0E0,0E0,0E0,0E0,0E0,0E0,0E0,0E0,0E0,0E0,0E0,0E0,0E0,0E0,0E0,0E0,0E0,0E0,0E0,0E0,0E0,0E0,0E0,0E0,0E0,0E0,0E0,0E0,0E0],"parents":[2147483647,0,0,1,1,2,2,3,3,4,4,5,5,6,6,7,7,8,8,9,9,10,10,11,11,12,12,13,13,14,14,15,15,16,16,17,17,18,18,19,19,20,20,21,21,22,22,23,23,24,24,25,25,26,26,27,27,28,28,30,30,31,31,32,32,34,34,36,36,37,37,38,38,39,39,40,40,41,41,42,42,43,43,44,44,45,45,46,46,47,47,48,48,49,49,50,50,51,51,52,52,53,53,54,54,55,55,56,56],"right_children":[2,4,6,8,10,12,14,16,18,20,22,24,26,28,30,32,34,36,38,40,42,44,46,48,50,52,54,56,58,-1,60,62,64,-1,66,-1,68,70,72,74,76,78,80,82,84,86,88,90,92,94,96,98,100,102,104,106,108,-1,-1,-1,-1,-1,-1,-1,-1,-1,-1,-1,-1,-1,-1,-1,-1,-1,-1,-1,-1,-1,-1,-1,-1,-1,-1,-1,-1,-1,-1,-1,-1,-1,-1,-1,-1,-1,-1,-1,-1,-1,-1,-1,-1,-1,-1,-1,-1,-1,-1,-1,-1],"split_conditions":[2.565E0,1.21E0,8.486667E0,7.26E-1,1.6666667E-1,4.38E0,1.883E1,4.868421E-1,3.3333334E-1,1.48E0,1.59E0,3.82E0,4E0,6.6825E0,9.84E0,6.275E-1,2.97E-1,3.3333335E-2,7.125E-1,1.51E0,8.928572E-2,1.9125E0,1.42E0,2.5E-3,5E-1,2.5E-3,2.0253165E-1,1.12E1,3.0882353E-1,1.7308655E0,2.0512821E-1,3.8E-1,4.225352E-2,-2.2940178E-1,2.535211E-1,-4.925933E-2,2.44E0,7E-1,9.7E-1,3.51E0,1E-2,7.272727E-2,1.5068494E-1,1E0,-7.5E-1,8.5294116E-1,2.99E0,1.6666667E-1,1.0138888E0,1.516129E0,4.6E0,2.06E-1,2.2972973E-1,2.5E-3,3.3333334E-1,1.1296667E1,7E-1,1.6109566E-1,1.7570221E0,7.0885676E-1,-1.5338895E-1,-2.4197231E-1,-2.2115405E-1,-4.2320456E-2,-1.2997447E-1,-1.2889141E-1,4.8323175E-1,-9.304989E-2,-2.5493786E-1,-1.4053658E-1,-1.9850212E-1,5.8742195E-2,-1.255515E-1,-1.4461638E-1,-1.1621671E-2,-6.898201E-2,3.8709308E-4,-1.6260862E-1,1.1670039E-1,-1.979598E-1,-1.1490251E-2,9.676526E-3,1.9291729E-1,-1.5512216E-1,3.891984E-1,-1.7860681E-1,-6.82843E-2,8.650827E-2,-8.487349E-2,3.960036E-2,2.1256272E-1,1.439234E-1,4.8157382E-1,2.081949E-1,3.967055E-1,4.285675E-1,9.074691E-1,-1.9862632E-1,-7.8656964E-2,-1.3827068E-1,2.0521334E-1,5.4117676E-2,2.6475176E-1,4.498745E-1,9.227098E-2,4.8801175E-1,8.7306625E-1,4.5177522E-1,5.712115E-3],"split_indices":[10,10,10,10,11,12,10,0,11,12,12,10,10,13,12,13,8,1,13,10,1,13,13,13,11,13,3,12,1,0,0,10,0,0,1,0,9,12,12,9,12,1,2,7,2,5,9,11,4,4,10,8,1,13,0,10,6,0,0,0,0,0,0,0,0,0,0,0,0,0,0,0,0,0,0,0,0,0,0,0,0,0,0,0,0,0,0,0,0,0,0,0,0,0,0,0,0,0,0,0,0,0,0,0,0,0,0,0,0],"split_type":[0,0,0,0,0,0,0,0,0,0,0,0,0,0,0,0,0,0,0,0,0,0,0,0,0,0,0,0,0,0,0,0,0,0,0,0,0,0,0,0,0,0,0,0,0,0,0,0,0,0,0,0,0,0,0,0,0,0,0,0,0,0,0,0,0,0,0,0,0,0,0,0,0,0,0,0,0,0,0,0,0,0,0,0,0,0,0,0,0,0,0,0,0,0,0,0,0,0,0,0,0,0,0,0,0,0,0,0,0],"sum_hessian":[3.514E3,2.054E3,1.46E3,1.551E3,5.03E2,1.182E3,2.78E2,1.382E3,1.69E2,2.2E2,2.83E2,7.29E2,4.53E2,2.63E2,1.5E1,1.367E3,1.5E1,3.2E1,1.37E2,1.29E2,9.1E1,1.64E2,1.19E2,3.43E2,3.86E2,1.38E2,3.15E2,2.56E2,7E0,1.2E1,3E0,1.362E3,5E0,1.3E1,2E0,1E0,3.1E1,1.23E2,1.4E1,3.3E1,9.6E1,1.3E1,7.8E1,1.54E2,1E1,9.1E1,2.8E1,2.69E2,7.4E1,3.58E2,2.8E1,8.7E1,5.1E1,2.4E2,7.5E1,1.71E2,8.5E1,1E0,6E0,1E0,2E0,1.21E3,1.52E2,2E0,3E0,1E0,1E0,2E0,2.9E1,7E1,5.3E1,5E0,9E0,2.9E1,4E0,7.2E1,2.4E1,6E0,7E0,6.6E1,1.2E1,1.38E2,1.6E1,1E0,9E0,2.6E1,6.5E1,1.3E1,1.5E1,1.95E2,7.4E1,2.4E1,5E1,1.68E2,1.9E2,1.3E1,1.5E1,2.6E1,6.1E1,2.4E1,2.7E1,1.89E2,5.1E1,4.5E1,3E1,1.14E2,5.7E1,4.3E1,4.2E1],"tree_param":{"num_deleted":"0","num_feature":"14","num_nodes":"109","size_leaf_vector":"1"}},{"base_weights":[7.374714E-3,-1.6114721E0,2.4922469E0,-2.0863929E0,-3.3346432E-1,1.6940972E0,4.954685E0,-2.1479712E0,-1.5731635E0,9.323045E-2,-8.630595E-1,2.321578E0,7.065439E-1,4.525379E0,1.333847E1,-2.155148E0,-1.4000976E0,-2.2008932E0,-1.4116545E0,-4.1283736E-1,8.900475E-1,-1.0188029E0,-2.1094826E-1,1.8870193E0,4.272063E0,-4.6977857E-1,1.2259456E0,4.1959453E0,1.3517817E1,1.5710934E0,2.2933471E0,-2.1586561E0,-9.990047E-1,-2.0873964E-1,2.2739959E0,-4.679636E-2,-2.2404234E0,-1.5049512E0,-5.4629105E-1,-5.830168E-1,1.2121607E0,2.8573972E-1,1.8868617E0,-6.432785E-1,-1.4502138E0,-6.641608E-1,5.2473915E-1,4.8882043E-1,2.4178593E0,1.9613553E0,6.0549045E0,-9.7008836E-1,7.143622E-1,9.908797E-1,3.6215937E0,5.6114554E0,2.5074444E0,1.6404613E1,4.3647685E0,6.7341393E-1,-1.4316301E-1,-2.1779506E-1,-1.9918318E-1,-3.9499093E-2,-1.2022638E-1,4.5907012E-1,-1.1797074E-1,-8.684656E-2,-2.3029386E-1,-1.2668085E-1,-1.7901953E-1,5.384701E-2,-1.1425187E-1,-5.110071E-2,-2.279398E-1,2.267967E-2,2.2818099E-1,4.3067113E-2,-3.529413E-1,1.0068595E-1,3.528937E-1,-1.6130829E-1,-2.4023127E-2,-2.0687588E-1,-1.2602185E-1,-8.9793056E-2,1.1967104E-1,9.0862736E-2,-8.086508E-2,-2.9098332E-2,8.619695E-2,2.0129028E-1,4.157629E-1,-3.0738115E-3,4.6792436E-1,2.6739138E-1,7.498147E-1,7.91853E-2,-1.10699795E-1,-1.559089E-1,1.9589204E-1,2.58407E-1,5.0000228E-2,-2.3447362E-1,5.230413E-1,2.6384705E-1,6.229677E-1,7.986262E-2,3.5736826E-1,1.735961E0,4.8598203E-1,8.359521E-2,7.475609E-1],"categories":[],"categories_nodes":[],"categories_segments":[],"categories_sizes":[],"default_left":[0,0,0,0,0,0,0,0,0,0,0,0,0,0,0,0,0,0,0,0,0,0,0,0,0,0,0,0,0,0,0,0,0,0,0,0,0,0,0,0,0,0,0,0,0,0,0,0,0,0,0,0,0,0,0,0,0,0,0,0,0,0,0,0,0,0,0,0,0,0,0,0,0,0,0,0,0,0,0,0,0,0,0,0,0,0,0,0,0,0,0,0,0,0,0,0,0,0,0,0,0,0,0,0,0,0,0,0,0,0,0,0,0],"id":3,"left_children":[1,3,5,7,9,11,13,15,17,19,21,23,25,27,29,31,33,35,37,39,41,43,45,47,49,51,53,55,57,-1,59,61,63,-1,65,-1,67,69,71,73,75,77,79,81,83,85,87,89,91,93,95,97,99,101,103,105,107,109,111,-1,-1,-1,-1,-1,-1,-1,-1,-1,-1,-1,-1,-1,-1,-1,-1,-1,-1,-1,-1,-1,-1,-1,-1,-1,-1,-1,-1,-1,-1,-1,-1,-1,-1,-1,-1,-1,-1,-1,-1,-1,-1,-1,-1,-1,-1,-1,-1,-1,-1,-1,-1,-1,-1],"loss_changes":[1.4143551E4,1.2915063E3,2.7176094E3,4.566992E1,1.3069429E2,6.483943E2,1.1597705E3,4.4052734E0,1.4128387E1,1.298086E2,2.5988083E1,5.3524976E2,2.5046834E2,9.031011E2,3.8323584E2,3.3930664E0,4.5149925E1,1.2121582E0,1.0319366E1,5.5185352E1,7.4758675E1,3.276422E1,1.7353071E1,3.892257E2,4.6600098E2,7.534009E1,1.5634189E2,7.3641846E2,2.1905054E2,0E0,7.58082E1,4.8828125E-2,2.6174498E-1,0E0,2.9419323E1,0E0,7.4453735E-1,6.1553345E0,1.0316679E1,2.0701122E1,1.9508377E1,4.520192E1,6.4363266E1,4.378159E1,8.674896E0,1.4995057E1,1.0972215E1,4.273435E1,2.6005762E2,2.8168677E2,2.9712378E2,2.2345764E1,1.1057294E2,2.0204385E2,2.5223257E2,2.960166E2,2.6133704E2,3.8371582E0,3.7661095E1,0E0,0E0,0E0,0E0,0E0,0E0,0E0,0E0,0E0,0E0,0E0,0E0,0E0,0E0,0E0,0E0,0E0,0E0,0E0,0E0,0E0,0E0,0E0,0E0,0E0,0E0,0E0,0E0,0E0,0E0,0E0,0E0,0E0,0E0,0E0,0E0,0E0,0E0,0E0,0E0,0E0,0E0,0E0,0E0,0E0,0E0,0E0,0E0,0E0,0E0,0E0,0E0,0E0,0E0],"parents":[2147483647,0,0,1,1,2,2,3,3,4,4,5,5,6,6,7,7,8,8,9,9,10,10,11,11,12,12,13,13,14,14,15,15,16,16,17,17,18,18,19,19,20,20,21,21,22,22,23,23,24,24,25,25,26,26,27,27,28,28,30,30,31,31,32,32,34,34,36,36,37,37,38,38,39,39,40,40,41,41,42,42,43,43,44,44,45,45,46,46,47,47,48,48,49,49,50,50,51,51,52,52,53,53,54,54,55,55,56,56,57,57,58,58],"right_children":[2,4,6,8,10,12,14,16,18,20,22,24,26,28,30,32,34,36,38,40,42,44,46,48,50,52,54,56,58,-1,60,62,64,-1,66,-1,68,70,72,74,76,78,80,82,84,86,88,90,92,94,96,98,100,102,104,106,108,110,112,-1,-1,-1,-1,-1,-1,-1,-1,-1,-1,-1,-1,-1,-1,-1,-1,-1,-1,-1,-1,-1,-1,-1,-1,-1,-1,-1,-1,-1,-1,-1,-1,-1,-1,-1,-1,-1,-1,-1,-1,-1,-1,-1,-1,-1,-1,-1,-1,-1,-1,-1,-1,-1,-1],"split_conditions":[2.7325E0,1.21E0,7.715E0,7.26E-1,1.5E0,4.38E0,1.883E1,4.868421E-1,3.3333334E-1,2.058E0,8.325E-1,2.5E-3,4E0,6.6825E0,9.84E0,6.275E-1,1E0,3.3333335E-2,7.125E-1,6E-1,6.6E-1,2.8E0,1.0638298E-1,3.4625E0,1.3055556E0,8.325E-1,3.2E0,7E0,1.411E1,1.5710934E0,2.0512821E-1,3.8E-1,4.225352E-2,-2.0873964E-1,5.294118E-1,-4.679636E-2,2.44E0,7E-1,9.7E-1,1.04E0,2.5E-3,6.3E-1,9E-2,1.6133333E0,4.4155845E-1,3.61E0,2.34375E-1,1E-2,2.5E-1,1.3157895E0,1.87E-1,-1.4225E0,2.2972973E-1,5.7E0,4.2424244E-1,-1.7375E0,1E0,5.6164384E-1,2.7222223E0,6.7341393E-1,-1.4316301E-1,-2.1779506E-1,-1.9918318E-1,-3.9499093E-2,-1.2022638E-1,4.5907012E-1,-1.1797074E-1,-8.684656E-2,-2.3029386E-1,-1.2668085E-1,-1.7901953E-1,5.384701E-2,-1.1425187E-1,-5.110071E-2,-2.279398E-1,2.267967E-2,2.2818099E-1,4.3067113E-2,-3.529413E-1,1.0068595E-1,3.528937E-1,-1.6130829E-1,-2.4023127E-2,-2.0687588E-1,-1.2602185E-1,-8.9793056E-2,1.1967104E-1,9.0862736E-2,-8.086508E-2,-2.9098332E-2,8.619695E-2,2.0129028E-1,4.157629E-1,-3.0738115E-3,4.6792436E-1,2.6739138E-1,7.498147E-1,7.91853E-2,-1.10699795E-1,-1.559089E-1,1.9589204E-1,2.58407E-1,5.0000228E-2,-2.3447362E-1,5.230413E-1,2.6384705E-1,6.229677E-1,7.986262E-2,3.5736826E-1,1.735961E0,4.8598203E-1,8.359521E-2,7.475609E-1],"split_indices":[10,10,10,10,12,12,10,0,11,10,13,13,10,13,12,13,7,1,13,11,12,12,0,10,4,13,13,12,12,0,0,10,0,0,0,0,9,12,12,13,13,12,13,10,6,9,0,12,11,5,8,13,1,12,5,13,7,1,4,0,0,0,0,0,0,0,0,0,0,0,0,0,0,0,0,0,0,0,0,0,0,0,0,0,0,0,0,0,0,0,0,0,0,0,0,0,0,0,0,0,0,0,0,0,0,0,0,0,0,0,0,0,0],"split_type":[0,0,0,0,0,0,0,0,0,0,0,0,0,0,0,0,0,0,0,0,0,0,0,0,0,0,0,0,0,0,0,0,0,0,0,0,0,0,0,0,0,0,0,0,0,0,0,0,0,0,0,0,0,0,0,0,0,0,0,0,0,0,0,0,0,0,0,0,0,0,0,0,0,0,0,0,0,0,0,0,0,0,0,0,0,0,0,0,0,0,0,0,0,0,0,0,0,0,0,0,0,0,0,0,0,0,0,0,0,0,0,0,0],"sum_hessian":[3.514E3,2.128E3,1.386E3,1.551E3,5.77E2,1.048E3,3.38E2,1.382E3,1.69E2,3.2E2,2.57E2,6.4E2,4.08E2,3.23E2,1.5E1,1.367E3,1.5E1,3.2E1,1.37E2,1.96E2,1.24E2,2.07E2,5E1,5.25E2,1.15E2,1.25E2,2.83E2,3.13E2,1E1,1.2E1,3E0,1.362E3,5E0,1.3E1,2E0,1E0,3.1E1,1.23E2,1.4E1,1.78E2,1.8E1,7.8E1,4.6E1,1.12E2,9.5E1,3.1E1,1.9E1,1.45E2,3.8E2,5.1E1,6.4E1,8.8E1,3.7E1,2.59E2,2.4E1,1.69E2,1.44E2,7E0,3E0,1E0,2E0,1.21E3,1.52E2,2E0,3E0,1E0,1E0,2E0,2.9E1,7E1,5.3E1,5E0,9E0,1.72E2,6E0,1E1,8E0,7.6E1,2E0,3.1E1,1.5E1,3.2E1,8E1,2E1,7.5E1,2.8E1,3E0,1.5E1,4E0,4.7E1,9.8E1,3.1E2,7E1,3E1,2.1E1,2E1,4.4E1,6E0,8.2E1,1.3E1,2.4E1,6E1,1.99E2,5E0,1.9E1,3E1,1.39E2,5.6E1,8.8E1,6E0,1E0,2E0,1E0],"tree_param":{"num_deleted":"0","num_feature":"14","num_nodes":"113","size_leaf_vector":"1"}},{"base_weights":[8.828676E-3,-1.451047E0,2.249684E0,-1.8785104E0,-3.0074564E-1,1.6901672E0,5.2260566E0,-1.9334953E0,-1.4201415E0,-7.8289473E-1,9.5926225E-2,2.2371888E0,8.718579E-1,6.9674473E0,2.231691E0,-1.9400548E0,-1.2518154E0,-1.9918323E0,-1.273142E0,-1.096179E0,-4.3853313E-1,6.0800344E-1,-5.764064E-1,1.9752322E0,4.7659154E0,3.932222E-1,2.1754885E0,5.8078833E0,1.3518481E0,1.38792E0,9.86308E0,-1.9430965E-1,-9.2572516E-1,-1.8936558E-1,2.1607115E0,-4.445654E-2,-2.0262916E0,-1.3569214E0,-4.9568897E-1,-7.9934317E-1,-1.6595677E0,-3.4913316E-3,-1.3085337E0,1.5738739E-1,1.8533065E0,-3.8515684E-1,-1.1500771E0,9.9652004E-1,2.5982325E0,3.567955E0,7.9385114E0,-3.1707105E-3,1.5334443E0,9.265801E-2,3.2534287E0,5.3413067E0,1.5377567E0,3.3230104E0,-5.836944E-1,-4.062167E-1,1.3353882E0,-3.6865823E-2,-1.11209415E-1,-1.1200986E-1,4.361166E-1,-8.105679E-2,-2.0803212E-1,-1.141912E-1,-1.6144909E-1,4.935975E-2,-1.03969194E-1,-1.11880325E-1,-5.982917E-2,-1.8062776E-1,-9.529014E-3,-1.9564058E-1,1.9685235E-2,5.3075965E-2,-1.5161107E-1,5.0376784E-3,3.622638E-1,9.0590365E-2,3.2516634E-1,-5.5679537E-2,1.13219015E-1,-1.4634313E-1,5.561475E-2,5.9913512E-2,2.4204265E-1,1.7434554E-1,3.2996354E-1,2.2392349E-1,5.2329516E-1,-6.893245E-2,8.520834E-1,-1.1999004E-2,3.6478296E-1,8.614726E-2,3.219233E-1,2.9473352E-1,-6.235851E-2,2.1136644E-1,6.3176084E-1,9.618155E-1,4.653247E-1,1.0753096E0,2.3789147E-1,-1.3941531E-1,3.2046446E-1,1.4886111E-1,-2.0979361E-1],"categories":[],"categories_nodes":[],"categories_segments":[],"categories_sizes":[],"default_left":[0,0,0,0,0,0,0,0,0,0,0,0,0,0,0,0,0,0,0,0,0,0,0,0,0,0,0,0,0,0,0,0,0,0,0,0,0,0,0,0,0,0,0,0,0,0,0,0,0,0,0,0,0,0,0,0,0,0,0,0,0,0,0,0,0,0,0,0,0,0,0,0,0,0,0,0,0,0,0,0,0,0,0,0,0,0,0,0,0,0,0,0,0,0,0,0,0,0,0,0,0,0,0,0,0,0,0,0,0,0,0],"id":4,"left_children":[1,3,5,7,9,11,13,15,17,19,21,23,25,27,29,31,33,35,37,39,41,43,45,47,49,51,53,55,-1,57,59,-1,61,-1,63,-1,65,67,69,71,73,75,77,79,81,83,85,87,89,91,93,95,97,99,101,103,-1,105,107,109,-1,-1,-1,-1,-1,-1,-1,-1,-1,-1,-1,-1,-1,-1,-1,-1,-1,-1,-1,-1,-1,-1,-1,-1,-1,-1,-1,-1,-1,-1,-1,-1,-1,-1,-1,-1,-1,-1,-1,-1,-1,-1,-1,-1,-1,-1,-1,-1,-1,-1,-1],"loss_changes":[1.150213E4,1.0462891E3,2.3009814E3,3.636963E1,1.1062046E2,5.213325E2,1.1263955E3,3.7558594E0,1.175061E1,2.7676788E1,1.0983348E2,4.542776E2,2.9240762E2,9.6978174E2,5.1432056E2,2.421875E0,3.9136406E1,8.586731E-1,8.315933E0,2.1417252E1,4.7684746E1,1.01277115E2,1.4697613E1,3.852041E2,2.1871765E2,1.5593655E2,2.825896E2,4.4919727E2,0E0,2.880835E2,2.9220917E2,0E0,2.1293736E-1,0E0,2.6542759E1,0E0,4.1566467E-1,5.023514E0,8.585812E0,5.1753693E0,1.0384644E1,3.3641716E1,1.6840096E1,4.950719E1,6.064508E1,2.7976093E1,1.899207E1,1.3944374E2,2.2686987E2,9.668561E1,9.128479E1,1.100501E2,9.80461E1,9.18022E1,2.765194E2,2.936577E2,0E0,2.4097836E2,1.2113888E2,1.2739562E1,0E0,0E0,0E0,0E0,0E0,0E0,0E0,0E0,0E0,0E0,0E0,0E0,0E0,0E0,0E0,0E0,0E0,0E0,0E0,0E0,0E0,0E0,0E0,0E0,0E0,0E0,0E0,0E0,0E0,0E0,0E0,0E0,0E0,0E0,0E0,0E0,0E0,0E0,0E0,0E0,0E0,0E0,0E0,0E0,0E0,0E0,0E0,0E0,0E0,0E0,0E0],"parents":[2147483647,0,0,1,1,2,2,3,3,4,4,5,5,6,6,7,7,8,8,9,9,10,10,11,11,12,12,13,13,14,14,15,15,16,16,17,17,18,18,19,19,20,20,21,21,22,22,23,23,24,24,25,25,26,26,27,27,29,29,30,30,32,32,34,34,36,36,37,37,38,38,39,39,40,40,41,41,42,42,43,43,44,44,45,45,46,46,47,47,48,48,49,49,50,50,51,51,52,52,53,53,54,54,55,55,57,57,58,58,59,59],"right_children":[2,4,6,8,10,12,14,16,18,20,22,24,26,28,30,32,34,36,38,40,42,44,46,48,50,52,54,56,-1,58,60,-1,62,-1,64,-1,66,68,70,72,74,76,78,80,82,84,86,88,90,92,94,96,98,100,102,104,-1,106,108,110,-1,-1,-1,-1,-1,-1,-1,-1,-1,-1,-1,-1,-1,-1,-1,-1,-1,-1,-1,-1,-1,-1,-1,-1,-1,-1,-1,-1,-1,-1,-1,-1,-1,-1,-1,-1,-1,-1,-1,-1,-1,-1,-1,-1,-1,-1,-1,-1,-1,-1,-1],"split_conditions":[2.7325E0,1.21E0,9.165E0,7.26E-1,1.6666667E-1,4.38E0,1.12E1,4.868421E-1,3.3333334E-1,2.02E0,1.59E0,4E-1,6.54E0,1.5026667E1,2.5E-3,6.275E-1,2.97E-1,3.3333335E-2,7.125E-1,1.48E0,2.51E0,2.3E0,4.03E0,3.82E0,4.7466664E0,1E0,5.0847456E-2,3.69E0,1.3518481E0,7E-1,2.1818182E0,-1.9430965E-1,4.225352E-2,-1.8936558E-1,2.535211E-1,-4.445654E-2,2.44E0,7E-1,9.7E-1,1.51E0,2.987013E-1,7.368421E-1,1.26E-1,1.9125E0,2.03125E-1,2.45E0,1E0,2.5E-1,1.516129E0,2.5E-3,1.1111111E-1,3.44E0,1.04E0,1.0714286E-1,3.26E0,2.59E0,1.5377567E0,1.8181819E-1,3.35E0,3.0882353E-1,1.3353882E0,-3.6865823E-2,-1.11209415E-1,-1.1200986E-1,4.361166E-1,-8.105679E-2,-2.0803212E-1,-1.141912E-1,-1.6144909E-1,4.935975E-2,-1.03969194E-1,-1.11880325E-1,-5.982917E-2,-1.8062776E-1,-9.529014E-3,-1.9564058E-1,1.9685235E-2,5.3075965E-2,-1.5161107E-1,5.0376784E-3,3.622638E-1,9.0590365E-2,3.2516634E-1,-5.5679537E-2,1.13219015E-1,-1.4634313E-1,5.561475E-2,5.9913512E-2,2.4204265E-1,1.7434554E-1,3.2996354E-1,2.2392349E-1,5.2329516E-1,-6.893245E-2,8.520834E-1,-1.1999004E-2,3.6478296E-1,8.614726E-2,3.219233E-1,2.9473352E-1,-6.235851E-2,2.1136644E-1,6.3176084E-1,9.618155E-1,4.653247E-1,1.0753096E0,2.3789147E-1,-1.3941531E-1,3.2046446E-1,1.4886111E-1,-2.0979361E-1],"split_indices":[10,10,10,10,11,12,12,0,11,10,12,11,10,10,13,13,8,1,13,12,12,10,12,10,10,7,3,9,0,6,4,0,0,0,1,0,9,12,12,10,0,4,8,13,1,10,7,11,4,13,1,5,13,1,9,9,0,5,9,1,0,0,0,0,0,0,0,0,0,0,0,0,0,0,0,0,0,0,0,0,0,0,0,0,0,0,0,0,0,0,0,0,0,0,0,0,0,0,0,0,0,0,0,0,0,0,0,0,0,0,0],"split_type":[0,0,0,0,0,0,0,0,0,0,0,0,0,0,0,0,0,0,0,0,0,0,0,0,0,0,0,0,0,0,0,0,0,0,0,0,0,0,0,0,0,0,0,0,0,0,0,0,0,0,0,0,0,0,0,0,0,0,0,0,0,0,0,0,0,0,0,0,0,0,0,0,0,0,0,0,0,0,0,0,0,0,0,0,0,0,0,0,0,0,0,0,0,0,0,0,0,0,0,0,0,0,0,0,0,0,0,0,0,0,0],"sum_hessian":[3.514E3,2.128E3,1.386E3,1.551E3,5.77E2,1.168E3,2.18E2,1.382E3,1.69E2,2.6E2,3.17E2,6.99E2,4.69E2,1.37E2,8.1E1,1.367E3,1.5E1,3.2E1,1.37E2,1.35E2,1.25E2,1.8E2,1.37E2,6.35E2,6.4E1,3.44E2,1.25E2,1.18E2,1.9E1,7.4E1,7E0,1.362E3,5E0,1.3E1,2E0,1E0,3.1E1,1.23E2,1.4E1,9E1,4.5E1,8.4E1,4.1E1,1.33E2,4.7E1,1.04E2,3.3E1,2.48E2,3.87E2,4.8E1,1.6E1,2.56E2,8.8E1,4.3E1,8.2E1,1.14E2,4E0,3.7E1,3.7E1,2E0,5E0,2E0,3E0,1E0,1E0,2E0,2.9E1,7E1,5.3E1,5E0,9E0,3.3E1,5.7E1,4.1E1,4E0,7E0,7.7E1,4E0,3.7E1,1.3E2,3E0,2.9E1,1.8E1,9.4E1,1E1,2.8E1,5E0,1.95E2,5.3E1,1.76E2,2.11E2,2.8E1,2E1,1E0,1.5E1,2.49E2,7E0,6.4E1,2.4E1,8E0,3.5E1,6.1E1,2.1E1,1.4E1,1E2,3E0,3.4E1,3.1E1,6E0,1E0,1E0],"tree_param":{"num_deleted":"0","num_feature":"14","num_nodes":"111","size_leaf_vector":"1"}},{"base_weights":[1.0933116E-2,-1.1982585E0,2.224855E0,-1.6802789E0,-1.0975752E-1,1.6856726E0,4.7358046E0,-1.7402959E0,-1.243764E0,-5.595258E-1,2.9864192E-1,2.287502E0,8.912022E-1,6.3019834E0,2.0422864E0,-1.7462996E0,-1.1182125E0,-9.812587E-1,-1.4908993E0,-3.1284785E-1,-1.0996835E0,6.34619E-1,-5.570945E-1,2.0538661E0,4.8439107E0,6.8556476E-1,3.2687595E0,5.25201E0,1.2234226E1,1.2690513E0,9.036078E0,-1.7489295E0,-8.578319E-1,-1.7232527E-1,2.0780458E0,-1.4115831E0,-3.8412952E-1,-1.5229881E0,3.2907445E-2,-6.494221E-1,5.156749E-1,-1.3599329E0,5.351248E-1,1.578058E-1,2.0919733E0,-9.348873E-1,2.8406224E-1,1.2322559E0,2.5139205E0,3.7615128E0,8.142749E0,-2.8660163E-1,1.2799443E0,5.43138E0,2.3173945E-2,4.819586E0,1.4147362E0,1.012574E0,1.6534541E0,3.0252671E0,-5.2056056E-1,-3.859059E-1,1.2241058E0,-1.7661862E-1,-1.6009109E-1,-4.3900494E-2,-1.1303239E-1,4.1431078E-1,-1.0260393E-1,-1.570047E-1,-6.2058996E-2,-7.7085756E-2,2.2993272E-2,-2.1355608E-2,-1.5629315E-1,5.2246917E-2,-4.73108E-2,-7.892492E-2,3.403169E-2,-4.3648858E-2,1.8574916E-1,-1.5387848E-1,2.2476086E-2,-8.001148E-2,1.5141861E-1,-2.5945103E-2,6.217155E-2,-1.1742131E-1,2.3837256E-1,-1.0512588E-1,2.9588548E-2,1.2532209E-1,-4.960137E-2,1.4221661E-1,-1.5212761E-1,-4.4489585E-2,2.6990795E-1,2.7125344E-1,6.840162E-1,8.606965E-1,1.7502935E-1,6.7522936E-2,-7.203342E-2,-2.7321821E-2,1.6247457E-1,1.8406253E-1,7.9710597E-1,5.8330667E-1,-1.9153881E-1,8.72046E-1,4.1925293E-1,1.9320576E-1,8.5337085E-1,-1.2590946E-1,2.9299608E-1,1.4141805E-1,-1.9930394E-1],"categories":[],"categories_nodes":[],"categories_segments":[],"categories_sizes":[],"default_left":[0,0,0,0,0,0,0,0,0,0,0,0,0,0,0,0,0,0,0,0,0,0,0,0,0,0,0,0,0,0,0,0,0,0,0,0,0,0,0,0,0,0,0,0,0,0,0,0,0,0,0,0,0,0,0,0,0,0,0,0,0,0,0,0,0,0,0,0,0,0,0,0,0,0,0,0,0,0,0,0,0,0,0,0,0,0,0,0,0,0,0,0,0,0,0,0,0,0,0,0,0,0,0,0,0,0,0,0,0,0,0,0,0,0,0,0,0],"id":5,"left_children":[1,3,5,7,9,11,13,15,17,19,21,23,25,27,29,31,33,35,37,39,41,43,45,47,49,51,53,55,57,59,61,63,65,-1,67,69,71,73,75,77,79,81,83,85,87,89,91,93,95,97,99,101,103,105,107,109,-1,-1,-1,111,113,115,-1,-1,-1,-1,-1,-1,-1,-1,-1,-1,-1,-1,-1,-1,-1,-1,-1,-1,-1,-1,-1,-1,-1,-1,-1,-1,-1,-1,-1,-1,-1,-1,-1,-1,-1,-1,-1,-1,-1,-1,-1,-1,-1,-1,-1,-1,-1,-1,-1,-1,-1,-1,-1,-1,-1],"loss_changes":[9.412518E3,1.1929365E3,1.6735103E3,3.9124023E1,1.2856299E2,4.8757227E2,9.109883E2,3.2124023E0,1.112265E1,4.402655E1,1.0586893E2,3.3766138E2,2.1434833E2,7.9530615E2,4.31976E2,1.6958008E0,3.4522835E1,2.4382812E1,4.8420258E0,6.447256E1,4.4975357E1,1.8311969E2,3.331499E1,1.9912451E2,1.4076233E2,2.3670166E2,2.45538E2,3.8955664E2,1.3918457E1,2.3729568E2,2.46302E2,6.542969E-1,1.8854427E-1,0E0,2.3481377E1,6.0449066E0,1.0151197E1,4.687332E0,9.903617E-1,2.2964935E1,8.641189E1,2.5854156E1,2.0820745E1,3.88752E1,6.473865E1,1.0623383E1,2.5570187E1,1.0361075E2,1.8856592E2,1.0416443E2,1.7577637E1,6.556606E1,1.3646924E2,1.7683502E2,1.8011514E2,2.4473706E2,0E0,0E0,0E0,2.1234387E2,1.00525536E2,1.1497456E1,0E0,0E0,0E0,0E0,0E0,0E0,0E0,0E0,0E0,0E0,0E0,0E0,0E0,0E0,0E0,0E0,0E0,0E0,0E0,0E0,0E0,0E0,0E0,0E0,0E0,0E0,0E0,0E0,0E0,0E0,0E0,0E0,0E0,0E0,0E0,0E0,0E0,0E0,0E0,0E0,0E0,0E0,0E0,0E0,0E0,0E0,0E0,0E0,0E0,0E0,0E0,0E0,0E0,0E0,0E0],"parents":[2147483647,0,0,1,1,2,2,3,3,4,4,5,5,6,6,7,7,8,8,9,9,10,10,11,11,12,12,13,13,14,14,15,15,16,16,17,17,18,18,19,19,20,20,21,21,22,22,23,23,24,24,25,25,26,26,27,27,28,28,29,29,30,30,31,31,32,32,34,34,35,35,36,36,37,37,38,38,39,39,40,40,41,41,42,42,43,43,44,44,45,45,46,46,47,47,48,48,49,49,50,50,51,51,52,52,53,53,54,54,55,55,59,59,60,60,61,61],"right_children":[2,4,6,8,10,12,14,16,18,20,22,24,26,28,30,32,34,36,38,40,42,44,46,48,50,52,54,56,58,60,62,64,66,-1,68,70,72,74,76,78,80,82,84,86,88,90,92,94,96,98,100,102,104,106,108,110,-1,-1,-1,112,114,116,-1,-1,-1,-1,-1,-1,-1,-1,-1,-1,-1,-1,-1,-1,-1,-1,-1,-1,-1,-1,-1,-1,-1,-1,-1,-1,-1,-1,-1,-1,-1,-1,-1,-1,-1,-1,-1,-1,-1,-1,-1,-1,-1,-1,-1,-1,-1,-1,-1,-1,-1,-1,-1,-1,-1],"split_conditions":[3.1116667E0,1.3025E0,9.165E0,7.26E-1,1.6666667E-1,4.38E0,1.12E1,4.868421E-1,7E-1,2.28E0,2.8E0,4E-1,3.4975E0,1.5026667E1,2.5E-3,6.275E-1,1E0,2E-2,2.87E-1,2.5866666E0,2.5E-3,2.4925E0,1.285E0,1.0526316E-1,2.4324325E-1,1.3472222E0,2.07E-1,3.69E0,1E-2,7E-1,2.1818182E0,3.8E-1,-1.5151516E-1,-1.7232527E-1,5.294118E-1,1.9615384E0,6.666667E-1,2.48E0,1.2987013E-2,2.5277777E0,1E-2,3.53E0,1.8309858E-1,1.85E0,2.857143E-1,1.7605634E0,-5.4054055E-2,9.175E-1,1.25E-1,6.666667E-1,1.0441177E0,1.85E-1,4E0,1.9354838E-1,1.1315789E0,2.59E0,1.4147362E0,1.012574E0,1.6534541E0,6.0273975E-1,3.35E0,3.0882353E-1,1.2241058E0,-1.7661862E-1,-1.6009109E-1,-4.3900494E-2,-1.1303239E-1,4.1431078E-1,-1.0260393E-1,-1.570047E-1,-6.2058996E-2,-7.7085756E-2,2.2993272E-2,-2.1355608E-2,-1.5629315E-1,5.2246917E-2,-4.73108E-2,-7.892492E-2,3.403169E-2,-4.3648858E-2,1.8574916E-1,-1.5387848E-1,2.2476086E-2,-8.001148E-2,1.5141861E-1,-2.5945103E-2,6.217155E-2,-1.1742131E-1,2.3837256E-1,-1.0512588E-1,2.9588548E-2,1.2532209E-1,-4.960137E-2,1.4221661E-1,-1.5212761E-1,-4.4489585E-2,2.6990795E-1,2.7125344E-1,6.840162E-1,8.606965E-1,1.7502935E-1,6.7522936E-2,-7.203342E-2,-2.7321821E-2,1.6247457E-1,1.8406253E-1,7.9710597E-1,5.8330667E-1,-1.9153881E-1,8.72046E-1,4.1925293E-1,1.9320576E-1,8.5337085E-1,-1.2590946E-1,2.9299608E-1,1.4141805E-1,-1.9930394E-1],"split_indices":[10,10,10,10,11,12,12,0,12,12,12,11,13,10,13,13,7,12,8,10,13,10,13,0,0,4,8,9,12,6,4,10,2,0,0,5,11,9,0,5,12,9,1,10,5,6,2,13,8,11,5,8,10,0,4,9,0,0,0,6,9,1,0,0,0,0,0,0,0,0,0,0,0,0,0,0,0,0,0,0,0,0,0,0,0,0,0,0,0,0,0,0,0,0,0,0,0,0,0,0,0,0,0,0,0,0,0,0,0,0,0,0,0,0,0,0,0],"split_type":[0,0,0,0,0,0,0,0,0,0,0,0,0,0,0,0,0,0,0,0,0,0,0,0,0,0,0,0,0,0,0,0,0,0,0,0,0,0,0,0,0,0,0,0,0,0,0,0,0,0,0,0,0,0,0,0,0,0,0,0,0,0,0,0,0,0,0,0,0,0,0,0,0,0,0,0,0,0,0,0,0,0,0,0,0,0,0,0,0,0,0,0,0,0,0,0,0,0,0,0,0,0,0,0,0,0,0,0,0,0,0,0,0,0,0,0,0],"sum_hessian":[3.514E3,2.273E3,1.241E3,1.575E3,6.98E2,1.023E3,2.18E2,1.382E3,1.93E2,3.32E2,3.66E2,5.81E2,4.42E2,1.37E2,8.1E1,1.367E3,1.5E1,9.6E1,9.7E1,2.29E2,1.03E2,2.63E2,1.03E2,5.34E2,4.7E1,4.08E2,3.4E1,1.18E2,1.9E1,7.4E1,7E0,1.362E3,5E0,1.3E1,2E0,5.5E1,4.1E1,9.5E1,2E0,1.63E2,6.6E1,8.9E1,1.4E1,1.99E2,6.4E1,7.1E1,3.2E1,1.93E2,3.41E2,3.7E1,1E1,1.55E2,2.53E2,2E1,1.4E1,1.14E2,4E0,1.5E1,4E0,3.7E1,3.7E1,2E0,5E0,1.21E3,1.52E2,3E0,2E0,1E0,1E0,4.5E1,1E1,2.5E1,1.6E1,3E0,9.2E1,1E0,1E0,1.43E2,2E1,3.9E1,2.7E1,8E1,9E0,6E0,8E0,1.05E2,9.4E1,5E0,5.9E1,6.5E1,6E0,1.4E1,1.8E1,1.81E2,1.2E1,2E1,3.21E2,2.9E1,8E0,9E0,1E0,4.8E1,1.07E2,4.6E1,2.07E2,9E0,1.1E1,3E0,1.1E1,1.4E1,1E2,3.2E1,5E0,3.1E1,6E0,1E0,1E0],"tree_param":{"num_deleted":"0","num_feature":"14","num_nodes":"117","size_leaf_vector":"1"}},{"base_weights":[1.2928393E-2,-1.039219E0,2.090508E0,-1.4691787E0,4.6651036E-2,1.586931E0,4.297621E0,-1.5568975E0,-9.124511E-1,4.3037143E-1,-5.729238E-1,2.1118627E0,9.019912E-1,5.710713E0,1.8670807E0,-1.5763854E0,-1.3368901E0,-1.2753876E0,-6.700249E-1,-2.2136243E-2,1.0504087E0,-8.3580315E-1,2.7251086E-1,1.9586198E0,6.4896617E0,6.717283E-1,3.3394697E0,4.7495484E0,1.1144105E1,1.1583284E0,8.278248E0,-1.5829322E0,-1.0447884E0,-1.3524463E0,2.8826594E-2,-1.3817303E0,4.6142307E-1,-4.7070646E-1,-1.3556701E0,-4.4465625E-1,6.652824E-1,-3.2439005E-1,1.7466062E0,-1.3997028E0,-5.968315E-1,1.3913987E0,-6.5694124E-1,1.2767341E0,2.581312E0,1.2452474E0,7.4555283E0,-2.965187E-1,1.1494954E0,4.4149528E0,-1.7468108E0,4.348856E0,1.3015573E0,9.176451E-1,1.5211776E0,2.7502818E0,-4.641074E-1,-3.6661053E-1,1.122097E0,-1.5870242E-1,-8.955642E-2,3.9359525E-1,-1.5401602E-1,-1.3670509E-1,-3.1257953E-2,-1.5643077E-1,-8.736695E-2,-3.9177943E-2,7.104195E-2,3.2894053E-2,-9.323468E-2,-1.61224E-1,-1.0495397E-1,-5.3766754E-2,3.0381665E-1,4.2908464E-2,1.9337215E-1,2.122871E-1,-4.0318545E-2,5.108979E-2,2.2168687E-1,-1.7243862E-1,-3.8441082E-3,5.0990976E-2,-7.3594555E-2,7.421406E-2,3.233153E-1,-1.6163056E-1,9.542905E-3,1.1457383E-1,6.500277E-1,2.1820548E-1,4.941379E-1,2.0208672E-1,-5.4080617E-2,3.8592038E-1,8.4124464E-1,2.9313494E-3,-2.0574784E-1,-8.241492E-2,1.3837488E-1,2.2450916E-1,7.0797646E-1,2.481513E-1,-2.865117E-1,4.8068053E-1,1.7557463E-3,1.0703686E0,2.0111015E-1,-1.1371197E-1,2.6788214E-1,1.3434716E-1,-1.8933873E-1],"categories":[],"categories_nodes":[],"categories_segments":[],"categories_sizes":[],"default_left":[0,0,0,0,0,0,0,0,0,0,0,0,0,0,0,0,0,0,0,0,0,0,0,0,0,0,0,0,0,0,0,0,0,0,0,0,0,0,0,0,0,0,0,0,0,0,0,0,0,0,0,0,0,0,0,0,0,0,0,0,0,0,0,0,0,0,0,0,0,0,0,0,0,0,0,0,0,0,0,0,0,0,0,0,0,0,0,0,0,0,0,0,0,0,0,0,0,0,0,0,0,0,0,0,0,0,0,0,0,0,0,0,0,0,0,0,0],"id":6,"left_children":[1,3,5,7,9,11,13,15,17,19,21,23,25,27,29,31,33,35,37,39,41,43,45,47,49,51,53,55,57,59,61,63,65,67,-1,69,71,73,75,77,79,81,83,85,87,89,91,93,95,97,99,101,103,105,107,109,-1,-1,-1,111,113,115,-1,-1,-1,-1,-1,-1,-1,-1,-1,-1,-1,-1,-1,-1,-1,-1,-1,-1,-1,-1,-1,-1,-1,-1,-1,-1,-1,-1,-1,-1,-1,-1,-1,-1,-1,-1,-1,-1,-1,-1,-1,-1,-1,-1,-1,-1,-1,-1,-1,-1,-1,-1,-1,-1,-1],"loss_changes":[7.685681E3,1.0897671E3,1.3069155E3,8.0232666E1,1.578705E2,3.4469824E2,7.4151E2,4.0793457E0,1.938208E1,1.1505763E2,5.667859E1,3.5291162E2,2.3348633E2,6.677593E2,3.630133E2,2.9399414E0,3.5247498E0,1.7445007E1,1.8494522E1,6.942248E1,1.6615031E2,2.5307281E1,6.435118E1,2.2089551E2,8.189331E1,1.7844048E2,2.0463962E2,3.3754126E2,2.0485107E1,1.9498958E2,2.0762897E2,2.2404785E0,5.2941055E1,1.4406891E0,0E0,6.6107025E0,1.5529937E0,4.091311E1,7.4274445E-1,4.9576904E1,2.6434093E1,1.223305E1,6.569476E1,2.5126526E1,2.1622196E1,3.1082203E1,2.4695345E1,1.6635522E2,2.483429E2,6.6340923E0,1.9155457E1,7.3503815E1,1.2042233E2,1.5757343E2,4.020975E1,2.2802002E2,0E0,0E0,0E0,2.0187585E2,8.342486E1,1.0376453E1,0E0,0E0,0E0,0E0,0E0,0E0,0E0,0E0,0E0,0E0,0E0,0E0,0E0,0E0,0E0,0E0,0E0,0E0,0E0,0E0,0E0,0E0,0E0,0E0,0E0,0E0,0E0,0E0,0E0,0E0,0E0,0E0,0E0,0E0,0E0,0E0,0E0,0E0,0E0,0E0,0E0,0E0,0E0,0E0,0E0,0E0,0E0,0E0,0E0,0E0,0E0,0E0,0E0,0E0,0E0],"parents":[2147483647,0,0,1,1,2,2,3,3,4,4,5,5,6,6,7,7,8,8,9,9,10,10,11,11,12,12,13,13,14,14,15,15,16,16,17,17,18,18,19,19,20,20,21,21,22,22,23,23,24,24,25,25,26,26,27,27,28,28,29,29,30,30,31,31,32,32,33,33,35,35,36,36,37,37,38,38,39,39,40,40,41,41,42,42,43,43,44,44,45,45,46,46,47,47,48,48,49,49,50,50,51,51,52,52,53,53,54,54,55,55,59,59,60,60,61,61],"right_children":[2,4,6,8,10,12,14,16,18,20,22,24,26,28,30,32,34,36,38,40,42,44,46,48,50,52,54,56,58,60,62,64,66,68,-1,70,72,74,76,78,80,82,84,86,88,90,92,94,96,98,100,102,104,106,108,110,-1,-1,-1,112,114,116,-1,-1,-1,-1,-1,-1,-1,-1,-1,-1,-1,-1,-1,-1,-1,-1,-1,-1,-1,-1,-1,-1,-1,-1,-1,-1,-1,-1,-1,-1,-1,-1,-1,-1,-1,-1,-1,-1,-1,-1,-1,-1,-1,-1,-1,-1,-1,-1,-1,-1,-1,-1,-1,-1,-1],"split_conditions":[3.32E0,1.51E0,9.165E0,9E-1,2.3E0,4.38E0,1.12E1,6E-1,3.3333334E-1,2.4925E0,7.125E-1,3.69E0,3.2E0,1.5026667E1,2.5E-3,3.802817E-1,2.7534246E0,3.59E0,8E-1,3.3333334E-1,2E-2,8.75E-1,3.97E0,1.516129E0,5.3333335E-2,1.3E0,2.38E-1,3.69E0,1E-2,7E-1,2.1818182E0,2.975E-1,3.888889E-1,3.74E0,2.8826594E-2,2.0533333E0,1E-1,6.2E-1,9.677419E-1,1.6375E0,6E-1,-3.795E0,-7.5E-3,1.6065574E0,1.016129E0,2.8825E0,5.9375E-1,6E-1,2.5E-3,4.347826E-2,4.322E0,1.171875E0,3.3846155E-1,1.6623377E0,1.0144927E-1,7.5E-1,1.3015573E0,9.176451E-1,1.5211776E0,1.7391305E-1,3.35E0,3.0882353E-1,1.122097E0,-1.5870242E-1,-8.955642E-2,3.9359525E-1,-1.5401602E-1,-1.3670509E-1,-3.1257953E-2,-1.5643077E-1,-8.736695E-2,-3.9177943E-2,7.104195E-2,3.2894053E-2,-9.323468E-2,-1.61224E-1,-1.0495397E-1,-5.3766754E-2,3.0381665E-1,4.2908464E-2,1.9337215E-1,2.122871E-1,-4.0318545E-2,5.108979E-2,2.2168687E-1,-1.7243862E-1,-3.8441082E-3,5.0990976E-2,-7.3594555E-2,7.421406E-2,3.233153E-1,-1.6163056E-1,9.542905E-3,1.1457383E-1,6.500277E-1,2.1820548E-1,4.941379E-1,2.0208672E-1,-5.4080617E-2,3.8592038E-1,8.4124464E-1,2.9313494E-3,-2.0574784E-1,-8.241492E-2,1.3837488E-1,2.2450916E-1,7.0797646E-1,2.481513E-1,-2.865117E-1,4.8068053E-1,1.7557463E-3,1.0703686E0,2.0111015E-1,-1.1371197E-1,2.6788214E-1,1.3434716E-1,-1.8933873E-1],"split_indices":[10,10,10,10,12,12,12,10,11,10,13,9,13,10,13,3,6,9,11,11,12,5,12,4,0,4,8,9,12,6,4,13,3,9,0,5,1,12,4,13,11,13,13,6,5,10,6,11,13,0,10,4,5,4,0,1,0,0,0,5,9,1,0,0,0,0,0,0,0,0,0,0,0,0,0,0,0,0,0,0,0,0,0,0,0,0,0,0,0,0,0,0,0,0,0,0,0,0,0,0,0,0,0,0,0,0,0,0,0,0,0,0,0,0,0,0,0],"split_type":[0,0,0,0,0,0,0,0,0,0,0,0,0,0,0,0,0,0,0,0,0,0,0,0,0,0,0,0,0,0,0,0,0,0,0,0,0,0,0,0,0,0,0,0,0,0,0,0,0,0,0,0,0,0,0,0,0,0,0,0,0,0,0,0,0,0,0,0,0,0,0,0,0,0,0,0,0,0,0,0,0,0,0,0,0,0,0,0,0,0,0,0,0,0,0,0,0,0,0,0,0,0,0,0,0,0,0,0,0,0,0,0,0,0,0,0,0],"sum_hessian":[3.514E3,2.333E3,1.181E3,1.671E3,6.62E2,9.63E2,2.18E2,1.442E3,2.29E2,4.09E2,2.53E2,5.44E2,4.19E2,1.37E2,8.1E1,1.319E3,1.23E2,9E1,1.39E2,2.37E2,1.72E2,1.93E2,6E1,5.27E2,1.7E1,3.84E2,3.5E1,1.18E2,1.9E1,7.4E1,7E0,1.301E3,1.8E1,1.22E2,1E0,8.5E1,5E0,1.09E2,3E1,1.47E2,9E1,5.8E1,1.14E2,5.6E1,1.37E2,2.7E1,3.3E1,2.53E2,2.74E2,3E0,1.4E1,1.27E2,2.57E2,2.9E1,6E0,1.14E2,4E0,1.5E1,4E0,3.7E1,3.7E1,2E0,5E0,1.292E3,9E0,1E0,1.7E1,1.2E2,2E0,6.1E1,2.4E1,1E0,4E0,4E1,6.9E1,1.4E1,1.6E1,1.44E2,3E0,7.7E1,1.3E1,1E0,5.7E1,3.2E1,8.2E1,4.5E1,1.1E1,1.5E1,1.22E2,2.1E1,6E0,1.4E1,1.9E1,2.48E2,5E0,2.36E2,3.8E1,2E0,1E0,4E0,1E1,1.08E2,1.9E1,2.7E1,2.3E2,1.7E1,1.2E1,1E0,5E0,1.03E2,1.1E1,2E0,3.5E1,3.1E1,6E0,1E0,1E0],"tree_param":{"num_deleted":"0","num_feature":"14","num_nodes":"117","size_leaf_vector":"1"}},{"base_weights":[1.4652988E-2,-9.2159325E-1,1.9186373E0,-1.3226713E0,5.7304822E-2,1.4400254E0,3.8351383E0,-1.4013102E0,-8.235471E-1,3.9398143E-1,-4.6928024E-1,1.8540274E0,6.3104707E-1,5.0151143E0,1.7104766E0,-1.4187534E0,-1.2043232E0,-1.1501778E0,-6.0535467E-1,-1.787923E-2,9.304037E-1,-7.098551E-1,3.0864346E-1,1.7101421E0,6.04191E0,2.5959036E-1,3.6058972E0,4.1798773E0,1.0151635E1,1.0780461E0,7.5838118E0,-1.4248297E0,-9.2770004E-1,-1.2185673E0,2.7385259E-2,-1.2463921E0,4.2059135E-1,-4.2418435E-1,-1.2286894E0,-3.9850113E-1,6.0135067E-1,-2.8235024E-1,1.5441256E0,-6.071097E-1,-1.88559E0,1.2664564E0,-4.2452967E-1,-1.2368932E0,1.8578563E0,7.4046844E-1,3.938668E0,-3.2712448E-1,1.3474281E0,4.40651E0,-9.981501E-1,3.8055491E0,1.1219351E0,8.3161587E-1,1.3994836E0,2.5087135E0,-3.0803904E-1,-3.4828004E-1,1.0285889E0,-1.4284444E-1,-8.149634E-2,3.739155E-1,-1.3947006E-1,-1.2404852E-1,-4.532077E-2,-4.6640966E-2,-1.3428846E-1,-3.7219048E-2,6.535858E-2,2.968487E-2,-8.40444E-2,-1.331232E-1,-6.869389E-2,-4.842716E-2,2.810304E-1,1.1676204E-1,1.3432296E-2,2.0167275E-1,-3.5310116E-2,3.2119465E-1,1.2406168E-1,-1.5892285E-1,-4.9509015E-2,-2.1232934E-1,-1.4777715E-2,-1.872022E-2,1.9648843E-1,8.925695E-2,-8.7976046E-2,1.9302947E-2,-2.1214588E-1,1.3868771E-1,2.7562496E-1,1.261769E-1,4.450172E-1,-5.2848008E-2,3.646843E-1,3.3962756E-1,3.634495E-2,2.645534E-1,7.2076935E-1,1.7801641E-1,-2.8323483E-1,4.5774075E-1,1.11920536E-1,4.1739327E-1,-3.2288443E-2,-8.666476E-2,2.449208E-1,1.276298E-1,-1.798718E-1],"categories":[],"categories_nodes":[],"categories_segments":[],"categories_sizes":[],"default_left":[0,0,0,0,0,0,0,0,0,0,0,0,0,0,0,0,0,0,0,0,0,0,0,0,0,0,0,0,0,0,0,0,0,0,0,0,0,0,0,0,0,0,0,0,0,0,0,0,0,0,0,0,0,0,0,0,0,0,0,0,0,0,0,0,0,0,0,0,0,0,0,0,0,0,0,0,0,0,0,0,0,0,0,0,0,0,0,0,0,0,0,0,0,0,0,0,0,0,0,0,0,0,0,0,0,0,0,0,0,0,0,0,0,0,0],"id":7,"left_children":[1,3,5,7,9,11,13,15,17,19,21,23,25,27,29,31,33,35,37,39,41,43,45,47,49,51,53,55,57,59,61,63,65,67,-1,69,71,73,75,77,79,81,83,85,87,89,91,93,95,-1,97,99,101,103,105,107,-1,-1,-1,109,111,113,-1,-1,-1,-1,-1,-1,-1,-1,-1,-1,-1,-1,-1,-1,-1,-1,-1,-1,-1,-1,-1,-1,-1,-1,-1,-1,-1,-1,-1,-1,-1,-1,-1,-1,-1,-1,-1,-1,-1,-1,-1,-1,-1,-1,-1,-1,-1,-1,-1,-1,-1,-1,-1],"loss_changes":[6.2676006E3,9.2546826E2,1.0575815E3,6.44729E1,1.2180505E2,3.0996936E2,5.705503E2,3.2495117E0,1.5695435E1,9.258681E1,5.0374985E1,3.596482E2,3.482528E2,5.9251855E2,3.0384033E2,2.6166992E0,2.9445648E0,1.4277107E1,1.5288975E1,5.6334442E1,1.3589745E2,2.36195E1,4.5481186E1,2.613125E2,2.816034E1,1.8042743E2,1.3341046E2,2.97229E2,2.4698975E1,1.5346584E2,1.7504736E2,1.7060547E0,4.6624046E1,1.5011444E0,0E0,5.846237E0,1.351541E0,3.3264545E1,8.076477E-1,4.2093613E1,2.3909363E1,1.0797142E1,5.7265137E1,2.0116333E1,6.2955704E0,2.8795551E1,2.296986E1,3.7090458E1,2.3608899E2,0E0,8.077347E0,1.4916052E2,1.983518E2,1.2891632E2,3.561792E1,2.5198828E2,0E0,0E0,0E0,1.8052644E2,6.3731472E1,9.364748E0,0E0,0E0,0E0,0E0,0E0,0E0,0E0,0E0,0E0,0E0,0E0,0E0,0E0,0E0,0E0,0E0,0E0,0E0,0E0,0E0,0E0,0E0,0E0,0E0,0E0,0E0,0E0,0E0,0E0,0E0,0E0,0E0,0E0,0E0,0E0,0E0,0E0,0E0,0E0,0E0,0E0,0E0,0E0,0E0,0E0,0E0,0E0,0E0,0E0,0E0,0E0,0E0,0E0],"parents":[2147483647,0,0,1,1,2,2,3,3,4,4,5,5,6,6,7,7,8,8,9,9,10,10,11,11,12,12,13,13,14,14,15,15,16,16,17,17,18,18,19,19,20,20,21,21,22,22,23,23,24,24,25,25,26,26,27,27,28,28,29,29,30,30,31,31,32,32,33,33,35,35,36,36,37,37,38,38,39,39,40,40,41,41,42,42,43,43,44,44,45,45,46,46,47,47,48,48,50,50,51,51,52,52,53,53,54,54,55,55,59,59,60,60,61,61],"right_children":[2,4,6,8,10,12,14,16,18,20,22,24,26,28,30,32,34,36,38,40,42,44,46,48,50,52,54,56,58,60,62,64,66,68,-1,70,72,74,76,78,80,82,84,86,88,90,92,94,96,-1,98,100,102,104,106,108,-1,-1,-1,110,112,114,-1,-1,-1,-1,-1,-1,-1,-1,-1,-1,-1,-1,-1,-1,-1,-1,-1,-1,-1,-1,-1,-1,-1,-1,-1,-1,-1,-1,-1,-1,-1,-1,-1,-1,-1,-1,-1,-1,-1,-1,-1,-1,-1,-1,-1,-1,-1,-1,-1,-1,-1,-1,-1],"split_conditions":[3.3875E0,1.51E0,8.985E0,9E-1,2.3E0,5.7E0,1.12E1,6E-1,3.3333334E-1,2.4925E0,7.125E-1,3.69E0,2.9775E0,1.5026667E1,2.42E0,3.802817E-1,2.7534246E0,3.59E0,8E-1,3.3333334E-1,2E-2,2.2222222E-1,3.97E0,1.25E-1,8.6153847E-1,1E0,1.411E1,3.69E0,1E-2,7E-1,2.1818182E0,2.975E-1,3.888889E-1,2.93E-1,2.7385259E-2,2.53E0,1E-1,6.2E-1,1.2045455E0,1.6375E0,1.0392157E0,-3.795E0,-2.4657534E-1,4.6296296E-1,6E-1,2.56E0,2E-1,2.65E0,1.8918918E0,7.4046844E-1,1.9178082E-1,3.01E-1,5.0980395E-1,1.6623377E0,-1.884058E-1,1.8309858E-1,1.1219351E0,8.3161587E-1,1.3994836E0,3.16E0,3.35E0,3.0882353E-1,1.0285889E0,-1.4284444E-1,-8.149634E-2,3.739155E-1,-1.3947006E-1,-1.2404852E-1,-4.532077E-2,-4.6640966E-2,-1.3428846E-1,-3.7219048E-2,6.535858E-2,2.968487E-2,-8.40444E-2,-1.331232E-1,-6.869389E-2,-4.842716E-2,2.810304E-1,1.1676204E-1,1.3432296E-2,2.0167275E-1,-3.5310116E-2,3.2119465E-1,1.2406168E-1,-1.5892285E-1,-4.9509015E-2,-2.1232934E-1,-1.4777715E-2,-1.872022E-2,1.9648843E-1,8.925695E-2,-8.7976046E-2,1.9302947E-2,-2.1214588E-1,1.3868771E-1,2.7562496E-1,1.261769E-1,4.450172E-1,-5.2848008E-2,3.646843E-1,3.3962756E-1,3.634495E-2,2.645534E-1,7.2076935E-1,1.7801641E-1,-2.8323483E-1,4.5774075E-1,1.11920536E-1,4.1739327E-1,-3.2288443E-2,-8.666476E-2,2.449208E-1,1.276298E-1,-1.798718E-1],"split_indices":[10,10,10,10,12,12,12,10,11,10,13,9,13,10,13,3,6,9,11,11,12,3,12,8,6,7,12,9,12,6,4,13,3,8,0,9,1,12,6,13,4,13,2,5,11,12,11,9,4,0,1,8,6,4,2,2,0,0,0,9,9,1,0,0,0,0,0,0,0,0,0,0,0,0,0,0,0,0,0,0,0,0,0,0,0,0,0,0,0,0,0,0,0,0,0,0,0,0,0,0,0,0,0,0,0,0,0,0,0,0,0,0,0,0,0],"split_type":[0,0,0,0,0,0,0,0,0,0,0,0,0,0,0,0,0,0,0,0,0,0,0,0,0,0,0,0,0,0,0,0,0,0,0,0,0,0,0,0,0,0,0,0,0,0,0,0,0,0,0,0,0,0,0,0,0,0,0,0,0,0,0,0,0,0,0,0,0,0,0,0,0,0,0,0,0,0,0,0,0,0,0,0,0,0,0,0,0,0,0,0,0,0,0,0,0,0,0,0,0,0,0,0,0,0,0,0,0,0,0,0,0,0,0],"sum_hessian":[3.514E3,2.356E3,1.158E3,1.671E3,6.85E2,9.28E2,2.3E2,1.442E3,2.29E2,4.18E2,2.67E2,6.13E2,3.15E2,1.47E2,8.3E1,1.319E3,1.23E2,9E1,1.39E2,2.37E2,1.81E2,2.04E2,6.3E1,5.94E2,1.9E1,2.81E2,3.4E1,1.28E2,1.9E1,7.6E1,7E0,1.301E3,1.8E1,1.22E2,1E0,8.5E1,5E0,1.09E2,3E1,1.47E2,9E1,6.1E1,1.2E2,1.89E2,1.5E1,2.7E1,3.6E1,2.8E1,5.66E2,1E1,9E0,1.83E2,9.8E1,2.9E1,5E0,1.23E2,5E0,1.5E1,4E0,3.7E1,3.9E1,2E0,5E0,1.292E3,9E0,1E0,1.7E1,1.18E2,4E0,1E1,7.5E1,1E0,4E0,4E1,6.9E1,2.4E1,6E0,1.44E2,3E0,4E1,5E1,1E0,6E1,1.7E1,1.03E2,1.8E1,1.71E2,1.3E1,2E0,9E0,1.8E1,9E0,2.7E1,1.1E1,1.7E1,3.73E2,1.93E2,2E0,7E0,1.75E2,8E0,3.1E1,6.7E1,1.9E1,1E1,2E0,3E0,9.5E1,2.8E1,2.3E1,1.4E1,3.3E1,6E0,1E0,1E0],"tree_param":{"num_deleted":"0","num_feature":"14","num_nodes":"115","size_leaf_vector":"1"}},{"base_weights":[1.5668659E-2,-8.163088E-1,1.7632477E0,-1.1907277E0,6.532929E-2,1.1917124E0,3.1000583E0,-1.2612705E0,-7.4297047E-1,3.114135E-1,-5.738253E-1,9.063768E-1,2.4045277E0,2.8641188E0,9.874971E0,-1.2833728E0,-1.1311857E0,-1.036839E0,-5.46649E-1,2.1852988E-1,2.8587322E0,-6.5957993E-1,8.1033635E-1,1.360624E0,-1.0606427E-1,-1.5430032E-1,3.3596754E0,2.5671008E0,8.514092E0,1.2347002E1,2.4621682E0,-1.2897293E-1,-7.220538E-1,1.5601719E-2,-1.1438265E0,-1.1238568E0,3.832221E-1,-3.8226005E-1,-1.1123308E0,-4.1291248E-2,8.495528E-1,-1.9235706E-1,3.2531953E0,-5.901429E-1,-2.3607965E0,1.9161917E-1,-2.5330192E-1,1.0870708E0,2.6574297E0,-5.35156E-1,1.3933461E0,5.3736186E-1,-8.775975E-1,8.548506E-1,2.8126657E0,3.0230446E0,1.565852E-1,1.0045229E1,1.4093747E0,1.3199996E0,3.1880236E-1,-1.0348854E-1,3.9728146E0,3.552197E-1,-1.243817E-1,-1.1515667E-1,2.6015997E-2,-8.869665E-2,-1.4774393E-1,7.066135E-2,-1.757071E-2,2.6788792E-2,-7.5760014E-2,-1.3504018E-1,-8.368369E-2,-4.4208933E-2,3.4202013E-2,3.497304E-2,1.4766762E-1,4.288933E-1,1.16086595E-1,-7.7368766E-2,-5.038367E-3,-2.6609778E-1,-2.7985418E-2,-8.6230256E-2,4.190242E-2,7.457845E-2,1.9886576E-1,1.3156897E-1,3.5330442E-1,-1.5076003E-2,-1.8229657E-1,2.6016212E-1,-5.6360103E-2,4.4845667E-1,-1.6403393E-1,1.622671E-1,4.9161935E-1,3.2681298E-1,-5.080166E-2,2.8085545E-1,-7.3141955E-2,1.2581695E0,6.887226E-1,5.872632E-1,-2.0359218E-1,4.746739E-1,1.212483E-1],"categories":[],"categories_nodes":[],"categories_segments":[],"categories_sizes":[],"default_left":[0,0,0,0,0,0,0,0,0,0,0,0,0,0,0,0,0,0,0,0,0,0,0,0,0,0,0,0,0,0,0,0,0,0,0,0,0,0,0,0,0,0,0,0,0,0,0,0,0,0,0,0,0,0,0,0,0,0,0,0,0,0,0,0,0,0,0,0,0,0,0,0,0,0,0,0,0,0,0,0,0,0,0,0,0,0,0,0,0,0,0,0,0,0,0,0,0,0,0,0,0,0,0,0,0,0,0,0,0],"id":8,"left_children":[1,3,5,7,9,11,13,15,17,19,21,23,25,27,29,31,33,35,37,39,41,43,45,47,49,51,53,55,57,59,61,-1,63,-1,65,67,69,71,73,75,77,-1,79,81,83,-1,85,87,89,91,93,-1,95,-1,97,99,101,103,105,-1,-1,-1,107,-1,-1,-1,-1,-1,-1,-1,-1,-1,-1,-1,-1,-1,-1,-1,-1,-1,-1,-1,-1,-1,-1,-1,-1,-1,-1,-1,-1,-1,-1,-1,-1,-1,-1,-1,-1,-1,-1,-1,-1,-1,-1,-1,-1,-1,-1],"loss_changes":[5.112061E3,7.863805E2,8.6272046E2,5.1875E1,1.12008934E2,2.7328394E2,5.1359814E2,2.6970215E0,1.2702545E1,1.2098981E2,2.4036736E1,2.9723877E2,3.695714E2,5.302529E2,1.7117114E2,3.4431152E0,3.7256165E0,1.1675606E1,1.2593658E1,8.151977E1,4.0213715E1,2.069661E1,1.4600138E1,1.5532758E2,1.3006596E2,1.7264566E2,2.8817334E2,3.4463135E2,1.5989526E2,2.0418457E1,2.5242651E1,0E0,4.010063E1,0E0,2.6469116E0,5.892952E0,1.2086744E0,2.704588E1,9.031296E-1,5.438276E1,4.4933846E1,0E0,3.1861893E1,1.7892685E1,3.6279297E0,0E0,3.2274547E0,1.1236566E2,8.581476E1,7.74447E1,1.0787015E2,0E0,1.6277422E2,0E0,2.4484454E2,2.3012866E2,1.2215725E2,1.7479248E1,7.34652E1,0E0,0E0,0E0,6.535263E-1,0E0,0E0,0E0,0E0,0E0,0E0,0E0,0E0,0E0,0E0,0E0,0E0,0E0,0E0,0E0,0E0,0E0,0E0,0E0,0E0,0E0,0E0,0E0,0E0,0E0,0E0,0E0,0E0,0E0,0E0,0E0,0E0,0E0,0E0,0E0,0E0,0E0,0E0,0E0,0E0,0E0,0E0,0E0,0E0,0E0,0E0],"parents":[2147483647,0,0,1,1,2,2,3,3,4,4,5,5,6,6,7,7,8,8,9,9,10,10,11,11,12,12,13,13,14,14,15,15,16,16,17,17,18,18,19,19,20,20,21,21,22,22,23,23,24,24,25,25,26,26,27,27,28,28,29,29,30,30,32,32,34,34,35,35,36,36,37,37,38,38,39,39,40,40,42,42,43,43,44,44,46,46,47,47,48,48,49,49,50,50,52,52,54,54,55,55,56,56,57,57,58,58,62,62],"right_children":[2,4,6,8,10,12,14,16,18,20,22,24,26,28,30,32,34,36,38,40,42,44,46,48,50,52,54,56,58,60,62,-1,64,-1,66,68,70,72,74,76,78,-1,80,82,84,-1,86,88,90,92,94,-1,96,-1,98,100,102,104,106,-1,-1,-1,108,-1,-1,-1,-1,-1,-1,-1,-1,-1,-1,-1,-1,-1,-1,-1,-1,-1,-1,-1,-1,-1,-1,-1,-1,-1,-1,-1,-1,-1,-1,-1,-1,-1,-1,-1,-1,-1,-1,-1,-1,-1,-1,-1,-1,-1,-1],"split_conditions":[3.4625E0,1.51E0,7.715E0,9E-1,2.99E0,2.5E-3,6.6825E0,3.8E-1,3.3333334E-1,2.5875E0,2.638889E-1,5.7E0,2.72E0,1.883E1,1.411E1,3.802817E-1,2E-1,3.59E0,8E-1,3.3333334E-1,6.1538464E-1,3.415E0,2.92E0,2.5E-1,2.0253165E-1,3.9E-1,6.5E-1,1.479E1,9.84E0,5.6164384E-1,2.2535211E-1,-1.2897293E-1,3.888889E-1,1.5601719E-2,2.7534246E0,1.6393442E-2,1.2820513E-2,6.2E-1,9.677419E-1,2.45E0,2.175E0,-1.9235706E-1,2.27E-1,6.275E-1,4.347826E-2,1.9161917E-1,3.17E0,3.9473686E-1,1.92E-1,9.3E0,2.4383562E0,5.3736186E-1,1.0294118E-1,8.548506E-1,1.4E0,3.472222E-1,1.73E-1,5.192308E-1,2.0512821E-1,1.3199996E0,3.1880236E-1,-1.0348854E-1,3.3783785E-1,3.552197E-1,-1.243817E-1,-1.1515667E-1,2.6015997E-2,-8.869665E-2,-1.4774393E-1,7.066135E-2,-1.757071E-2,2.6788792E-2,-7.5760014E-2,-1.3504018E-1,-8.368369E-2,-4.4208933E-2,3.4202013E-2,3.497304E-2,1.4766762E-1,4.288933E-1,1.16086595E-1,-7.7368766E-2,-5.038367E-3,-2.6609778E-1,-2.7985418E-2,-8.6230256E-2,4.190242E-2,7.457845E-2,1.9886576E-1,1.3156897E-1,3.5330442E-1,-1.5076003E-2,-1.8229657E-1,2.6016212E-1,-5.6360103E-2,4.4845667E-1,-1.6403393E-1,1.622671E-1,4.9161935E-1,3.2681298E-1,-5.080166E-2,2.8085545E-1,-7.3141955E-2,1.2581695E0,6.887226E-1,5.872632E-1,-2.0359218E-1,4.746739E-1,1.212483E-1],"split_indices":[10,10,10,10,12,13,13,10,11,13,2,12,9,10,12,3,4,9,11,11,4,10,9,11,3,13,12,12,12,1,0,0,3,0,6,3,2,12,4,10,10,0,8,13,2,0,9,1,8,12,4,0,1,0,5,2,8,6,0,0,0,0,0,0,0,0,0,0,0,0,0,0,0,0,0,0,0,0,0,0,0,0,0,0,0,0,0,0,0,0,0,0,0,0,0,0,0,0,0,0,0,0,0,0,0,0,0,0,0],"split_type":[0,0,0,0,0,0,0,0,0,0,0,0,0,0,0,0,0,0,0,0,0,0,0,0,0,0,0,0,0,0,0,0,0,0,0,0,0,0,0,0,0,0,0,0,0,0,0,0,0,0,0,0,0,0,0,0,0,0,0,0,0,0,0,0,0,0,0,0,0,0,0,0,0,0,0,0,0,0,0,0,0,0,0,0,0,0,0,0,0,0,0,0,0,0,0,0,0,0,0,0,0,0,0,0,0,0,0,0,0],"sum_hessian":[3.514E3,2.381E3,1.133E3,1.671E3,7.1E2,7.95E2,3.38E2,1.442E3,2.29E2,5.13E2,1.97E2,6.45E2,1.5E2,3.28E2,1E1,1.225E3,2.17E2,9E1,1.39E2,4.96E2,1.7E1,1.86E2,1.1E1,4.45E2,2E2,4.1E1,1.09E2,3.13E2,1.5E1,7E0,3E0,1.21E3,1.5E1,2E0,2.15E2,8.5E1,5E0,1.09E2,3E1,3.52E2,1.44E2,1E0,1.6E1,1.8E2,6E0,5E0,6E0,3.69E2,7.6E1,1.56E2,4.4E1,4E0,3.7E1,9E0,1E2,2.63E2,5E1,1.2E1,3E0,6E0,1E0,1E0,2E0,1E0,1.4E1,2.14E2,1E0,5.3E1,3.2E1,3E0,2E0,4E1,6.9E1,1.4E1,1.6E1,1.72E2,1.8E2,8.1E1,6.3E1,1E1,6E0,1.34E2,4.6E1,5E0,1E0,3E0,3E0,2.69E2,1E2,3.1E1,4.5E1,1.21E2,3.5E1,2.7E1,1.7E1,4E0,3.3E1,6.5E1,3.5E1,2.46E2,1.7E1,1.2E1,3.8E1,5E0,7E0,1E0,2E0,1E0,1E0],"tree_param":{"num_deleted":"0","num_feature":"14","num_nodes":"109","size_leaf_vector":"1"}},{"base_weights":[1.6353307E-2,-7.646992E-1,1.5352709E0,-1.1051067E0,-4.549332E-2,1.1731883E0,3.3842318E0,-1.1495928E0,-8.723177E-1,1.8525586E-1,-4.6101716E-1,1.082537E0,4.1711125E0,4.7667556E0,1.539004E0,-1.1543133E0,-6.927273E-1,-9.1208917E-1,-2.935689E-1,-1.3134655E-1,7.8133076E-1,-6.611429E-1,1.58474E-1,4.889354E-1,1.4513592E0,6.4252477E0,1.6389033E0,3.3712268E0,7.5804625E0,7.2535715E0,9.331637E-1,-1.1587613E-1,-7.719043E-1,-1.1648192E-1,1.7412772E0,-1.7391858E-1,-8.8344914E-1,5.8010906E-1,-7.787503E-1,-2.248908E-1,1.1889818E0,-3.0133238E-1,1.3156861E0,-1.1742384E0,-4.5629638E-1,8.917976E-1,-6.0187376E-1,7.3352176E-1,-9.43002E-1,2.0751622E0,1.0077384E0,7.436824E-3,6.87357E0,-1.7342224E0,3.0231512E0,2.3026955E0,6.6863446E0,8.5923395E0,1.089018E0,7.960694E0,1.1518588E-1,1.2442882E0,-3.0077114E0,6.820462E-3,-1.1002697E-1,-7.626712E-2,3.374587E-1,-7.6390095E-2,-1.0766639E-1,4.3582083E-3,6.6226654E-2,-1.646814E-1,-1.3886671E-2,-3.4351647E-2,4.978667E-2,5.7264395E-2,2.6343858E-1,1.8420576E-1,-3.7379507E-2,7.4674035E-3,1.748393E-1,-1.358178E-1,-1.7390538E-2,5.4397058E-2,-5.7498317E-2,1.9959813E-2,2.1441968E-1,-1.3871212E-1,1.2956144E-2,6.1935283E-2,4.2108223E-1,-1.5479527E-1,1.617524E-1,6.4913005E-2,3.0025092E-1,2.5772992E-1,6.6328995E-2,5.3188324E-1,9.430706E-1,-2.752436E-1,-1.3793485E-2,5.352527E-2,3.8892063E-1,1.8463363E-1,1.0205954E0,-8.758648E-2,7.182702E-1,8.8963175E-1,-2.6349211E-2,5.580884E-1,-5.263142E-1,1.9368355E-1,8.641864E-1,2.2553991E-1,-1.2167874E-2,-3.2470605E-1,-9.054829E-2],"categories":[],"categories_nodes":[],"categories_segments":[],"categories_sizes":[],"default_left":[0,0,0,0,0,0,0,0,0,0,0,0,0,0,0,0,0,0,0,0,0,0,0,0,0,0,0,0,0,0,0,0,0,0,0,0,0,0,0,0,0,0,0,0,0,0,0,0,0,0,0,0,0,0,0,0,0,0,0,0,0,0,0,0,0,0,0,0,0,0,0,0,0,0,0,0,0,0,0,0,0,0,0,0,0,0,0,0,0,0,0,0,0,0,0,0,0,0,0,0,0,0,0,0,0,0,0,0,0,0,0,0,0,0,0,0,0],"id":9,"left_children":[1,3,5,7,9,11,13,15,17,19,21,23,25,27,29,31,33,35,37,39,41,43,45,47,49,51,53,55,57,59,61,-1,63,-1,65,-1,67,69,71,73,75,77,79,81,83,85,87,89,91,93,95,-1,97,99,101,103,105,107,109,111,-1,113,115,-1,-1,-1,-1,-1,-1,-1,-1,-1,-1,-1,-1,-1,-1,-1,-1,-1,-1,-1,-1,-1,-1,-1,-1,-1,-1,-1,-1,-1,-1,-1,-1,-1,-1,-1,-1,-1,-1,-1,-1,-1,-1,-1,-1,-1,-1,-1,-1,-1,-1,-1,-1,-1,-1],"loss_changes":[4.17121E3,5.684287E2,7.9538477E2,1.5317993E1,7.17091E1,2.6725024E2,4.9012305E2,2.0472412E0,5.6477966E0,9.087635E1,3.320639E1,2.120935E2,1.5499994E2,4.102981E2,2.8751108E2,1.3254395E0,2.0413454E1,4.148636E0,8.081821E0,3.9172764E1,9.701045E1,2.0695587E1,3.733709E1,1.3167862E2,1.6367126E2,4.2197388E1,7.528145E1,2.5381879E2,2.271106E2,2.5347626E1,9.937848E1,0E0,5.0405703E0,0E0,1.4842872E1,0E0,4.5825806E0,2.796948E-1,6.43683E0,2.5463617E1,1.719944E1,9.386234E0,6.0012833E1,1.0251839E1,1.7645678E1,2.9046963E1,1.913352E1,1.24431854E2,8.769841E1,3.260127E2,1.8859323E2,0E0,5.4991455E0,7.7471485E0,2.1619522E1,1.939531E2,7.38551E1,8.5795166E1,2.0057127E2,1.1985077E1,0E0,1.0109793E2,7.883835E-2,0E0,0E0,0E0,0E0,0E0,0E0,0E0,0E0,0E0,0E0,0E0,0E0,0E0,0E0,0E0,0E0,0E0,0E0,0E0,0E0,0E0,0E0,0E0,0E0,0E0,0E0,0E0,0E0,0E0,0E0,0E0,0E0,0E0,0E0,0E0,0E0,0E0,0E0,0E0,0E0,0E0,0E0,0E0,0E0,0E0,0E0,0E0,0E0,0E0,0E0,0E0,0E0,0E0,0E0],"parents":[2147483647,0,0,1,1,2,2,3,3,4,4,5,5,6,6,7,7,8,8,9,9,10,10,11,11,12,12,13,13,14,14,15,15,16,16,17,17,18,18,19,19,20,20,21,21,22,22,23,23,24,24,25,25,26,26,27,27,28,28,29,29,30,30,32,32,34,34,36,36,37,37,38,38,39,39,40,40,41,41,42,42,43,43,44,44,45,45,46,46,47,47,48,48,49,49,50,50,52,52,53,53,54,54,55,55,56,56,57,57,58,58,59,59,61,61,62,62],"right_children":[2,4,6,8,10,12,14,16,18,20,22,24,26,28,30,32,34,36,38,40,42,44,46,48,50,52,54,56,58,60,62,-1,64,-1,66,-1,68,70,72,74,76,78,80,82,84,86,88,90,92,94,96,-1,98,100,102,104,106,108,110,112,-1,114,116,-1,-1,-1,-1,-1,-1,-1,-1,-1,-1,-1,-1,-1,-1,-1,-1,-1,-1,-1,-1,-1,-1,-1,-1,-1,-1,-1,-1,-1,-1,-1,-1,-1,-1,-1,-1,-1,-1,-1,-1,-1,-1,-1,-1,-1,-1,-1,-1,-1,-1,-1,-1,-1,-1],"split_conditions":[3.2833333E0,1.3025E0,9.532E0,6E-1,2.3E0,3.69E0,1.024E1,4.868421E-1,7.125E-1,2.4925E0,7.125E-1,1.3472222E0,8.6153847E-1,3.561644E-1,9.895E0,2.325E-1,2.97E-1,1.24E-1,9.7E-1,6E-1,2E-2,8.933333E-1,4.03E0,7.7922076E-2,2.56E0,1.8181819E-1,-1.9175E0,1.3105E1,3.58E0,3.4615386E-1,4.1558442E-1,-1.1587613E-1,5E-2,-1.1648192E-1,2.535211E-1,-1.7391858E-1,8.9E-1,4E-2,1.87E0,1.8918918E0,1.982E0,-3.795E0,-7.5E-3,1.6065574E0,1.016129E0,2.45E0,6.393443E-1,3.9075E0,6.68E0,1E-2,-1.7857143E-1,7.436824E-3,4.4E-1,2.06E-1,1.9178082E-1,3.69E0,-2.8767124E-1,1.1095891E0,4.4827586E-1,1.6981132E-1,1.1518588E-1,3.06E0,7.846154E-1,6.820462E-3,-1.1002697E-1,-7.626712E-2,3.374587E-1,-7.6390095E-2,-1.0766639E-1,4.3582083E-3,6.6226654E-2,-1.646814E-1,-1.3886671E-2,-3.4351647E-2,4.978667E-2,5.7264395E-2,2.6343858E-1,1.8420576E-1,-3.7379507E-2,7.4674035E-3,1.748393E-1,-1.358178E-1,-1.7390538E-2,5.4397058E-2,-5.7498317E-2,1.9959813E-2,2.1441968E-1,-1.3871212E-1,1.2956144E-2,6.1935283E-2,4.2108223E-1,-1.5479527E-1,1.617524E-1,6.4913005E-2,3.0025092E-1,2.5772992E-1,6.6328995E-2,5.3188324E-1,9.430706E-1,-2.752436E-1,-1.3793485E-2,5.352527E-2,3.8892063E-1,1.8463363E-1,1.0205954E0,-8.758648E-2,7.182702E-1,8.8963175E-1,-2.6349211E-2,5.580884E-1,-5.263142E-1,1.9368355E-1,8.641864E-1,2.2553991E-1,-1.2167874E-2,-3.2470605E-1,-9.054829E-2],"split_indices":[10,10,10,10,12,9,12,0,13,10,13,4,6,0,10,13,8,8,12,11,12,5,12,3,12,5,13,10,9,0,2,0,12,0,1,0,12,1,12,4,10,13,13,6,5,10,6,13,10,12,2,0,1,8,1,9,2,1,6,0,0,9,1,0,0,0,0,0,0,0,0,0,0,0,0,0,0,0,0,0,0,0,0,0,0,0,0,0,0,0,0,0,0,0,0,0,0,0,0,0,0,0,0,0,0,0,0,0,0,0,0,0,0,0,0,0,0],"split_type":[0,0,0,0,0,0,0,0,0,0,0,0,0,0,0,0,0,0,0,0,0,0,0,0,0,0,0,0,0,0,0,0,0,0,0,0,0,0,0,0,0,0,0,0,0,0,0,0,0,0,0,0,0,0,0,0,0,0,0,0,0,0,0,0,0,0,0,0,0,0,0,0,0,0,0,0,0,0,0,0,0,0,0,0,0,0,0,0,0,0,0,0,0,0,0,0,0,0,0,0,0,0,0,0,0,0,0,0,0,0,0,0,0,0,0,0,0],"sum_hessian":[3.514E3,2.321E3,1.193E3,1.575E3,7.46E2,9.99E2,1.94E2,1.319E3,2.56E2,4.8E2,2.66E2,9.71E2,2.8E1,1.1E2,8.4E1,1.304E3,1.5E1,2.39E2,1.7E1,3.14E2,1.66E2,2.01E2,6.5E1,3.73E2,5.98E2,1.4E1,1.4E1,7.5E1,3.5E1,7E0,7.7E1,1.287E3,1.7E1,1.3E1,2E0,6E0,2.33E2,6E0,1.1E1,2.94E2,2E1,5.5E1,1.11E2,5.6E1,1.45E2,3.3E1,3.2E1,3.19E2,5.4E1,2.47E2,3.51E2,1E0,1.3E1,4E0,1E1,5.8E1,1.7E1,3E1,5E0,6E0,1E0,7.2E1,5E0,5E0,1.2E1,1E0,1E0,1.47E2,8.6E1,1E0,5E0,4E0,7E0,2.53E2,4.1E1,1.5E1,5E0,1E0,5.4E1,2.9E1,8.2E1,4.7E1,9E0,1.5E1,1.3E2,2.2E1,1.1E1,1.5E1,1.7E1,3.1E2,9E0,4.4E1,1E1,9.8E1,1.49E2,6.2E1,2.89E2,1E1,3E0,2E0,2E0,3E0,7E0,5.6E1,2E0,1E0,1.6E1,2.9E1,1E0,3E0,2E0,1E0,5E0,4.1E1,3.1E1,4E0,1E0],"tree_param":{"num_deleted":"0","num_feature":"14","num_nodes":"117","size_leaf_vector":"1"}},{"base_weights":[1.659402E-2,-6.624581E-1,1.4429482E0,-9.606511E-1,7.3151745E-2,1.1049664E0,3.064794E0,-1.0209317E0,-5.927306E-1,2.9102087E-1,-4.7133946E-1,1.0176086E0,4.136788E0,4.3146834E0,1.3965292E0,-1.0234689E0,-2.3762967E-1,-8.6764556E-1,-3.8820162E-1,6.72635E-2,1.1674773E0,-1.5311784E0,-3.8189182E-1,1.3331941E0,4.2094916E-1,5.217818E0,-3.362824E-1,3.058261E0,6.8472786E0,6.6748466E0,8.372591E-1,-1.0273166E0,-6.144103E-1,1.1145997E-1,-6.2387265E-2,-9.363285E-1,3.8733557E-1,-2.7297136E-1,-9.9384713E-1,-1.4439534E-1,6.7252934E-1,5.7825613E-1,3.1149454E0,6.3286625E-2,-1.7813488E0,-6.0799533E-1,8.028239E-2,-1.3375475E0,1.4569298E0,1.3645616E-1,2.873799E0,4.14892E0,8.723404E-1,-1.5699527E0,2.9160348E-1,2.0928535E0,6.0527477E0,8.774759E0,3.5638223E0,7.3157487E0,1.09426595E-1,1.1227823E0,-2.7761492E-1,-1.0446727E-1,-9.293357E-2,-1.0590825E-1,1.6655302E-1,5.9208873E-4,2.1403862E-2,-1.6572293E-2,-1.03296734E-1,-3.0660057E-2,5.8744293E-2,2.12928E-2,-6.405272E-2,-1.1157962E-1,-3.560609E-2,-1.1740921E-1,-2.639041E-3,-8.81737E-3,1.2511347E-1,9.5759556E-2,-1.2242665E-1,4.2448393E-1,1.2215997E-1,-2.305007E-3,1.1798001E-2,-1.2735188E-2,-1.9085692E-1,-9.549948E-3,-8.725549E-2,1.569134E-1,-3.5563853E-2,2.4147548E-2,-2.4382181E-1,1.0494783E-1,2.1980564E-1,-5.325078E-2,7.2970405E-2,1.08391345E-1,5.2255076E-1,1.4795467E-1,4.3901202E-1,-2.5689402E-1,-4.7647795E-3,2.630315E-1,-3.0931088E-1,4.748114E-1,1.0993212E0,9.216445E-1,-2.5031758E-2,1.4419559E-1,6.5062964E-1,1.8399937E-1,7.921709E-1,4.8572183E-2,3.3619526E-1],"categories":[],"categories_nodes":[],"categories_segments":[],"categories_sizes":[],"default_left":[0,0,0,0,0,0,0,0,0,0,0,0,0,0,0,0,0,0,0,0,0,0,0,0,0,0,0,0,0,0,0,0,0,0,0,0,0,0,0,0,0,0,0,0,0,0,0,0,0,0,0,0,0,0,0,0,0,0,0,0,0,0,0,0,0,0,0,0,0,0,0,0,0,0,0,0,0,0,0,0,0,0,0,0,0,0,0,0,0,0,0,0,0,0,0,0,0,0,0,0,0,0,0,0,0,0,0,0,0,0,0,0,0,0,0,0,0],"id":10,"left_children":[1,3,5,7,9,11,13,15,17,19,21,23,25,27,29,31,33,35,37,39,41,43,45,47,49,51,53,55,57,59,61,63,65,67,-1,69,71,73,75,77,79,81,83,85,87,89,91,93,95,97,99,101,-1,103,-1,105,107,109,111,113,-1,115,-1,-1,-1,-1,-1,-1,-1,-1,-1,-1,-1,-1,-1,-1,-1,-1,-1,-1,-1,-1,-1,-1,-1,-1,-1,-1,-1,-1,-1,-1,-1,-1,-1,-1,-1,-1,-1,-1,-1,-1,-1,-1,-1,-1,-1,-1,-1,-1,-1,-1,-1,-1,-1,-1,-1],"loss_changes":[3.4054753E3,5.225708E2,6.1822046E2,3.6987305E1,8.175311E1,2.447522E2,4.0057788E2,2.6485596E0,1.3214142E1,9.640935E1,1.8090881E1,1.7173065E2,1.274783E2,3.3226245E2,2.4533183E2,1.6508789E0,8.785373E-1,9.154633E0,9.499123E0,5.0444286E1,1.1294769E2,6.096058E0,1.917217E1,1.9956738E2,2.2151419E2,4.2496643E1,2.8651762E1,2.0704083E2,1.9656506E2,2.0607513E1,8.359053E1,1.4696045E0,1.7985153E1,4.203693E-2,0E0,7.0524445E0,1.0132806E0,2.1389208E1,1.3138142E0,3.5449722E1,4.5005287E1,5.450624E1,4.4017914E1,1.6885582E-2,2.4924278E0,1.6593708E1,4.0148357E1,4.7514343E1,1.7042188E2,1.1389094E2,1.3324255E2,5.0939636E0,0E0,7.481413E0,0E0,1.7258392E2,6.38219E1,9.0004395E1,8.427127E1,8.650726E0,0E0,1.0250057E2,0E0,0E0,0E0,0E0,0E0,0E0,0E0,0E0,0E0,0E0,0E0,0E0,0E0,0E0,0E0,0E0,0E0,0E0,0E0,0E0,0E0,0E0,0E0,0E0,0E0,0E0,0E0,0E0,0E0,0E0,0E0,0E0,0E0,0E0,0E0,0E0,0E0,0E0,0E0,0E0,0E0,0E0,0E0,0E0,0E0,0E0,0E0,0E0,0E0,0E0,0E0,0E0,0E0,0E0,0E0],"parents":[2147483647,0,0,1,1,2,2,3,3,4,4,5,5,6,6,7,7,8,8,9,9,10,10,11,11,12,12,13,13,14,14,15,15,16,16,17,17,18,18,19,19,20,20,21,21,22,22,23,23,24,24,25,25,26,26,27,27,28,28,29,29,30,30,31,31,32,32,33,33,35,35,36,36,37,37,38,38,39,39,40,40,41,41,42,42,43,43,44,44,45,45,46,46,47,47,48,48,49,49,50,50,51,51,53,53,55,55,56,56,57,57,58,58,59,59,61,61],"right_children":[2,4,6,8,10,12,14,16,18,20,22,24,26,28,30,32,34,36,38,40,42,44,46,48,50,52,54,56,58,60,62,64,66,68,-1,70,72,74,76,78,80,82,84,86,88,90,92,94,96,98,100,102,-1,104,-1,106,108,110,112,114,-1,116,-1,-1,-1,-1,-1,-1,-1,-1,-1,-1,-1,-1,-1,-1,-1,-1,-1,-1,-1,-1,-1,-1,-1,-1,-1,-1,-1,-1,-1,-1,-1,-1,-1,-1,-1,-1,-1,-1,-1,-1,-1,-1,-1,-1,-1,-1,-1,-1,-1,-1,-1,-1,-1,-1,-1],"split_conditions":[3.4625E0,1.58E0,9.532E0,9.2E-1,2.99E0,3.69E0,1.024E1,7.125E-1,3.3333334E-1,2.5E-3,1.724138E-2,5.7E0,5.61E0,3.561644E-1,9.895E0,4.868421E-1,1.33E0,3.59E0,8E-1,3.3333334E-1,2.8825E0,3.3333335E-2,2.5E-3,1.25E-1,3.2E0,4.8051947E-1,1.9444445E-1,1.3105E1,3.07E0,3.4615386E-1,4.1558442E-1,3.8E-1,1E0,1.0294118E-1,-6.2387265E-2,6.9767445E-2,1E-1,7.4E-1,1.2045455E0,3.3333334E-1,6.363636E-1,2.38E-1,2.11E-1,-1.4E-1,-8.975E-1,1.0869565E0,4.03E0,2.65E0,1.8918918E0,6.818182E-2,5.733333E-1,4.347826E-2,8.723404E-1,2.06E-1,2.9160348E-1,8.2E0,1.71E0,1.1095891E0,7.4358976E-1,1.6981132E-1,1.09426595E-1,6.935484E-1,-2.7761492E-1,-1.0446727E-1,-9.293357E-2,-1.0590825E-1,1.6655302E-1,5.9208873E-4,2.1403862E-2,-1.6572293E-2,-1.03296734E-1,-3.0660057E-2,5.8744293E-2,2.12928E-2,-6.405272E-2,-1.1157962E-1,-3.560609E-2,-1.1740921E-1,-2.639041E-3,-8.81737E-3,1.2511347E-1,9.5759556E-2,-1.2242665E-1,4.2448393E-1,1.2215997E-1,-2.305007E-3,1.1798001E-2,-1.2735188E-2,-1.9085692E-1,-9.549948E-3,-8.725549E-2,1.569134E-1,-3.5563853E-2,2.4147548E-2,-2.4382181E-1,1.0494783E-1,2.1980564E-1,-5.325078E-2,7.2970405E-2,1.08391345E-1,5.2255076E-1,1.4795467E-1,4.3901202E-1,-2.5689402E-1,-4.7647795E-3,2.630315E-1,-3.0931088E-1,4.748114E-1,1.0993212E0,9.216445E-1,-2.5031758E-2,1.4419559E-1,6.5062964E-1,1.8399937E-1,7.921709E-1,4.8572183E-2,3.3619526E-1],"split_indices":[10,10,10,10,12,9,12,13,11,13,0,12,12,0,10,0,12,9,11,11,10,1,13,8,13,1,0,10,9,0,2,10,7,1,0,1,1,12,6,5,6,8,8,2,13,4,12,9,4,3,6,0,0,8,0,12,12,1,5,0,0,1,0,0,0,0,0,0,0,0,0,0,0,0,0,0,0,0,0,0,0,0,0,0,0,0,0,0,0,0,0,0,0,0,0,0,0,0,0,0,0,0,0,0,0,0,0,0,0,0,0,0,0,0,0,0,0],"split_type":[0,0,0,0,0,0,0,0,0,0,0,0,0,0,0,0,0,0,0,0,0,0,0,0,0,0,0,0,0,0,0,0,0,0,0,0,0,0,0,0,0,0,0,0,0,0,0,0,0,0,0,0,0,0,0,0,0,0,0,0,0,0,0,0,0,0,0,0,0,0,0,0,0,0,0,0,0,0,0,0,0,0,0,0,0,0,0,0,0,0,0,0,0,0,0,0,0,0,0,0,0,0,0,0,0,0,0,0,0,0,0,0,0,0,0,0,0],"sum_hessian":[3.514E3,2.381E3,1.133E3,1.694E3,6.87E2,9.39E2,1.94E2,1.454E3,2.4E2,4.91E2,1.96E2,9.14E2,2.5E1,1.1E2,8.4E1,1.449E3,5E0,1.01E2,1.39E2,3.92E2,9.9E1,1.4E1,1.82E2,5.97E2,3.17E2,2E1,5E0,7.5E1,3.5E1,7E0,7.7E1,1.434E3,1.5E1,3E0,2E0,9.6E1,5E0,1.18E2,2.1E1,2.91E2,1.01E2,7.7E1,2.2E1,2E0,1.2E1,1.22E2,6E1,2.6E1,5.71E2,2.85E2,3.2E1,1.7E1,3E0,4E0,1E0,5.8E1,1.7E1,2.1E1,1.4E1,6E0,1E0,7.2E1,5E0,1.21E3,2.24E2,1.3E1,2E0,2E0,1E0,1.1E1,8.5E1,1E0,4E0,5.1E1,6.7E1,1.7E1,4E0,2.9E1,2.62E2,4.4E1,5.7E1,6.4E1,1.3E1,1.3E1,9E0,1E0,1E0,1E0,1.1E1,4.2E1,8E1,1.3E1,4.7E1,1.1E1,1.5E1,3.7E2,2.01E2,1.34E2,1.51E2,1.9E1,1.3E1,2E0,1.5E1,2E0,2E0,5.3E1,5E0,1.5E1,2E0,2E1,1E0,9E0,5E0,1E0,5E0,5.7E1,1.5E1],"tree_param":{"num_deleted":"0","num_feature":"14","num_nodes":"117","size_leaf_vector":"1"}},{"base_weights":[1.6796567E-2,-5.4600215E-1,1.4288317E0,-8.61767E-1,1.2176591E-1,1.3426411E0,6.6564074E0,-9.175606E-1,-5.2021676E-1,4.559637E-2,1.9092144E0,1.2585508E0,6.3672166E0,-1.2989849E-1,7.2733655E0,-9.315904E-1,-7.8533673E-1,-7.992211E-1,-3.0054757E-1,2.779506E-1,-4.8080927E-1,1.2586856E0,4.6268135E-1,1.6768434E0,6.273388E-1,9.333753E0,-2.0259144E0,4.203411E0,8.852957E-1,-9.3659663E-1,-5.936484E-1,-7.383065E-1,-1.2529011E0,-8.756202E-1,1.2148216E-1,-7.6842844E-1,-1.2616995E-1,-3.3268747E-1,5.164533E-1,-2.0014215E0,-3.4729818E-1,-1.0411967E0,1.6853825E0,4.1980454E-1,2.011325E0,-5.248161E-2,1.5126227E0,-1.277581E-1,1.0414563E1,1.0395527E-1,-3.0521697E-1,-1.3872014E-1,5.3663796E-1,-9.404674E-2,-5.8937367E-2,-9.1930605E-2,3.1225812E-1,-8.533885E-2,-5.2976996E-2,1.2895048E-2,-1.3902467E-1,-6.1309575E-3,-9.674588E-2,5.404476E-2,-3.2177966E-2,-1.4585438E-1,-4.9451485E-2,-2.661579E-2,6.341509E-2,-3.7980657E-2,6.976092E-2,2.4356589E-2,1.2999335E-1,-1.0927557E-1,-3.4030268E-1,-6.481101E-2,3.203934E-2,5.5212356E-2,-1.5775578E-1,2.6689062E-1,4.7945E-2,1.0751994E-1,-3.768575E-1,1.5183707E-1,3.2682434E-1,-3.2569095E-2,2.8693068E-1,3.218893E-1,9.047774E-2,1.1671947E0,5.296155E-1],"categories":[],"categories_nodes":[],"categories_segments":[],"categories_sizes":[],"default_left":[0,0,0,0,0,0,0,0,0,0,0,0,0,0,0,0,0,0,0,0,0,0,0,0,0,0,0,0,0,0,0,0,0,0,0,0,0,0,0,0,0,0,0,0,0,0,0,0,0,0,0,0,0,0,0,0,0,0,0,0,0,0,0,0,0,0,0,0,0,0,0,0,0,0,0,0,0,0,0,0,0,0,0,0,0,0,0,0,0,0,0],"id":11,"left_children":[1,3,5,7,9,11,13,15,17,19,21,23,25,-1,27,29,31,33,35,37,39,41,-1,43,45,47,49,51,-1,53,55,57,59,61,63,65,67,69,71,73,75,77,79,81,83,85,87,-1,89,-1,-1,-1,-1,-1,-1,-1,-1,-1,-1,-1,-1,-1,-1,-1,-1,-1,-1,-1,-1,-1,-1,-1,-1,-1,-1,-1,-1,-1,-1,-1,-1,-1,-1,-1,-1,-1,-1,-1,-1,-1,-1],"loss_changes":[2.7941208E3,5.3020123E2,4.425315E2,3.2051758E1,1.09921455E2,4.0901233E2,8.797827E1,1.987915E0,1.4591652E1,9.504821E1,5.2516228E1,2.5558643E2,4.1728583E2,0E0,3.552649E1,1.6772461E0,2.3074493E0,7.5625E0,1.1080599E1,7.8671135E1,4.7623344E1,2.9232693E1,0E0,2.4470227E2,2.3419286E2,1.5093152E2,1.8902645E1,5.2956223E1,0E0,1.1915283E0,2.9495419E1,2.8117447E0,2.45677E0,7.269638E0,1.8453075E0,6.272911E0,1.0918794E1,7.6440506E0,8.263851E1,2.0479546E1,4.439457E1,5.143981E0,2.7185905E1,3.4443723E2,2.806748E2,1.7734996E2,1.7236569E2,0E0,8.977417E0,0E0,0E0,0E0,0E0,0E0,0E0,0E0,0E0,0E0,0E0,0E0,0E0,0E0,0E0,0E0,0E0,0E0,0E0,0E0,0E0,0E0,0E0,0E0,0E0,0E0,0E0,0E0,0E0,0E0,0E0,0E0,0E0,0E0,0E0,0E0,0E0,0E0,0E0,0E0,0E0,0E0,0E0],"parents":[2147483647,0,0,1,1,2,2,3,3,4,4,5,5,6,6,7,7,8,8,9,9,10,10,11,11,12,12,14,14,15,15,16,16,17,17,18,18,19,19,20,20,21,21,23,23,24,24,25,25,26,26,27,27,29,29,30,30,31,31,32,32,33,33,34,34,35,35,36,36,37,37,38,38,39,39,40,40,41,41,42,42,43,43,44,44,45,45,46,46,48,48],"right_children":[2,4,6,8,10,12,14,16,18,20,22,24,26,-1,28,30,32,34,36,38,40,42,-1,44,46,48,50,52,-1,54,56,58,60,62,64,66,68,70,72,74,76,78,80,82,84,86,88,-1,90,-1,-1,-1,-1,-1,-1,-1,-1,-1,-1,-1,-1,-1,-1,-1,-1,-1,-1,-1,-1,-1,-1,-1,-1,-1,-1,-1,-1,-1,-1,-1,-1,-1,-1,-1,-1,-1,-1,-1,-1,-1,-1],"split_conditions":[3.82E0,1.6133333E0,1.883E1,9.8E-1,6E-1,6.6825E0,2.51E0,6E-1,3.3333334E-1,2.99E0,3.3875E0,5.7E0,2.07E-1,-1.2989849E-1,3.0645162E-1,6.7948717E-1,3.6507937E-1,3.51E0,4.5454547E-1,1E-2,1.724138E-2,2.79E0,4.6268135E-1,-7.5E-1,1E0,2.71E0,-4.0789473E-1,3.3766234E-1,8.852957E-1,2.325E-1,2.79E-1,1.7857144E-2,7.575758E-2,6.9767445E-2,6.315789E-1,4E-1,1.5E0,4E-1,3.0833333E0,3.2833333E0,2.5E-3,7.368421E-1,1.01E0,2.6E-1,1.6883117E-1,2.9775E0,4.5070422E-1,-1.277581E-1,7.916667E-1,1.0395527E-1,-3.0521697E-1,-1.3872014E-1,5.3663796E-1,-9.404674E-2,-5.8937367E-2,-9.1930605E-2,3.1225812E-1,-8.533885E-2,-5.2976996E-2,1.2895048E-2,-1.3902467E-1,-6.1309575E-3,-9.674588E-2,5.404476E-2,-3.2177966E-2,-1.4585438E-1,-4.9451485E-2,-2.661579E-2,6.341509E-2,-3.7980657E-2,6.976092E-2,2.4356589E-2,1.2999335E-1,-1.0927557E-1,-3.4030268E-1,-6.481101E-2,3.203934E-2,5.5212356E-2,-1.5775578E-1,2.6689062E-1,4.7945E-2,1.0751994E-1,-3.768575E-1,1.5183707E-1,3.2682434E-1,-3.2569095E-2,2.8693068E-1,3.218893E-1,9.047774E-2,1.1671947E0,5.296155E-1],"split_indices":[10,10,10,10,11,13,9,10,11,12,10,12,8,0,0,1,1,9,6,12,0,9,0,13,7,9,2,6,0,13,8,3,0,1,5,11,10,11,10,10,13,4,12,8,3,13,6,0,6,0,0,0,0,0,0,0,0,0,0,0,0,0,0,0,0,0,0,0,0,0,0,0,0,0,0,0,0,0,0,0,0,0,0,0,0,0,0,0,0,0,0],"split_type":[0,0,0,0,0,0,0,0,0,0,0,0,0,0,0,0,0,0,0,0,0,0,0,0,0,0,0,0,0,0,0,0,0,0,0,0,0,0,0,0,0,0,0,0,0,0,0,0,0,0,0,0,0,0,0,0,0,0,0,0,0,0,0,0,0,0,0,0,0,0,0,0,0,0,0,0,0,0,0,0,0,0,0,0,0,0,0,0,0,0,0],"sum_hessian":[3.514E3,2.513E3,1.001E3,1.706E3,8.07E2,9.86E2,1.5E1,1.465E3,2.41E2,7.75E2,3.2E1,9.71E2,1.5E1,1E0,1.4E1,1.319E3,1.46E2,1.05E2,1.36E2,5.38E2,2.37E2,2.7E1,5E0,5.83E2,3.88E2,1.1E1,4E0,6E0,8E0,1.298E3,2.1E1,1.35E2,1.1E1,9.7E1,8E0,3.6E1,1E2,1.51E2,3.87E2,1.8E1,2.19E2,4E0,2.3E1,1.23E2,4.6E2,2.2E2,1.68E2,1E0,1E1,1E0,3E0,1E0,5E0,1.282E3,1.6E1,2E1,1E0,8.5E1,5E1,1E0,1E1,1E1,8.7E1,4E0,4E0,9E0,2.7E1,8.5E1,1.5E1,1.45E2,6E0,2.88E2,9.9E1,1.2E1,6E0,1.51E2,6.8E1,1E0,3E0,1.2E1,1.1E1,1.07E2,1.6E1,3.32E2,1.28E2,2.02E2,1.8E1,4.3E1,1.25E2,7E0,3E0],"tree_param":{"num_deleted":"0","num_feature":"14","num_nodes":"91","size_leaf_vector":"1"}},{"base_weights":[1.6066913E-2,-6.619006E-1,9.696652E-1,-8.131373E-1,-1.9487423E-1,5.5214405E-1,2.027801E0,-8.383804E-1,-6.666396E-1,-4.045378E-1,1.0058111E-1,2.7445802E-1,1.534277E0,1.8695965E0,6.75182E0,-8.430548E-1,-5.242686E-1,-1.0275105E0,-6.0407555E-1,-4.536249E-1,1.4131656E0,5.2583024E-2,2.559337E-1,5.653312E-1,-5.200801E-1,7.8063244E-1,3.091449E0,1.6909394E0,6.0628486E0,2.667708E0,8.9709264E-1,-8.464941E-2,-5.3390324E-1,-8.31753E-2,2.9664522E-1,-7.3585564E-1,-1.2587237E0,-6.961126E-1,-3.8143128E-1,-1.2442049E0,-3.737439E-1,-7.24433E-2,2.2464374E-1,-2.4607041E-1,3.1309474E-1,1.333177E-1,9.7446966E-1,-6.4847696E-1,1.5742764E0,-5.052628E-1,1.7687913E0,3.4939725E0,-2.1199002E0,1.9907534E0,-1.11370616E-1,-1.23403564E-1,6.6315765E0,-1.2345457E-2,3.2506314E-1,1.9484682E-2,-8.537863E-2,-8.5259564E-2,9.312944E-3,-1.5610304E-1,-8.165588E-2,-6.49957E-2,-1.1381217E-1,-1.649782E-2,-8.169112E-2,-5.6515317E-2,-1.9893359E-1,-2.4362514E-2,-9.66553E-2,1.7560196E-1,-4.707844E-2,7.648175E-3,8.700442E-2,3.5227183E-1,6.2242276E-3,3.7107684E-2,1.5600123E-1,-7.611265E-2,1.9268985E-1,2.9491207E-1,-5.212284E-2,-1.3253719E-1,1.4323853E-1,-2.8022608E-1,2.074238E-1,2.81018E-1,7.8163254E-1,-2.9768154E-1,-2.7071357E-2,1.855751E-1,6.614647E-1,3.0289304E-1,-6.9785684E-2,3.839915E-1,8.0660266E-1],"categories":[],"categories_nodes":[],"categories_segments":[],"categories_sizes":[],"default_left":[0,0,0,0,0,0,0,0,0,0,0,0,0,0,0,0,0,0,0,0,0,0,0,0,0,0,0,0,0,0,0,0,0,0,0,0,0,0,0,0,0,0,0,0,0,0,0,0,0,0,0,0,0,0,0,0,0,0,0,0,0,0,0,0,0,0,0,0,0,0,0,0,0,0,0,0,0,0,0,0,0,0,0,0,0,0,0,0,0,0,0,0,0,0,0,0,0,0,0],"id":12,"left_children":[1,3,5,7,9,11,13,15,17,19,21,23,25,27,29,31,33,35,37,39,41,43,-1,45,47,49,51,53,55,57,-1,-1,59,-1,-1,61,63,65,67,69,71,-1,-1,73,75,77,79,81,83,85,87,89,91,93,95,-1,97,-1,-1,-1,-1,-1,-1,-1,-1,-1,-1,-1,-1,-1,-1,-1,-1,-1,-1,-1,-1,-1,-1,-1,-1,-1,-1,-1,-1,-1,-1,-1,-1,-1,-1,-1,-1,-1,-1,-1,-1,-1,-1],"loss_changes":[2.2731199E3,1.4498932E2,6.4434155E2,5.180542E0,3.1261583E1,2.8566693E2,2.9603723E2,1.4961548E0,4.6398773E0,2.6962662E1,2.4648693E1,1.8957298E2,2.6867773E2,2.901588E2,9.3888306E1,9.2926025E-1,2.6080887E1,1.299099E0,3.853279E0,1.7722855E1,1.5876997E1,1.6182209E1,0E0,1.05922104E2,6.018084E1,2.003887E2,1.647337E2,2.087998E2,7.45827E1,1.0163509E1,0E0,0E0,4.129309E0,0E0,0E0,1.7245884E0,9.9770737E-1,2.1368332E0,5.6151476E0,1.2031261E1,2.0051186E1,0E0,0E0,4.4466774E1,1.45612E1,7.0365326E1,1.0824127E2,6.1810486E1,3.899007E1,1.1154514E2,1.300755E2,1.8492627E2,8.701708E0,1.9434729E2,1.0525139E2,0E0,2.9094666E1,0E0,0E0,0E0,0E0,0E0,0E0,0E0,0E0,0E0,0E0,0E0,0E0,0E0,0E0,0E0,0E0,0E0,0E0,0E0,0E0,0E0,0E0,0E0,0E0,0E0,0E0,0E0,0E0,0E0,0E0,0E0,0E0,0E0,0E0,0E0,0E0,0E0,0E0,0E0,0E0,0E0,0E0],"parents":[2147483647,0,0,1,1,2,2,3,3,4,4,5,5,6,6,7,7,8,8,9,9,10,10,11,11,12,12,13,13,14,14,15,15,16,16,17,17,18,18,19,19,20,20,21,21,23,23,24,24,25,25,26,26,27,27,28,28,29,29,32,32,35,35,36,36,37,37,38,38,39,39,40,40,43,43,44,44,45,45,46,46,47,47,48,48,49,49,50,50,51,51,52,52,53,53,54,54,56,56],"right_children":[2,4,6,8,10,12,14,16,18,20,22,24,26,28,30,32,34,36,38,40,42,44,-1,46,48,50,52,54,56,58,-1,-1,60,-1,-1,62,64,66,68,70,72,-1,-1,74,76,78,80,82,84,86,88,90,92,94,96,-1,98,-1,-1,-1,-1,-1,-1,-1,-1,-1,-1,-1,-1,-1,-1,-1,-1,-1,-1,-1,-1,-1,-1,-1,-1,-1,-1,-1,-1,-1,-1,-1,-1,-1,-1,-1,-1,-1,-1,-1,-1,-1,-1],"split_conditions":[2.565E0,1.21E0,6.9E0,6E-1,3.3333334E-1,2.5E-3,3.69E0,6.7948717E-1,3.3333334E-1,2.0975E0,2.8E-1,5.08E0,1.4E0,1.883E1,1.0344828E-1,2.325E-1,2.79E-1,2.7027028E-2,9.8E-1,3.6363637E-1,1.2820514E-1,6.451613E-1,2.559337E-1,3.82E0,2.97E-1,1.375E0,1.12E1,1.479E1,2.51E0,4.347826E-2,8.9709264E-1,-8.464941E-2,5E-2,-8.31753E-2,2.9664522E-1,2.29E-1,1.41E0,3.6507937E-1,8E-1,8.9E-1,2.83E0,-7.24433E-2,2.2464374E-1,9E-2,2.058E0,-4.945E0,1.15E0,3.943662E-1,6.81E0,9.836066E-2,1.27E-1,5.42E0,1.1594203E-1,6.6825E0,1.52E-1,-1.23403564E-1,3.0645162E-1,-1.2345457E-2,3.2506314E-1,1.9484682E-2,-8.537863E-2,-8.5259564E-2,9.312944E-3,-1.5610304E-1,-8.165588E-2,-6.49957E-2,-1.1381217E-1,-1.649782E-2,-8.169112E-2,-5.6515317E-2,-1.9893359E-1,-2.4362514E-2,-9.66553E-2,1.7560196E-1,-4.707844E-2,7.648175E-3,8.700442E-2,3.5227183E-1,6.2242276E-3,3.7107684E-2,1.5600123E-1,-7.611265E-2,1.9268985E-1,2.9491207E-1,-5.212284E-2,-1.3253719E-1,1.4323853E-1,-2.8022608E-1,2.074238E-1,2.81018E-1,7.8163254E-1,-2.9768154E-1,-2.7071357E-2,1.855751E-1,6.614647E-1,3.0289304E-1,-6.9785684E-2,3.839915E-1,8.0660266E-1],"split_indices":[10,10,10,10,11,13,9,1,11,13,3,12,5,10,3,13,8,3,10,5,0,6,0,10,8,4,12,12,9,0,0,0,12,0,0,8,12,1,11,12,12,0,0,12,10,13,12,3,12,2,8,10,3,13,8,0,0,0,0,0,0,0,0,0,0,0,0,0,0,0,0,0,0,0,0,0,0,0,0,0,0,0,0,0,0,0,0,0,0,0,0,0,0,0,0,0,0,0,0],"split_type":[0,0,0,0,0,0,0,0,0,0,0,0,0,0,0,0,0,0,0,0,0,0,0,0,0,0,0,0,0,0,0,0,0,0,0,0,0,0,0,0,0,0,0,0,0,0,0,0,0,0,0,0,0,0,0,0,0,0,0,0,0,0,0,0,0,0,0,0,0,0,0,0,0,0,0,0,0,0,0,0,0,0,0,0,0,0,0,0,0,0,0,0,0,0,0,0,0,0,0],"sum_hessian":[3.514E3,2.054E3,1.46E3,1.551E3,5.03E2,1.048E3,4.12E2,1.319E3,2.32E2,2.94E2,2.09E2,8.18E2,2.3E2,4E2,1.2E1,1.298E3,2.1E1,3.2E1,2E2,2.87E2,7E0,2.06E2,3E0,5.99E2,2.19E2,1.56E2,7.4E1,3.85E2,1.5E1,5E0,7E0,1.282E3,1.6E1,2E1,1E0,1.6E1,1.6E1,1.4E2,6E1,2.5E1,2.62E2,2E0,5E0,9.6E1,1.1E2,2.92E2,3.07E2,2.07E2,1.2E1,6.8E1,8.8E1,6.9E1,5E0,3.3E2,5.5E1,1E0,1.4E1,1E0,4E0,5E0,1.1E1,1.4E1,2E0,8E0,8E0,1.29E2,1.1E1,4.1E1,1.9E1,1.4E1,1.1E1,2.16E2,4.6E1,9E0,8.7E1,7.8E1,3.2E1,5E0,2.87E2,1.52E2,1.55E2,1.99E2,8E0,7E0,5E0,4.8E1,2E1,5E0,8.3E1,6.1E1,8E0,3E0,2E0,3.22E2,8E0,8E0,4.7E1,6E0,8E0],"tree_param":{"num_deleted":"0","num_feature":"14","num_nodes":"99","size_leaf_vector":"1"}},{"base_weights":[1.578911E-2,-4.0901732E-1,1.2616802E0,-7.00312E-1,1.342677E-1,1.1176317E0,4.0865097E0,-7.459716E-1,-4.490401E-1,6.8211034E-2,1.7470913E0,1.0121177E0,3.7056253E0,6.77357E0,1.8808832E0,-7.499728E-1,-4.7814927E-1,-2.4619225E-1,-6.8122065E-1,2.800433E-1,-3.6668426E-1,1.0969616E0,3.5755959E0,1.1374501E0,-6.2373495E-1,2.8172226E0,8.117236E0,-8.159974E-2,7.7144604E0,4.0646844E0,-1.8012868E0,-7.51519E-1,-1.6209716E-1,-7.4399315E-2,2.8181297E-1,-5.1640224E-1,1.998721E-2,-3.5320878E-2,-8.062951E-1,-3.5246003E-1,5.3089744E-1,-4.510302E-1,1.4587392E0,-9.299151E-1,1.4735208E0,2.2706343E-2,3.9657793E0,-7.5157E-1,1.2486868E0,-2.7189705E0,2.1911944E-1,3.4703887E0,-2.6497912E-1,8.952099E-1,2.3888926E-1,1.6224083E0,8.418573E0,6.005748E-1,6.692261E0,-3.3398414E0,1.3415053E0,-7.6363295E-2,-6.799089E-2,2.1189626E-2,-4.820582E-2,-7.31048E-2,-3.2153785E-2,-1.0741388E-1,1.5230571E-2,3.6890086E-2,-3.6922894E-2,-1.1540488E-1,-6.475738E-2,-2.6210962E-2,-1.4165027E-1,2.0888124E-2,1.1849385E-1,-3.5463538E-2,-2.0013063E-1,2.1981429E-1,-1.6393496E-2,5.625738E-2,-1.4436808E-1,2.3587024E-1,3.917807E-2,4.237399E-1,1.03222154E-1,1.4364927E-1,-2.3844348E-1,3.3689192E-1,1.07859544E-1,-3.660259E-1,1.2552814E-1,1.6307043E-1,-1.2024253E-1,1.4812303E-2,3.608395E-1,-1.3910972E-1,2.6828057E-1,2.1888351E-1,2.447772E-2,1.9394211E-1,9.2661804E-1,2.9365247E-1,-1.3883E-1,7.622751E-1,-3.7582826E-2,-1.4158146E-1,-3.8262892E-1,-6.340309E-2,2.2113612E-1],"categories":[],"categories_nodes":[],"categories_segments":[],"categories_sizes":[],"default_left":[0,0,0,0,0,0,0,0,0,0,0,0,0,0,0,0,0,0,0,0,0,0,0,0,0,0,0,0,0,0,0,0,0,0,0,0,0,0,0,0,0,0,0,0,0,0,0,0,0,0,0,0,0,0,0,0,0,0,0,0,0,0,0,0,0,0,0,0,0,0,0,0,0,0,0,0,0,0,0,0,0,0,0,0,0,0,0,0,0,0,0,0,0,0,0,0,0,0,0,0,0,0,0,0,0,0,0,0,0,0,0],"id":13,"left_children":[1,3,5,7,9,11,13,15,17,19,21,23,25,27,29,31,33,35,37,39,41,43,45,47,49,51,53,-1,55,57,59,61,63,-1,-1,65,67,69,71,73,75,77,79,81,83,-1,85,87,89,91,93,95,97,-1,-1,99,101,103,105,107,109,-1,-1,-1,-1,-1,-1,-1,-1,-1,-1,-1,-1,-1,-1,-1,-1,-1,-1,-1,-1,-1,-1,-1,-1,-1,-1,-1,-1,-1,-1,-1,-1,-1,-1,-1,-1,-1,-1,-1,-1,-1,-1,-1,-1,-1,-1,-1,-1,-1,-1],"loss_changes":[1.860874E3,4.1504147E2,3.5921265E2,1.9249329E1,9.746939E1,2.2890454E2,2.4210577E2,1.1878052E0,1.2313076E1,8.126469E1,3.8873245E1,1.6883008E2,1.06468414E2,1.4197296E2,2.0834982E2,1.1688843E0,2.3127758E1,1.0295503E1,9.908146E0,9.427611E1,4.5154404E1,2.2740944E1,1.0858406E1,1.6105627E2,1.0478851E2,5.930211E1,2.5263062E0,0E0,5.926306E1,1.4161624E2,5.2833984E1,7.0910645E-1,7.0046294E-1,0E0,0E0,2.7346458E0,1.0732035E1,2.9706397E0,4.937851E0,1.5875826E1,8.926252E1,4.0684765E1,1.5957895E1,4.646125E0,2.2056782E1,0E0,2.000557E0,1.5705608E2,2.560221E2,6.819024E1,8.824592E1,1.046933E1,2.3649364E1,0E0,0E0,1.8052053E0,6.440552E1,4.1244072E1,6.205591E1,1.1342545E0,8.275798E0,0E0,0E0,0E0,0E0,0E0,0E0,0E0,0E0,0E0,0E0,0E0,0E0,0E0,0E0,0E0,0E0,0E0,0E0,0E0,0E0,0E0,0E0,0E0,0E0,0E0,0E0,0E0,0E0,0E0,0E0,0E0,0E0,0E0,0E0,0E0,0E0,0E0,0E0,0E0,0E0,0E0,0E0,0E0,0E0,0E0,0E0,0E0,0E0,0E0,0E0],"parents":[2147483647,0,0,1,1,2,2,3,3,4,4,5,5,6,6,7,7,8,8,9,9,10,10,11,11,12,12,13,13,14,14,15,15,16,16,17,17,18,18,19,19,20,20,21,21,22,22,23,23,24,24,25,25,26,26,28,28,29,29,30,30,31,31,32,32,35,35,36,36,37,37,38,38,39,39,40,40,41,41,42,42,43,43,44,44,46,46,47,47,48,48,49,49,50,50,51,51,52,52,55,55,56,56,57,57,58,58,59,59,60,60],"right_children":[2,4,6,8,10,12,14,16,18,20,22,24,26,28,30,32,34,36,38,40,42,44,46,48,50,52,54,-1,56,58,60,62,64,-1,-1,66,68,70,72,74,76,78,80,82,84,-1,86,88,90,92,94,96,98,-1,-1,100,102,104,106,108,110,-1,-1,-1,-1,-1,-1,-1,-1,-1,-1,-1,-1,-1,-1,-1,-1,-1,-1,-1,-1,-1,-1,-1,-1,-1,-1,-1,-1,-1,-1,-1,-1,-1,-1,-1,-1,-1,-1,-1,-1,-1,-1,-1,-1,-1,-1,-1,-1,-1,-1],"split_conditions":[4.2E0,1.6133333E0,3.1298702E0,9E-1,6E-1,3.66E0,2.07E-1,3.1298702E0,8E-1,2.99E0,3.3875E0,3.026316E-1,2.375E0,2.7450982E-1,1.024E1,7.125E-1,2.79E-1,1E-2,6.9767445E-2,2E-2,3.7662336E-1,2.79E0,6.1538464E-1,2.51E0,2.83E0,5.42E0,4.0789473E-1,-8.159974E-2,1E-2,4.2307693E-1,3.4788733E0,3.8E-1,1.4084507E-2,-7.4399315E-2,2.8181297E-1,2.08E-1,6.666667E-1,-1.4E-1,-1.4E-1,3.9E0,3.0833333E0,3.529412E-1,3.09E0,7.368421E-1,1.01E0,2.2706343E-2,3.16E0,2.17E-1,2.59E0,7.96E0,5.02E0,4.322E0,1.9444445E-1,8.952099E-1,2.3888926E-1,2.8767124E-1,3.8666666E-1,3.918919E-1,1.1095891E0,2.59E0,3.773585E-2,-7.6363295E-2,-6.799089E-2,2.1189626E-2,-4.820582E-2,-7.31048E-2,-3.2153785E-2,-1.0741388E-1,1.5230571E-2,3.6890086E-2,-3.6922894E-2,-1.1540488E-1,-6.475738E-2,-2.6210962E-2,-1.4165027E-1,2.0888124E-2,1.1849385E-1,-3.5463538E-2,-2.0013063E-1,2.1981429E-1,-1.6393496E-2,5.625738E-2,-1.4436808E-1,2.3587024E-1,3.917807E-2,4.237399E-1,1.03222154E-1,1.4364927E-1,-2.3844348E-1,3.3689192E-1,1.07859544E-1,-3.660259E-1,1.2552814E-1,1.6307043E-1,-1.2024253E-1,1.4812303E-2,3.608395E-1,-1.3910972E-1,2.6828057E-1,2.1888351E-1,2.447772E-2,1.9394211E-1,9.2661804E-1,2.9365247E-1,-1.3883E-1,7.622751E-1,-3.7582826E-2,-1.4158146E-1,-3.8262892E-1,-6.340309E-2,2.2113612E-1],"split_indices":[10,10,4,10,11,9,8,4,12,12,10,2,4,0,12,13,8,12,1,12,2,9,5,9,9,12,0,0,12,0,4,10,0,0,0,8,4,2,2,10,10,0,9,4,12,0,9,8,9,12,12,10,0,0,0,0,1,0,1,9,2,0,0,0,0,0,0,0,0,0,0,0,0,0,0,0,0,0,0,0,0,0,0,0,0,0,0,0,0,0,0,0,0,0,0,0,0,0,0,0,0,0,0,0,0,0,0,0,0,0,0],"split_type":[0,0,0,0,0,0,0,0,0,0,0,0,0,0,0,0,0,0,0,0,0,0,0,0,0,0,0,0,0,0,0,0,0,0,0,0,0,0,0,0,0,0,0,0,0,0,0,0,0,0,0,0,0,0,0,0,0,0,0,0,0,0,0,0,0,0,0,0,0,0,0,0,0,0,0,0,0,0,0,0,0,0,0,0,0,0,0,0,0,0,0,0,0,0,0,0,0,0,0,0,0,0,0,0,0,0,0,0,0,0,0],"sum_hessian":[3.514E3,2.621E3,8.93E2,1.706E3,9.15E2,8.51E2,4.2E1,1.442E3,2.64E2,8.8E2,3.5E1,8.19E2,3.2E1,1.8E1,2.4E1,1.419E3,2.3E1,1.42E2,1.22E2,5.92E2,2.88E2,2.7E1,8E0,7.61E2,5.8E1,2.8E1,4E0,2E0,1.6E1,1.5E1,9E0,1.415E3,4E0,2.2E1,1E0,7E1,7.2E1,2E1,1.02E2,1.68E2,4.24E2,2.76E2,1.2E1,4E0,2.3E1,1E0,7E0,4.2E1,7.19E2,1.6E1,4.2E1,2.3E1,5E0,3E0,1E0,2E0,1.4E1,7E0,8E0,6E0,3E0,1.202E3,2.13E2,2E0,2E0,3.2E1,3.8E1,7E0,6.5E1,9E0,1.1E1,3E1,7.2E1,1.56E2,1.2E1,2.85E2,1.39E2,2.61E2,1.5E1,8E0,4E0,1E0,3E0,1.2E1,1.1E1,6E0,1E0,1.8E1,2.4E1,5.2E1,6.67E2,1.3E1,3E0,2.1E1,2.1E1,1E0,2.2E1,4E0,1E0,1E0,1E0,2E0,1.2E1,3E0,4E0,7E0,1E0,2E0,4E0,1E0,2E0],"tree_param":{"num_deleted":"0","num_feature":"14","num_nodes":"111","size_leaf_vector":"1"}},{"base_weights":[1.532565E-2,-3.9991075E-1,1.057131E0,-6.3048095E-1,8.7692305E-2,7.7436215E-1,2.223388E0,-6.692755E-1,-3.928639E-1,-1.6815856E-1,4.6262088E-1,1.1135713E0,1.9930366E-1,3.1361227E0,8.140791E-1,-6.714259E-1,-1.9345236E-1,-1.9474474E-1,-6.028652E-1,-1.6198156E0,-9.5051214E-2,8.038854E-1,-1.9380169E-1,9.882459E-1,3.9728682E0,2.6130886E0,1.8204765E-2,2.5312169E0,5.9736004E0,5.239917E0,3.0392727E-1,-6.751321E-1,-4.216921E-1,2.3474109E-1,-4.9731666E-1,-4.8448226E-1,5.1625118E-2,4.910448E-2,-7.141911E-1,-5.3989005E-1,-2.27549E0,-1.5676542E-1,1.4256561E0,2.1616197E-1,1.4586334E0,-5.1506656E-1,5.3687614E-1,1.1577547E0,-7.485642E-1,5.024544E0,2.3135707E0,-1.9840952E0,3.8114905E0,1.0381538E0,-4.918666E-1,3.106539E0,-6.4742506E-1,4.4835005E0,9.5472014E-1,5.711751E0,9.685381E-2,7.1290493E-1,-2.2621272E0,-6.873332E-2,-6.0952105E-2,-6.7282856E-2,2.6772234E-1,2.8745532E-3,2.9382443E-2,1.0865891E-2,-6.759753E-2,-7.603167E-2,-2.5247691E-2,4.9131807E-2,-2.0936674E-2,-1.0076183E-2,8.320233E-2,-1.03938594E-1,-5.667258E-2,-3.1262815E-2,-1.2926236E-1,-1.2035656E-1,-2.583903E-1,-3.5917073E-2,2.87033E-2,-1.7102054E-1,2.443774E-1,9.549086E-3,1.4736596E-1,3.431372E-2,2.0113353E-1,-1.5705569E-1,-2.8337061E-2,1.101073E-1,-2.0192463E-2,-1.338431E-1,1.2969743E-1,-3.5586062E-1,6.8140894E-2,1.4716856E-1,5.2137417E-1,9.270483E-2,2.7753592E-1,-4.4085118E-1,1.10168636E-1,6.543476E-1,2.1278735E-1,-6.0775805E-2,2.3228733E-1,-8.542508E-2,1.0619294E-1,2.250688E-1,4.7378597E-1,-2.3066048E-1,4.9067655E-1,1.2875548E-1,4.6107265E-1,6.198733E-1,1.3949303E-1,3.582182E-2,5.766309E-1,-2.892855E-1,-1.05282806E-1],"categories":[],"categories_nodes":[],"categories_segments":[],"categories_sizes":[],"default_left":[0,0,0,0,0,0,0,0,0,0,0,0,0,0,0,0,0,0,0,0,0,0,0,0,0,0,0,0,0,0,0,0,0,0,0,0,0,0,0,0,0,0,0,0,0,0,0,0,0,0,0,0,0,0,0,0,0,0,0,0,0,0,0,0,0,0,0,0,0,0,0,0,0,0,0,0,0,0,0,0,0,0,0,0,0,0,0,0,0,0,0,0,0,0,0,0,0,0,0,0,0,0,0,0,0,0,0,0,0,0,0,0,0,0,0,0,0,0,0,0,0,0,0],"id":14,"left_children":[1,3,5,7,9,11,13,15,17,19,21,23,25,27,29,31,33,35,37,39,41,43,45,47,49,51,53,55,57,59,61,63,65,67,69,71,73,75,77,79,81,83,85,87,89,91,93,95,97,99,101,103,105,107,109,111,113,115,-1,117,-1,119,121,-1,-1,-1,-1,-1,-1,-1,-1,-1,-1,-1,-1,-1,-1,-1,-1,-1,-1,-1,-1,-1,-1,-1,-1,-1,-1,-1,-1,-1,-1,-1,-1,-1,-1,-1,-1,-1,-1,-1,-1,-1,-1,-1,-1,-1,-1,-1,-1,-1,-1,-1,-1,-1,-1,-1,-1,-1,-1,-1,-1],"loss_changes":[1.520996E3,2.8269614E2,3.2871912E2,1.5472595E1,7.758584E1,1.573906E2,2.4828033E2,1.3701172E0,9.951069E0,5.0893024E1,7.3632286E1,1.7811194E2,1.315297E2,1.8741553E2,1.7451968E2,1.0656738E0,1.1576422E0,9.019217E0,8.527061E0,1.5057316E1,4.33003E1,8.280383E1,2.6802273E1,1.4453607E2,2.502124E1,1.2325708E2,1.4669997E2,1.8305682E2,6.3695557E1,1.0591003E1,7.612427E1,7.305908E-1,2.0479326E1,4.023747E-2,6.147647E-1,3.5197515E0,8.0210495E0,2.195833E0,4.2064514E0,1.3065658E0,1.5184326E0,3.9806694E1,6.1647537E1,1.7309797E1,6.2196625E1,1.8874624E1,1.481135E1,1.5638141E2,1.7922939E2,3.9334106E-1,3.8299065E0,4.22629E1,6.426984E1,2.0017804E2,1.0676454E2,1.06614624E2,1.5876439E2,5.6915283E-1,0E0,6.068695E0,0E0,1.0906168E2,4.581707E0,0E0,0E0,0E0,0E0,0E0,0E0,0E0,0E0,0E0,0E0,0E0,0E0,0E0,0E0,0E0,0E0,0E0,0E0,0E0,0E0,0E0,0E0,0E0,0E0,0E0,0E0,0E0,0E0,0E0,0E0,0E0,0E0,0E0,0E0,0E0,0E0,0E0,0E0,0E0,0E0,0E0,0E0,0E0,0E0,0E0,0E0,0E0,0E0,0E0,0E0,0E0,0E0,0E0,0E0,0E0,0E0,0E0,0E0,0E0,0E0],"parents":[2147483647,0,0,1,1,2,2,3,3,4,4,5,5,6,6,7,7,8,8,9,9,10,10,11,11,12,12,13,13,14,14,15,15,16,16,17,17,18,18,19,19,20,20,21,21,22,22,23,23,24,24,25,25,26,26,27,27,28,28,29,29,30,30,31,31,32,32,33,33,34,34,35,35,36,36,37,37,38,38,39,39,40,40,41,41,42,42,43,43,44,44,45,45,46,46,47,47,48,48,49,49,50,50,51,51,52,52,53,53,54,54,55,55,56,56,57,57,59,59,61,61,62,62],"right_children":[2,4,6,8,10,12,14,16,18,20,22,24,26,28,30,32,34,36,38,40,42,44,46,48,50,52,54,56,58,60,62,64,66,68,70,72,74,76,78,80,82,84,86,88,90,92,94,96,98,100,102,104,106,108,110,112,114,116,-1,118,-1,120,122,-1,-1,-1,-1,-1,-1,-1,-1,-1,-1,-1,-1,-1,-1,-1,-1,-1,-1,-1,-1,-1,-1,-1,-1,-1,-1,-1,-1,-1,-1,-1,-1,-1,-1,-1,-1,-1,-1,-1,-1,-1,-1,-1,-1,-1,-1,-1,-1,-1,-1,-1,-1,-1,-1,-1,-1,-1,-1,-1,-1],"split_conditions":[3.82E0,1.6133333E0,9.532E0,9.8E-1,2.5E-1,5.7E0,1.12E1,7.125E-1,8E-1,2.5714287E-1,2.9E0,3.69E0,-2.777778E-1,1.5026667E1,9.895E0,3.1298702E0,4.0816326E-2,1E-2,6.9767445E-2,1E-2,2.0975E0,2.4925E0,1.4354838E0,2.9166666E-1,8.6153847E-1,4.117647E-1,5.0980395E-1,3.2E-1,1E-2,3.4615386E-1,2.55E-1,3.8E-1,2.79E-1,1.2987013E-2,4E-2,1.115E0,2.89E0,2.49E-1,-1.4E-1,3.31E0,3.0833333E0,1.6666666E0,-9.210526E-2,1E0,8.695652E-2,4.4155845E-1,-1.3043478E-1,1.25E-1,2.83E0,-2.3529412E-1,1.1351352E0,2.0253165E-1,2.07E-1,5.970149E-2,2E-1,3.63E0,3.40625E0,2.1568628E-1,9.5472014E-1,7.5E-1,9.685381E-2,7.846154E-1,2.6527777E0,-6.873332E-2,-6.0952105E-2,-6.7282856E-2,2.6772234E-1,2.8745532E-3,2.9382443E-2,1.0865891E-2,-6.759753E-2,-7.603167E-2,-2.5247691E-2,4.9131807E-2,-2.0936674E-2,-1.0076183E-2,8.320233E-2,-1.03938594E-1,-5.667258E-2,-3.1262815E-2,-1.2926236E-1,-1.2035656E-1,-2.583903E-1,-3.5917073E-2,2.87033E-2,-1.7102054E-1,2.443774E-1,9.549086E-3,1.4736596E-1,3.431372E-2,2.0113353E-1,-1.5705569E-1,-2.8337061E-2,1.101073E-1,-2.0192463E-2,-1.338431E-1,1.2969743E-1,-3.5586062E-1,6.8140894E-2,1.4716856E-1,5.2137417E-1,9.270483E-2,2.7753592E-1,-4.4085118E-1,1.10168636E-1,6.543476E-1,2.1278735E-1,-6.0775805E-2,2.3228733E-1,-8.542508E-2,1.0619294E-1,2.250688E-1,4.7378597E-1,-2.3066048E-1,4.9067655E-1,1.2875548E-1,4.6107265E-1,6.198733E-1,1.3949303E-1,3.582182E-2,5.766309E-1,-2.892855E-1,-1.05282806E-1],"split_indices":[10,10,10,10,11,12,12,13,12,6,12,9,2,10,10,4,0,12,1,12,13,10,5,2,6,6,6,3,12,0,8,10,8,0,1,10,9,8,2,9,10,5,2,7,0,6,2,8,9,2,4,3,8,3,11,12,4,1,0,1,0,1,4,0,0,0,0,0,0,0,0,0,0,0,0,0,0,0,0,0,0,0,0,0,0,0,0,0,0,0,0,0,0,0,0,0,0,0,0,0,0,0,0,0,0,0,0,0,0,0,0,0,0,0,0,0,0,0,0,0,0,0,0],"split_type":[0,0,0,0,0,0,0,0,0,0,0,0,0,0,0,0,0,0,0,0,0,0,0,0,0,0,0,0,0,0,0,0,0,0,0,0,0,0,0,0,0,0,0,0,0,0,0,0,0,0,0,0,0,0,0,0,0,0,0,0,0,0,0,0,0,0,0,0,0,0,0,0,0,0,0,0,0,0,0,0,0,0,0,0,0,0,0,0,0,0,0,0,0,0,0,0,0,0,0,0,0,0,0,0,0,0,0,0,0,0,0,0,0,0,0,0,0,0,0,0,0,0,0],"sum_hessian":[3.514E3,2.513E3,1.001E3,1.706E3,8.07E2,8.07E2,1.94E2,1.465E3,2.41E2,4.8E2,3.27E2,5.07E2,3E2,1.17E2,7.7E1,1.458E3,7E0,1.25E2,1.16E2,2.2E1,4.58E2,2.15E2,1.12E2,4.87E2,2E1,2E1,2.8E2,9.8E1,1.9E1,7E0,7E1,1.435E3,2.3E1,3E0,4E0,5.7E1,6.8E1,1.7E1,9.9E1,9E0,1.3E1,4.41E2,1.7E1,1.14E2,1.01E2,7.8E1,3.4E1,4.44E2,4.3E1,1.1E1,9E0,4E0,1.6E1,9.3E1,1.87E2,8.3E1,1.5E1,1.5E1,4E0,6E0,1E0,6.1E1,9E0,1.202E3,2.33E2,2.2E1,1E0,1E0,2E0,1E0,3E0,2.5E1,3.2E1,2.5E1,4.3E1,1.5E1,2E0,2.9E1,7E1,8E0,1E0,4E0,9E0,3.03E2,1.38E2,4E0,1.3E1,1.05E2,9E0,3.4E1,6.7E1,1.3E1,6.5E1,1.9E1,1.5E1,2.3E1,4.21E2,1.4E1,2.9E1,1E0,1E1,3E0,6E0,2E0,2E0,5E0,1.1E1,4.1E1,5.2E1,1.52E2,3.5E1,5.6E1,2.7E1,1.2E1,3E0,1E0,1.4E1,5E0,1E0,5.8E1,3E0,5E0,4E0],"tree_param":{"num_deleted":"0","num_feature":"14","num_nodes":"123","size_leaf_vector":"1"}},{"base_weights":[1.5148034E-2,-3.3327365E-1,1.0370121E0,-5.674998E-1,1.03579365E-1,9.124973E-1,3.4800265E0,-6.023164E-1,-3.54241E-1,4.4637833E-2,1.5431324E0,-3.131596E-2,1.149536E0,5.8675203E0,1.5263302E0,-6.0423476E-1,-1.7716649E-1,-5.783454E-1,-1.7826067E-1,2.2488233E-1,-3.253609E-1,1.0631313E0,3.7659493E-1,4.6912473E-1,-2.515183E0,4.257221E0,1.0393292E0,-8.167707E-2,6.701953E0,3.477514E0,-1.748197E0,-6.0770917E-1,-3.7117124E-1,2.193312E-1,-4.5893133E-1,-6.446103E-1,2.0746556E-1,-5.7537293E-1,-3.1018931E-2,-3.1639895E-1,4.3959212E-1,-4.2541912E-1,9.0831953E-1,1.9075837E0,1.5223332E-1,3.2353058E0,2.278277E-2,-4.3403993E0,-5.2228755E-1,1.4109321E0,7.8163033E0,8.204386E-1,2.707655E0,1.3912417E0,7.3172984E0,4.778579E-1,5.757485E0,-3.1374216E0,1.1199956E0,-6.0571063E-2,-1.0585498E-1,-6.0847104E-2,2.543362E-1,2.7308227E-3,2.742361E-2,1.0322595E-2,-6.2527716E-2,-1.0198173E-2,-7.41447E-2,6.636911E-2,-1.3126241E-2,-1.2031826E-1,-3.306062E-2,-1.4382903E-2,5.7727404E-2,-2.2483356E-2,-1.3978887E-1,-2.6976922E-1,4.9095582E-2,-1.4983295E-1,-3.2813393E-2,1.538293E-1,-6.613799E-2,-4.8314335E-4,2.3492818E-1,-6.682822E-2,8.6466566E-2,6.2824625E-1,6.803291E-2,-1.2339922E-1,9.960201E-2,-1.2364536E-1,-4.4737917E-1,3.274382E-1,-1.0273626E-1,-2.2788148E-1,4.4630942E-1,2.9492259E-2,8.6192435E-1,7.145298E-2,4.3107778E-1,4.3744555E-1,1.4699414E-2,1.966859E-1,1.200037E-2,1.6836411E-1,8.0545044E-1,2.6520205E-1,-1.3570437E-1,6.627764E-1,-6.0237505E-2,-1.3637619E-1,-3.5741335E-1,-2.2150429E-2,2.5722477E-1],"categories":[],"categories_nodes":[],"categories_segments":[],"categories_sizes":[],"default_left":[0,0,0,0,0,0,0,0,0,0,0,0,0,0,0,0,0,0,0,0,0,0,0,0,0,0,0,0,0,0,0,0,0,0,0,0,0,0,0,0,0,0,0,0,0,0,0,0,0,0,0,0,0,0,0,0,0,0,0,0,0,0,0,0,0,0,0,0,0,0,0,0,0,0,0,0,0,0,0,0,0,0,0,0,0,0,0,0,0,0,0,0,0,0,0,0,0,0,0,0,0,0,0,0,0,0,0,0,0,0,0,0,0,0,0],"id":15,"left_children":[1,3,5,7,9,11,13,15,17,19,21,23,25,27,29,31,33,35,37,39,41,43,-1,45,47,49,51,-1,53,55,57,59,61,63,65,67,69,71,73,75,77,79,81,83,85,87,89,91,93,95,97,99,101,103,105,107,109,111,113,-1,-1,-1,-1,-1,-1,-1,-1,-1,-1,-1,-1,-1,-1,-1,-1,-1,-1,-1,-1,-1,-1,-1,-1,-1,-1,-1,-1,-1,-1,-1,-1,-1,-1,-1,-1,-1,-1,-1,-1,-1,-1,-1,-1,-1,-1,-1,-1,-1,-1,-1,-1,-1,-1,-1,-1],"loss_changes":[1.2518248E3,2.6834808E2,2.6877173E2,1.246106E1,7.765322E1,1.9064563E2,1.9161505E2,1.088562E0,9.440893E0,5.8827263E1,3.440667E1,2.1498076E2,2.2880975E2,1.1144818E2,1.658095E2,9.559326E-1,9.9441093E-1,5.6533318E0,7.9927483E0,6.905659E1,3.606054E1,2.355511E1,0E0,1.7771768E2,1.0321956E2,2.2196582E2,2.3843268E2,0E0,4.537451E1,1.0667479E2,4.3359543E1,6.5270996E-1,1.8146399E1,3.468311E-2,5.3210735E-1,5.073929E0,1.4779449E0,5.287898E0,7.013809E0,1.642127E1,6.981004E1,2.7481735E1,2.2772518E1,1.35267105E1,9.930829E0,1.5143416E2,1.5412161E2,6.790161E-1,3.2128025E1,1.6783444E2,5.785016E1,2.127998E2,3.237334E2,1.9592094E0,4.8736572E1,3.5513897E1,5.380609E1,5.4777527E-1,8.362547E0,0E0,0E0,0E0,0E0,0E0,0E0,0E0,0E0,0E0,0E0,0E0,0E0,0E0,0E0,0E0,0E0,0E0,0E0,0E0,0E0,0E0,0E0,0E0,0E0,0E0,0E0,0E0,0E0,0E0,0E0,0E0,0E0,0E0,0E0,0E0,0E0,0E0,0E0,0E0,0E0,0E0,0E0,0E0,0E0,0E0,0E0,0E0,0E0,0E0,0E0,0E0,0E0,0E0,0E0,0E0,0E0],"parents":[2147483647,0,0,1,1,2,2,3,3,4,4,5,5,6,6,7,7,8,8,9,9,10,10,11,11,12,12,13,13,14,14,15,15,16,16,17,17,18,18,19,19,20,20,21,21,23,23,24,24,25,25,26,26,28,28,29,29,30,30,31,31,32,32,33,33,34,34,35,35,36,36,37,37,38,38,39,39,40,40,41,41,42,42,43,43,44,44,45,45,46,46,47,47,48,48,49,49,50,50,51,51,52,52,53,53,54,54,55,55,56,56,57,57,58,58],"right_children":[2,4,6,8,10,12,14,16,18,20,22,24,26,28,30,32,34,36,38,40,42,44,-1,46,48,50,52,-1,54,56,58,60,62,64,66,68,70,72,74,76,78,80,82,84,86,88,90,92,94,96,98,100,102,104,106,108,110,112,114,-1,-1,-1,-1,-1,-1,-1,-1,-1,-1,-1,-1,-1,-1,-1,-1,-1,-1,-1,-1,-1,-1,-1,-1,-1,-1,-1,-1,-1,-1,-1,-1,-1,-1,-1,-1,-1,-1,-1,-1,-1,-1,-1,-1,-1,-1,-1,-1,-1,-1,-1,-1,-1,-1,-1,-1],"split_conditions":[4.2E0,1.6133333E0,3.1298702E0,9.8E-1,6E-1,-1.085E0,2.07E-1,7.125E-1,3.3333334E-1,2.99E0,2.42E0,2.6E-1,-9.25E-2,2.7450982E-1,1.024E1,3.1298702E0,4.0816326E-2,3.51E0,4.5454547E-1,2E-2,1.9701493E0,9.7E-1,3.7659493E-1,-6.88E0,5.08E0,2.4074075E-1,1.2035E1,-8.167707E-2,1E-2,4.2307693E-1,3.4788733E0,4.6666667E-1,2.79E-1,1.2987013E-2,4E-2,7.8947365E-2,5.319149E-1,4E-1,1.5E0,3.9E0,1.3157895E-1,1.724138E-2,9.375E-2,7.9310346E-1,1.92E-1,1.73E-1,3.1428573E-1,3.030303E-1,5.12E0,4.11E0,4.1666666E-1,3.69E0,1.34E1,2.8767124E-1,3.8666666E-1,3.918919E-1,1.1095891E0,2.59E0,5.294118E-1,-6.0571063E-2,-1.0585498E-1,-6.0847104E-2,2.543362E-1,2.7308227E-3,2.742361E-2,1.0322595E-2,-6.2527716E-2,-1.0198173E-2,-7.41447E-2,6.636911E-2,-1.3126241E-2,-1.2031826E-1,-3.306062E-2,-1.4382903E-2,5.7727404E-2,-2.2483356E-2,-1.3978887E-1,-2.6976922E-1,4.9095582E-2,-1.4983295E-1,-3.2813393E-2,1.538293E-1,-6.613799E-2,-4.8314335E-4,2.3492818E-1,-6.682822E-2,8.6466566E-2,6.2824625E-1,6.803291E-2,-1.2339922E-1,9.960201E-2,-1.2364536E-1,-4.4737917E-1,3.274382E-1,-1.0273626E-1,-2.2788148E-1,4.4630942E-1,2.9492259E-2,8.6192435E-1,7.145298E-2,4.3107778E-1,4.3744555E-1,1.4699414E-2,1.966859E-1,1.200037E-2,1.6836411E-1,8.0545044E-1,2.6520205E-1,-1.3570437E-1,6.627764E-1,-6.0237505E-2,-1.3637619E-1,-3.5741335E-1,-2.2150429E-2,2.5722477E-1],"split_indices":[10,10,4,10,11,13,8,13,11,12,13,8,13,0,12,4,0,9,6,12,6,12,0,13,12,0,10,0,12,0,4,3,8,0,1,1,5,11,10,10,5,0,0,4,8,8,1,6,12,12,5,9,12,0,1,0,1,9,0,0,0,0,0,0,0,0,0,0,0,0,0,0,0,0,0,0,0,0,0,0,0,0,0,0,0,0,0,0,0,0,0,0,0,0,0,0,0,0,0,0,0,0,0,0,0,0,0,0,0,0,0,0,0,0,0],"split_type":[0,0,0,0,0,0,0,0,0,0,0,0,0,0,0,0,0,0,0,0,0,0,0,0,0,0,0,0,0,0,0,0,0,0,0,0,0,0,0,0,0,0,0,0,0,0,0,0,0,0,0,0,0,0,0,0,0,0,0,0,0,0,0,0,0,0,0,0,0,0,0,0,0,0,0,0,0,0,0,0,0,0,0,0,0,0,0,0,0,0,0,0,0,0,0,0,0,0,0,0,0,0,0,0,0,0,0,0,0,0,0,0,0,0,0],"sum_hessian":[3.514E3,2.621E3,8.93E2,1.706E3,9.15E2,8.51E2,4.2E1,1.465E3,2.41E2,8.8E2,3.5E1,1.71E2,6.8E2,1.8E1,2.4E1,