{"learner":{"attributes":{"scikit_learn":"{\"_estimator_type\": \"regressor\"}"},"feature_names":["goals_pg","assists_pg","plus_minus_pg","pp_points_pg","shots_pg","hits_pg","blocked_shots_pg","pp1_status","team_pp_percentage","opponent_goals_against_per_game","avg_prediction_error","prediction_accuracy","last_prediction_error","prediction_trend"],"feature_types":["float","float","float","float","float","float","float","int","float","float","float","float","float","float"],"gradient_booster":{"model":{"gbtree_model_param":{"num_parallel_tree":"1","num_trees":"100"},"iteration_indptr":[0,1,2,3,4,5,6,7,8,9,10,11,12,13,14,15,16,17,18,19,20,21,22,23,24,25,26,27,28,29,30,31,32,33,34,35,36,37,38,39,40,41,42,43,44,45,46,47,48,49,50,51,52,53,54,55,56,57,58,59,60,61,62,63,64,65,66,67,68,69,70,71,72,73,74,75,76,77,78,79,80,81,82,83,84,85,86,87,88,89,90,91,92,93,94,95,96,97,98,99,100],"tree_info":[0,0,0,0,0,0,0,0,0,0,0,0,0,0,0,0,0,0,0,0,0,0,0,0,0,0,0,0,0,0,0,0,0,0,0,0,0,0,0,0,0,0,0,0,0,0,0,0,0,0,0,0,0,0,0,0,0,0,0,0,0,0,0,0,0,0,0,0,0,0,0,0,0,0,0,0,0,0,0,0,0,0,0,0,0,0,0,0,0,0,0,0,0,0,0,0,0,0,0,0],"trees":[{"base_weights":[-6.4550743E-9,-1.8245893E0,4.11472E0,-2.689251E0,-9.600172E-3,2.9765542E0,8.142077E0,-2.8042371E0,-2.0563388E0,4.3372825E-1,-1.1203043E0,3.9116201E0,1.2564063E0,1.0404116E1,3.4554377E0,-2.8162485E-1,-1.3296102E0,-2.1901155E0,-1.4722719E0,-5.927898E-1,1.3600645E0,-1.7207665E0,-6.534119E-1,3.427017E0,5.9066358E0,-1.0016232E-1,2.3505077E0,8.521005E0,1.8712324E0,6.07075E-1,4.736351E0,5.4337144E-1,-2.5493142E-1,-2.2030349E0,-1.6285658E-3,-1.0228808E0,-1.962436E0,-1.157934E0,6.775123E-2,5.044384E-1,3.130667E0,-2.2144978E0,-1.2985141E0,3.7704146E-1,-1.4153618E0,2.6755373E0,5.45006E0,3.0609894E0,7.041305E0,-4.0193918E-1,2.6249352E0,1.2650572E0,2.0180593E0,1.5720818E0,8.918246E0,4.8755717E0,-3.752062E-1,2.7788968E0,7.9882145E0,-2.2672255E-1,-1.4555356E-1,-6.188906E-2,-1.7535E-1,-2.089479E-1,-5.8838088E-2,-1.641533E-1,-8.85395E-2,1.13673165E-1,-2.8020019E-2,1.3256291E-2,1.9653855E-1,4.794808E-2,3.513496E-1,-2.2816133E-1,3.3714415E-3,-9.7763695E-2,-2.4733968E-1,-2.9815217E-2,1.6194646E-1,-1.5544234E-1,1.7449525E-1,2.2410429E-1,4.354836E-1,5.6419724E-1,-3.7442848E-2,4.6164036E-1,1.1068589E-2,7.8392094E-1,1.6488257E-1,-7.642679E-2,1.16387986E-1,-1.2744284E-1,4.2465E-1,4.1997828E-2,3.031586E-1,3.2755718E-1,-5.2442845E-2,7.6276165E-1,1.1134075E0,7.444953E-1,-1.4162856E-1,-1.4893141E-1,9.043811E-2,4.7314724E-1,1.12228595E-1,1.0070143E0,1.3939428E-1],"categories":[],"categories_nodes":[],"categories_segments":[],"categories_sizes":[],"default_left":[0,0,0,0,0,0,0,0,0,0,0,0,0,0,0,0,0,0,0,0,0,0,0,0,0,0,0,0,0,0,0,0,0,0,0,0,0,0,0,0,0,0,0,0,0,0,0,0,0,0,0,0,0,0,0,0,0,0,0,0,0,0,0,0,0,0,0,0,0,0,0,0,0,0,0,0,0,0,0,0,0,0,0,0,0,0,0,0,0,0,0,0,0,0,0,0,0,0,0,0,0,0,0,0,0,0,0],"id":0,"left_children":[1,3,5,7,9,11,13,15,17,19,21,23,25,27,29,-1,31,33,35,37,39,41,43,45,47,49,51,53,-1,55,57,-1,-1,59,-1,61,63,65,67,69,71,73,75,77,79,81,83,85,87,89,91,-1,93,95,97,99,101,103,105,-1,-1,-1,-1,-1,-1,-1,-1,-1,-1,-1,-1,-1,-1,-1,-1,-1,-1,-1,-1,-1,-1,-1,-1,-1,-1,-1,-1,-1,-1,-1,-1,-1,-1,-1,-1,-1,-1,-1,-1,-1,-1,-1,-1,-1,-1,-1,-1],"loss_changes":[2.1359332E4,3.093167E3,3.9820068E3,9.138867E1,3.14149E2,1.0936577E3,1.9995098E3,1.6216797E1,1.3105652E1,4.3441702E2,4.9899567E1,4.070796E2,3.5941757E2,1.858793E3,2.306289E2,0E0,1.0459403E2,4.682373E0,7.244217E0,8.108473E1,3.6201447E2,1.3594315E1,8.218964E1,5.2967676E2,2.5290039E2,9.069355E1,4.333188E2,2.8134326E2,0E0,8.9879486E1,2.578781E2,0E0,0E0,4.7130737E0,0E0,5.998686E0,2.0873108E0,1.3967148E1,3.788579E1,8.829581E1,7.748157E1,5.3580475E0,1.45466E1,3.8232273E1,2.9081131E1,1.821377E2,1.09420654E2,1.18801605E2,2.4523535E2,5.705629E1,7.496565E1,0E0,2.1090723E2,2.671749E1,2.0391504E2,7.520891E1,2.7007679E1,8.849501E1,2.0562366E2,0E0,0E0,0E0,0E0,0E0,0E0,0E0,0E0,0E0,0E0,0E0,0E0,0E0,0E0,0E0,0E0,0E0,0E0,0E0,0E0,0E0,0E0,0E0,0E0,0E0,0E0,0E0,0E0,0E0,0E0,0E0,0E0,0E0,0E0,0E0,0E0,0E0,0E0,0E0,0E0,0E0,0E0,0E0,0E0,0E0,0E0,0E0,0E0],"parents":[2147483647,0,0,1,1,2,2,3,3,4,4,5,5,6,6,7,7,8,8,9,9,10,10,11,11,12,12,13,13,14,14,16,16,17,17,18,18,19,19,20,20,21,21,22,22,23,23,24,24,25,25,26,26,27,27,29,29,30,30,33,33,35,35,36,36,37,37,38,38,39,39,40,40,41,41,42,42,43,43,44,44,45,45,46,46,47,47,48,48,49,49,50,50,52,52,53,53,54,54,55,55,56,56,57,57,58,58],"right_children":[2,4,6,8,10,12,14,16,18,20,22,24,26,28,30,-1,32,34,36,38,40,42,44,46,48,50,52,54,-1,56,58,-1,-1,60,-1,62,64,66,68,70,72,74,76,78,80,82,84,86,88,90,92,-1,94,96,98,100,102,104,106,-1,-1,-1,-1,-1,-1,-1,-1,-1,-1,-1,-1,-1,-1,-1,-1,-1,-1,-1,-1,-1,-1,-1,-1,-1,-1,-1,-1,-1,-1,-1,-1,-1,-1,-1,-1,-1,-1,-1,-1,-1,-1,-1,-1,-1,-1,-1,-1],"split_conditions":[3.585E0,1.3E0,8.996667E0,6.1333334E-1,2.8E0,5.7E0,1.07E1,5.0666666E-1,6E-2,2.0933332E0,2.6233332E0,2E-1,6.818182E-2,1.68E1,1E0,-2.8162485E-1,5.4285717E-1,2.769231E-1,6.6E-1,2.5E-1,2.5E-1,-9.375E-2,4.51E0,6.33E0,1.2E0,1.4625E0,7.3529415E-2,-2.255E0,1.8712324E0,1.19E1,6.933333E-1,5.4337144E-1,-2.5493142E-1,1.2066667E0,-1.6285658E-3,7.5E-1,1.2066667E0,1.52E0,4.7E-1,3.22E0,-7.175E-1,8.325E-1,1E0,2E-1,3.125E-1,1.7948718E-1,2.5E0,3.16E0,2.77E-1,7.172E0,8.9285713E-1,1.2650572E0,1E0,3.1428573E-1,1.2505E1,2.2535211E-1,6.4935066E-2,1.39E1,2.5E-1,-2.2672255E-1,-1.4555356E-1,-6.188906E-2,-1.7535E-1,-2.089479E-1,-5.8838088E-2,-1.641533E-1,-8.85395E-2,1.13673165E-1,-2.8020019E-2,1.3256291E-2,1.9653855E-1,4.794808E-2,3.513496E-1,-2.2816133E-1,3.3714415E-3,-9.7763695E-2,-2.4733968E-1,-2.9815217E-2,1.6194646E-1,-1.5544234E-1,1.7449525E-1,2.2410429E-1,4.354836E-1,5.6419724E-1,-3.7442848E-2,4.6164036E-1,1.1068589E-2,7.8392094E-1,1.6488257E-1,-7.642679E-2,1.16387986E-1,-1.2744284E-1,4.2465E-1,4.1997828E-2,3.031586E-1,3.2755718E-1,-5.2442845E-2,7.6276165E-1,1.1134075E0,7.444953E-1,-1.4162856E-1,-1.4893141E-1,9.043811E-2,4.7314724E-1,1.12228595E-1,1.0070143E0,1.3939428E-1],"split_indices":[10,10,10,10,12,12,12,0,2,10,10,11,3,10,7,0,0,3,12,11,11,2,12,10,4,13,3,13,0,12,1,0,0,10,0,11,10,10,12,10,13,13,7,11,2,3,13,9,8,10,4,0,7,3,10,0,2,12,2,0,0,0,0,0,0,0,0,0,0,0,0,0,0,0,0,0,0,0,0,0,0,0,0,0,0,0,0,0,0,0,0,0,0,0,0,0,0,0,0,0,0,0,0,0,0,0,0],"split_type":[0,0,0,0,0,0,0,0,0,0,0,0,0,0,0,0,0,0,0,0,0,0,0,0,0,0,0,0,0,0,0,0,0,0,0,0,0,0,0,0,0,0,0,0,0,0,0,0,0,0,0,0,0,0,0,0,0,0,0,0,0,0,0,0,0,0,0,0,0,0,0,0,0,0,0,0,0,0,0,0,0,0,0,0,0,0,0,0,0,0,0,0,0,0,0,0,0,0,0,0,0,0,0,0,0,0,0],"sum_hessian":[2.843E3,1.97E3,8.73E2,1.334E3,6.36E2,6.82E2,1.91E2,1.126E3,2.08E2,4.55E2,1.81E2,4.41E2,2.41E2,1.28E2,6.3E1,1.116E3,1E1,1.67E2,4.1E1,2.16E2,2.39E2,7.8E1,1.03E2,3.57E2,8.4E1,1.08E2,1.33E2,1.06E2,2.2E1,2E1,4.3E1,1E0,9E0,1.66E2,1E0,2.3E1,1.8E1,1.16E2,1E2,1.62E2,7.7E1,3.4E1,4.4E1,4.4E1,5.9E1,2.62E2,9.5E1,2.5E1,5.9E1,9.8E1,1E1,3E0,1.3E2,6E0,1E2,3E0,1.7E1,2.8E1,1.5E1,1.51E2,1.5E1,1.6E1,7E0,1.6E1,2E0,4E1,7.6E1,2.4E1,7.6E1,1.3E2,3.2E1,1E1,6.7E1,3.3E1,1E0,3.6E1,8E0,2.9E1,1.5E1,5.7E1,2E0,2.1E2,5.2E1,9.2E1,3E0,1.6E1,9E0,5.1E1,8E0,8E1,1.8E1,3E0,7E0,5.1E1,7.9E1,3E0,3E0,6.6E1,3.4E1,2E0,1E0,9E0,8E0,1.2E1,1.6E1,1.1E1,4E0],"tree_param":{"num_deleted":"0","num_feature":"14","num_nodes":"107","size_leaf_vector":"1"}},{"base_weights":[3.5179215E-3,-1.642561E0,3.7156668E0,-2.4209793E0,-8.603533E-3,2.685568E0,7.3606753E0,-2.509508E0,-1.7644749E0,3.9132482E-1,-1.0105746E0,3.5263581E0,1.1388127E0,9.394886E0,3.145459E0,-2.5200067E0,-1.1704274E0,-1.9061303E0,-1.1043785E0,-3.071656E-1,1.546432E0,-1.5559037E0,-5.866171E-1,3.2663991E0,6.867546E0,-8.705286E-2,2.1274734E0,7.9999766E0,1.8746433E0,6.5652666E0,2.1450124E0,-2.534876E-1,-2.1214865E-1,5.1620287E-1,-2.3198758E-1,-1.9532794E0,-9.311602E-1,1.5608053E-2,-1.3203608E0,-8.6671627E-1,3.9579284E-1,7.424435E-1,3.3875124E0,-1.9994706E0,-1.1763316E0,3.422735E-1,-1.2735081E0,2.9488246E0,5.6132383E0,1.6801096E0,7.8005104E0,-3.6134169E-1,2.3894606E0,1.1701778E0,1.818888E0,6.502047E0,1.0322093E1,-1.2557599E-1,7.9734178E0,2.7416282E0,-2.786543E-1,-9.676177E-2,-2.0035508E-1,-1.7043866E-1,-1.2634704E-2,4.5287862E-2,-3.162469E-2,-1.378348E-1,6.4659E-3,-1.01029314E-1,1.2489818E-2,-1.8762147E-2,1.3283221E-1,9.844925E-5,1.6937308E-1,6.275326E-2,3.950589E-1,-2.0601626E-1,3.2028675E-3,-8.825154E-2,-2.2535391E-1,7.156566E-2,-1.7868997E-1,-1.4016613E-1,1.6286223E-1,2.4090222E-1,4.0583345E-1,5.963638E-1,-1.6306323E-1,-1.5624265E-1,3.691984E-1,2.8932008E-1,8.314802E-1,-6.8878464E-2,1.0536175E-1,-1.17884636E-1,3.8749313E-1,3.78788E-2,2.732217E-1,7.515494E-1,4.1620064E-1,1.5360145E-1,1.0713218E0,5.175686E-1,1.0855106E0,-3.4801375E-2,3.9693058E-1],"categories":[],"categories_nodes":[],"categories_segments":[],"categories_sizes":[],"default_left":[0,0,0,0,0,0,0,0,0,0,0,0,0,0,0,0,0,0,0,0,0,0,0,0,0,0,0,0,0,0,0,0,0,0,0,0,0,0,0,0,0,0,0,0,0,0,0,0,0,0,0,0,0,0,0,0,0,0,0,0,0,0,0,0,0,0,0,0,0,0,0,0,0,0,0,0,0,0,0,0,0,0,0,0,0,0,0,0,0,0,0,0,0,0,0,0,0,0,0,0,0,0,0,0,0,0,0],"id":1,"left_children":[1,3,5,7,9,11,13,15,17,19,21,23,25,27,29,31,33,35,37,39,41,43,45,47,49,51,53,55,-1,57,59,-1,-1,-1,-1,61,63,65,67,69,71,73,75,77,79,81,83,85,87,89,91,93,95,-1,97,99,101,-1,103,105,-1,-1,-1,-1,-1,-1,-1,-1,-1,-1,-1,-1,-1,-1,-1,-1,-1,-1,-1,-1,-1,-1,-1,-1,-1,-1,-1,-1,-1,-1,-1,-1,-1,-1,-1,-1,-1,-1,-1,-1,-1,-1,-1,-1,-1,-1,-1],"loss_changes":[1.7384336E4,2.506899E3,3.2618564E3,7.316113E1,2.5565198E2,8.8422314E2,1.6167793E3,1.3555176E1,1.3042969E1,3.683901E2,4.116501E1,3.6147656E2,2.934808E2,1.5327773E3,2.0488281E2,1.5195312E0,9.2042404E1,4.249054E0,7.5194206E0,1.1244518E2,2.5208063E2,1.0948853E1,6.679273E1,2.9050977E2,1.369248E2,7.490492E1,3.7461755E2,3.2941895E2,0E0,1.6419727E2,1.5769409E2,0E0,0E0,0E0,0E0,4.255127E0,4.763078E0,1.013884E0,2.1772728E0,2.2763474E1,6.93437E1,8.534453E1,7.833301E1,4.3813324E0,1.2253769E1,3.7053684E1,2.4597809E1,2.0882764E2,1.3156042E2,4.4909912E1,4.1562256E1,4.659424E1,6.287473E1,0E0,1.7126746E2,1.3946875E2,1.313125E2,0E0,4.056366E1,1.7586325E2,0E0,0E0,0E0,0E0,0E0,0E0,0E0,0E0,0E0,0E0,0E0,0E0,0E0,0E0,0E0,0E0,0E0,0E0,0E0,0E0,0E0,0E0,0E0,0E0,0E0,0E0,0E0,0E0,0E0,0E0,0E0,0E0,0E0,0E0,0E0,0E0,0E0,0E0,0E0,0E0,0E0,0E0,0E0,0E0,0E0,0E0,0E0],"parents":[2147483647,0,0,1,1,2,2,3,3,4,4,5,5,6,6,7,7,8,8,9,9,10,10,11,11,12,12,13,13,14,14,15,15,16,16,17,17,18,18,19,19,20,20,21,21,22,22,23,23,24,24,25,25,26,26,27,27,29,29,30,30,35,35,36,36,37,37,38,38,39,39,40,40,41,41,42,42,43,43,44,44,45,45,46,46,47,47,48,48,49,49,50,50,51,51,52,52,54,54,55,55,56,56,58,58,59,59],"right_children":[2,4,6,8,10,12,14,16,18,20,22,24,26,28,30,32,34,36,38,40,42,44,46,48,50,52,54,56,-1,58,60,-1,-1,-1,-1,62,64,66,68,70,72,74,76,78,80,82,84,86,88,90,92,94,96,-1,98,100,102,-1,104,106,-1,-1,-1,-1,-1,-1,-1,-1,-1,-1,-1,-1,-1,-1,-1,-1,-1,-1,-1,-1,-1,-1,-1,-1,-1,-1,-1,-1,-1,-1,-1,-1,-1,-1,-1,-1,-1,-1,-1,-1,-1,-1,-1,-1,-1,-1,-1],"split_conditions":[3.585E0,1.3E0,8.996667E0,7.4E-1,2.8E0,5.7E0,1.07E1,5.0666666E-1,7.692308E-2,2.47E0,2.6233332E0,4E-1,6.818182E-2,1.833E1,-5.7971016E-2,6.1333334E-1,5.4285717E-1,2.4520547E0,9.52381E-2,2.5E-1,2.5E-1,-9.375E-2,4.51E0,7.6825E0,8.333333E-1,1.4625E0,7.3529415E-2,1.2505E1,1.8746433E0,-2.6923078E-1,1.68E1,-2.534876E-1,-2.1214865E-1,5.1620287E-1,-2.3198758E-1,3.3333335E-2,1.05E0,1.14285715E-1,4.7058824E-1,2.5492957E0,1.9E0,2.7E-1,-7.175E-1,8.325E-1,1E0,2.65E-1,3.125E-1,1.92E0,5.11E0,3.795E0,-2.972973E-1,7.172E0,8.9285713E-1,1.1701778E0,1E0,4.2857143E-1,2.3076923E-1,-1.2557599E-1,2.9333332E-1,1.8783784E0,-2.786543E-1,-9.676177E-2,-2.0035508E-1,-1.7043866E-1,-1.2634704E-2,4.5287862E-2,-3.162469E-2,-1.378348E-1,6.4659E-3,-1.01029314E-1,1.2489818E-2,-1.8762147E-2,1.3283221E-1,9.844925E-5,1.6937308E-1,6.275326E-2,3.950589E-1,-2.0601626E-1,3.2028675E-3,-8.825154E-2,-2.2535391E-1,7.156566E-2,-1.7868997E-1,-1.4016613E-1,1.6286223E-1,2.4090222E-1,4.0583345E-1,5.963638E-1,-1.6306323E-1,-1.5624265E-1,3.691984E-1,2.8932008E-1,8.314802E-1,-6.8878464E-2,1.0536175E-1,-1.17884636E-1,3.8749313E-1,3.78788E-2,2.732217E-1,7.515494E-1,4.1620064E-1,1.5360145E-1,1.0713218E0,5.175686E-1,1.0855106E0,-3.4801375E-2,3.9693058E-1],"split_indices":[10,10,10,10,12,12,12,0,2,10,10,11,3,10,2,10,0,5,1,11,11,2,12,10,4,13,3,10,0,2,10,0,0,0,0,1,10,2,2,5,10,12,13,13,7,8,2,4,12,10,2,10,4,0,7,1,5,0,0,4,0,0,0,0,0,0,0,0,0,0,0,0,0,0,0,0,0,0,0,0,0,0,0,0,0,0,0,0,0,0,0,0,0,0,0,0,0,0,0,0,0,0,0,0,0,0,0],"split_type":[0,0,0,0,0,0,0,0,0,0,0,0,0,0,0,0,0,0,0,0,0,0,0,0,0,0,0,0,0,0,0,0,0,0,0,0,0,0,0,0,0,0,0,0,0,0,0,0,0,0,0,0,0,0,0,0,0,0,0,0,0,0,0,0,0,0,0,0,0,0,0,0,0,0,0,0,0,0,0,0,0,0,0,0,0,0,0,0,0,0,0,0,0,0,0,0,0,0,0,0,0,0,0,0,0,0,0],"sum_hessian":[2.843E3,1.97E3,8.73E2,1.334E3,6.36E2,6.82E2,1.91E2,1.173E3,1.61E2,4.55E2,1.81E2,4.41E2,2.41E2,1.28E2,6.3E1,1.163E3,1E1,1.31E2,3E1,2.84E2,1.71E2,7.8E1,1.03E2,4.11E2,3E1,1.08E2,1.33E2,1.13E2,1.5E1,1.3E1,5E1,1.116E3,4.7E1,1E0,9E0,1.24E2,7E0,5E0,2.5E1,1.58E2,1.26E2,1.2E2,5.1E1,3.4E1,4.4E1,4.4E1,5.9E1,3.64E2,4.7E1,5E0,2.5E1,9.8E1,1E1,3E0,1.3E2,7.1E1,4.2E1,2E0,1.1E1,4.5E1,5E0,7E0,1.17E2,3E0,4E0,2E0,3E0,2.4E1,1E0,1.38E2,2E1,7.8E1,4.8E1,6.8E1,5.2E1,9E0,4.2E1,3.3E1,1E0,3.6E1,8E0,3.8E1,6E0,5.7E1,2E0,2.47E2,1.17E2,4.5E1,2E0,2E0,3E0,3E0,2.2E1,8E1,1.8E1,3E0,7E0,5.1E1,7.9E1,4.8E1,2.3E1,2E0,4E1,7E0,4E0,1.3E1,3.2E1],"tree_param":{"num_deleted":"0","num_feature":"14","num_nodes":"107","size_leaf_vector":"1"}},{"base_weights":[6.4369156E-3,-1.4786739E0,3.3555753E0,-2.132913E0,9.78959E-2,2.4231622E0,6.6549635E0,-2.2587116E0,-1.4519113E0,5.159733E-1,-9.109843E-1,3.1791835E0,1.0323172E0,8.488478E0,2.8553033E0,-2.268406E0,-1.027547E0,-1.1453968E0,-1.843163E0,-1.305146E-1,1.38486E0,-1.1069392E0,1.22320645E-1,2.7608197E0,4.9038305E0,6.6315985E-1,3.8300498E0,6.929123E0,1.53738E1,6.0142756E0,1.932148E0,-2.2740564E0,-1.4693921E0,4.9039268E-1,-2.1110871E-1,-1.6511155E0,-5.9673387E-1,-5.253109E-1,-1.8804265E0,-6.5471333E-1,6.1432356E-1,6.48156E-1,3.06844E0,6.3872147E-1,-1.1880537E0,-1.1253302E0,2.152811E0,2.1234717E0,4.4781294E0,2.4190314E0,5.8988466E0,6.247185E-2,2.079432E0,4.900686E0,-2.0750132E0,6.550262E0,1.5047234E0,1.0221766E0,1.6988957E0,-1.1720425E-1,7.3096657E0,2.4753377E0,-2.554331E-1,-5.4685008E-2,-2.2750802E-1,-5.172154E-2,-1.9396052E-1,-1.7216216E-1,-1.4549232E-2,-2.3199666E-2,-1.3510822E-1,-6.71527E-2,-4.333127E-3,-1.9830167E-1,-1.2215952E-1,-1.4553003E-1,-4.917372E-2,-2.5411755E-2,1.1226783E-1,8.874562E-5,1.4483991E-1,5.7105478E-2,3.56629E-1,-8.334376E-2,1.9512002E-1,-1.3330643E-1,-8.0949516E-4,-3.6553416E-2,-2.5840002E-1,3.098219E-1,-1.4010155E-1,1.3186094E-1,2.842959E-1,3.5594267E-1,5.675327E-1,3.7635458E-1,-1.0854634E-2,6.662864E-1,1.4124739E-1,-3.138868E-2,2.0827965E-1,1.4107187E-2,3.163364E-1,4.941071E-2,7.0730937E-1,-2.4915285E-1,-2.0447576E-2,9.559365E-2,6.8830174E-1,4.722813E-1,9.986696E-1,-3.156981E-2,3.5844034E-1],"categories":[],"categories_nodes":[],"categories_segments":[],"categories_sizes":[],"default_left":[0,0,0,0,0,0,0,0,0,0,0,0,0,0,0,0,0,0,0,0,0,0,0,0,0,0,0,0,0,0,0,0,0,0,0,0,0,0,0,0,0,0,0,0,0,0,0,0,0,0,0,0,0,0,0,0,0,0,0,0,0,0,0,0,0,0,0,0,0,0,0,0,0,0,0,0,0,0,0,0,0,0,0,0,0,0,0,0,0,0,0,0,0,0,0,0,0,0,0,0,0,0,0,0,0,0,0,0,0,0,0,0,0],"id":2,"left_children":[1,3,5,7,9,11,13,15,17,19,21,23,25,27,29,31,33,35,37,39,41,43,45,47,49,51,53,55,57,59,61,63,65,-1,-1,67,69,71,73,75,77,79,81,83,85,87,89,91,93,95,97,99,101,103,105,107,-1,-1,-1,-1,109,111,-1,-1,-1,-1,-1,-1,-1,-1,-1,-1,-1,-1,-1,-1,-1,-1,-1,-1,-1,-1,-1,-1,-1,-1,-1,-1,-1,-1,-1,-1,-1,-1,-1,-1,-1,-1,-1,-1,-1,-1,-1,-1,-1,-1,-1,-1,-1,-1,-1,-1,-1],"loss_changes":[1.4150567E4,2.0332036E3,2.6726406E3,1.1605762E2,2.4468648E2,7.1489844E2,1.313375E3,1.1681152E1,2.4272186E1,2.304879E2,3.4557205E1,3.0537744E2,2.4739853E2,1.278502E3,1.750177E2,1.9130859E0,8.10495E1,3.3975815E1,3.6774597E0,9.254681E1,2.1506366E2,2.10074E1,7.335624E1,3.8233032E2,1.9588574E2,1.8277866E2,1.8718979E2,2.3052979E2,1.7733398E1,1.3889438E2,1.3061032E2,7.96875E-1,3.921791E0,0E0,0E0,6.6496277E0,1.6745165E1,2.5279462E-1,3.795807E0,1.7420616E1,4.354996E1,6.3709293E1,6.385968E1,1.5151444E1,2.3430801E1,1.9004711E1,4.129862E1,1.4855127E2,8.538635E1,8.876601E1,1.9624902E2,1.1622951E2,1.34021E2,2.262544E2,3.3860817E0,1.8702002E2,0E0,0E0,0E0,0E0,3.593573E1,1.4352191E2,0E0,0E0,0E0,0E0,0E0,0E0,0E0,0E0,0E0,0E0,0E0,0E0,0E0,0E0,0E0,0E0,0E0,0E0,0E0,0E0,0E0,0E0,0E0,0E0,0E0,0E0,0E0,0E0,0E0,0E0,0E0,0E0,0E0,0E0,0E0,0E0,0E0,0E0,0E0,0E0,0E0,0E0,0E0,0E0,0E0,0E0,0E0,0E0,0E0,0E0,0E0],"parents":[2147483647,0,0,1,1,2,2,3,3,4,4,5,5,6,6,7,7,8,8,9,9,10,10,11,11,12,12,13,13,14,14,15,15,16,16,17,17,18,18,19,19,20,20,21,21,22,22,23,23,24,24,25,25,26,26,27,27,28,28,29,29,30,30,31,31,32,32,35,35,36,36,37,37,38,38,39,39,40,40,41,41,42,42,43,43,44,44,45,45,46,46,47,47,48,48,49,49,50,50,51,51,52,52,53,53,54,54,55,55,60,60,61,61],"right_children":[2,4,6,8,10,12,14,16,18,20,22,24,26,28,30,32,34,36,38,40,42,44,46,48,50,52,54,56,58,60,62,64,66,-1,-1,68,70,72,74,76,78,80,82,84,86,88,90,92,94,96,98,100,102,104,106,108,-1,-1,-1,-1,110,112,-1,-1,-1,-1,-1,-1,-1,-1,-1,-1,-1,-1,-1,-1,-1,-1,-1,-1,-1,-1,-1,-1,-1,-1,-1,-1,-1,-1,-1,-1,-1,-1,-1,-1,-1,-1,-1,-1,-1,-1,-1,-1,-1,-1,-1,-1,-1,-1,-1,-1,-1],"split_conditions":[3.585E0,1.465E0,8.996667E0,7.4E-1,2.85E0,5.7E0,1.07E1,5.0666666E-1,8E-1,2.47E0,8.325E-1,2E-1,1.4625E0,1.68E1,-5.7971016E-2,2.975E-1,5.4285717E-1,1E-2,-5.925E-1,2.5E-1,2.5E-1,1.39E-1,1.5081967E0,6.33E0,1.2E0,6.9E0,1.39E1,5.4285717E-1,1.833E1,-2.6923078E-1,1.68E1,-1.045E0,4.255319E-2,4.9039268E-1,-2.1110871E-1,3.57E0,5.9E-1,3.3333335E-2,8.450704E-2,4.868421E-1,5.0877196E-1,2.7E-1,-7.175E-1,-1.724138E-1,3.54E0,3.01E0,2.5675675E-1,1.39E0,7.8571427E-1,3.16E0,2.65E-1,2.0253165E-1,1.92E-1,1.4545454E-1,5.074627E-1,-2.255E0,1.5047234E0,1.0221766E0,1.6988957E0,-1.1720425E-1,2.9333332E-1,1.8783784E0,-2.554331E-1,-5.4685008E-2,-2.2750802E-1,-5.172154E-2,-1.9396052E-1,-1.7216216E-1,-1.4549232E-2,-2.3199666E-2,-1.3510822E-1,-6.71527E-2,-4.333127E-3,-1.9830167E-1,-1.2215952E-1,-1.4553003E-1,-4.917372E-2,-2.5411755E-2,1.1226783E-1,8.874562E-5,1.4483991E-1,5.7105478E-2,3.56629E-1,-8.334376E-2,1.9512002E-1,-1.3330643E-1,-8.0949516E-4,-3.6553416E-2,-2.5840002E-1,3.098219E-1,-1.4010155E-1,1.3186094E-1,2.842959E-1,3.5594267E-1,5.675327E-1,3.7635458E-1,-1.0854634E-2,6.662864E-1,1.4124739E-1,-3.138868E-2,2.0827965E-1,1.4107187E-2,3.163364E-1,4.941071E-2,7.0730937E-1,-2.4915285E-1,-2.0447576E-2,9.559365E-2,6.8830174E-1,4.722813E-1,9.986696E-1,-3.156981E-2,3.5844034E-1],"split_indices":[10,10,10,10,12,12,12,0,12,10,13,11,13,10,2,13,0,12,13,11,11,8,4,10,4,10,12,0,10,2,10,13,0,0,0,9,12,0,2,5,6,12,13,2,9,9,0,12,6,9,8,3,8,0,1,13,0,0,0,0,0,4,0,0,0,0,0,0,0,0,0,0,0,0,0,0,0,0,0,0,0,0,0,0,0,0,0,0,0,0,0,0,0,0,0,0,0,0,0,0,0,0,0,0,0,0,0,0,0,0,0,0,0],"split_type":[0,0,0,0,0,0,0,0,0,0,0,0,0,0,0,0,0,0,0,0,0,0,0,0,0,0,0,0,0,0,0,0,0,0,0,0,0,0,0,0,0,0,0,0,0,0,0,0,0,0,0,0,0,0,0,0,0,0,0,0,0,0,0,0,0,0,0,0,0,0,0,0,0,0,0,0,0,0,0,0,0,0,0,0,0,0,0,0,0,0,0,0,0,0,0,0,0,0,0,0,0,0,0,0,0,0,0,0,0,0,0,0,0],"sum_hessian":[2.843E3,1.97E3,8.73E2,1.392E3,5.78E2,6.82E2,1.91E2,1.173E3,2.19E2,4.09E2,1.69E2,4.41E2,2.41E2,1.28E2,6.3E1,1.163E3,1E1,1.25E2,9.4E1,2.35E2,1.74E2,1.42E2,2.7E1,3.57E2,8.4E1,2.14E2,2.7E1,1.06E2,2.2E1,1.3E1,5E1,1.153E3,1E1,1E0,9E0,6.4E1,6.1E1,3E0,9.1E1,1.38E2,9.7E1,1.22E2,5.2E1,6E0,1.36E2,1.7E1,1E1,2.62E2,9.5E1,2.5E1,5.9E1,1.51E2,6.3E1,2.3E1,4E0,1.03E2,3E0,7E0,1.5E1,2E0,1.1E1,4.5E1,5E0,1E0,1.152E3,4E0,6E0,6.1E1,3E0,4.2E1,1.9E1,2E0,1E0,7.7E1,1.4E1,2.2E1,1.16E2,3.6E1,6.1E1,6.8E1,5.4E1,9E0,4.3E1,3E0,3E0,1.21E2,1.5E1,1.2E1,5E0,8E0,2E0,1.25E2,1.37E2,5.6E1,3.9E1,1.6E1,9E0,5E1,9E0,1.28E2,2.3E1,2.3E1,4E1,8E0,1.5E1,3E0,1E0,6E0,9.7E1,7E0,4E0,1.3E1,3.2E1],"tree_param":{"num_deleted":"0","num_feature":"14","num_nodes":"113","size_leaf_vector":"1"}},{"base_weights":[9.049124E-3,-1.3118191E0,3.0833402E0,-1.9008051E0,1.5881409E-1,2.472441E0,7.330817E0,-2.0330522E0,-1.2671E0,6.070495E-1,-8.4807116E-1,3.1530683E0,1.2878213E0,9.979152E0,2.4573326E0,-2.0420187E0,-8.994029E-1,-1.3866327E0,-5.246678E-1,4.9876142E-2,1.5365897E0,-1.0415604E0,2.5827897E-1,2.681397E0,4.9401984E0,-7.990695E-2,2.2861633E0,8.189289E0,1.5396241E0,1.5601452E-1,4.422462E0,-2.0650299E-1,-1.8342298E0,4.6587306E-1,-1.9210893E-1,-1.6867318E0,-1.182056E0,-1.1514374E0,3.3075905E-1,-4.8869818E-1,6.976304E-1,6.0405326E-1,2.8942423E0,-1.4590825E0,-6.961373E-1,-8.5347176E-1,1.9529592E0,2.239839E0,4.4354258E0,5.098095E0,-1.7592186E-1,2.722211E0,-3.3862242E-1,8.602263E0,1.8945669E0,1.4542413E0,8.556953E0,2.288004E0,-5.650495E-1,7.6915736E0,7.5130796E-1,-1.8661912E-1,-8.8929966E-2,-1.3413239E-1,-2.0331477E-1,-1.3825826E-1,-4.9706556E-2,-1.2435269E-1,3.4517612E-2,5.608001E-2,-2.8749127E-2,-1.4510521E-1,-2.695237E-2,9.427743E-2,-1.661228E-1,3.34202E-2,2.9655975E-1,3.075288E-1,-1.5707171E-1,-1.708949E-1,-5.558231E-2,-2.3049738E-2,-1.670618E-1,-1.6809037E-2,-2.4647689E-1,2.8228217E-1,-1.3076146E-1,9.468581E-2,2.5090867E-1,4.8305154E-1,-2.0619321E-1,3.9625517E-1,5.94462E-1,5.71253E-1,-1.410614E-1,3.414671E-1,-4.0561277E-2,8.804594E-2,1.0682714E0,7.7173255E-2,2.85539E-1,4.2016158E-1,-3.393941E-1,9.259694E-1,3.6222607E-1,-8.913023E-2,4.704642E-1,1.10252194E-1,-7.629134E-2,1.0733825E0,3.3673933E-1,-2.0834528E-1,4.5697114E-1],"categories":[],"categories_nodes":[],"categories_segments":[],"categories_sizes":[],"default_left":[0,0,0,0,0,0,0,0,0,0,0,0,0,0,0,0,0,0,0,0,0,0,0,0,0,0,0,0,0,0,0,0,0,0,0,0,0,0,0,0,0,0,0,0,0,0,0,0,0,0,0,0,0,0,0,0,0,0,0,0,0,0,0,0,0,0,0,0,0,0,0,0,0,0,0,0,0,0,0,0,0,0,0,0,0,0,0,0,0,0,0,0,0,0,0,0,0,0,0,0,0,0,0,0,0,0,0,0,0,0,0,0,0],"id":3,"left_children":[1,3,5,7,9,11,13,15,17,19,21,23,25,27,29,31,33,35,37,39,41,43,45,47,49,51,53,55,-1,57,59,-1,61,-1,-1,63,65,67,69,71,73,75,77,79,81,83,85,87,89,91,-1,93,95,97,99,101,103,105,107,109,111,-1,-1,-1,-1,-1,-1,-1,-1,-1,-1,-1,-1,-1,-1,-1,-1,-1,-1,-1,-1,-1,-1,-1,-1,-1,-1,-1,-1,-1,-1,-1,-1,-1,-1,-1,-1,-1,-1,-1,-1,-1,-1,-1,-1,-1,-1,-1,-1,-1,-1,-1,-1],"loss_changes":[1.15527705E4,1.7240046E3,2.2004116E3,1.1651172E2,2.5776816E2,5.998467E2,1.3564863E3,1.0097168E1,2.1281189E1,2.044998E2,3.7944786E1,3.871494E2,3.7568433E2,5.429287E2,1.7568312E2,1.7773438E0,7.141521E1,1.1082947E1,1.968245E1,8.685915E1,1.8562866E2,2.0617538E1,5.2536465E1,2.8282837E2,1.1263452E2,8.57411E1,3.7696704E2,1.2127319E2,0E0,3.0501553E1,2.4625095E2,0E0,2.1155396E0,0E0,0E0,7.3238983E0,1.7169418E1,3.3235073E0,2.4367924E0,2.829449E1,6.6909485E1,5.572554E1,5.3332E1,1.4171631E1,3.773053E1,1.8359701E1,3.4889923E1,1.0345642E2,2.0248816E2,6.872534E1,0E0,1.3164282E2,2.8539946E1,1.3517773E2,1.6070203E2,6.753912E1,1.4331714E2,4.2609425E1,5.790409E0,1.0856268E2,1.2858762E2,0E0,0E0,0E0,0E0,0E0,0E0,0E0,0E0,0E0,0E0,0E0,0E0,0E0,0E0,0E0,0E0,0E0,0E0,0E0,0E0,0E0,0E0,0E0,0E0,0E0,0E0,0E0,0E0,0E0,0E0,0E0,0E0,0E0,0E0,0E0,0E0,0E0,0E0,0E0,0E0,0E0,0E0,0E0,0E0,0E0,0E0,0E0,0E0,0E0,0E0,0E0,0E0],"parents":[2147483647,0,0,1,1,2,2,3,3,4,4,5,5,6,6,7,7,8,8,9,9,10,10,11,11,12,12,13,13,14,14,15,15,16,16,17,17,18,18,19,19,20,20,21,21,22,22,23,23,24,24,25,25,26,26,27,27,29,29,30,30,32,32,35,35,36,36,37,37,38,38,39,39,40,40,41,41,42,42,43,43,44,44,45,45,46,46,47,47,48,48,49,49,51,51,52,52,53,53,54,54,55,55,56,56,57,57,58,58,59,59,60,60],"right_children":[2,4,6,8,10,12,14,16,18,20,22,24,26,28,30,32,34,36,38,40,42,44,46,48,50,52,54,56,-1,58,60,-1,62,-1,-1,64,66,68,70,72,74,76,78,80,82,84,86,88,90,92,-1,94,96,98,100,102,104,106,108,110,112,-1,-1,-1,-1,-1,-1,-1,-1,-1,-1,-1,-1,-1,-1,-1,-1,-1,-1,-1,-1,-1,-1,-1,-1,-1,-1,-1,-1,-1,-1,-1,-1,-1,-1,-1,-1,-1,-1,-1,-1,-1,-1,-1,-1,-1,-1,-1,-1,-1,-1,-1,-1],"split_conditions":[3.66E0,1.52E0,1.159E1,7.4E-1,2.85E0,5.7E0,1.07E1,5.0666666E-1,3.51E0,2.5E-1,8.325E-1,7.6825E0,6.818182E-2,1.833E1,2.9333332E-1,3.9E-1,5.4285717E-1,3.3333334E-1,1.16E0,2.5625E0,2.47E0,-4.054054E-2,1.5081967E0,2E-1,5.11E0,2.61E0,8E-2,2.3076923E-1,1.5396241E0,1.1935484E0,1.45E1,-2.0650299E-1,2.87E-1,4.6587306E-1,-1.9210893E-1,4.9E-1,1.3E0,1.8421052E-1,-4.918033E-2,4.868421E-1,2.5E0,6E-1,3.3725E0,2.0857143E0,4.8E0,3.17E0,2.5675675E-1,3.94E0,6.8E0,1.8666667E-1,-1.7592186E-1,1.3157895E-2,-3.026316E-1,5.263158E-2,6.403333E0,1.6666667E-1,6.5753424E-1,4.054054E-1,1.2026667E1,1.48E1,3.52E0,-1.8661912E-1,-8.8929966E-2,-1.3413239E-1,-2.0331477E-1,-1.3825826E-1,-4.9706556E-2,-1.2435269E-1,3.4517612E-2,5.608001E-2,-2.8749127E-2,-1.4510521E-1,-2.695237E-2,9.427743E-2,-1.661228E-1,3.34202E-2,2.9655975E-1,3.075288E-1,-1.5707171E-1,-1.708949E-1,-5.558231E-2,-2.3049738E-2,-1.670618E-1,-1.6809037E-2,-2.4647689E-1,2.8228217E-1,-1.3076146E-1,9.468581E-2,2.5090867E-1,4.8305154E-1,-2.0619321E-1,3.9625517E-1,5.94462E-1,5.71253E-1,-1.410614E-1,3.414671E-1,-4.0561277E-2,8.804594E-2,1.0682714E0,7.7173255E-2,2.85539E-1,4.2016158E-1,-3.393941E-1,9.259694E-1,3.6222607E-1,-8.913023E-2,4.704642E-1,1.10252194E-1,-7.629134E-2,1.0733825E0,3.3673933E-1,-2.0834528E-1,4.5697114E-1],"split_indices":[10,10,10,10,12,12,12,0,9,11,13,10,3,10,0,10,0,11,10,10,10,2,4,11,12,9,3,5,0,4,10,0,8,0,0,12,10,2,2,5,12,11,13,5,12,9,0,10,10,0,0,3,2,2,10,2,1,1,10,12,9,0,0,0,0,0,0,0,0,0,0,0,0,0,0,0,0,0,0,0,0,0,0,0,0,0,0,0,0,0,0,0,0,0,0,0,0,0,0,0,0,0,0,0,0,0,0,0,0,0,0,0,0],"split_type":[0,0,0,0,0,0,0,0,0,0,0,0,0,0,0,0,0,0,0,0,0,0,0,0,0,0,0,0,0,0,0,0,0,0,0,0,0,0,0,0,0,0,0,0,0,0,0,0,0,0,0,0,0,0,0,0,0,0,0,0,0,0,0,0,0,0,0,0,0,0,0,0,0,0,0,0,0,0,0,0,0,0,0,0,0,0,0,0,0,0,0,0,0,0,0,0,0,0,0,0,0,0,0,0,0,0,0,0,0,0,0,0,0],"sum_hessian":[2.843E3,1.989E3,8.54E2,1.42E3,5.69E2,7.48E2,1.06E2,1.173E3,2.47E2,3.94E2,1.75E2,4.74E2,2.74E2,6.8E1,3.8E1,1.163E3,1E1,2.12E2,3.5E1,2.47E2,1.47E2,1.49E2,2.6E1,3.77E2,9.7E1,1.16E2,1.58E2,5.3E1,1.5E1,1.8E1,2E1,1.039E3,1.24E2,1E0,9E0,8.3E1,1.29E2,2E1,1.5E1,1.35E2,1.12E2,8.8E1,5.9E1,6.6E1,8.3E1,1.6E1,1E1,3.03E2,7.4E1,9.5E1,2E0,9E0,1.07E2,8E0,1.5E2,3E0,5E1,4E0,1.4E1,1E1,1E1,1.19E2,5E0,4.4E1,3.9E1,9.9E1,3E1,1.9E1,1E0,1.1E1,4E0,2.4E1,1.11E2,1.02E2,1E1,8E1,8E0,5.7E1,2E0,5.1E1,1.5E1,5.7E1,2.6E1,1.2E1,4E0,8E0,2E0,5.3E1,2.5E2,7E1,4E0,4.3E1,5.2E1,5E0,4E0,1E0,1.06E2,2E0,6E0,7E1,8E1,2E0,1E0,4.3E1,7E0,2E0,2E0,1E0,1.3E1,5E0,5E0,6E0,4E0],"tree_param":{"num_deleted":"0","num_feature":"14","num_nodes":"113","size_leaf_vector":"1"}},{"base_weights":[1.0810178E-2,-1.1811839E0,2.7851465E0,-1.7804625E0,-8.4375385E-3,2.23012E0,6.644302E0,-1.8414586E0,-1.4112325E0,4.131796E-1,-5.7839924E-1,2.8407874E0,1.1672214E0,9.02339E0,2.26478E0,-1.850218E-1,-7.84575E-1,-1.5112216E0,-9.8278177E-1,-3.4761727E-1,1.0398794E0,-8.1472814E-1,7.452975E-1,2.4149039E0,4.454493E0,-6.566767E-2,2.0671005E0,7.395711E0,1.3952844E0,1.6227065E-1,4.0592036E0,4.4257942E-1,-1.7481914E-1,-1.5284095E0,-1.4235711E-1,-6.2554264E-1,-1.4572166E0,-6.727239E-1,2.1791445E-1,1.661997E-2,1.8029941E0,-1.4828573E0,-5.4816204E-1,1.8981093E0,-4.9379206E-1,2.1875093E0,5.4093432E0,4.5986056E0,-1.6419373E-1,2.493009E0,-3.0197415E-1,7.870517E0,1.7075123E0,6.504053E0,1.1131327E0,2.1354702E0,-5.0628054E-1,7.050609E0,6.987794E-1,-8.734279E-2,-1.5686676E-1,-3.7897076E-2,1.6543508E-2,5.5746537E-2,-8.2108974E-2,-1.6496792E-1,-4.6740916E-2,-8.668863E-2,-2.87064E-2,9.720683E-2,-2.1821903E-2,-9.414115E-3,1.6198863E-1,9.6072696E-2,2.6860806E-1,-2.1338642E-1,-9.862219E-2,-1.6131024E-1,-4.166302E-2,8.175207E-2,3.822023E-1,-1.3748887E-1,2.0849471E-1,1.7382793E-1,3.0903473E-1,-1.329797E-1,5.732101E-1,4.2578942E-1,7.814197E-1,5.2364856E-1,-1.297765E-1,-2.552253E-1,-1.9088406E-2,2.0451884E-1,1.0442317E0,7.649098E-2,2.7041984E-1,6.8078727E-1,-3.583914E-1,-8.318822E-2,4.3909988E-1,-1.2612651E-1,-2.661741E-4,9.8393404E-1,3.086777E-1,-1.904871E-1,4.204134E-1],"categories":[],"categories_nodes":[],"categories_segments":[],"categories_sizes":[],"default_left":[0,0,0,0,0,0,0,0,0,0,0,0,0,0,0,0,0,0,0,0,0,0,0,0,0,0,0,0,0,0,0,0,0,0,0,0,0,0,0,0,0,0,0,0,0,0,0,0,0,0,0,0,0,0,0,0,0,0,0,0,0,0,0,0,0,0,0,0,0,0,0,0,0,0,0,0,0,0,0,0,0,0,0,0,0,0,0,0,0,0,0,0,0,0,0,0,0,0,0,0,0,0,0,0,0,0,0],"id":4,"left_children":[1,3,5,7,9,11,13,15,17,19,21,23,25,27,29,-1,31,33,35,37,39,41,43,45,47,49,51,53,-1,55,57,-1,-1,59,61,63,65,67,69,71,73,75,77,79,81,83,85,87,-1,89,91,93,95,97,-1,99,101,103,105,-1,-1,-1,-1,-1,-1,-1,-1,-1,-1,-1,-1,-1,-1,-1,-1,-1,-1,-1,-1,-1,-1,-1,-1,-1,-1,-1,-1,-1,-1,-1,-1,-1,-1,-1,-1,-1,-1,-1,-1,-1,-1,-1,-1,-1,-1,-1,-1],"loss_changes":[9.408377E3,1.39856E3,1.8165352E3,2.70625E1,1.6220497E2,4.8284302E2,1.0944253E3,8.981689E0,6.6973267E0,1.8535649E2,9.038882E1,3.1568677E2,3.0523477E2,4.5043506E2,1.4648021E2,0E0,6.29659E1,3.3822021E0,5.698429E0,3.2505623E1,1.6629416E2,4.2643707E1,6.3788513E1,2.4555493E2,9.3650635E1,7.149475E1,3.1836877E2,1.0746948E2,0E0,2.6145658E1,2.0617343E2,0E0,0E0,2.6114807E0,2.8117853E-1,6.009739E0,2.2769394E0,8.137779E0,2.1591387E1,1.648982E1,8.816235E1,2.0204132E1,2.398087E1,4.4691475E1,5.2853172E1,1.3779846E2,6.4175415E1,7.190442E1,0E0,1.1079474E2,2.651105E1,1.1347766E2,1.3979282E2,1.6538525E2,0E0,3.711754E1,5.7000093E0,9.122278E1,1.0840224E2,0E0,0E0,0E0,0E0,0E0,0E0,0E0,0E0,0E0,0E0,0E0,0E0,0E0,0E0,0E0,0E0,0E0,0E0,0E0,0E0,0E0,0E0,0E0,0E0,0E0,0E0,0E0,0E0,0E0,0E0,0E0,0E0,0E0,0E0,0E0,0E0,0E0,0E0,0E0,0E0,0E0,0E0,0E0,0E0,0E0,0E0,0E0,0E0],"parents":[2147483647,0,0,1,1,2,2,3,3,4,4,5,5,6,6,7,7,8,8,9,9,10,10,11,11,12,12,13,13,14,14,16,16,17,17,18,18,19,19,20,20,21,21,22,22,23,23,24,24,25,25,26,26,27,27,29,29,30,30,33,33,34,34,35,35,36,36,37,37,38,38,39,39,40,40,41,41,42,42,43,43,44,44,45,45,46,46,47,47,49,49,50,50,51,51,52,52,53,53,55,55,56,56,57,57,58,58],"right_children":[2,4,6,8,10,12,14,16,18,20,22,24,26,28,30,-1,32,34,36,38,40,42,44,46,48,50,52,54,-1,56,58,-1,-1,60,62,64,66,68,70,72,74,76,78,80,82,84,86,88,-1,90,92,94,96,98,-1,100,102,104,106,-1,-1,-1,-1,-1,-1,-1,-1,-1,-1,-1,-1,-1,-1,-1,-1,-1,-1,-1,-1,-1,-1,-1,-1,-1,-1,-1,-1,-1,-1,-1,-1,-1,-1,-1,-1,-1,-1,-1,-1,-1,-1,-1,-1,-1,-1,-1,-1],"split_conditions":[3.66E0,1.2066667E0,1.159E1,6.1333334E-1,1.8E0,5.7E0,1.07E1,5.0666666E-1,6E-2,2.07E0,8.325E-1,7.6825E0,6.818182E-2,1.833E1,2.9333332E-1,-1.850218E-1,5.4285717E-1,2.5757575E-1,7.7E-1,3.3333334E-1,1E-2,7.9591835E-1,-3.2786883E-2,4E-1,5.11E0,2.61E0,8E-2,4.177215E-1,1.3952844E0,1.1935484E0,1.45E1,4.4257942E-1,-1.7481914E-1,3.3333335E-2,2.753623E-1,7.8431375E-2,2.57E-1,1.82E0,4.7E-1,2E-1,1.754386E-2,6.142857E-1,1.6225E0,3.01E0,1.9178082E-1,1.92E0,5.777778E-1,3.173913E0,-1.6419373E-1,1.3157895E-2,2.638889E-1,5.68E0,7.254902E-1,4.0789473E-1,1.1131327E0,4.054054E-1,7.5641024E-1,1.48E1,3.52E0,-8.734279E-2,-1.5686676E-1,-3.7897076E-2,1.6543508E-2,5.5746537E-2,-8.2108974E-2,-1.6496792E-1,-4.6740916E-2,-8.668863E-2,-2.87064E-2,9.720683E-2,-2.1821903E-2,-9.414115E-3,1.6198863E-1,9.6072696E-2,2.6860806E-1,-2.1338642E-1,-9.862219E-2,-1.6131024E-1,-4.166302E-2,8.175207E-2,3.822023E-1,-1.3748887E-1,2.0849471E-1,1.7382793E-1,3.0903473E-1,-1.329797E-1,5.732101E-1,4.2578942E-1,7.814197E-1,5.2364856E-1,-1.297765E-1,-2.552253E-1,-1.9088406E-2,2.0451884E-1,1.0442317E0,7.649098E-2,2.7041984E-1,6.8078727E-1,-3.583914E-1,-8.318822E-2,4.3909988E-1,-1.2612651E-1,-2.661741E-4,9.8393404E-1,3.086777E-1,-1.904871E-1,4.204134E-1],"split_indices":[10,10,10,10,12,12,12,0,2,10,13,10,3,10,0,0,0,3,12,11,12,5,2,11,12,9,3,0,0,4,10,0,0,1,0,2,8,10,12,11,3,6,10,9,2,4,4,4,0,3,5,10,5,0,0,1,6,12,9,0,0,0,0,0,0,0,0,0,0,0,0,0,0,0,0,0,0,0,0,0,0,0,0,0,0,0,0,0,0,0,0,0,0,0,0,0,0,0,0,0,0,0,0,0,0,0,0],"split_type":[0,0,0,0,0,0,0,0,0,0,0,0,0,0,0,0,0,0,0,0,0,0,0,0,0,0,0,0,0,0,0,0,0,0,0,0,0,0,0,0,0,0,0,0,0,0,0,0,0,0,0,0,0,0,0,0,0,0,0,0,0,0,0,0,0,0,0,0,0,0,0,0,0,0,0,0,0,0,0,0,0,0,0,0,0,0,0,0,0,0,0,0,0,0,0,0,0,0,0,0,0,0,0,0,0,0,0],"sum_hessian":[2.843E3,1.989E3,8.54E2,1.316E3,6.73E2,7.48E2,1.06E2,1.126E3,1.9E2,3.87E2,2.86E2,4.74E2,2.74E2,6.8E1,3.8E1,1.116E3,1E1,1.52E2,3.8E1,1.75E2,2.12E2,2.43E2,4.3E1,3.77E2,9.7E1,1.16E2,1.58E2,5.3E1,1.5E1,1.8E1,2E1,1E0,9E0,1.5E2,2E0,2.3E1,1.5E1,1.11E2,6.4E1,9.1E1,1.21E2,6.8E1,1.75E2,2.2E1,2.1E1,3.52E2,2.5E1,9.5E1,2E0,9E0,1.07E2,8E0,1.5E2,4.5E1,8E0,4E0,1.4E1,1E1,1E1,1E1,1.4E2,1E0,1E0,3E0,2E1,1.2E1,3E0,7.3E1,3.8E1,2.3E1,4.1E1,8.6E1,5E0,6.3E1,5.8E1,2.8E1,4E1,1.8E1,1.57E2,1.5E1,7E0,1.6E1,5E0,2.37E2,1.15E2,1E0,2.4E1,8.8E1,7E0,5E0,4E0,4E0,1.03E2,3E0,5E0,7.8E1,7.2E1,4.4E1,1E0,2E0,2E0,5E0,9E0,5E0,5E0,6E0,4E0],"tree_param":{"num_deleted":"0","num_feature":"14","num_nodes":"107","size_leaf_vector":"1"}},{"base_weights":[1.2661823E-2,-1.2545152E0,2.1497397E0,-1.6027359E0,-2.760872E-1,1.5260494E0,4.9581428E0,-1.6572393E0,-1.272746E0,1.337843E-1,-7.798336E-1,2.0747225E0,6.296381E-1,6.2767105E0,2.222934E0,-1.6653618E0,-6.817756E-1,-1.2942396E0,5.5639505E-2,-4.3723172E-1,6.1136967E-1,-8.477968E-1,1.3219215E0,1.248112E0,2.621079E0,-1.004943E0,1.1375521E0,5.100348E0,1.1476454E1,3.6546633E0,8.5215354E-1,-1.6683434E-1,-1.0434988E0,4.2045045E-1,-1.5908542E-1,-1.1469054E0,-1.5106302E0,1.750153E-2,-1.5124393E-2,-5.5399644E-1,1.2521281E0,-5.248712E-2,1.1885675E0,-8.812382E-1,1.69767E0,1.484344E-1,1.7369343E-2,6.0865605E-1,2.939399E0,2.4382443E0,5.4181027E0,-1.3285835E0,7.403534E-1,7.5459814E-1,3.5012486E0,4.764582E0,1.2555169E0,7.7052754E-1,1.2644764E0,3.6404535E-1,5.446301E0,-2.0939896E-1,3.824177E0,-2.4505276E-2,-1.4735557E-1,-1.2690663E-1,-5.9777405E-2,-1.0190691E-1,-1.6099997E-1,-9.482911E-2,-3.9817777E-2,7.667022E-2,2.3250549E-1,6.2461156E-2,-2.951929E-2,5.6894798E-2,2.3582609E-1,-6.662495E-2,-1.4202225E-1,2.1817398E-1,3.647652E-2,2.8171724E-2,1.599015E-1,-1.4768647E-1,3.1202656E-1,2.6278096E-1,-2.4092849E-1,2.5209695E-1,7.29593E-1,-1.47155E-1,3.7016843E-2,-1.7562836E-1,2.0451124E-1,2.2309197E-2,1.8145545E-1,3.0541077E-2,5.1553637E-1,-1.4662096E-2,5.0667644E-1,3.3463192E-1,-1.0018592E-1,6.591031E-1,-7.803752E-2,6.851179E-2,-2.3077016E-1,1.640568E-1,5.242951E-1],"categories":[],"categories_nodes":[],"categories_segments":[],"categories_sizes":[],"default_left":[0,0,0,0,0,0,0,0,0,0,0,0,0,0,0,0,0,0,0,0,0,0,0,0,0,0,0,0,0,0,0,0,0,0,0,0,0,0,0,0,0,0,0,0,0,0,0,0,0,0,0,0,0,0,0,0,0,0,0,0,0,0,0,0,0,0,0,0,0,0,0,0,0,0,0,0,0,0,0,0,0,0,0,0,0,0,0,0,0,0,0,0,0,0,0,0,0,0,0,0,0,0,0,0,0,0,0],"id":5,"left_children":[1,3,5,7,9,11,13,15,17,19,21,23,25,27,29,31,33,35,37,39,41,43,45,47,49,51,53,55,57,59,61,-1,63,-1,-1,65,67,-1,-1,69,71,73,75,77,79,-1,-1,81,83,85,87,89,91,93,95,97,-1,-1,-1,99,101,103,105,-1,-1,-1,-1,-1,-1,-1,-1,-1,-1,-1,-1,-1,-1,-1,-1,-1,-1,-1,-1,-1,-1,-1,-1,-1,-1,-1,-1,-1,-1,-1,-1,-1,-1,-1,-1,-1,-1,-1,-1,-1,-1,-1,-1],"loss_changes":[7.704408E3,6.080637E2,1.8473501E3,2.1577393E1,9.714584E1,4.256079E2,6.7850635E2,7.7941895E0,5.5253906E0,7.117162E1,3.1260376E1,2.397024E2,2.7594824E2,7.3053125E2,1.2249121E2,3.3032227E-1,5.5550888E1,4.2612E0,1.2525749E-1,2.4167328E1,5.4473476E1,1.8946472E1,1.0476646E0,2.3181567E2,1.5196924E2,4.560665E1,2.263703E2,2.0800879E2,3.904541E0,1.807807E2,1.0806938E2,0E0,2.3859205E0,0E0,0E0,7.022949E0,1.9250641E0,0E0,0E0,6.503525E0,2.3839874E0,1.1194878E1,5.3740395E1,2.2576508E1,1.1398344E0,0E0,0E0,5.0707844E1,5.173474E1,2.8660205E2,8.4973145E1,1.681665E1,4.5939423E1,1.22973946E2,1.8344543E2,1.5508691E2,0E0,0E0,0E0,5.2234562E1,1.4770062E2,5.038219E1,1.9281006E1,0E0,0E0,0E0,0E0,0E0,0E0,0E0,0E0,0E0,0E0,0E0,0E0,0E0,0E0,0E0,0E0,0E0,0E0,0E0,0E0,0E0,0E0,0E0,0E0,0E0,0E0,0E0,0E0,0E0,0E0,0E0,0E0,0E0,0E0,0E0,0E0,0E0,0E0,0E0,0E0,0E0,0E0,0E0,0E0],"parents":[2147483647,0,0,1,1,2,2,3,3,4,4,5,5,6,6,7,7,8,8,9,9,10,10,11,11,12,12,13,13,14,14,15,15,16,16,17,17,18,18,19,19,20,20,21,21,22,22,23,23,24,24,25,25,26,26,27,27,28,28,29,29,30,30,32,32,35,35,36,36,39,39,40,40,41,41,42,42,43,43,44,44,47,47,48,48,49,49,50,50,51,51,52,52,53,53,54,54,55,55,59,59,60,60,61,61,62,62],"right_children":[2,4,6,8,10,12,14,16,18,20,22,24,26,28,30,32,34,36,38,40,42,44,46,48,50,52,54,56,58,60,62,-1,64,-1,-1,66,68,-1,-1,70,72,74,76,78,80,-1,-1,82,84,86,88,90,92,94,96,98,-1,-1,-1,100,102,104,106,-1,-1,-1,-1,-1,-1,-1,-1,-1,-1,-1,-1,-1,-1,-1,-1,-1,-1,-1,-1,-1,-1,-1,-1,-1,-1,-1,-1,-1,-1,-1,-1,-1,-1,-1,-1,-1,-1,-1,-1,-1,-1,-1,-1],"split_conditions":[2.8E0,1.2066667E0,8.996667E0,6.1333334E-1,1.46E0,4.7E0,1.07E1,5.0666666E-1,2.769231E-1,1E-2,3.4871795E0,3.94E0,4.02E0,1.68E1,1.48E1,2.975E-1,5.4285717E-1,8E-1,5.0666666E-1,2E-1,1.89E0,3.66E0,1.6981132E-1,2.5E-1,4E-1,1.4625E0,2.975E-1,5.4285717E-1,1.833E1,1.9605263E0,3.31E0,-1.6683434E-1,1.724138E-2,4.2045045E-1,-1.5908542E-1,5.6338027E-2,1.88E-1,1.750153E-2,-1.5124393E-2,1.52E0,6E-1,3.4E-1,2.03125E-1,3.18E0,4.5454547E-2,1.484344E-1,1.7369343E-2,1.7894737E0,5.862069E-1,2.6075E0,4.61E0,2.7068965E0,1.3235295E-1,6.9E0,2.86E0,-2.255E0,1.2555169E0,7.7052754E-1,1.2644764E0,1.0815E1,2.7272728E-1,3.18E0,5.675676E-1,-2.4505276E-2,-1.4735557E-1,-1.2690663E-1,-5.9777405E-2,-1.0190691E-1,-1.6099997E-1,-9.482911E-2,-3.9817777E-2,7.667022E-2,2.3250549E-1,6.2461156E-2,-2.951929E-2,5.6894798E-2,2.3582609E-1,-6.662495E-2,-1.4202225E-1,2.1817398E-1,3.647652E-2,2.8171724E-2,1.599015E-1,-1.4768647E-1,3.1202656E-1,2.6278096E-1,-2.4092849E-1,2.5209695E-1,7.29593E-1,-1.47155E-1,3.7016843E-2,-1.7562836E-1,2.0451124E-1,2.2309197E-2,1.8145545E-1,3.0541077E-2,5.1553637E-1,-1.4662096E-2,5.0667644E-1,3.3463192E-1,-1.0018592E-1,6.591031E-1,-7.803752E-2,6.851179E-2,-2.3077016E-1,1.640568E-1,5.242951E-1],"split_indices":[10,10,10,10,12,12,12,0,3,12,5,10,10,10,12,13,0,12,0,11,10,9,0,11,11,13,13,0,10,4,9,0,0,0,0,2,8,0,0,10,11,12,1,9,0,0,0,5,4,13,10,5,1,10,9,13,0,0,0,10,2,9,1,0,0,0,0,0,0,0,0,0,0,0,0,0,0,0,0,0,0,0,0,0,0,0,0,0,0,0,0,0,0,0,0,0,0,0,0,0,0,0,0,0,0,0,0],"split_type":[0,0,0,0,0,0,0,0,0,0,0,0,0,0,0,0,0,0,0,0,0,0,0,0,0,0,0,0,0,0,0,0,0,0,0,0,0,0,0,0,0,0,0,0,0,0,0,0,0,0,0,0,0,0,0,0,0,0,0,0,0,0,0,0,0,0,0,0,0,0,0,0,0,0,0,0,0,0,0,0,0,0,0,0,0,0,0,0,0,0,0,0,0,0,0,0,0,0,0,0,0,0,0,0,0,0,0],"sum_hessian":[2.843E3,1.785E3,1.058E3,1.316E3,4.69E2,8.67E2,1.91E2,1.126E3,1.9E2,2.59E2,2.1E2,5.37E2,3.3E2,1.28E2,6.3E1,1.116E3,1E1,1.87E2,3E0,1.18E2,1.41E2,2.04E2,6E0,2.15E2,3.22E2,7.8E1,2.52E2,1.06E2,2.2E1,3E1,3.3E1,1.109E3,7E0,1E0,9E0,1.15E2,7.2E1,2E0,1E0,1.11E2,7E0,6.6E1,7.5E1,2.02E2,2E0,5E0,1E0,1.57E2,5.8E1,3.04E2,1.8E1,6.6E1,1.2E1,2.18E2,3.4E1,1.03E2,3E0,7E0,1.5E1,1.1E1,1.9E1,2.5E1,8E0,3E0,4E0,9.3E1,2.2E1,1.4E1,5.8E1,3E1,8.1E1,6E0,1E0,1.7E1,4.9E1,5E1,2.5E1,1.46E2,5.6E1,1E0,1E0,1.19E2,3.8E1,2E0,5.6E1,2.93E2,1.1E1,8E0,1E1,6.1E1,5E0,4E0,8E0,1.46E2,7.2E1,1.2E1,2.2E1,6E0,9.7E1,3E0,8E0,1.6E1,3E0,1.8E1,7E0,4E0,4E0],"tree_param":{"num_deleted":"0","num_feature":"14","num_nodes":"107","size_leaf_vector":"1"}},{"base_weights":[1.3975132E-2,-1.0690646E0,2.0495934E0,-1.4428606E0,-1.5712681E-1,1.626656E0,5.5167065E0,-1.491584E0,-1.1478128E0,2.3974028E-1,-6.558632E-1,2.1686964E0,7.965584E-1,7.4646425E0,1.9289036E0,-1.4991288E0,-5.898376E-1,-1.5189979E0,-1.0606729E0,-3.3230096E-1,7.5630754E-1,-7.1547E-1,2.2887518E0,1.8185638E0,3.7638495E0,-1.0083868E-1,1.70485E0,6.1428013E0,1.1459317E0,9.368203E-2,3.4974895E0,-1.5016593E-1,-9.6063143E-1,3.9942795E-1,-1.4476773E-1,-1.1990108E0,-2.0790608E-1,-1.1984047E0,-8.0925167E-1,-4.1734186E-1,1.1655624E0,1.15843356E-1,1.5092402E0,-1.3301641E0,-5.472873E-1,3.2693133E-1,5.452733E-2,1.464292E0,3.1388683E0,2.3535793E-1,3.9572618E0,-8.0486727E-1,4.8810104E-1,2.2712953E-1,2.5005474E0,5.687461E-1,6.459535E0,-9.0170246E-1,1.2998539E0,6.1579022E0,5.191232E-1,-2.2667382E-2,-1.3556713E-1,-1.283125E-1,3.6780585E-2,-1.3065492E-1,-7.555946E-2,-5.219648E-2,-1.3865943E-1,-7.586073E-2,-2.3649773E-2,7.00985E-2,2.2088023E-1,6.813815E-2,-2.2558577E-2,6.474888E-2,2.6558873E-1,-1.8655658E-1,-7.6419465E-2,-6.919202E-2,5.6891073E-2,6.454523E-2,1.8709297E-1,3.3943924E-1,-1.0893762E-1,2.7534378E-1,-1.7120415E-1,3.5988235E-1,8.375592E-1,-1.6340625E-2,-2.0132254E-1,9.5357776E-2,-8.196846E-2,3.1229112E-1,-1.9820472E-2,9.827904E-1,1.997818E-1,3.3036453E-1,-3.8179755E-1,8.124262E-1,4.5463642E-1,1.0976217E-1,-1.21139705E-1,-4.72188E-5,3.9006636E-1,6.9751024E-1,-1.00705005E-1,-1.7502798E-1,3.5924628E-1],"categories":[],"categories_nodes":[],"categories_segments":[],"categories_sizes":[],"default_left":[0,0,0,0,0,0,0,0,0,0,0,0,0,0,0,0,0,0,0,0,0,0,0,0,0,0,0,0,0,0,0,0,0,0,0,0,0,0,0,0,0,0,0,0,0,0,0,0,0,0,0,0,0,0,0,0,0,0,0,0,0,0,0,0,0,0,0,0,0,0,0,0,0,0,0,0,0,0,0,0,0,0,0,0,0,0,0,0,0,0,0,0,0,0,0,0,0,0,0,0,0,0,0,0,0,0,0,0,0],"id":6,"left_children":[1,3,5,7,9,11,13,15,17,19,21,23,25,27,29,31,33,35,37,39,41,43,45,47,49,51,53,55,-1,57,59,-1,61,-1,-1,63,-1,65,67,69,71,73,75,77,79,-1,-1,81,83,85,87,89,91,93,95,97,99,101,103,105,107,-1,-1,-1,-1,-1,-1,-1,-1,-1,-1,-1,-1,-1,-1,-1,-1,-1,-1,-1,-1,-1,-1,-1,-1,-1,-1,-1,-1,-1,-1,-1,-1,-1,-1,-1,-1,-1,-1,-1,-1,-1,-1,-1,-1,-1,-1,-1,-1],"loss_changes":[6.2722305E3,6.3278516E2,1.4398013E3,1.7220703E1,1.0723849E2,3.951255E2,7.334043E2,6.7834473E0,4.566742E0,8.9491646E1,4.376214E1,2.908435E2,2.8545624E2,2.9394995E2,1.1194176E2,7.9589844E-2,4.9039238E1,3.6004105E0,4.501541E0,1.8829111E1,7.649915E1,2.3669907E1,6.76527E0,2.007445E2,6.3901733E1,7.378244E1,2.0402444E2,9.16626E1,0E0,2.3983576E1,1.6320065E2,0E0,2.0122447E0,0E0,0E0,3.6349297E0,0E0,3.801529E0,9.0621605E0,8.275661E0,2.328988E0,1.6952644E1,7.041345E1,1.3725395E1,3.058274E1,0E0,0E0,1.1466644E2,1.0309625E2,3.4136246E1,1.12390625E2,6.2455307E1,5.982978E1,7.6982834E1,3.966211E2,6.06022E1,1.25494385E2,8.140635E0,3.043895E1,7.143149E1,8.300892E1,0E0,0E0,0E0,0E0,0E0,0E0,0E0,0E0,0E0,0E0,0E0,0E0,0E0,0E0,0E0,0E0,0E0,0E0,0E0,0E0,0E0,0E0,0E0,0E0,0E0,0E0,0E0,0E0,0E0,0E0,0E0,0E0,0E0,0E0,0E0,0E0,0E0,0E0,0E0,0E0,0E0,0E0,0E0,0E0,0E0,0E0,0E0,0E0],"parents":[2147483647,0,0,1,1,2,2,3,3,4,4,5,5,6,6,7,7,8,8,9,9,10,10,11,11,12,12,13,13,14,14,15,15,16,16,17,17,18,18,19,19,20,20,21,21,22,22,23,23,24,24,25,25,26,26,27,27,29,29,30,30,32,32,35,35,37,37,38,38,39,39,40,40,41,41,42,42,43,43,44,44,47,47,48,48,49,49,50,50,51,51,52,52,53,53,54,54,55,55,56,56,57,57,58,58,59,59,60,60],"right_children":[2,4,6,8,10,12,14,16,18,20,22,24,26,28,30,32,34,36,38,40,42,44,46,48,50,52,54,56,-1,58,60,-1,62,-1,-1,64,-1,66,68,70,72,74,76,78,80,-1,-1,82,84,86,88,90,92,94,96,98,100,102,104,106,108,-1,-1,-1,-1,-1,-1,-1,-1,-1,-1,-1,-1,-1,-1,-1,-1,-1,-1,-1,-1,-1,-1,-1,-1,-1,-1,-1,-1,-1,-1,-1,-1,-1,-1,-1,-1,-1,-1,-1,-1,-1,-1,-1,-1,-1,-1,-1,-1],"split_conditions":[3.06E0,1.2066667E0,1.159E1,6.1333334E-1,1.46E0,4.9E0,1.07E1,5.0666666E-1,3.3333334E-1,1E-2,3.66E0,7.6825E0,5.68E0,1.833E1,2.9333332E-1,2.975E-1,5.4285717E-1,2.2950819E-1,9.3E-1,2E-1,2.0933332E0,6.5625E-1,-1.0344828E-1,2.5E-1,-4.09E0,4.2533336E0,6.818182E-2,2.3076923E-1,1.1459317E0,1.96E1,1.45E1,-1.5016593E-1,1.724138E-2,3.9942795E-1,-1.4476773E-1,2.1666667E-1,-2.0790608E-1,3.26E0,7.5E-1,1.82E0,6E-1,4.7E-1,2.2058824E-1,2.1568628E-1,3.5135135E-1,3.2693133E-1,5.452733E-2,3.94E0,6.403333E0,3.1428573E-1,3.173913E0,3.21E0,9.21E0,2.58E0,8E-2,1.6666667E-1,3.22E0,1.2026667E1,4.054054E-1,3.611111E-1,3.52E0,-2.2667382E-2,-1.3556713E-1,-1.283125E-1,3.6780585E-2,-1.3065492E-1,-7.555946E-2,-5.219648E-2,-1.3865943E-1,-7.586073E-2,-2.3649773E-2,7.00985E-2,2.2088023E-1,6.813815E-2,-2.2558577E-2,6.474888E-2,2.6558873E-1,-1.8655658E-1,-7.6419465E-2,-6.919202E-2,5.6891073E-2,6.454523E-2,1.8709297E-1,3.3943924E-1,-1.0893762E-1,2.7534378E-1,-1.7120415E-1,3.5988235E-1,8.375592E-1,-1.6340625E-2,-2.0132254E-1,9.5357776E-2,-8.196846E-2,3.1229112E-1,-1.9820472E-2,9.827904E-1,1.997818E-1,3.3036453E-1,-3.8179755E-1,8.124262E-1,4.5463642E-1,1.0976217E-1,-1.21139705E-1,-4.72188E-5,3.9006636E-1,6.9751024E-1,-1.00705005E-1,-1.7502798E-1,3.5924628E-1],"split_indices":[10,10,10,10,12,12,12,0,11,12,9,10,10,10,0,13,0,1,10,11,10,5,2,11,13,10,3,5,0,12,10,0,0,0,0,1,0,9,11,10,11,12,1,1,1,0,0,10,10,3,4,9,12,9,3,2,9,10,1,3,9,0,0,0,0,0,0,0,0,0,0,0,0,0,0,0,0,0,0,0,0,0,0,0,0,0,0,0,0,0,0,0,0,0,0,0,0,0,0,0,0,0,0,0,0,0,0,0,0],"split_type":[0,0,0,0,0,0,0,0,0,0,0,0,0,0,0,0,0,0,0,0,0,0,0,0,0,0,0,0,0,0,0,0,0,0,0,0,0,0,0,0,0,0,0,0,0,0,0,0,0,0,0,0,0,0,0,0,0,0,0,0,0,0,0,0,0,0,0,0,0,0,0,0,0,0,0,0,0,0,0,0,0,0,0,0,0,0,0,0,0,0,0,0,0,0,0,0,0,0,0,0,0,0,0,0,0,0,0,0,0],"sum_hessian":[2.843E3,1.856E3,9.87E2,1.316E3,5.4E2,8.81E2,1.06E2,1.126E3,1.9E2,3.01E2,2.39E2,5.32E2,3.49E2,6.8E1,3.8E1,1.116E3,1E1,3.3E1,1.57E2,1.43E2,1.58E2,2.35E2,4E0,4.38E2,9.4E1,1.76E2,1.73E2,5.3E1,1.5E1,1.8E1,2E1,1.109E3,7E0,1E0,9E0,2.3E1,1E1,9.9E1,5.8E1,1.36E2,7E0,8.6E1,7.2E1,4.9E1,1.86E2,2E0,2E0,3.47E2,9.1E1,5E0,8.9E1,8E1,9.6E1,6.1E1,1.12E2,3E0,5E1,1E1,8E0,1E1,1E1,3E0,4E0,2.2E1,1E0,7.8E1,2.1E1,4E1,1.8E1,4.6E1,9E1,6E0,1E0,3.2E1,5.4E1,4.2E1,3E1,2.4E1,2.5E1,1.65E2,2.1E1,1.16E2,2.31E2,8.6E1,5E0,2E0,3E0,8.4E1,5E0,5.3E1,2.7E1,7.1E1,2.5E1,7E0,5.4E1,6E0,1.06E2,2E0,1E0,2.5E1,2.5E1,1E0,9E0,6E0,2E0,9E0,1E0,6E0,4E0],"tree_param":{"num_deleted":"0","num_feature":"14","num_nodes":"109","size_leaf_vector":"1"}},{"base_weights":[1.4862796E-2,-8.2367516E-1,2.162089E0,-1.2394207E0,1.8508549E-1,1.76304E0,5.3661904E0,-1.3231548E0,-7.630909E-1,5.4565394E-1,-5.920597E-1,2.143273E0,6.918409E-1,7.218099E0,9.1491073E-1,-1.3294176E0,-5.077029E-1,-5.25867E-1,-1.202527E0,9.784764E-2,1.3602954E0,-7.9268897E-1,3.1908968E-1,1.5688163E0,3.1314254E0,-5.127749E-1,1.3630974E0,5.986427E0,1.0385007E1,9.445557E-1,2.2351834E-1,-1.3578033E-1,-1.1599087E0,3.7945655E-1,-1.3173863E-1,-9.2264205E-1,-1.6863881E-1,-1.4403305E0,-7.67455E-1,-1.509446E-1,8.979584E-1,8.082019E-1,2.4591467E0,1.318206E0,-8.859128E-1,2.7640476E0,-3.908658E-1,1.2723656E0,3.3519862E0,2.9661155E0,1.0159467E0,3.905719E-1,-6.3701683E-1,-1.6268332E-1,2.2370849E0,6.601712E0,2.1616943E0,8.356007E-1,1.4383005E0,-8.5138434E-1,2.3484883E0,-1.2734061E-1,-9.411343E-2,-1.4283997E-1,-6.97381E-2,-1.3584699E-1,5.0249244E-3,-1.4794697E-1,1.9960476E-2,-1.0425042E-1,-1.4061098E-2,-2.938724E-2,6.83068E-2,2.4423253E-2,2.5187048E-1,6.0804546E-2,2.508774E-1,1.642266E-1,3.9902666E-1,-1.4315546E-2,1.9313817E-1,-1.2148038E-1,-2.9574087E-2,3.1969512E-1,-1.3313807E-2,9.6941255E-2,-8.904544E-2,7.5793296E-2,2.623739E-1,8.199747E-2,4.75946E-1,2.7220556E-1,5.822432E-1,5.6985784E-2,-9.10696E-2,-7.9576164E-2,1.6445956E-1,1.5234454E-1,7.4597555E-1,-3.6270767E-1,6.9569916E-1,-2.9685625E-1,8.034092E-1,5.370009E-2,-1.286423E-1,4.215272E-1,7.125511E-2],"categories":[],"categories_nodes":[],"categories_segments":[],"categories_sizes":[],"default_left":[0,0,0,0,0,0,0,0,0,0,0,0,0,0,0,0,0,0,0,0,0,0,0,0,0,0,0,0,0,0,0,0,0,0,0,0,0,0,0,0,0,0,0,0,0,0,0,0,0,0,0,0,0,0,0,0,0,0,0,0,0,0,0,0,0,0,0,0,0,0,0,0,0,0,0,0,0,0,0,0,0,0,0,0,0,0,0,0,0,0,0,0,0,0,0,0,0,0,0,0,0,0,0,0,0,0,0],"id":7,"left_children":[1,3,5,7,9,11,13,15,17,19,21,23,25,27,29,31,33,35,37,39,41,43,45,47,49,51,53,55,57,-1,59,-1,61,-1,-1,63,65,67,69,71,73,75,77,79,81,83,85,87,89,91,-1,-1,93,95,97,99,101,-1,-1,103,105,-1,-1,-1,-1,-1,-1,-1,-1,-1,-1,-1,-1,-1,-1,-1,-1,-1,-1,-1,-1,-1,-1,-1,-1,-1,-1,-1,-1,-1,-1,-1,-1,-1,-1,-1,-1,-1,-1,-1,-1,-1,-1,-1,-1,-1,-1],"loss_changes":[5.12249E3,8.582964E2,1.01213525E3,5.678369E1,1.6789104E2,2.8851855E2,7.18812E2,5.6120605E0,2.2197235E1,1.4907071E2,3.498555E1,2.93104E2,1.5271692E2,1.7966772E2,1.5713539E2,4.300049E0,4.3317135E1,2.0254856E1,6.757698E0,5.28868E1,8.597946E1,3.1866394E1,6.183377E1,1.722948E2,1.9293274E2,3.9817455E1,1.6171906E2,9.633447E1,9.606567E0,0E0,6.1387E1,0E0,3.3206635E0,0E0,0E0,6.7509346E0,2.0122128E1,3.376213E0,4.853388E0,2.4399061E1,6.613485E1,3.183184E1,5.3482544E1,6.5489855E0,2.8756058E1,1.0459248E1,1.9891445E1,1.9822623E2,1.635932E2,1.1590527E2,0E0,0E0,2.264883E1,5.2795414E1,2.756224E2,1.7059619E2,2.6486496E2,0E0,0E0,1.1562836E1,2.4481876E1,0E0,0E0,0E0,0E0,0E0,0E0,0E0,0E0,0E0,0E0,0E0,0E0,0E0,0E0,0E0,0E0,0E0,0E0,0E0,0E0,0E0,0E0,0E0,0E0,0E0,0E0,0E0,0E0,0E0,0E0,0E0,0E0,0E0,0E0,0E0,0E0,0E0,0E0,0E0,0E0,0E0,0E0,0E0,0E0,0E0,0E0],"parents":[2147483647,0,0,1,1,2,2,3,3,4,4,5,5,6,6,7,7,8,8,9,9,10,10,11,11,12,12,13,13,14,14,15,15,16,16,17,17,18,18,19,19,20,20,21,21,22,22,23,23,24,24,25,25,26,26,27,27,28,28,30,30,32,32,35,35,36,36,37,37,38,38,39,39,40,40,41,41,42,42,43,43,44,44,45,45,46,46,47,47,48,48,49,49,52,52,53,53,54,54,55,55,56,56,59,59,60,60],"right_children":[2,4,6,8,10,12,14,16,18,20,22,24,26,28,30,32,34,36,38,40,42,44,46,48,50,52,54,56,58,-1,60,-1,62,-1,-1,64,66,68,70,72,74,76,78,80,82,84,86,88,90,92,-1,-1,94,96,98,100,102,-1,-1,104,106,-1,-1,-1,-1,-1,-1,-1,-1,-1,-1,-1,-1,-1,-1,-1,-1,-1,-1,-1,-1,-1,-1,-1,-1,-1,-1,-1,-1,-1,-1,-1,-1,-1,-1,-1,-1,-1,-1,-1,-1,-1,-1,-1,-1,-1,-1],"split_conditions":[3.83E0,1.6225E0,1.2505E1,9.3E-1,2.85E0,7.8E0,1.353E1,5.0666666E-1,1.35E0,2.5E-1,2.5E-3,1.8783784E0,1.4705883E-1,1.833E1,1.7333333E-1,3.9E-1,5.4285717E-1,1E-2,8.518519E-1,3.22E0,2.8E0,1.26E-1,3.5E0,2.5E-1,5.4285717E-1,-5E-1,6.9E0,6.5753424E-1,1E-2,9.445557E-1,3.31E0,-1.3578033E-1,2.31E-1,3.7945655E-1,-1.3173863E-1,1.79E-1,6.666667E-1,2.837838E0,5E-1,2.5492957E0,1.49E0,6E-1,8E-2,1.5151516E-2,2.5E-1,1.3513514E-2,5.3333336E-1,6.8E0,1.2E0,7E0,1.0159467E0,3.905719E-1,4.4444445E-1,3.26E0,1.3448275E0,2.3076923E-1,3.4266667E0,8.356007E-1,1.4383005E0,2.8571429E-2,-1.3333334E-2,-1.2734061E-1,-9.411343E-2,-1.4283997E-1,-6.97381E-2,-1.3584699E-1,5.0249244E-3,-1.4794697E-1,1.9960476E-2,-1.0425042E-1,-1.4061098E-2,-2.938724E-2,6.83068E-2,2.4423253E-2,2.5187048E-1,6.0804546E-2,2.508774E-1,1.642266E-1,3.9902666E-1,-1.4315546E-2,1.9313817E-1,-1.2148038E-1,-2.9574087E-2,3.1969512E-1,-1.3313807E-2,9.6941255E-2,-8.904544E-2,7.5793296E-2,2.623739E-1,8.199747E-2,4.75946E-1,2.7220556E-1,5.822432E-1,5.6985784E-2,-9.10696E-2,-7.9576164E-2,1.6445956E-1,1.5234454E-1,7.4597555E-1,-3.6270767E-1,6.9569916E-1,-2.9685625E-1,8.034092E-1,5.370009E-2,-1.286423E-1,4.215272E-1,7.125511E-2],"split_indices":[10,10,10,10,12,12,12,0,12,11,13,4,0,10,5,10,0,12,6,10,10,8,12,11,0,2,10,1,12,0,9,0,8,0,0,8,4,5,11,5,12,11,3,2,11,2,5,10,4,12,0,0,6,9,5,5,4,0,0,3,2,0,0,0,0,0,0,0,0,0,0,0,0,0,0,0,0,0,0,0,0,0,0,0,0,0,0,0,0,0,0,0,0,0,0,0,0,0,0,0,0,0,0,0,0,0,0],"split_type":[0,0,0,0,0,0,0,0,0,0,0,0,0,0,0,0,0,0,0,0,0,0,0,0,0,0,0,0,0,0,0,0,0,0,0,0,0,0,0,0,0,0,0,0,0,0,0,0,0,0,0,0,0,0,0,0,0,0,0,0,0,0,0,0,0,0,0,0,0,0,0,0,0,0,0,0,0,0,0,0,0,0,0,0,0,0,0,0,0,0,0,0,0,0,0,0,0,0,0,0,0,0,0,0,0,0,0],"sum_hessian":[2.843E3,2.045E3,7.98E2,1.448E3,5.97E2,7.11E2,8.7E1,1.23E3,2.18E2,4.08E2,1.89E2,5.24E2,1.87E2,6.1E1,2.6E1,1.22E3,1E1,1.43E2,7.5E1,2.64E2,1.44E2,1.55E2,3.4E1,3.33E2,1.91E2,6.7E1,1.2E2,4.6E1,1.5E1,1E0,2.5E1,1.039E3,1.81E2,1E0,9E0,6.7E1,7.6E1,4.7E1,2.8E1,2.02E2,6.2E1,9.7E1,4.7E1,6E0,1.49E2,7E0,2.7E1,2.87E2,4.6E1,1.88E2,3E0,1E0,6.6E1,4.4E1,7.6E1,3.9E1,7E0,1.2E1,3E0,1.7E1,8E0,1.16E2,6.5E1,1.9E1,4.8E1,1.1E1,6.5E1,4.6E1,1E0,1.9E1,9E0,1.73E2,2.9E1,4.5E1,1.7E1,8.8E1,9E0,3.2E1,1.5E1,2E0,4E0,9.5E1,5.4E1,6E0,1E0,7E0,2E1,2.09E2,7.8E1,1.7E1,2.9E1,1.75E2,1.3E1,1.2E1,5.4E1,3.3E1,1.1E1,6.8E1,8E0,1E0,3.8E1,4E0,3E0,4E0,1.3E1,3E0,5E0],"tree_param":{"num_deleted":"0","num_feature":"14","num_nodes":"107","size_leaf_vector":"1"}},{"base_weights":[1.6687023E-2,-7.655643E-1,1.8965031E0,-1.1285582E0,1.1148118E-1,1.5433892E0,4.880433E0,-1.2020671E0,-7.760256E-1,4.502616E-1,-4.2306557E-1,2.0065324E0,7.865994E-1,6.5465064E0,8.738787E-1,-1.2082889E0,-4.3441275E-1,-8.670245E-1,-2.1605952E-1,4.1610826E-2,9.7503686E-1,-6.5832984E-1,6.4009523E-1,1.9380499E0,9.397507E-1,1.06074534E-1,1.8124256E0,5.490238E0,9.775838E0,8.973279E-1,2.1723722E-1,-1.2119141E0,-7.1812516E-1,3.6048374E-1,-1.19882144E-1,-1.1172932E0,-6.986429E-1,-8.3666074E-1,2.1689856E-1,-5.9427883E-2,2.237386E0,-1.8763637E-2,1.6170619E0,-5.7379615E-1,-2.4886131E0,2.2313356E0,-3.2656938E-1,2.1374824E0,4.2701292E-1,-7.668317E-2,2.8045683E0,5.178744E0,1.4745628E0,5.921834E0,-3.101506E-1,1.0719945E1,-1.2487799E-1,-7.704094E-1,2.1683931E0,-1.8286122E-2,-1.2126481E-1,-3.7872125E-3,-1.1014309E-1,-3.558582E-2,-1.21538095E-1,-7.477377E-2,6.782748E-2,-4.4466805E-2,-1.3505386E-1,-1.1877944E-3,8.289489E-2,-1.4061646E-1,2.8249237E-3,2.605647E-1,6.3231476E-2,8.946133E-3,-1.061811E-1,-4.193295E-2,1.8855281E-1,-8.052238E-2,-1.5835075E-2,1.7733233E-1,-3.3507928E-1,-6.489864E-2,2.6891667E-1,1.9672364E-1,-5.8876332E-2,1.4099748E-1,2.6968116E-1,-2.5547028E-1,1.0659291E-1,2.0840202E-1,-2.9368898E-2,5.3269863E-1,-1.8527798E-2,6.056482E-1,-1.3604501E-1,8.454426E-2,3.5626167E-1,3.4702572E-1,6.663224E-1,-6.35431E-2,1.1719179E0,4.9404085E-2,-1.16696954E-1,3.899127E-1,6.531718E-2],"categories":[],"categories_nodes":[],"categories_segments":[],"categories_sizes":[],"default_left":[0,0,0,0,0,0,0,0,0,0,0,0,0,0,0,0,0,0,0,0,0,0,0,0,0,0,0,0,0,0,0,0,0,0,0,0,0,0,0,0,0,0,0,0,0,0,0,0,0,0,0,0,0,0,0,0,0,0,0,0,0,0,0,0,0,0,0,0,0,0,0,0,0,0,0,0,0,0,0,0,0,0,0,0,0,0,0,0,0,0,0,0,0,0,0,0,0,0,0,0,0,0,0,0,0,0,0],"id":8,"left_children":[1,3,5,7,9,11,13,15,17,19,21,23,25,27,29,31,33,35,37,39,41,43,45,47,-1,49,51,53,55,-1,57,59,61,-1,-1,63,65,67,69,71,73,75,77,79,81,83,85,87,89,91,93,95,97,99,-1,101,-1,103,105,-1,-1,-1,-1,-1,-1,-1,-1,-1,-1,-1,-1,-1,-1,-1,-1,-1,-1,-1,-1,-1,-1,-1,-1,-1,-1,-1,-1,-1,-1,-1,-1,-1,-1,-1,-1,-1,-1,-1,-1,-1,-1,-1,-1,-1,-1,-1,-1],"loss_changes":[4.1835215E3,6.397152E2,8.733335E2,3.5891357E1,1.06854836E2,2.6094775E2,5.8169775E2,5.0822754E0,1.2449829E1,7.737582E1,5.769974E1,2.1664185E2,1.9946445E2,1.5781299E2,1.4164754E2,1.197998E0,3.8285572E1,8.195358E0,9.854465E0,4.539205E1,1.00841415E2,2.76595E1,6.533292E1,1.3800952E2,0E0,8.553356E1,1.2202197E2,2.0006628E2,1.5910486E2,0E0,5.1773914E1,6.497803E-1,2.82648E0,0E0,0E0,5.84124E0,9.295109E0,2.4210043E0,3.0903463E0,2.318301E1,3.6721802E0,7.206668E0,5.3274094E1,1.7274834E1,3.533848E1,2.2844429E1,1.739663E1,1.6181226E2,1.0750178E2,7.704033E1,8.394504E1,6.5636536E1,1.3491989E2,6.230298E1,0E0,1.5495349E2,0E0,9.602282E0,2.1055202E1,0E0,0E0,0E0,0E0,0E0,0E0,0E0,0E0,0E0,0E0,0E0,0E0,0E0,0E0,0E0,0E0,0E0,0E0,0E0,0E0,0E0,0E0,0E0,0E0,0E0,0E0,0E0,0E0,0E0,0E0,0E0,0E0,0E0,0E0,0E0,0E0,0E0,0E0,0E0,0E0,0E0,0E0,0E0,0E0,0E0,0E0,0E0,0E0],"parents":[2147483647,0,0,1,1,2,2,3,3,4,4,5,5,6,6,7,7,8,8,9,9,10,10,11,11,12,12,13,13,14,14,15,15,16,16,17,17,18,18,19,19,20,20,21,21,22,22,23,23,25,25,26,26,27,27,28,28,30,30,31,31,32,32,35,35,36,36,37,37,38,38,39,39,40,40,41,41,42,42,43,43,44,44,45,45,46,46,47,47,48,48,49,49,50,50,51,51,52,52,53,53,55,55,57,57,58,58],"right_children":[2,4,6,8,10,12,14,16,18,20,22,24,26,28,30,32,34,36,38,40,42,44,46,48,-1,50,52,54,56,-1,58,60,62,-1,-1,64,66,68,70,72,74,76,78,80,82,84,86,88,90,92,94,96,98,100,-1,102,-1,104,106,-1,-1,-1,-1,-1,-1,-1,-1,-1,-1,-1,-1,-1,-1,-1,-1,-1,-1,-1,-1,-1,-1,-1,-1,-1,-1,-1,-1,-1,-1,-1,-1,-1,-1,-1,-1,-1,-1,-1,-1,-1,-1,-1,-1,-1,-1,-1,-1],"split_conditions":[3.705E0,1.52E0,1.2505E1,7.4E-1,2.4E0,5.7E0,1.353E1,5.0666666E-1,3.51E0,2.5625E0,2.1E-1,5.4285717E-1,1E0,4.51E0,1.7333333E-1,2.975E-1,5.4285717E-1,3.3333334E-1,1.08E0,6E-1,1E-2,3.63E0,3.5E0,2.79E-1,9.397507E-1,1.02E1,-2.7450982E-1,3.95E0,5.797101E-1,8.973279E-1,3.31E0,-1.045E0,4.255319E-2,3.6048374E-1,-1.19882144E-1,2.53E0,1.5E0,8.65E-1,1.2777778E0,2.5333333E-1,9.508197E-1,4.920635E-1,-7.175E-1,3.3333334E-1,9.649123E-1,2E-2,2.631579E-1,1.4736842E0,-1.6675E0,-9.5E-2,8.2191783E-1,4.1935483E-1,3.4210527E-1,1.39E1,-3.101506E-1,1.3333334E-1,-1.2487799E-1,2.8571429E-2,-1.3333334E-2,-1.8286122E-2,-1.2126481E-1,-3.7872125E-3,-1.1014309E-1,-3.558582E-2,-1.21538095E-1,-7.477377E-2,6.782748E-2,-4.4466805E-2,-1.3505386E-1,-1.1877944E-3,8.289489E-2,-1.4061646E-1,2.8249237E-3,2.605647E-1,6.3231476E-2,8.946133E-3,-1.061811E-1,-4.193295E-2,1.8855281E-1,-8.052238E-2,-1.5835075E-2,1.7733233E-1,-3.3507928E-1,-6.489864E-2,2.6891667E-1,1.9672364E-1,-5.8876332E-2,1.4099748E-1,2.6968116E-1,-2.5547028E-1,1.0659291E-1,2.0840202E-1,-2.9368898E-2,5.3269863E-1,-1.8527798E-2,6.056482E-1,-1.3604501E-1,8.454426E-2,3.5626167E-1,3.4702572E-1,6.663224E-1,-6.35431E-2,1.1719179E0,4.9404085E-2,-1.16696954E-1,3.899127E-1,6.531718E-2],"split_indices":[10,10,10,10,12,12,12,0,9,10,13,0,7,12,5,13,0,11,10,11,12,10,12,8,0,10,2,12,0,0,9,13,0,0,0,9,10,10,6,5,4,1,13,11,4,0,6,4,13,13,6,3,3,10,0,0,0,3,2,0,0,0,0,0,0,0,0,0,0,0,0,0,0,0,0,0,0,0,0,0,0,0,0,0,0,0,0,0,0,0,0,0,0,0,0,0,0,0,0,0,0,0,0,0,0,0,0],"split_type":[0,0,0,0,0,0,0,0,0,0,0,0,0,0,0,0,0,0,0,0,0,0,0,0,0,0,0,0,0,0,0,0,0,0,0,0,0,0,0,0,0,0,0,0,0,0,0,0,0,0,0,0,0,0,0,0,0,0,0,0,0,0,0,0,0,0,0,0,0,0,0,0,0,0,0,0,0,0,0,0,0,0,0,0,0,0,0,0,0,0,0,0,0,0,0,0,0,0,0,0,0,0,0,0,0,0,0],"sum_hessian":[2.843E3,2.008E3,8.35E2,1.42E3,5.88E2,7.48E2,8.7E1,1.173E3,2.47E2,3.6E2,2.28E2,4.63E2,2.85E2,6.1E1,2.6E1,1.163E3,1E1,2.12E2,3.5E1,2.03E2,1.57E2,1.87E2,4.1E1,4.6E2,3E0,1.72E2,1.13E2,4.8E1,1.3E1,1E0,2.5E1,1.153E3,1E1,1E0,9E0,8.3E1,1.29E2,1.4E1,2.1E1,1.95E2,8E0,6.2E1,9.5E1,1.8E2,7E0,1.5E1,2.6E1,4.06E2,5.4E1,1.62E2,1E1,9E0,1.04E2,4.6E1,2E0,1.2E1,1E0,1.7E1,8E0,1E0,1.152E3,4E0,6E0,1E1,7.3E1,1.25E2,4E0,9E0,5E0,1.6E1,5E0,1.1E1,1.84E2,6E0,2E0,5.7E1,5E0,1.1E1,8.4E1,1.15E2,6.5E1,1E0,6E0,2E0,1.3E1,2E0,2.4E1,1.78E2,2.28E2,9E0,4.5E1,1.4E1,1.48E2,5E0,5E0,8E0,1E0,8.1E1,2.3E1,1.2E1,3.4E1,1E0,1.1E1,4E0,1.3E1,3E0,5E0],"tree_param":{"num_deleted":"0","num_feature":"14","num_nodes":"107","size_leaf_vector":"1"}},{"base_weights":[1.7066678E-2,-6.5257424E-1,1.8183873E0,-1.0051669E0,1.646133E-1,1.4802256E0,4.4261622E0,-1.0728564E0,-6.200941E-1,4.6097487E-1,-4.5973462E-1,1.8253762E0,5.39385E-1,5.91906E0,8.340933E-1,-1.0783179E0,-3.6909863E-1,-4.1302165E-1,-1.0042828E0,7.5259835E-2,1.182379E0,-3.5507753E-1,-1.953974E0,1.3943396E0,2.7938423E0,2.2577079E-1,2.8527193E0,4.8228803E0,8.769148E0,8.524615E-1,2.1043415E-1,-1.1012633E-1,-9.4127625E-1,3.4245953E-1,-1.09092765E-1,-7.505241E-1,-1.0960359E-1,-1.2162619E0,-6.1879057E-1,-1.8854755E-1,5.854209E-1,6.9127524E-1,2.1028845E0,-5.2968687E-1,5.236088E-1,-3.1184794E-3,-2.1116078E-1,1.0347363E0,2.944078E0,2.3668015E0,4.7887416E0,1.3780025E0,-3.0645773E-1,3.872355E0,-2.70373E0,2.8407545E0,5.851393E0,1.0453161E1,5.77849E-1,-6.9710696E-1,2.0021348E0,-9.6512705E-2,-2.0713024E-2,-1.1865934E-1,-5.572198E-2,-1.1729809E-1,8.539841E-3,2.323786E-2,-1.2520282E-1,-8.7964155E-2,-3.52095E-3,-2.700062E-2,1.1171204E-1,-9.560302E-3,1.9944897E-1,1.3728301E-1,2.9084269E-2,1.4330392E-1,3.4786063E-1,1.132611E-1,-6.1369147E-2,2.2906385E-1,-6.2785074E-3,7.314324E-2,2.3428833E-1,8.366751E-2,3.862109E-1,2.6141366E-1,-1.1939762E-1,6.2857765E-1,-1.2490044E-1,-2.3623621E-1,2.2158082E-1,2.851515E-1,-4.790631E-2,-1.2619165E-1,5.79616E-1,-5.8776964E-2,-3.213127E-1,4.1520762E-1,-2.786891E-1,7.5245684E-1,3.401724E-1,1.2342033E0,5.0065625E-1,5.3249367E-2,-1.0864567E-1,3.6066923E-1,5.9874076E-2],"categories":[],"categories_nodes":[],"categories_segments":[],"categories_sizes":[],"default_left":[0,0,0,0,0,0,0,0,0,0,0,0,0,0,0,0,0,0,0,0,0,0,0,0,0,0,0,0,0,0,0,0,0,0,0,0,0,0,0,0,0,0,0,0,0,0,0,0,0,0,0,0,0,0,0,0,0,0,0,0,0,0,0,0,0,0,0,0,0,0,0,0,0,0,0,0,0,0,0,0,0,0,0,0,0,0,0,0,0,0,0,0,0,0,0,0,0,0,0,0,0,0,0,0,0,0,0,0,0],"id":9,"left_children":[1,3,5,7,9,11,13,15,17,19,21,23,25,27,29,31,33,35,37,39,41,43,45,47,49,51,53,55,57,-1,59,-1,61,-1,-1,63,65,67,69,71,73,75,77,79,81,-1,-1,83,85,87,89,91,93,95,97,99,101,103,-1,105,107,-1,-1,-1,-1,-1,-1,-1,-1,-1,-1,-1,-1,-1,-1,-1,-1,-1,-1,-1,-1,-1,-1,-1,-1,-1,-1,-1,-1,-1,-1,-1,-1,-1,-1,-1,-1,-1,-1,-1,-1,-1,-1,-1,-1,-1,-1,-1,-1],"loss_changes":[3.431727E3,5.9775616E2,6.7335425E2,3.7103394E1,1.1604242E2,2.2113196E2,4.6697107E2,4.333252E0,1.7007736E1,1.1816998E2,3.0895504E1,2.0482666E2,1.3357245E2,1.5140869E2,1.2770528E2,2.8029785E0,3.3858364E1,1.4663963E1,5.457817E0,3.7524803E1,6.545174E1,2.942845E1,3.8743973E0,1.9089087E2,1.190072E2,1.0099539E2,1.3511198E2,7.9193726E1,2.017749E1,0E0,4.3672794E1,0E0,2.986908E0,0E0,0E0,5.0708046E0,1.6066944E1,2.777954E0,4.3836317E0,1.9871483E1,9.1353584E1,2.6346565E1,4.201259E1,2.289793E1,3.330143E1,0E0,0E0,1.10967926E2,1.2252161E2,1.1585138E2,2.428576E2,1.6818687E2,6.2960438E1,1.949837E2,2.4228764E0,1.4440514E2,9.7365234E1,3.0800232E1,0E0,9.195935E0,1.8106968E1,0E0,0E0,0E0,0E0,0E0,0E0,0E0,0E0,0E0,0E0,0E0,0E0,0E0,0E0,0E0,0E0,0E0,0E0,0E0,0E0,0E0,0E0,0E0,0E0,0E0,0E0,0E0,0E0,0E0,0E0,0E0,0E0,0E0,0E0,0E0,0E0,0E0,0E0,0E0,0E0,0E0,0E0,0E0,0E0,0E0,0E0,0E0,0E0],"parents":[2147483647,0,0,1,1,2,2,3,3,4,4,5,5,6,6,7,7,8,8,9,9,10,10,11,11,12,12,13,13,14,14,15,15,16,16,17,17,18,18,19,19,20,20,21,21,22,22,23,23,24,24,25,25,26,26,27,27,28,28,30,30,32,32,35,35,36,36,37,37,38,38,39,39,40,40,41,41,42,42,43,43,44,44,47,47,48,48,49,49,50,50,51,51,52,52,53,53,54,54,55,55,56,56,57,57,59,59,60,60],"right_children":[2,4,6,8,10,12,14,16,18,20,22,24,26,28,30,32,34,36,38,40,42,44,46,48,50,52,54,56,58,-1,60,-1,62,-1,-1,64,66,68,70,72,74,76,78,80,82,-1,-1,84,86,88,90,92,94,96,98,100,102,104,-1,106,108,-1,-1,-1,-1,-1,-1,-1,-1,-1,-1,-1,-1,-1,-1,-1,-1,-1,-1,-1,-1,-1,-1,-1,-1,-1,-1,-1,-1,-1,-1,-1,-1,-1,-1,-1,-1,-1,-1,-1,-1,-1,-1,-1,-1,-1,-1,-1,-1],"split_conditions":[3.94E0,1.6225E0,1.2505E1,9.3E-1,2.85E0,7.8E0,1.353E1,5.0666666E-1,1.35E0,2.5E-1,2.4705882E0,7.03E0,4.25E-2,1.833E1,1.7333333E-1,3.9E-1,5.4285717E-1,1E-2,8.518519E-1,3E0,2.8E0,2.1E-1,2.238806E-1,2E-1,2.6923077E0,5.0877196E-1,1.554E1,1E0,3E0,8.524615E-1,3.31E0,-1.1012633E-1,2.87E-1,3.4245953E-1,-1.09092765E-1,1.79E-1,6.666667E-1,5.2380955E-1,1.4E0,3.59E0,1.19E0,-1.2676056E-1,8E-2,1.39E-1,3.5E0,-3.1184794E-3,-2.1116078E-1,1.8666667E-1,1.3424658E0,2.5E-3,4.1935483E-1,3E-1,-6.6625E0,1.85E-1,2.236842E-1,1E-2,5.2380955E-1,5.185185E-1,5.77849E-1,-3.773585E-2,-1.3333334E-2,-9.6512705E-2,-2.0713024E-2,-1.1865934E-1,-5.572198E-2,-1.1729809E-1,8.539841E-3,2.323786E-2,-1.2520282E-1,-8.7964155E-2,-3.52095E-3,-2.700062E-2,1.1171204E-1,-9.560302E-3,1.9944897E-1,1.3728301E-1,2.9084269E-2,1.4330392E-1,3.4786063E-1,1.132611E-1,-6.1369147E-2,2.2906385E-1,-6.2785074E-3,7.314324E-2,2.3428833E-1,8.366751E-2,3.862109E-1,2.6141366E-1,-1.1939762E-1,6.2857765E-1,-1.2490044E-1,-2.3623621E-1,2.2158082E-1,2.851515E-1,-4.790631E-2,-1.2619165E-1,5.79616E-1,-5.8776964E-2,-3.213127E-1,4.1520762E-1,-2.786891E-1,7.5245684E-1,3.401724E-1,1.2342033E0,5.0065625E-1,5.3249367E-2,-1.0864567E-1,3.6066923E-1,5.9874076E-2],"split_indices":[10,10,10,10,12,12,12,0,12,11,4,10,13,10,5,10,0,12,6,10,10,13,1,11,4,6,12,7,9,0,9,0,8,0,0,8,4,4,10,9,12,2,3,8,12,0,0,3,4,13,3,6,13,8,0,12,1,6,0,2,2,0,0,0,0,0,0,0,0,0,0,0,0,0,0,0,0,0,0,0,0,0,0,0,0,0,0,0,0,0,0,0,0,0,0,0,0,0,0,0,0,0,0,0,0,0,0,0,0],"split_type":[0,0,0,0,0,0,0,0,0,0,0,0,0,0,0,0,0,0,0,0,0,0,0,0,0,0,0,0,0,0,0,0,0,0,0,0,0,0,0,0,0,0,0,0,0,0,0,0,0,0,0,0,0,0,0,0,0,0,0,0,0,0,0,0,0,0,0,0,0,0,0,0,0,0,0,0,0,0,0,0,0,0,0,0,0,0,0,0,0,0,0,0,0,0,0,0,0,0,0,0,0,0,0,0,0,0,0,0,0],"sum_hessian":[2.843E3,2.073E3,7.7E2,1.448E3,6.25E2,6.83E2,8.7E1,1.23E3,2.18E2,4.24E2,2.01E2,4.99E2,1.84E2,6.1E1,2.6E1,1.22E3,1E1,1.43E2,7.5E1,2.77E2,1.47E2,1.89E2,1.2E1,3.47E2,1.52E2,1.63E2,2.1E1,4.6E1,1.5E1,1E0,2.5E1,1.039E3,1.81E2,1E0,9E0,6.7E1,7.6E1,4.7E1,2.8E1,1.83E2,9.4E1,9.7E1,5E1,1.58E2,3.1E1,1E0,1.1E1,2.83E2,6.4E1,1.27E2,2.5E1,5.1E1,1.12E2,1.8E1,3E0,1.7E1,2.9E1,8E0,7E0,1.7E1,8E0,1.75E2,6E0,1.9E1,4.8E1,1.1E1,6.5E1,1E0,4.6E1,1.9E1,9E0,1.73E2,1E1,6.4E1,3E1,3.5E1,6.2E1,3.5E1,1.5E1,7E0,1.51E2,7E0,2.4E1,2.31E2,5.2E1,2E1,4.4E1,1.19E2,8E0,2E1,5E0,9E0,4.2E1,5E0,1.07E2,5E0,1.3E1,1E0,2E0,1.4E1,3E0,1.6E1,1.3E1,5E0,3E0,4E0,1.3E1,3E0,5E0],"tree_param":{"num_deleted":"0","num_feature":"14","num_nodes":"109","size_leaf_vector":"1"}},{"base_weights":[1.7821468E-2,-6.023696E-1,1.6059229E0,-9.04975E-1,1.318739E-1,1.2675778E0,3.7822528E0,-9.655659E-1,-5.602609E-1,2.98253E-1,-8.6213017E-1,1.6546799E0,6.4375687E-1,5.052375E0,1.438133E0,-9.706723E-1,-3.1097367E-1,-3.7368575E-1,-9.0639997E-1,1.2629922E-1,1.4410155E0,-6.177118E-1,-2.075017E0,1.862396E0,2.1590182E-1,8.716814E-2,1.5152646E0,4.1245427E0,8.731917E0,1.1021169E-2,2.660847E0,-9.857398E-1,-8.0113816E-1,3.2533655E-1,-9.927442E-2,-6.780361E-1,-1.0005571E-1,-1.1102222E0,-5.747152E-1,-7.661656E-2,7.26746E-1,1.8162172E-1,2.3405387E0,-7.652622E-1,8.828012E-1,-2.5637314E0,-2.122975E-1,4.822151E-1,2.1201935E0,-2.5033007E0,8.0233926E-1,-6.923678E-2,3.604998E0,1.9711103E0,-1.1150815E0,-1.9110509E0,4.378765E0,9.581982E0,4.423778E-1,-8.1323594E-1,1.0172219E0,4.6701307E0,4.0966767E-1,-9.874025E-2,-6.318292E-2,-9.901693E-2,-5.8943015E-2,-8.2936816E-2,-2.4410797E-2,-1.0654577E-1,7.6987906E-3,-1.2102946E-1,-2.4135768E-2,-8.026564E-2,-1.5773093E-3,-3.7504893E-2,3.2182533E-2,1.5965877E-1,3.4797903E-2,3.112112E-1,-5.585685E-2,-5.9355237E-3,3.0624855E-1,-1.0264491E-1,2.7714836E-4,-1.48919495E-2,2.3080686E-1,-3.4503922E-1,-1.7999348E-1,-6.1025668E-2,1.2377445E-2,9.993988E-2,-2.2036433E-1,6.370391E-1,2.0167144E-1,3.876173E-2,-3.7976393E-1,-3.309091E-2,1.8549381E-1,-2.9884785E-1,8.588355E-3,-4.2276155E-2,5.300654E-1,1.6402261E-1,8.5923475E-1,2.1502756E-1,-2.3827235E-1,2.8472662E-2,-3.1513032E-1,3.5524714E-1,7.0436114E-1,1.1016381E0,4.6762872E-1,7.561953E-2,-1.0457986E-1,4.4553145E-3,2.9477084E-1,5.293085E-1,-7.797052E-2,-1.325982E-1,2.7576438E-1],"categories":[],"categories_nodes":[],"categories_segments":[],"categories_sizes":[],"default_left":[0,0,0,0,0,0,0,0,0,0,0,0,0,0,0,0,0,0,0,0,0,0,0,0,0,0,0,0,0,0,0,0,0,0,0,0,0,0,0,0,0,0,0,0,0,0,0,0,0,0,0,0,0,0,0,0,0,0,0,0,0,0,0,0,0,0,0,0,0,0,0,0,0,0,0,0,0,0,0,0,0,0,0,0,0,0,0,0,0,0,0,0,0,0,0,0,0,0,0,0,0,0,0,0,0,0,0,0,0,0,0,0,0,0,0,0,0,0,0,0,0],"id":10,"left_children":[1,3,5,7,9,11,13,15,17,19,21,23,25,27,29,31,33,35,37,39,41,43,45,47,49,51,53,55,57,59,61,63,65,-1,-1,67,69,71,73,75,77,79,81,83,85,87,89,91,93,95,97,99,101,103,105,107,109,111,-1,113,115,117,119,-1,-1,-1,-1,-1,-1,-1,-1,-1,-1,-1,-1,-1,-1,-1,-1,-1,-1,-1,-1,-1,-1,-1,-1,-1,-1,-1,-1,-1,-1,-1,-1,-1,-1,-1,-1,-1,-1,-1,-1,-1,-1,-1,-1,-1,-1,-1,-1,-1,-1,-1,-1,-1,-1,-1,-1,-1,-1],"loss_changes":[2.8020977E3,4.5471204E2,5.835498E2,2.9723633E1,9.915527E1,1.6628198E2,3.11307E2,3.8128662E0,1.380452E1,1.0062369E2,2.42131E1,1.2720996E2,1.2938199E2,1.995509E2,6.8023705E1,2.3293457E0,2.9960432E1,1.1924395E1,4.499897E0,5.4518223E1,7.547612E1,1.6837868E1,1.2200466E1,1.3169385E2,8.9713806E1,9.048336E1,1.2689729E2,9.582782E1,5.2199097E0,1.6585236E1,9.3075226E1,3.3447266E-2,3.6184082E0,0E0,0E0,4.2629166E0,1.3242733E1,3.7075539E0,3.936923E0,3.9954865E1,3.667422E1,6.464282E1,6.775302E1,1.3443066E1,1.0637061E1,1.2390289E0,6.105059E-1,8.554726E1,1.25252075E2,3.8890305E1,5.548519E1,7.180439E1,5.0048775E1,1.8089346E2,7.135237E1,9.067212E0,9.608472E1,1.885144E1,0E0,4.80573E0,1.6768187E1,4.147203E1,4.8484486E1,0E0,0E0,0E0,0E0,0E0,0E0,0E0,0E0,0E0,0E0,0E0,0E0,0E0,0E0,0E0,0E0,0E0,0E0,0E0,0E0,0E0,0E0,0E0,0E0,0E0,0E0,0E0,0E0,0E0,0E0,0E0,0E0,0E0,0E0,0E0,0E0,0E0,0E0,0E0,0E0,0E0,0E0,0E0,0E0,0E0,0E0,0E0,0E0,0E0,0E0,0E0,0E0,0E0,0E0,0E0,0E0,0E0,0E0],"parents":[2147483647,0,0,1,1,2,2,3,3,4,4,5,5,6,6,7,7,8,8,9,9,10,10,11,11,12,12,13,13,14,14,15,15,16,16,17,17,18,18,19,19,20,20,21,21,22,22,23,23,24,24,25,25,26,26,27,27,28,28,29,29,30,30,31,31,32,32,35,35,36,36,37,37,38,38,39,39,40,40,41,41,42,42,43,43,44,44,45,45,46,46,47,47,48,48,49,49,50,50,51,51,52,52,53,53,54,54,55,55,56,56,57,57,59,59,60,60,61,61,62,62],"right_children":[2,4,6,8,10,12,14,16,18,20,22,24,26,28,30,32,34,36,38,40,42,44,46,48,50,52,54,56,58,60,62,64,66,-1,-1,68,70,72,74,76,78,80,82,84,86,88,90,92,94,96,98,100,102,104,106,108,110,112,-1,114,116,118,120,-1,-1,-1,-1,-1,-1,-1,-1,-1,-1,-1,-1,-1,-1,-1,-1,-1,-1,-1,-1,-1,-1,-1,-1,-1,-1,-1,-1,-1,-1,-1,-1,-1,-1,-1,-1,-1,-1,-1,-1,-1,-1,-1,-1,-1,-1,-1,-1,-1,-1,-1,-1,-1,-1,-1,-1,-1,-1],"split_conditions":[3.83E0,1.6225E0,1.159E1,9.3E-1,4.51E0,5.7E0,1.07E1,5.0666666E-1,1.35E0,2.1E-1,3.63E0,2.79E-1,1E0,2.7260275E0,2.9333332E-1,6.1333334E-1,5.4285717E-1,1E-2,5E-1,3.3333334E-1,9.649123E-1,4.2105263E-1,2.31E-1,4.8387095E-2,-1.6675E0,1.02E1,1.48E1,2.3076923E-1,3.04E0,1.96E1,1.45E1,2.975E-1,1.6949153E-2,3.2533655E-1,-9.927442E-2,5.6338027E-2,6.666667E-1,1.8113208E0,8.2191783E-1,2.7375E0,4.9E-1,-2.1518987E-1,2.522E0,1.7733333E0,8.4E0,5.28E0,8E-2,2.0217392E0,8.4931505E-1,3.3766234E-1,6.8421054E-1,2.8767124E-1,4.5454547E-2,5.875E0,4.027778E-1,2.631579E-1,1.71E0,5.185185E-1,4.423778E-1,1.2026667E1,4.054054E-1,3.611111E-1,3.52E0,-9.874025E-2,-6.318292E-2,-9.901693E-2,-5.8943015E-2,-8.2936816E-2,-2.4410797E-2,-1.0654577E-1,7.6987906E-3,-1.2102946E-1,-2.4135768E-2,-8.026564E-2,-1.5773093E-3,-3.7504893E-2,3.2182533E-2,1.5965877E-1,3.4797903E-2,3.112112E-1,-5.585685E-2,-5.9355237E-3,3.0624855E-1,-1.0264491E-1,2.7714836E-4,-1.48919495E-2,2.3080686E-1,-3.4503922E-1,-1.7999348E-1,-6.1025668E-2,1.2377445E-2,9.993988E-2,-2.2036433E-1,6.370391E-1,2.0167144E-1,3.876173E-2,-3.7976393E-1,-3.309091E-2,1.8549381E-1,-2.9884785E-1,8.588355E-3,-4.2276155E-2,5.300654E-1,1.6402261E-1,8.5923475E-1,2.1502756E-1,-2.3827235E-1,2.8472662E-2,-3.1513032E-1,3.5524714E-1,7.0436114E-1,1.1016381E0,4.6762872E-1,7.561953E-2,-1.0457986E-1,4.4553145E-3,2.9477084E-1,5.293085E-1,-7.797052E-2,-1.325982E-1,2.7576438E-1],"split_indices":[10,10,10,10,12,12,12,0,12,13,10,8,7,4,0,10,0,12,11,11,4,1,8,0,13,10,12,5,9,12,10,13,3,0,0,2,4,6,6,10,12,2,10,5,12,12,0,5,4,6,6,5,0,13,1,0,12,6,0,10,1,3,9,0,0,0,0,0,0,0,0,0,0,0,0,0,0,0,0,0,0,0,0,0,0,0,0,0,0,0,0,0,0,0,0,0,0,0,0,0,0,0,0,0,0,0,0,0,0,0,0,0,0,0,0,0,0,0,0,0,0],"split_type":[0,0,0,0,0,0,0,0,0,0,0,0,0,0,0,0,0,0,0,0,0,0,0,0,0,0,0,0,0,0,0,0,0,0,0,0,0,0,0,0,0,0,0,0,0,0,0,0,0,0,0,0,0,0,0,0,0,0,0,0,0,0,0,0,0,0,0,0,0,0,0,0,0,0,0,0,0,0,0,0,0,0,0,0,0,0,0,0,0,0,0,0,0,0,0,0,0,0,0,0,0,0,0,0,0,0,0,0,0,0,0,0,0,0,0,0,0,0,0,0,0],"sum_hessian":[2.843E3,2.045E3,7.98E2,1.448E3,5.97E2,6.92E2,1.06E2,1.23E3,2.18E2,5.12E2,8.5E1,4.26E2,2.66E2,6.8E1,3.8E1,1.22E3,1E1,1.43E2,7.5E1,4.46E2,6.6E1,7.2E1,1.3E1,3.72E2,5.4E1,1.63E2,1.03E2,5.6E1,1.2E1,1.8E1,2E1,1.116E3,1.04E2,1E0,9E0,6.7E1,7.6E1,4.5E1,3E1,3.34E2,1.12E2,2.8E1,3.8E1,6.6E1,6E0,1E1,3E0,5.9E1,3.13E2,9E0,4.5E1,1.57E2,6E0,8.8E1,1.5E1,2E0,5.4E1,9E0,3E0,1E1,8E0,1E1,1E1,1.109E3,7E0,5.3E1,5.1E1,4.9E1,1.8E1,1.1E1,6.5E1,4E1,5E0,2.1E1,9E0,1.91E2,1.43E2,3.3E1,7.9E1,5E0,2.3E1,9E0,2.9E1,4.9E1,1.7E1,4E0,2E0,3E0,7E0,1E0,2E0,5E1,9E0,6E0,3.07E2,3E0,6E0,2.2E1,2.3E1,7E0,1.5E2,2E0,4E0,8.5E1,3E0,4E0,1.1E1,1E0,1E0,4.3E1,1.1E1,6E0,3E0,1E0,9E0,6E0,2E0,9E0,1E0,6E0,4E0],"tree_param":{"num_deleted":"0","num_feature":"14","num_nodes":"121","size_leaf_vector":"1"}},{"base_weights":[1.784461E-2,-5.295599E-1,1.4903468E0,-7.9938203E-1,1.7018615E-1,9.705559E-1,2.7087655E0,-8.561532E-1,-3.8188493E-1,3.436042E-1,-7.040963E-1,7.6499695E-1,2.416459E0,3.1530533E0,2.26963E-1,-8.8196874E-1,-6.993455E-1,-1.644408E-1,-7.768306E-1,5.06644E-2,9.4584966E-1,-4.0403175E-1,-1.2915994E0,1.0770439E0,-3.0824667E-1,7.4043765E0,1.7111292E0,2.750182E0,7.4882913E0,-2.861189E-1,8.173484E-1,-8.873108E-2,-2.593252E-1,-1.0288706E0,-6.2400883E-1,-4.449717E-1,2.6880744E-1,-1.1336051E0,-2.4593197E-1,-3.308068E-1,2.9894277E-1,4.8734578E-1,1.7069435E0,-6.4977294E-1,1.0125221E0,-1.7831116E0,1.6261062E-1,1.0062608E0,4.593791E0,5.0169617E-1,-1.3311273E0,8.886539E-1,-1.4853798E-1,6.603506E0,1.1463039E0,2.5568466E0,7.930764E0,5.901657E0,1.077278E0,1.0238172E-1,2.5536692E0,3.0906972E-1,-9.033972E-2,-7.602578E-2,-1.5214014E-1,-4.943464E-2,-7.883511E-2,-5.053577E-2,1.1123581E-1,9.603867E-2,7.973901E-3,-1.2052306E-1,-2.2348091E-2,4.5464197E-3,-6.1396588E-2,-1.16913274E-1,-1.8432934E-2,3.822672E-2,-1.7277949E-1,3.5078593E-2,2.013936E-1,-1.7432867E-1,1.8585882E-1,-9.019038E-2,2.5357557E-2,1.9061916E-1,-8.0453E-2,-2.0522772E-1,-8.362415E-2,-4.3771148E-2,7.304106E-2,1.1077976E-1,-1.423249E-1,6.040782E-1,6.50877E-2,-3.2960307E-2,2.3566525E-1,-6.1274577E-2,-2.3062241E-1,-2.5325748E-1,8.937238E-1,5.739979E-3,3.5769483E-1,2.230548E-1,5.118534E-1,9.8364764E-1,-7.988989E-2,6.652786E-1,3.3692947E-1,1.336566E-1,-7.864914E-2,1.0096977E-1,3.5869068E-1],"categories":[],"categories_nodes":[],"categories_segments":[],"categories_sizes":[],"default_left":[0,0,0,0,0,0,0,0,0,0,0,0,0,0,0,0,0,0,0,0,0,0,0,0,0,0,0,0,0,0,0,0,0,0,0,0,0,0,0,0,0,0,0,0,0,0,0,0,0,0,0,0,0,0,0,0,0,0,0,0,0,0,0,0,0,0,0,0,0,0,0,0,0,0,0,0,0,0,0,0,0,0,0,0,0,0,0,0,0,0,0,0,0,0,0,0,0,0,0,0,0,0,0,0,0,0,0,0,0,0,0,0,0],"id":11,"left_children":[1,3,5,7,9,11,13,15,17,19,21,23,25,27,29,31,33,35,37,39,41,43,45,47,49,51,53,55,57,-1,59,-1,61,63,65,67,69,71,73,75,77,79,81,83,85,87,89,91,93,95,97,-1,-1,99,101,103,105,107,-1,109,111,-1,-1,-1,-1,-1,-1,-1,-1,-1,-1,-1,-1,-1,-1,-1,-1,-1,-1,-1,-1,-1,-1,-1,-1,-1,-1,-1,-1,-1,-1,-1,-1,-1,-1,-1,-1,-1,-1,-1,-1,-1,-1,-1,-1,-1,-1,-1,-1,-1,-1,-1,-1],"loss_changes":[2.293208E3,3.9172168E2,4.8566296E2,3.5154602E1,8.7876205E1,1.5924374E2,2.5289038E2,4.7145386E0,1.5416288E1,8.516376E1,1.6401882E1,1.5974551E2,2.2304471E2,3.1998193E2,6.7973785E1,3.5185547E0,4.099617E0,1.4461277E1,1.1843525E1,3.0974697E1,5.4304504E1,2.3284777E1,2.3162338E1,8.723132E1,9.014311E1,1.186084E2,1.582307E2,1.600083E2,1.9803223E1,0E0,3.8222305E1,0E0,2.652634E1,3.3415413E0,2.9771042E0,7.3330793E0,6.0689425E0,2.207798E0,2.9234922E0,1.5625161E1,3.409806E1,2.0140629E1,3.4109375E1,1.2983376E1,1.777203E1,4.400551E0,3.387475E0,9.112326E1,3.600569E1,9.48402E1,3.2210464E1,0E0,0E0,1.5056116E2,1.4536531E2,1.3486108E2,1.0767572E2,2.3125305E0,0E0,2.628296E1,1.0735916E1,0E0,0E0,0E0,0E0,0E0,0E0,0E0,0E0,0E0,0E0,0E0,0E0,0E0,0E0,0E0,0E0,0E0,0E0,0E0,0E0,0E0,0E0,0E0,0E0,0E0,0E0,0E0,0E0,0E0,0E0,0E0,0E0,0E0,0E0,0E0,0E0,0E0,0E0,0E0,0E0,0E0,0E0,0E0,0E0,0E0,0E0,0E0,0E0,0E0,0E0,0E0,0E0],"parents":[2147483647,0,0,1,1,2,2,3,3,4,4,5,5,6,6,7,7,8,8,9,9,10,10,11,11,12,12,13,13,14,14,15,15,16,16,17,17,18,18,19,19,20,20,21,21,22,22,23,23,24,24,25,25,26,26,27,27,28,28,30,30,32,32,33,33,34,34,35,35,36,36,37,37,38,38,39,39,40,40,41,41,42,42,43,43,44,44,45,45,46,46,47,47,48,48,49,49,50,50,53,53,54,54,55,55,56,56,57,57,59,59,60,60],"right_children":[2,4,6,8,10,12,14,16,18,20,22,24,26,28,30,32,34,36,38,40,42,44,46,48,50,52,54,56,58,-1,60,-1,62,64,66,68,70,72,74,76,78,80,82,84,86,88,90,92,94,96,98,-1,-1,100,102,104,106,108,-1,110,112,-1,-1,-1,-1,-1,-1,-1,-1,-1,-1,-1,-1,-1,-1,-1,-1,-1,-1,-1,-1,-1,-1,-1,-1,-1,-1,-1,-1,-1,-1,-1,-1,-1,-1,-1,-1,-1,-1,-1,-1,-1,-1,-1,-1,-1,-1,-1,-1,-1,-1,-1,-1],"split_conditions":[3.94E0,1.82E0,8.48E0,1.2066667E0,4.51E0,2.5E-3,1.48E1,6.1333334E-1,1.58E0,2.5E-1,3.21E0,7.72E0,7.5E-1,1.833E1,1.02E1,5.0666666E-1,3.3333334E-1,3.3333334E-1,5E-1,2.5625E0,2.8E0,3.7313432E-1,3.52E0,3.58E0,7.8431375E-2,3.561644E-1,-2.3076923E-1,1.45E1,1E-2,-2.861189E-1,3.31E0,-8.873108E-2,5.4285717E-1,2.2950819E-1,7.5E-1,4.3421054E-1,2.5E-1,3.61E0,2.7E0,4.868421E-1,1.6275E0,6E-1,5.862069E-1,1.7733333E0,2.2236843E0,2.0657895E0,1.3552631E0,2.876923E0,-1.3333334E-2,3.2394367E-1,4.027778E-1,8.886539E-1,-1.4853798E-1,3.3333335E-2,3.17E0,4.4444445E-1,2.6923077E0,6.5217394E-1,1.077278E0,1.09375E-1,5.675676E-1,3.0906972E-1,-9.033972E-2,-7.602578E-2,-1.5214014E-1,-4.943464E-2,-7.883511E-2,-5.053577E-2,1.1123581E-1,9.603867E-2,7.973901E-3,-1.2052306E-1,-2.2348091E-2,4.5464197E-3,-6.1396588E-2,-1.16913274E-1,-1.8432934E-2,3.822672E-2,-1.7277949E-1,3.5078593E-2,2.013936E-1,-1.7432867E-1,1.8585882E-1,-9.019038E-2,2.5357557E-2,1.9061916E-1,-8.0453E-2,-2.0522772E-1,-8.362415E-2,-4.3771148E-2,7.304106E-2,1.1077976E-1,-1.423249E-1,6.040782E-1,6.50877E-2,-3.2960307E-2,2.3566525E-1,-6.1274577E-2,-2.3062241E-1,-2.5325748E-1,8.937238E-1,5.739979E-3,3.5769483E-1,2.230548E-1,5.118534E-1,9.8364764E-1,-7.988989E-2,6.652786E-1,3.3692947E-1,1.336566E-1,-7.864914E-2,1.0096977E-1,3.5869068E-1],"split_indices":[10,10,10,10,12,13,12,10,12,11,9,12,12,10,10,0,11,11,11,10,10,1,9,5,2,0,2,12,12,0,9,0,0,1,11,0,12,12,12,5,13,11,4,5,4,5,4,5,2,1,1,0,0,1,9,0,4,5,0,3,1,0,0,0,0,0,0,0,0,0,0,0,0,0,0,0,0,0,0,0,0,0,0,0,0,0,0,0,0,0,0,0,0,0,0,0,0,0,0,0,0,0,0,0,0,0,0,0,0,0,0,0,0],"split_type":[0,0,0,0,0,0,0,0,0,0,0,0,0,0,0,0,0,0,0,0,0,0,0,0,0,0,0,0,0,0,0,0,0,0,0,0,0,0,0,0,0,0,0,0,0,0,0,0,0,0,0,0,0,0,0,0,0,0,0,0,0,0,0,0,0,0,0,0,0,0,0,0,0,0,0,0,0,0,0,0,0,0,0,0,0,0,0,0,0,0,0,0,0,0,0,0,0,0,0,0,0,0,0,0,0,0,0,0,0,0,0,0,0],"sum_hessian":[2.843E3,2.073E3,7.7E2,1.496E3,5.77E2,5.41E2,2.29E2,1.316E3,1.8E2,4.82E2,9.5E1,4.75E2,6.6E1,1.94E2,3.5E1,1.126E3,1.9E2,1.17E2,6.3E1,3.25E2,1.57E2,6.4E1,3.1E1,3.68E2,1.07E2,7E0,5.9E1,1.79E2,1.5E1,5E0,3E1,1.116E3,1E1,3.3E1,1.57E2,7.1E1,4.6E1,3.7E1,2.6E1,1.28E2,1.97E2,9.9E1,5.8E1,5.5E1,9E0,2.3E1,8E0,3.62E2,6E0,6E1,4.7E1,6E0,1E0,5E0,5.4E1,1.74E2,5E0,1.2E1,3E0,2.2E1,8E0,1E0,9E0,2.3E1,1E1,9E1,6.7E1,6.9E1,2E0,9E0,3.7E1,3.4E1,3E0,1.5E1,1.1E1,1.8E1,1.1E2,1.9E2,7E0,9.2E1,7E0,2E0,5.6E1,4.3E1,1.2E1,6E0,3E0,1.7E1,6E0,4E0,4E0,3.48E2,1.4E1,4E0,2E0,4.2E1,1.8E1,2.8E1,1.9E1,1E0,4E0,3.8E1,1.6E1,1.56E2,1.8E1,4E0,1E0,8E0,4E0,9E0,1.3E1,4E0,4E0],"tree_param":{"num_deleted":"0","num_feature":"14","num_nodes":"113","size_leaf_vector":"1"}},{"base_weights":[1.8078974E-2,-4.7684386E-1,1.3494043E0,-7.339918E-1,1.1913731E-1,1.082743E0,3.4067562E0,-7.7357644E-1,-3.9113098E-1,3.4554827E-1,-3.9444557E-1,1.2185638E0,-5.572848E-1,4.558782E0,6.351873E-1,-7.782606E-1,-2.0673428E-1,-1.7861785E-1,-8.62094E-1,5.6426357E-2,9.001285E-1,-5.515854E-1,3.018155E-1,1.0468953E0,2.9319417E0,-3.5654685E-1,-2.2007536E-2,3.735992E0,7.11292E0,7.3419064E-1,9.485556E-2,-8.041228E-2,-6.666681E-1,2.9361627E-1,-7.5937605E-1,-3.7336734E-1,1.0428749E-1,-1.0866543E0,-4.7397065E-1,-1.902994E-1,3.7770534E-1,4.2276683E-1,1.4625332E0,1.1079147E0,-6.2486297E-1,1.8159945E0,-1.2629646E-1,4.5695022E-1,1.3315672E0,3.1422585E-1,3.6230166E0,1.3215802E0,-1.5478115E0,4.098822E0,-3.1936803E-1,-1.23745345E-1,7.850445E0,2.3449926E0,-4.2085084E-1,-1.4126863E-1,-6.423343E-2,-6.6111027E-3,-8.220915E-2,-4.7606293E-2,6.815847E-2,-5.574515E-2,2.9037613E-2,-1.1378714E-1,1.7371196E-2,2.042546E-2,-7.307836E-2,2.2019888E-3,-1.260575E-1,-2.572721E-5,1.12463765E-1,5.805486E-2,-1.350687E-1,-5.017192E-2,1.8504016E-1,-1.6851068E-2,1.652187E-1,5.1369626E-2,-7.449617E-2,2.2319107E-1,-5.4770924E-2,-4.7033902E-2,1.6191755E-1,7.020823E-2,-1.7732885E-1,1.0929065E-1,3.3805925E-1,-4.7379162E-2,3.0988812E-1,2.7896425E-2,4.5704898E-1,-1.8940276E-1,1.6835473E-1,5.1255036E-2,-2.3524816E-1,3.6144927E-1,7.444293E-1,8.710753E-1,-1.23662405E-1,-3.319497E-2,3.0972156E-1,-8.6740226E-2,6.599596E-2],"categories":[],"categories_nodes":[],"categories_segments":[],"categories_sizes":[],"default_left":[0,0,0,0,0,0,0,0,0,0,0,0,0,0,0,0,0,0,0,0,0,0,0,0,0,0,0,0,0,0,0,0,0,0,0,0,0,0,0,0,0,0,0,0,0,0,0,0,0,0,0,0,0,0,0,0,0,0,0,0,0,0,0,0,0,0,0,0,0,0,0,0,0,0,0,0,0,0,0,0,0,0,0,0,0,0,0,0,0,0,0,0,0,0,0,0,0,0,0,0,0,0,0,0,0,0,0],"id":12,"left_children":[1,3,5,7,9,11,13,15,17,19,21,23,25,27,29,31,33,35,37,39,41,43,45,47,49,-1,51,53,55,-1,57,-1,59,-1,61,63,65,67,69,71,73,75,77,79,81,83,85,87,89,91,93,95,97,99,-1,-1,101,103,105,-1,-1,-1,-1,-1,-1,-1,-1,-1,-1,-1,-1,-1,-1,-1,-1,-1,-1,-1,-1,-1,-1,-1,-1,-1,-1,-1,-1,-1,-1,-1,-1,-1,-1,-1,-1,-1,-1,-1,-1,-1,-1,-1,-1,-1,-1,-1,-1],"loss_changes":[1.8745647E3,3.17939E2,4.1929443E2,1.9363281E1,7.2928085E1,1.5303998E2,2.7808118E2,3.2855225E0,1.5059061E1,6.969766E1,2.1173265E1,1.828227E2,8.526277E1,1.0372034E2,9.714762E1,3.1782837E0,2.3072403E1,5.879078E0,3.5813408E0,2.2821737E1,3.9383797E1,1.978415E1,2.356593E1,9.612549E1,1.01976685E2,0E0,9.634792E1,1.3629071E2,9.593512E1,0E0,3.1157557E1,0E0,3.5946426E0,0E0,4.2391348E-1,7.14983E0,5.5801225E0,2.0696793E0,3.4586287E0,3.706791E1,3.5289345E1,2.3729263E1,5.273561E1,5.141473E0,2.103035E1,9.087259E0,1.817654E1,1.0457188E2,1.8604572E2,2.9994865E1,1.4130292E2,3.228729E1,3.767982E1,4.9247314E1,0E0,0E0,1.1240173E2,1.1096409E1,1.11904745E1,0E0,0E0,0E0,0E0,0E0,0E0,0E0,0E0,0E0,0E0,0E0,0E0,0E0,0E0,0E0,0E0,0E0,0E0,0E0,0E0,0E0,0E0,0E0,0E0,0E0,0E0,0E0,0E0,0E0,0E0,0E0,0E0,0E0,0E0,0E0,0E0,0E0,0E0,0E0,0E0,0E0,0E0,0E0,0E0,0E0,0E0,0E0,0E0],"parents":[2147483647,0,0,1,1,2,2,3,3,4,4,5,5,6,6,7,7,8,8,9,9,10,10,11,11,12,12,13,13,14,14,15,15,16,16,17,17,18,18,19,19,20,20,21,21,22,22,23,23,24,24,26,26,27,27,28,28,30,30,32,32,34,34,35,35,36,36,37,37,38,38,39,39,40,40,41,41,42,42,43,43,44,44,45,45,46,46,47,47,48,48,49,49,50,50,51,51,52,52,53,53,56,56,57,57,58,58],"right_children":[2,4,6,8,10,12,14,16,18,20,22,24,26,28,30,32,34,36,38,40,42,44,46,48,50,-1,52,54,56,-1,58,-1,60,-1,62,64,66,68,70,72,74,76,78,80,82,84,86,88,90,92,94,96,98,100,-1,-1,102,104,106,-1,-1,-1,-1,-1,-1,-1,-1,-1,-1,-1,-1,-1,-1,-1,-1,-1,-1,-1,-1,-1,-1,-1,-1,-1,-1,-1,-1,-1,-1,-1,-1,-1,-1,-1,-1,-1,-1,-1,-1,-1,-1,-1,-1,-1,-1,-1,-1],"split_conditions":[3.94E0,1.6225E0,1.2505E1,1.14E0,2.95E0,3.026316E-1,1.353E1,5.0666666E-1,1.58E0,2.5E-1,2.5E-3,2.7260275E0,-1.6675E0,4.51E0,1.7333333E-1,3.9E-1,5.4285717E-1,3.3333334E-1,5E-1,1.2586207E0,2.522E0,1.26E-1,3.5E0,1.24E0,5.2166667E0,-3.5654685E-1,4.9E0,3.95E0,1.3333334E-1,7.3419064E-1,1.73E-1,-8.041228E-2,1.23E-1,2.9361627E-1,8.450704E-2,3.57E0,4.4615385E-1,4.5454547E-1,5.5555556E-2,2.25E0,3E0,3.43E0,-7.175E-1,1.5151516E-2,-1.045E0,1.3513514E-2,3.8961038E-1,2.78E-1,2.975E-1,2.5E0,3.4848484E-1,1.73E-1,2.92E0,7.2307694E-1,-3.1936803E-1,-1.23745345E-1,5.797101E-1,2.8985506E-1,3.31E0,-1.4126863E-1,-6.423343E-2,-6.6111027E-3,-8.220915E-2,-4.7606293E-2,6.815847E-2,-5.574515E-2,2.9037613E-2,-1.1378714E-1,1.7371196E-2,2.042546E-2,-7.307836E-2,2.2019888E-3,-1.260575E-1,-2.572721E-5,1.12463765E-1,5.805486E-2,-1.350687E-1,-5.017192E-2,1.8504016E-1,-1.6851068E-2,1.652187E-1,5.1369626E-2,-7.449617E-2,2.2319107E-1,-5.4770924E-2,-4.7033902E-2,1.6191755E-1,7.020823E-2,-1.7732885E-1,1.0929065E-1,3.3805925E-1,-4.7379162E-2,3.0988812E-1,2.7896425E-2,4.5704898E-1,-1.8940276E-1,1.6835473E-1,5.1255036E-2,-2.3524816E-1,3.6144927E-1,7.444293E-1,8.710753E-1,-1.23662405E-1,-3.319497E-2,3.0972156E-1,-8.6740226E-2,6.599596E-2],"split_indices":[10,10,10,10,12,2,12,0,12,11,13,4,13,12,5,10,0,11,11,5,10,8,12,4,10,0,12,12,0,0,8,0,8,0,2,9,6,1,0,12,10,9,13,2,13,2,1,8,13,13,6,8,9,1,0,0,0,0,9,0,0,0,0,0,0,0,0,0,0,0,0,0,0,0,0,0,0,0,0,0,0,0,0,0,0,0,0,0,0,0,0,0,0,0,0,0,0,0,0,0,0,0,0,0,0,0,0],"split_type":[0,0,0,0,0,0,0,0,0,0,0,0,0,0,0,0,0,0,0,0,0,0,0,0,0,0,0,0,0,0,0,0,0,0,0,0,0,0,0,0,0,0,0,0,0,0,0,0,0,0,0,0,0,0,0,0,0,0,0,0,0,0,0,0,0,0,0,0,0,0,0,0,0,0,0,0,0,0,0,0,0,0,0,0,0,0,0,0,0,0,0,0,0,0,0,0,0,0,0,0,0,0,0,0,0,0,0],"sum_hessian":[2.843E3,2.073E3,7.7E2,1.448E3,6.25E2,6.83E2,8.7E1,1.297E3,1.51E2,4.34E2,1.91E2,6.31E2,5.2E1,6.1E1,2.6E1,1.286E3,1.1E1,1.05E2,4.6E1,2.86E2,1.48E2,1.56E2,3.5E1,5.75E2,5.6E1,7E0,4.5E1,4.8E1,1.3E1,1E0,2.5E1,1.039E3,2.47E2,1E0,1E1,6.2E1,4.3E1,2.8E1,1.8E1,1.62E2,1.24E2,8.1E1,6.7E1,6E0,1.5E2,7E0,2.8E1,1.88E2,3.87E2,1.2E1,4.4E1,2.4E1,2.1E1,4.6E1,2E0,1E0,1.2E1,4E0,2.1E1,6E0,2.41E2,1E0,9E0,5.7E1,5E0,9E0,3.4E1,2.7E1,1E0,5E0,1.3E1,1.36E2,2.6E1,8.3E1,4.1E1,7.5E1,6E0,1.1E1,5.6E1,2E0,4E0,1.4E1,1.36E2,6E0,1E0,2.4E1,4E0,1.7E2,1.8E1,3.48E2,3.9E1,1E1,2E0,1E1,3.4E1,2E0,2.2E1,6E0,1.5E1,4.2E1,4E0,1.1E1,1E0,1E0,3E0,1.5E1,6E0],"tree_param":{"num_deleted":"0","num_feature":"14","num_nodes":"107","size_leaf_vector":"1"}},{"base_weights":[1.7376866E-2,-3.7000945E-1,1.4047034E0,-6.466084E-1,2.0986274E-1,1.1237932E0,3.0933547E0,-6.9384927E-1,-3.1575185E-1,4.3978205E-1,-2.7159894E-1,1.3078377E0,-4.091901E-1,4.1256485E0,6.083342E-1,-7.146018E-1,-5.6776553E-1,-1.4519757E-1,-6.19611E-1,-1.16271876E-1,7.3299E-1,-5.130397E-1,7.771588E-1,1.0924729E0,3.512391E0,3.9772499E0,-1.0892358E0,3.2761467E0,6.363207E0,6.974811E-1,9.520774E-2,-7.192963E-1,-1.7293847E-1,-8.658475E-1,-5.0002784E-1,-3.387118E-1,1.539609E-1,-9.0177757E-1,-1.8430969E-1,-2.1825361E-1,9.452908E-1,2.656101E-1,1.3599379E0,-5.651433E-1,2.051063E0,7.286342E-3,2.265093E0,9.233956E-1,2.5058806E0,2.5360376E-1,4.522837E0,4.2720843E-2,7.901098E-1,1.0494094E0,-2.1894233E0,3.740839E0,5.431664E-1,4.966558E0,9.311515E-1,2.1657987E0,-3.7970874E-1,-7.207146E-2,-4.3258842E-2,2.7893543E-1,-7.481032E-2,-1.5136817E-1,-6.729659E-2,-8.221515E-2,-4.3035083E-2,-1.5411867E-1,-2.6720334E-2,2.2129806E-2,-1.5391111E-1,-5.388626E-2,-1.1907103E-1,5.5685877E-3,-5.0894428E-2,-1.2010009E-2,-6.7912586E-2,-2.3027614E-1,1.3417774E-1,7.8146234E-2,-2.3660444E-2,1.9213228E-1,1.2306685E-3,-1.0662343E-1,-2.9574437E-2,-1.1091341E-1,3.4741732E-1,6.101921E-2,-1.4672928E-1,-5.194476E-2,2.7334416E-1,2.8360812E-2,1.3468987E-1,-8.832406E-2,3.5962686E-1,-3.7303478E-1,2.2138791E-1,-3.0521547E-2,5.4282254E-1,-1.2452759E-1,1.3164772E-1,-3.0978713E-2,1.2386707E-1,-2.3497844E-1,2.5090305E-2,-2.9455814E-1,3.9878133E-1,-3.3705467E-1,5.299516E-1,5.1601094E-1,1.3219701E-1,-3.153522E-2,2.8649244E-1,-9.877644E-2,3.181437E-2],"categories":[],"categories_nodes":[],"categories_segments":[],"categories_sizes":[],"default_left":[0,0,0,0,0,0,0,0,0,0,0,0,0,0,0,0,0,0,0,0,0,0,0,0,0,0,0,0,0,0,0,0,0,0,0,0,0,0,0,0,0,0,0,0,0,0,0,0,0,0,0,0,0,0,0,0,0,0,0,0,0,0,0,0,0,0,0,0,0,0,0,0,0,0,0,0,0,0,0,0,0,0,0,0,0,0,0,0,0,0,0,0,0,0,0,0,0,0,0,0,0,0,0,0,0,0,0,0,0,0,0,0,0,0,0,0,0],"id":13,"left_children":[1,3,5,7,9,11,13,15,17,19,21,23,25,27,29,31,33,35,37,39,41,43,45,47,49,51,53,55,57,-1,59,61,63,65,67,69,71,73,75,77,79,81,83,85,87,89,91,93,95,97,99,101,-1,103,105,107,109,111,-1,113,115,-1,-1,-1,-1,-1,-1,-1,-1,-1,-1,-1,-1,-1,-1,-1,-1,-1,-1,-1,-1,-1,-1,-1,-1,-1,-1,-1,-1,-1,-1,-1,-1,-1,-1,-1,-1,-1,-1,-1,-1,-1,-1,-1,-1,-1,-1,-1,-1,-1,-1,-1,-1,-1,-1,-1,-1],"loss_changes":[1.5289742E3,3.568476E2,2.9110083E2,2.3319641E1,7.971084E1,1.5119641E2,2.2323413E2,3.0402832E0,9.756685E0,7.948542E1,5.939731E1,2.2263452E2,1.7734497E2,9.700354E1,8.753976E1,2.741333E0,3.4236107E0,7.1727943E0,8.18606E0,1.8502253E1,9.311308E1,2.6542946E1,5.038636E1,1.0187921E2,1.371518E2,1.23170425E2,1.2229605E2,5.7657837E1,1.9637756E1,0E0,2.6389673E1,1.4245605E-1,2.0828592E1,3.229826E0,3.1924324E0,6.0372257E0,5.9269276E0,3.6575508E0,2.209845E0,6.9300537E0,2.2406933E1,4.7853497E1,1.0286577E2,2.4928436E1,2.1842564E1,2.7566294E1,2.0981903E1,1.0556027E2,1.7316736E2,9.416459E1,1.4153711E2,9.842346E0,0E0,5.014103E0,1.3894897E1,7.780145E1,1.6678215E2,2.348938E0,0E0,9.576645E0,9.649578E0,0E0,0E0,0E0,0E0,0E0,0E0,0E0,0E0,0E0,0E0,0E0,0E0,0E0,0E0,0E0,0E0,0E0,0E0,0E0,0E0,0E0,0E0,0E0,0E0,0E0,0E0,0E0,0E0,0E0,0E0,0E0,0E0,0E0,0E0,0E0,0E0,0E0,0E0,0E0,0E0,0E0,0E0,0E0,0E0,0E0,0E0,0E0,0E0,0E0,0E0,0E0,0E0,0E0,0E0,0E0,0E0],"parents":[2147483647,0,0,1,1,2,2,3,3,4,4,5,5,6,6,7,7,8,8,9,9,10,10,11,11,12,12,13,13,14,14,15,15,16,16,17,17,18,18,19,19,20,20,21,21,22,22,23,23,24,24,25,25,26,26,27,27,28,28,30,30,31,31,32,32,33,33,34,34,35,35,36,36,37,37,38,38,39,39,40,40,41,41,42,42,43,43,44,44,45,45,46,46,47,47,48,48,49,49,50,50,51,51,53,53,54,54,55,55,56,56,57,57,59,59,60,60],"right_children":[2,4,6,8,10,12,14,16,18,20,22,24,26,28,30,32,34,36,38,40,42,44,46,48,50,52,54,56,58,-1,60,62,64,66,68,70,72,74,76,78,80,82,84,86,88,90,92,94,96,98,100,102,-1,104,106,108,110,112,-1,114,116,-1,-1,-1,-1,-1,-1,-1,-1,-1,-1,-1,-1,-1,-1,-1,-1,-1,-1,-1,-1,-1,-1,-1,-1,-1,-1,-1,-1,-1,-1,-1,-1,-1,-1,-1,-1,-1,-1,-1,-1,-1,-1,-1,-1,-1,-1,-1,-1,-1,-1,-1,-1,-1,-1,-1,-1],"split_conditions":[4.7E0,1.855E0,1.2505E1,1.2066667E0,3.3E0,2.6415095E-1,1.353E1,6.1333334E-1,1.62E0,2E-2,1E0,2.7936509E0,2.2666667E-1,1.833E1,1.7333333E-1,5.0666666E-1,3.3333334E-1,3.3333334E-1,5E-1,2E-1,3.06E0,3.01E-1,4.02E0,2.5E-1,3.4848484E-1,1.0833334E0,1E-2,6.5753424E-1,1E-2,6.974811E-1,1.73E-1,2.975E-1,5.4285717E-1,1.83E-1,-2.6923078E-1,-1.045E0,2.1066666E0,2.34E0,2.7E0,3.83E0,-7.5E-1,1.46E0,3.26E0,8.666667E-1,2.2666667E-1,3.16E0,1.24E0,2.06E-1,1.2E0,2.86E0,1E-2,5.4E0,7.901098E-1,5.7925E0,4E-1,2.3076923E-1,3.4266667E0,7.9591835E-1,9.311515E-1,2.8985506E-1,3.16E0,-7.207146E-2,-4.3258842E-2,2.7893543E-1,-7.481032E-2,-1.5136817E-1,-6.729659E-2,-8.221515E-2,-4.3035083E-2,-1.5411867E-1,-2.6720334E-2,2.2129806E-2,-1.5391111E-1,-5.388626E-2,-1.1907103E-1,5.5685877E-3,-5.0894428E-2,-1.2010009E-2,-6.7912586E-2,-2.3027614E-1,1.3417774E-1,7.8146234E-2,-2.3660444E-2,1.9213228E-1,1.2306685E-3,-1.0662343E-1,-2.9574437E-2,-1.1091341E-1,3.4741732E-1,6.101921E-2,-1.4672928E-1,-5.194476E-2,2.7334416E-1,2.8360812E-2,1.3468987E-1,-8.832406E-2,3.5962686E-1,-3.7303478E-1,2.2138791E-1,-3.0521547E-2,5.4282254E-1,-1.2452759E-1,1.3164772E-1,-3.0978713E-2,1.2386707E-1,-2.3497844E-1,2.5090305E-2,-2.9455814E-1,3.9878133E-1,-3.3705467E-1,5.299516E-1,5.1601094E-1,1.3219701E-1,-3.153522E-2,2.8649244E-1,-9.877644E-2,3.181437E-2],"split_indices":[10,10,10,10,12,2,12,10,12,12,7,4,1,10,5,0,11,11,11,11,10,8,10,11,6,4,12,1,12,0,8,13,0,8,2,13,6,12,12,10,2,12,9,5,1,9,4,8,4,9,12,12,0,10,11,5,4,5,0,0,9,0,0,0,0,0,0,0,0,0,0,0,0,0,0,0,0,0,0,0,0,0,0,0,0,0,0,0,0,0,0,0,0,0,0,0,0,0,0,0,0,0,0,0,0,0,0,0,0,0,0,0,0,0,0,0,0],"split_type":[0,0,0,0,0,0,0,0,0,0,0,0,0,0,0,0,0,0,0,0,0,0,0,0,0,0,0,0,0,0,0,0,0,0,0,0,0,0,0,0,0,0,0,0,0,0,0,0,0,0,0,0,0,0,0,0,0,0,0,0,0,0,0,0,0,0,0,0,0,0,0,0,0,0,0,0,0,0,0,0,0,0,0,0,0,0,0,0,0,0,0,0,0,0,0,0,0,0,0,0,0,0,0,0,0,0,0,0,0,0,0,0,0,0,0,0,0],"sum_hessian":[2.843E3,2.223E3,6.2E2,1.505E3,7.18E2,5.33E2,8.7E1,1.316E3,1.89E2,4.86E2,2.32E2,4.76E2,5.7E1,6.1E1,2.6E1,1.126E3,1.9E2,1.22E2,6.7E1,1.68E2,3.18E2,1.89E2,4.3E1,4.35E2,4.1E1,7E0,5E1,4.6E1,1.5E1,1E0,2.5E1,1.116E3,1E1,3.3E1,1.57E2,7.4E1,4.8E1,4E1,2.7E1,1.54E2,1.4E1,1.83E2,1.35E2,1.86E2,3E0,2.9E1,1.4E1,3.9E2,4.5E1,1E1,3.1E1,4E0,3E0,1.7E1,3.3E1,3.9E1,7E0,1.2E1,3E0,4E0,2.1E1,1.109E3,7E0,1E0,9E0,6E0,2.7E1,2.6E1,1.31E2,3E0,7.1E1,4.7E1,1E0,1.9E1,2.1E1,1.6E1,1.1E1,1.28E2,2.6E1,1E0,1.3E1,9E1,9.3E1,9.5E1,4E1,6.4E1,1.22E2,1E0,2E0,2.1E1,8E0,2E0,1.2E1,1.56E2,2.34E2,1.1E1,3.4E1,3E0,7E0,5E0,2.6E1,2E0,2E0,2E0,1.5E1,3.1E1,2E0,1E0,3.8E1,4E0,3E0,1.1E1,1E0,1E0,3E0,1.1E1,1E1],"tree_param":{"num_deleted":"0","num_feature":"14","num_nodes":"117","size_leaf_vector":"1"}},{"base_weights":[1.6960885E-2,-3.3322355E-1,1.2710562E0,-5.751731E-1,2.0550948E-1,1.0141765E0,2.8154051E0,-6.2465805E-1,-2.749591E-1,1.4649726E-1,2.0784943E0,1.3565968E0,2.401784E-1,3.743349E0,5.8029616E-1,-6.430629E-1,-5.127896E-1,-4.3753675E-1,-5.411073E-2,4.232048E-1,-2.4280687E-1,2.8029418E0,1.001308E0,1.2907408E0,7.0597285E-1,-7.287929E-1,7.052166E-1,3.0057545E0,6.0575485E0,6.626071E-1,9.291752E-2,-6.474699E-1,-1.3708778E-1,-4.0257788E-1,-6.81603E-1,-4.705087E-1,1.0711491E-1,7.590906E-1,-1.599572E-1,-8.1036866E-2,8.978927E-1,-7.2412014E-1,6.0824763E-2,9.28388E-2,3.324639E-1,-2.7430847E-1,1.3545007E0,1.181312E0,4.7248654E0,1.0423387E-1,-1.5656803E0,1.2205116E0,-1.1368304E0,3.310482E0,-2.7702305E-1,-1.00705385E-1,6.6784453E0,2.6888716E-1,-2.354483E-1,-6.487081E-2,-3.9473694E-2,2.6498866E-1,-6.8077385E-2,-8.810305E-2,-3.1888895E-2,-3.826059E-2,-7.449923E-2,-3.7868273E-2,-9.290695E-2,9.6558094E-2,-1.1341072E-2,-7.117594E-2,-2.9684855E-3,-2.9565228E-2,8.2021795E-2,1.1648085E-1,-5.5649787E-2,-7.942634E-2,3.390604E-1,-2.5142862E-2,8.277516E-2,-5.702109E-2,1.5874816E-2,8.4482335E-2,1.9223551E-1,7.584571E-2,1.7597954E-1,6.176364E-1,1.7477952E-1,1.07087374E-1,-9.38897E-2,-2.3673724E-1,-7.6650165E-2,8.6992785E-2,4.6176082E-1,1.301263E-1,-2.8489769E-1,1.445486E-1,3.90861E-1,7.4026936E-1,-1.0062654E-1,-9.665795E-2,2.6766902E-2],"categories":[],"categories_nodes":[],"categories_segments":[],"categories_sizes":[],"default_left":[0,0,0,0,0,0,0,0,0,0,0,0,0,0,0,0,0,0,0,0,0,0,0,0,0,0,0,0,0,0,0,0,0,0,0,0,0,0,0,0,0,0,0,0,0,0,0,0,0,0,0,0,0,0,0,0,0,0,0,0,0,0,0,0,0,0,0,0,0,0,0,0,0,0,0,0,0,0,0,0,0,0,0,0,0,0,0,0,0,0,0,0,0,0,0,0,0,0,0,0,0,0,0],"id":14,"left_children":[1,3,5,7,9,11,13,15,17,19,21,23,25,27,29,31,33,35,37,39,41,43,45,47,-1,49,51,53,55,-1,57,59,61,63,65,67,-1,69,71,73,75,77,79,-1,-1,81,83,85,87,89,91,93,95,97,-1,-1,99,-1,101,-1,-1,-1,-1,-1,-1,-1,-1,-1,-1,-1,-1,-1,-1,-1,-1,-1,-1,-1,-1,-1,-1,-1,-1,-1,-1,-1,-1,-1,-1,-1,-1,-1,-1,-1,-1,-1,-1,-1,-1,-1,-1,-1,-1],"loss_changes":[1.2494078E3,2.9000818E2,2.4350269E2,2.2632355E1,7.5960526E1,1.412016E2,1.8034473E2,2.381775E0,7.8395214E0,7.227743E1,1.3581055E1,1.2985419E2,7.486439E1,8.762286E1,7.894202E1,2.424286E0,3.2791977E0,6.7717667E0,8.212424E0,9.3900856E1,4.0817642E1,8.648834E0,4.876935E0,1.3233429E2,0E0,3.780928E1,1.0769765E2,9.54158E1,6.813501E1,0E0,2.2796078E1,9.350586E-2,1.8471605E1,4.443907E0,1.1174965E0,4.869541E0,0E0,2.091301E0,6.0171757E0,3.718632E1,7.906459E1,3.386401E1,4.1397907E1,0E0,0E0,4.749474E-1,6.913309E-1,8.5992645E1,3.6738327E1,2.9238735E1,1.5484177E1,1.00788086E2,1.0806659E2,4.677893E1,0E0,0E0,7.980237E1,0E0,9.086997E0,0E0,0E0,0E0,0E0,0E0,0E0,0E0,0E0,0E0,0E0,0E0,0E0,0E0,0E0,0E0,0E0,0E0,0E0,0E0,0E0,0E0,0E0,0E0,0E0,0E0,0E0,0E0,0E0,0E0,0E0,0E0,0E0,0E0,0E0,0E0,0E0,0E0,0E0,0E0,0E0,0E0,0E0,0E0,0E0],"parents":[2147483647,0,0,1,1,2,2,3,3,4,4,5,5,6,6,7,7,8,8,9,9,10,10,11,11,12,12,13,13,14,14,15,15,16,16,17,17,18,18,19,19,20,20,21,21,22,22,23,23,25,25,26,26,27,27,28,28,30,30,31,31,32,32,33,33,34,34,35,35,37,37,38,38,39,39,40,40,41,41,42,42,45,45,46,46,47,47,48,48,49,49,50,50,51,51,52,52,53,53,56,56,58,58],"right_children":[2,4,6,8,10,12,14,16,18,20,22,24,26,28,30,32,34,36,38,40,42,44,46,48,-1,50,52,54,56,-1,58,60,62,64,66,68,-1,70,72,74,76,78,80,-1,-1,82,84,86,88,90,92,94,96,98,-1,-1,100,-1,102,-1,-1,-1,-1,-1,-1,-1,-1,-1,-1,-1,-1,-1,-1,-1,-1,-1,-1,-1,-1,-1,-1,-1,-1,-1,-1,-1,-1,-1,-1,-1,-1,-1,-1,-1,-1,-1,-1,-1,-1,-1,-1,-1,-1],"split_conditions":[4.7E0,1.91E0,1.2505E1,1.2066667E0,3.69E0,7.8E0,1.353E1,6.1333334E-1,3.3333334E-1,2.64E0,2.8E0,5.4285717E-1,1.4705883E-1,4.51E0,1.7333333E-1,5.0666666E-1,8E-1,4.4444445E-1,2.5E-1,3.1E-1,-6.25E-2,5.0877196E-1,1.7391305E-1,4E-1,7.0597285E-1,6.0233335E0,3.6619717E-1,3.95E0,1.3333334E-1,6.626071E-1,1.52E-1,2.975E-1,5.4285717E-1,-2.9166666E-1,1.88E-1,2.25E0,1.0711491E-1,1.1836735E0,5.5714285E-1,3.3333334E-1,3.3E0,3.026316E-1,2E-1,9.28388E-2,3.324639E-1,4.255319E-2,2.6666668E-1,7.03E0,1.3513514E-2,9.21E0,1.083E1,2.985E0,2.5333333E-1,1.39E1,-2.7702305E-1,-1.00705385E-1,5.797101E-1,2.6888716E-1,1.761E1,-6.487081E-2,-3.9473694E-2,2.6498866E-1,-6.8077385E-2,-8.810305E-2,-3.1888895E-2,-3.826059E-2,-7.449923E-2,-3.7868273E-2,-9.290695E-2,9.6558094E-2,-1.1341072E-2,-7.117594E-2,-2.9684855E-3,-2.9565228E-2,8.2021795E-2,1.1648085E-1,-5.5649787E-2,-7.942634E-2,3.390604E-1,-2.5142862E-2,8.277516E-2,-5.702109E-2,1.5874816E-2,8.4482335E-2,1.9223551E-1,7.584571E-2,1.7597954E-1,6.176364E-1,1.7477952E-1,1.07087374E-1,-9.38897E-2,-2.3673724E-1,-7.6650165E-2,8.6992785E-2,4.6176082E-1,1.301263E-1,-2.8489769E-1,1.445486E-1,3.90861E-1,7.4026936E-1,-1.0062654E-1,-9.665795E-2,2.6766902E-2],"split_indices":[10,10,10,10,9,12,12,10,11,12,12,0,0,12,5,0,12,0,12,12,2,6,1,11,0,10,0,12,0,0,8,13,0,2,8,12,0,6,5,11,9,3,0,0,0,0,1,10,2,12,12,13,3,10,0,0,0,0,12,0,0,0,0,0,0,0,0,0,0,0,0,0,0,0,0,0,0,0,0,0,0,0,0,0,0,0,0,0,0,0,0,0,0,0,0,0,0,0,0,0,0,0,0],"split_type":[0,0,0,0,0,0,0,0,0,0,0,0,0,0,0,0,0,0,0,0,0,0,0,0,0,0,0,0,0,0,0,0,0,0,0,0,0,0,0,0,0,0,0,0,0,0,0,0,0,0,0,0,0,0,0,0,0,0,0,0,0,0,0,0,0,0,0,0,0,0,0,0,0,0,0,0,0,0,0,0,0,0,0,0,0,0,0,0,0,0,0,0,0,0,0,0,0,0,0,0,0,0,0],"sum_hessian":[2.843E3,2.223E3,6.2E2,1.534E3,6.89E2,5.33E2,8.7E1,1.316E3,2.18E2,6.69E2,2E1,3.69E2,1.64E2,6.1E1,2.6E1,1.126E3,1.9E2,1.25E2,9.3E1,3.91E2,2.78E2,1.1E1,9E0,3.66E2,3E0,5.3E1,1.11E2,4.8E1,1.3E1,1E0,2.5E1,1.116E3,1E1,1.17E2,7.3E1,1.23E2,2E0,1E1,8.3E1,1.9E2,2.01E2,1.07E2,1.71E2,3E0,8E0,2E0,7E0,3.56E2,1E1,2.7E1,2.6E1,8.7E1,2.4E1,4.6E1,2E0,1E0,1.2E1,2E0,2.3E1,1.109E3,7E0,1E0,9E0,1.6E1,1.01E2,1.4E1,5.9E1,1.04E2,1.9E1,8E0,2E0,1.5E1,6.8E1,1.54E2,3.6E1,1.7E2,3.1E1,1.06E2,1E0,1.22E2,4.9E1,1E0,1E0,5E0,2E0,2.07E2,1.49E2,6E0,4E0,1.4E1,1.3E1,1.2E1,1.4E1,8E1,7E0,1E1,1.4E1,1.2E1,3.4E1,1.1E1,1E0,9E0,1.4E1],"tree_param":{"num_deleted":"0","num_feature":"14","num_nodes":"103","size_leaf_vector":"1"}},{"base_weights":[1.682655E-2,-4.4695276E-1,7.989729E-1,-5.6229866E-1,-1.227878E-1,4.9315497E-1,1.899103E0,-5.672828E-1,-2.2769465E-1,-1.3499054E0,-7.936656E-2,3.456737E-1,1.3979477E0,2.2128956E0,1.4664024E-1,-5.877318E-1,-4.85042E-1,-4.908186E-1,2.5173923E-1,-4.517792E-1,-1.8436033E0,1.121077E-1,-3.2405677E-1,6.340761E-1,-1.5539642E-1,-1.8208318E0,1.9311607E0,1.9178681E0,5.39365E0,-2.6437622E-1,6.8198776E-1,-5.887517E-2,-2.600919E-1,-4.4852892E-1,-9.891718E-1,-5.871835E-2,2.5097704E-1,-3.5300076E-2,-7.553135E-1,-2.0527709E0,1.9452692E-3,-1.0595689E0,1.7407364E-1,-3.7973312E-1,1.2652675E0,5.401166E-1,3.1724603E0,-4.1566864E-1,8.317312E-1,1.6106842E0,-2.6712055E0,5.224432E0,1.4654256E0,1.7425532E0,6.7115726E0,4.15897E0,8.057949E-1,1.112121E-1,2.0648603E0,7.1808374E-3,-5.0529487E-2,-3.535786E-2,-5.7876416E-2,-1.08794026E-1,2.955619E-2,3.805039E-2,-4.038334E-4,-9.52428E-3,1.6428431E-3,-1.6484214E-2,-8.971899E-2,-2.271569E-1,-8.579847E-2,-2.09879E-1,1.0229428E-1,-6.8281465E-3,5.6153692E-2,-1.15038E-1,-2.8454164E-2,6.4626865E-2,1.5679495E-1,2.451565E-2,1.095435E-1,4.1500875E-1,-7.9794236E-2,-6.285513E-2,8.200986E-2,1.8627225E-1,-6.836795E-2,-6.4090066E-2,2.574846E-1,-3.0438226E-1,-9.787073E-2,6.8980634E-1,1.5265423E-2,-1.3040821E-2,2.4543121E-1,-9.89004E-2,1.8966077E-1,8.301034E-1,-6.17867E-2,4.8063698E-1,2.1618561E-1,7.264165E-2,-1.7529364E-1,7.058402E-2,3.010908E-1],"categories":[],"categories_nodes":[],"categories_segments":[],"categories_sizes":[],"default_left":[0,0,0,0,0,0,0,0,0,0,0,0,0,0,0,0,0,0,0,0,0,0,0,0,0,0,0,0,0,0,0,0,0,0,0,0,0,0,0,0,0,0,0,0,0,0,0,0,0,0,0,0,0,0,0,0,0,0,0,0,0,0,0,0,0,0,0,0,0,0,0,0,0,0,0,0,0,0,0,0,0,0,0,0,0,0,0,0,0,0,0,0,0,0,0,0,0,0,0,0,0,0,0,0,0,0,0],"id":15,"left_children":[1,3,5,7,9,11,13,15,17,19,21,23,25,27,29,31,33,35,-1,37,39,41,43,45,47,49,51,53,55,-1,57,-1,59,61,63,-1,65,67,69,71,-1,73,75,77,79,81,83,85,87,89,91,93,95,97,99,101,-1,103,105,-1,-1,-1,-1,-1,-1,-1,-1,-1,-1,-1,-1,-1,-1,-1,-1,-1,-1,-1,-1,-1,-1,-1,-1,-1,-1,-1,-1,-1,-1,-1,-1,-1,-1,-1,-1,-1,-1,-1,-1,-1,-1,-1,-1,-1,-1,-1,-1],"loss_changes":[1.031999E3,6.671146E1,3.5535297E2,2.0671997E0,2.4935863E1,1.1027194E2,1.26154785E2,1.8961792E0,1.6403843E1,6.261547E0,2.1353933E1,1.0342306E2,2.0260657E2,1.7264563E2,5.5581074E1,1.923523E-1,4.4158707E0,1.5770316E0,0E0,8.582474E-1,3.93684E0,1.8771074E1,1.8178022E1,1.0656795E2,6.765926E1,5.390968E1,1.4572314E2,1.3957806E2,1.9120148E1,0E0,2.4238968E1,0E0,4.4319907E-1,2.8620987E0,2.4787025E0,0E0,1.0063061E-1,1.3967681E-2,1.8720102E-1,4.0377808E-1,0E0,3.028141E1,2.2950848E1,1.3904318E1,2.982006E-1,7.1638214E1,6.541669E1,5.5234745E1,8.720415E1,1.0333787E1,5.8501434E0,1.008064E2,1.407708E2,7.551727E1,7.502811E1,6.4174194E0,0E0,2.7650505E1,9.446064E0,0E0,0E0,0E0,0E0,0E0,0E0,0E0,0E0,0E0,0E0,0E0,0E0,0E0,0E0,0E0,0E0,0E0,0E0,0E0,0E0,0E0,0E0,0E0,0E0,0E0,0E0,0E0,0E0,0E0,0E0,0E0,0E0,0E0,0E0,0E0,0E0,0E0,0E0,0E0,0E0,0E0,0E0,0E0,0E0,0E0,0E0,0E0,0E0],"parents":[2147483647,0,0,1,1,2,2,3,3,4,4,5,5,6,6,7,7,8,8,9,9,10,10,11,11,12,12,13,13,14,14,15,15,16,16,17,17,19,19,20,20,21,21,22,22,23,23,24,24,25,25,26,26,27,27,28,28,30,30,32,32,33,33,34,34,36,36,37,37,38,38,39,39,41,41,42,42,43,43,44,44,45,45,46,46,47,47,48,48,49,49,50,50,51,51,52,52,53,53,54,54,55,55,57,57,58,58],"right_children":[2,4,6,8,10,12,14,16,18,20,22,24,26,28,30,32,34,36,-1,38,40,42,44,46,48,50,52,54,56,-1,58,-1,60,62,64,-1,66,68,70,72,-1,74,76,78,80,82,84,86,88,90,92,94,96,98,100,102,-1,104,106,-1,-1,-1,-1,-1,-1,-1,-1,-1,-1,-1,-1,-1,-1,-1,-1,-1,-1,-1,-1,-1,-1,-1,-1,-1,-1,-1,-1,-1,-1,-1,-1,-1,-1,-1,-1,-1,-1,-1,-1,-1,-1,-1,-1,-1,-1,-1,-1],"split_conditions":[2.8E0,1.2066667E0,8.48E0,3.5526314E-1,2.1052632E-1,2.5E-3,1.48E1,3.9E-1,2.97E-1,1.0163934E0,1.49E0,4.7E0,8.9285713E-1,1.833E1,1.02E1,2.975E-1,3.8961038E-1,4.75E-1,2.5173923E-1,1E-2,3.75E-1,-7.175E-1,3.4871795E0,2.9733334E0,6.9E0,1.6E-1,7.5E-1,1.45E1,1E-2,-2.6437622E-1,3.31E0,-5.887517E-2,1.724138E-2,5.7E-1,2.5757575E-1,-5.871835E-2,5.0666666E-1,-4.7619048E-1,-5.3846157E-1,2.56E0,1.9452692E-3,1.6666666E0,2.07E0,1.724138E-2,5.7377046E-1,1.49E0,8.333333E-1,2.0895523E-1,7.775E0,3.6363637E-1,1.4545455E0,2.2077923E-1,7.906977E-1,-3.1525E0,2.6923077E0,6.5217394E-1,8.057949E-1,3.18E0,5.675676E-1,7.1808374E-3,-5.0529487E-2,-3.535786E-2,-5.7876416E-2,-1.08794026E-1,2.955619E-2,3.805039E-2,-4.038334E-4,-9.52428E-3,1.6428431E-3,-1.6484214E-2,-8.971899E-2,-2.271569E-1,-8.579847E-2,-2.09879E-1,1.0229428E-1,-6.8281465E-3,5.6153692E-2,-1.15038E-1,-2.8454164E-2,6.4626865E-2,1.5679495E-1,2.451565E-2,1.095435E-1,4.1500875E-1,-7.9794236E-2,-6.285513E-2,8.200986E-2,1.8627225E-1,-6.836795E-2,-6.4090066E-2,2.574846E-1,-3.0438226E-1,-9.787073E-2,6.8980634E-1,1.5265423E-2,-1.3040821E-2,2.4543121E-1,-9.89004E-2,1.8966077E-1,8.301034E-1,-6.17867E-2,4.8063698E-1,2.1618561E-1,7.264165E-2,-1.7529364E-1,7.058402E-2,3.010908E-1],"split_indices":[10,10,10,3,5,13,12,10,8,4,12,12,4,10,10,13,1,10,0,12,0,13,5,4,10,8,12,12,12,0,9,0,0,12,3,0,0,2,2,12,0,4,10,0,6,12,6,3,10,6,6,3,5,13,4,5,0,9,1,0,0,0,0,0,0,0,0,0,0,0,0,0,0,0,0,0,0,0,0,0,0,0,0,0,0,0,0,0,0,0,0,0,0,0,0,0,0,0,0,0,0,0,0,0,0,0,0],"split_type":[0,0,0,0,0,0,0,0,0,0,0,0,0,0,0,0,0,0,0,0,0,0,0,0,0,0,0,0,0,0,0,0,0,0,0,0,0,0,0,0,0,0,0,0,0,0,0,0,0,0,0,0,0,0,0,0,0,0,0,0,0,0,0,0,0,0,0,0,0,0,0,0,0,0,0,0,0,0,0,0,0,0,0,0,0,0,0,0,0,0,0,0,0,0,0,0,0,0,0,0,0,0,0,0,0,0,0],"sum_hessian":[2.843E3,1.785E3,1.058E3,1.316E3,4.69E2,8.29E2,2.29E2,1.296E3,2E1,1.5E1,4.54E2,7.14E2,1.15E2,1.94E2,3.5E1,1.033E3,2.63E2,1.9E1,1E0,6E0,9E0,2.55E2,1.99E2,4.53E2,2.61E2,1.6E1,9.9E1,1.79E2,1.5E1,5E0,3E1,1.029E3,4E0,2.47E2,1.6E1,1.7E1,2E0,3E0,3E0,8E0,1E0,1.2E1,2.43E2,1.93E2,6E0,4.38E2,1.5E1,2.07E2,5.4E1,3E0,1.3E1,1.1E1,8.8E1,1.74E2,5E0,1.2E1,3E0,2.2E1,8E0,2E0,2E0,1.45E2,1.02E2,1.5E1,1E0,1E0,1E0,1E0,2E0,1E0,2E0,6E0,2E0,8E0,4E0,1.5E2,9.3E1,2E1,1.73E2,3E0,3E0,2.87E2,1.51E2,1.2E1,3E0,1.77E2,3E1,3.2E1,2.2E1,1E0,2E0,1E1,3E0,8E0,3E0,3.4E1,5.4E1,9E0,1.65E2,4E0,1E0,8E0,4E0,1.7E1,5E0,4E0,4E0],"tree_param":{"num_deleted":"0","num_feature":"14","num_nodes":"107","size_leaf_vector":"1"}},{"base_weights":[1.6287282E-2,-2.7272105E-1,1.0512925E0,-4.5380855E-1,1.9233312E-1,8.362786E-1,2.3440893E0,-5.082529E-1,-2.1985255E-1,3.645625E-1,-3.640571E-1,1.1239662E0,1.1910176E-1,3.1308572E0,4.50619E-1,-5.119054E-1,-7.417564E-2,-7.373175E-2,-4.66183E-1,3.1177264E-1,2.3841894E0,-9.087722E-1,1.7824921E-1,9.5736164E-1,2.9110792E0,1.0756992E0,-3.3755514E-1,2.476279E0,5.198248E0,5.879715E-1,1.5664756E-2,-5.1347405E-1,3.3065334E-2,2.3915224E-1,-5.157411E-1,-1.4330657E-1,4.4372258E-1,-2.678627E-1,-9.8213154E-1,-1.14209235E-1,5.5007756E-1,1.015073E0,3.2171193E-1,-3.4999928E-1,-1.4289254E0,6.08627E-1,-1.7404417E0,8.4987944E-1,4.526768E0,4.5057225E0,-1.2213633E-1,-7.5500834E-1,2.321338E0,7.0725745E-1,-5.5010694E-1,2.874814E0,-3.2561907E-1,5.7597723E0,-1.0507824E-1,1.778557E0,-3.8570458E-1,-7.70317E-2,-5.0901093E-2,-3.8363933E-4,-5.66548E-2,4.2402875E-2,-2.1328067E-2,8.955261E-2,-3.5858583E-2,-1.1335981E-1,-1.6040295E-2,