{"learner":{"attributes":{"scikit_learn":"{\"_estimator_type\": \"regressor\"}"},"feature_names":["goals_pg","assists_pg","plus_minus_pg","pp_points_pg","shots_pg","hits_pg","blocked_shots_pg","pp1_status","team_pp_percentage","opponent_goals_against_per_game","avg_prediction_error","prediction_accuracy","last_prediction_error","prediction_trend"],"feature_types":["float","float","float","float","float","float","float","int","float","float","float","float","float","float"],"gradient_booster":{"model":{"gbtree_model_param":{"num_parallel_tree":"1","num_trees":"100"},"iteration_indptr":[0,1,2,3,4,5,6,7,8,9,10,11,12,13,14,15,16,17,18,19,20,21,22,23,24,25,26,27,28,29,30,31,32,33,34,35,36,37,38,39,40,41,42,43,44,45,46,47,48,49,50,51,52,53,54,55,56,57,58,59,60,61,62,63,64,65,66,67,68,69,70,71,72,73,74,75,76,77,78,79,80,81,82,83,84,85,86,87,88,89,90,91,92,93,94,95,96,97,98,99,100],"tree_info":[0,0,0,0,0,0,0,0,0,0,0,0,0,0,0,0,0,0,0,0,0,0,0,0,0,0,0,0,0,0,0,0,0,0,0,0,0,0,0,0,0,0,0,0,0,0,0,0,0,0,0,0,0,0,0,0,0,0,0,0,0,0,0,0,0,0,0,0,0,0,0,0,0,0,0,0,0,0,0,0,0,0,0,0,0,0,0,0,0,0,0,0,0,0,0,0,0,0,0,0],"trees":[{"base_weights":[5.1846342E-8,-1.0724621E0,8.4545765E0,-1.602899E0,1.6624383E0,6.6345305E0,1.5081209E0,-1.7023851E0,-5.259997E-1,2.3682528E0,-1.391097E0,7.7769957E0,3.35711E-1,-1.7142214E0,-8.0221504E-1,-5.1155753E-2,-1.5631223E0,1.2564065E0,3.617437E0,-1.6912472E0,-5.452579E-1,5.8929176E0,9.257774E0,-1.9907562E-1,3.9673138E-1,-1.7434412E-1,-1.3348439E0,-1.6455274E0,3.4006472E0,-4.7227836E-1,2.1799399E-1,-1.6313188E0,2.7548527E-2,1.3577313E0,-5.7419115E-1,3.7539353E0,6.0077655E-1,-1.7673951E-1,-3.6601958E-1,1.463228E-1,-1.2941265E0,5.996323E0,2.0673136E-1,8.5451216E-1,1.404369E0,4.5754853E-1,-6.6657794E-1,-1.515355E-1,-1.067112E-1,-1.7144887E-1,-3.7451472E-2,-8.745147E-2,5.9754854E-1,-6.5106824E-2,7.63228E-2,-7.660197E-2,2.8309036E-2,1.25485305E-2,-1.6940618E-1,1.24818206E-1,2.5722608E-1,1.322794E-3,-1.1660196E-1,3.4116712E-1,5.100906E-1,-2.1245146E-1,1.813228E-1,3.2548536E-2,-8.745147E-2,5.2548528E-2,-1.5546928E-1,5.5281234E-1,7.723085E-1,2.1132278E-1,-1.2814395E-1],"categories":[],"categories_nodes":[],"categories_segments":[],"categories_sizes":[],"default_left":[0,0,0,0,0,0,0,0,0,0,0,0,0,0,0,0,0,0,0,0,0,0,0,0,0,0,0,0,0,0,0,0,0,0,0,0,0,0,0,0,0,0,0,0,0,0,0,0,0,0,0,0,0,0,0,0,0,0,0,0,0,0,0,0,0,0,0,0,0,0,0,0,0,0,0],"id":0,"left_children":[1,3,5,7,9,11,-1,13,15,17,19,21,23,25,27,29,31,33,35,37,39,41,43,45,-1,-1,47,49,51,53,55,57,-1,59,61,63,65,-1,67,-1,69,71,-1,-1,-1,-1,73,-1,-1,-1,-1,-1,-1,-1,-1,-1,-1,-1,-1,-1,-1,-1,-1,-1,-1,-1,-1,-1,-1,-1,-1,-1,-1,-1,-1],"loss_changes":[1.4498473E4,2.0611968E3,2.0708828E3,1.2648999E2,5.0115234E2,1.0264438E3,0E0,1.0217041E1,5.015211E1,2.5656848E2,1.0248505E1,2.8302197E2,4.5458843E1,9.567139E0,6.230506E1,8.150452E0,4.4617844E0,1.9513596E1,3.3980347E1,2.5823212E0,2.1446796E1,9.756714E0,1.0510156E2,4.99244E1,0E0,0E0,2.2975616E0,5.850067E-1,3.8249195E1,6.682002E0,3.0353034E0,3.6296158E0,0E0,9.562225E0,2.1013317E0,2.132312E1,2.0373644E1,0E0,1.3395222E0,0E0,5.558262E0,9.6325684E-1,0E0,0E0,0E0,0E0,3.689189E1,0E0,0E0,0E0,0E0,0E0,0E0,0E0,0E0,0E0,0E0,0E0,0E0,0E0,0E0,0E0,0E0,0E0,0E0,0E0,0E0,0E0,0E0,0E0,0E0,0E0,0E0,0E0,0E0],"parents":[2147483647,0,0,1,1,2,2,3,3,4,4,5,5,7,7,8,8,9,9,10,10,11,11,12,12,13,13,14,14,15,15,16,16,17,17,18,18,19,19,20,20,21,21,22,22,23,23,26,26,27,27,28,28,29,29,30,30,31,31,33,33,34,34,35,35,36,36,38,38,40,40,41,41,46,46],"right_children":[2,4,6,8,10,12,-1,14,16,18,20,22,24,26,28,30,32,34,36,38,40,42,44,46,-1,-1,48,50,52,54,56,58,-1,60,62,64,66,-1,68,-1,70,72,-1,-1,-1,-1,74,-1,-1,-1,-1,-1,-1,-1,-1,-1,-1,-1,-1,-1,-1,-1,-1,-1,-1,-1,-1,-1,-1,-1,-1,-1,-1,-1,-1],"split_conditions":[6.3E0,2.155E0,1.33E1,1.3E0,3.9E0,8.9E0,1.5081209E0,4.9122807E-1,6E-1,3.8E0,3.472222E-1,8.575E0,3.28E0,6.2E-1,3.01E-1,1.525E0,3.4285715E-1,2.8E0,3.2857144E0,2.9850745E-1,9.859155E-2,2.887097E0,1E-1,2.3529412E-1,3.9673138E-1,-1.7434412E-1,3.01E0,4.0983605E-1,2.5333333E-1,3.54E0,1.24E-1,5.588235E-1,2.7548527E-2,5E-1,-1.369863E-2,1E-1,1.4285714E-2,-1.7673951E-1,3.114754E-1,1.463228E-1,1.5714285E0,1E-1,2.0673136E-1,8.5451216E-1,1.404369E0,4.5754853E-1,1.25E-1,-1.515355E-1,-1.067112E-1,-1.7144887E-1,-3.7451472E-2,-8.745147E-2,5.9754854E-1,-6.5106824E-2,7.63228E-2,-7.660197E-2,2.8309036E-2,1.25485305E-2,-1.6940618E-1,1.24818206E-1,2.5722608E-1,1.322794E-3,-1.1660196E-1,3.4116712E-1,5.100906E-1,-2.1245146E-1,1.813228E-1,3.2548536E-2,-8.745147E-2,5.2548528E-2,-1.5546928E-1,5.5281234E-1,7.723085E-1,2.1132278E-1,-1.2814395E-1],"split_indices":[10,10,10,10,12,12,0,0,12,10,1,10,9,10,8,10,0,12,5,0,3,4,12,5,0,0,9,3,1,9,8,4,0,11,2,12,0,0,0,0,4,12,0,0,0,0,8,0,0,0,0,0,0,0,0,0,0,0,0,0,0,0,0,0,0,0,0,0,0,0,0,0,0,0,0],"split_type":[0,0,0,0,0,0,0,0,0,0,0,0,0,0,0,0,0,0,0,0,0,0,0,0,0,0,0,0,0,0,0,0,0,0,0,0,0,0,0,0,0,0,0,0,0,0,0,0,0,0,0,0,0,0,0,0,0,0,0,0,0,0,0,0,0,0,0,0,0,0,0,0,0,0,0],"sum_hessian":[1.597E3,1.418E3,1.79E2,1.188E3,2.3E2,1.42E2,3.7E1,1.087E3,1.01E2,1.87E2,4.3E1,1.2E2,2.2E1,1.072E3,1.5E1,7E1,3.1E1,1E2,8.7E1,3.1E1,1.2E1,5.5E1,6.5E1,2E1,2E0,9.92E2,8E1,1.3E1,2E0,2.7E1,4.3E1,3E1,1E0,9.5E1,5E0,8.3E1,4E0,2.9E1,2E0,3E0,9E0,5.3E1,2E0,5.9E1,6E0,1E0,1.9E1,4.5E1,3.5E1,1.2E1,1E0,1E0,1E0,2.4E1,3E0,2E0,4.1E1,1E0,2.9E1,8.9E1,6E0,3E0,2E0,6.9E1,1.4E1,1E0,3E0,1E0,1E0,1E0,8E0,4.5E1,8E0,3E0,1.6E1],"tree_param":{"num_deleted":"0","num_feature":"14","num_nodes":"75","size_leaf_vector":"1"}},{"base_weights":[4.278575E-3,-9.647925E-1,7.643765E0,-1.4428596E0,1.5000846E0,6.0041413E0,1.3612775E0,-1.5322673E0,-4.7503093E-1,2.1372087E0,-1.2562654E0,7.0306244E0,3.4289894E-1,-1.5432024E0,-7.031688E-1,-4.6562348E-2,-1.4108509E0,1.2657577E0,3.4626095E0,-1.5293614E0,-4.873935E-1,5.3309803E0,8.366222E0,-1.534192E-1,3.7028262E-1,-1.5692727E-1,-1.2045478E0,-1.4958961E0,3.2306147E0,-4.246499E-1,1.9509706E-1,-1.4732468E0,2.6171101E-2,9.500178E-1,1.9322419E0,3.5750005E0,-3.8897672E-1,-1.5965469E-1,-3.477186E-1,1.3534859E-1,-1.1750059E0,5.42123E0,1.929493E-1,7.704851E-1,1.2839944E0,4.3467107E-1,-5.9576124E-1,-1.4229101E-1,-9.9823765E-2,-1.5562283E-1,-3.5578895E-2,-8.30789E-2,5.676711E-1,-5.8856566E-2,7.0598595E-2,9.98406E-3,9.181293E-2,-3.552061E-2,-1.580351E-1,8.045805E-2,2.3517811E-1,1.980316E-1,1.2482393E-2,1.8356116E-2,3.6692765E-1,-2.0182891E-1,1.434824E-1,3.0921107E-2,-8.30789E-2,4.9921103E-2,-1.4164978E-1,4.9873286E-1,7.036589E-1,1.954736E-1,-1.1608334E-1],"categories":[],"categories_nodes":[],"categories_segments":[],"categories_sizes":[],"default_left":[0,0,0,0,0,0,0,0,0,0,0,0,0,0,0,0,0,0,0,0,0,0,0,0,0,0,0,0,0,0,0,0,0,0,0,0,0,0,0,0,0,0,0,0,0,0,0,0,0,0,0,0,0,0,0,0,0,0,0,0,0,0,0,0,0,0,0,0,0,0,0,0,0,0,0],"id":1,"left_children":[1,3,5,7,9,11,-1,13,15,17,19,21,23,25,27,29,31,33,35,37,39,41,43,45,-1,-1,47,49,51,53,55,57,-1,59,61,63,65,-1,67,-1,69,71,-1,-1,-1,-1,73,-1,-1,-1,-1,-1,-1,-1,-1,-1,-1,-1,-1,-1,-1,-1,-1,-1,-1,-1,-1,-1,-1,-1,-1,-1,-1,-1,-1],"loss_changes":[1.1837696E4,1.6742809E3,1.6799131E3,1.021582E2,4.083526E2,8.2858594E2,0E0,8.778809E0,4.083319E1,2.1276135E2,8.493538E0,2.300752E2,3.8922714E1,7.583008E0,5.4727345E1,6.570006E0,3.7251167E0,2.236444E1,3.342401E1,1.9853058E0,1.8045902E1,6.730957E0,9.63501E1,4.439213E1,0E0,0E0,2.2286758E0,4.0930367E-1,3.4519905E1,5.6047316E0,2.938767E0,3.1508026E0,0E0,1.4417297E1,2.880844E0,2.2347107E1,1.1810513E1,0E0,1.208919E0,0E0,4.750229E0,2.755005E0,0E0,0E0,0E0,0E0,3.1093422E1,0E0,0E0,0E0,0E0,0E0,0E0,0E0,0E0,0E0,0E0,0E0,0E0,0E0,0E0,0E0,0E0,0E0,0E0,0E0,0E0,0E0,0E0,0E0,0E0,0E0,0E0,0E0,0E0],"parents":[2147483647,0,0,1,1,2,2,3,3,4,4,5,5,7,7,8,8,9,9,10,10,11,11,12,12,13,13,14,14,15,15,16,16,17,17,18,18,19,19,20,20,21,21,22,22,23,23,26,26,27,27,28,28,29,29,30,30,31,31,33,33,34,34,35,35,36,36,38,38,40,40,41,41,46,46],"right_children":[2,4,6,8,10,12,-1,14,16,18,20,22,24,26,28,30,32,34,36,38,40,42,44,46,-1,-1,48,50,52,54,56,58,-1,60,62,64,66,-1,68,-1,70,72,-1,-1,-1,-1,74,-1,-1,-1,-1,-1,-1,-1,-1,-1,-1,-1,-1,-1,-1,-1,-1,-1,-1,-1,-1,-1,-1,-1,-1,-1,-1,-1,-1],"split_conditions":[6.3E0,2.155E0,1.33E1,1.3E0,3.9E0,8.9E0,1.3612775E0,4.9122807E-1,6E-1,3.97E0,3.472222E-1,8.575E0,3.28E0,6.2E-1,3.01E-1,1.525E0,3.4285715E-1,3.3E0,3.2857144E0,2.9850745E-1,9.859155E-2,2.887097E0,1E-1,2.3529412E-1,3.7028262E-1,-1.5692727E-1,1.388889E-1,4.0983605E-1,2.5333333E-1,3.54E0,3.75E-1,7.575758E-2,2.6171101E-2,5E-1,2.5E0,-4.21875E-1,1.4285714E-2,-1.5965469E-1,3.114754E-1,1.3534859E-1,1.5714285E0,1E-1,1.929493E-1,7.704851E-1,1.2839944E0,4.3467107E-1,1.25E-1,-1.4229101E-1,-9.9823765E-2,-1.5562283E-1,-3.5578895E-2,-8.30789E-2,5.676711E-1,-5.8856566E-2,7.0598595E-2,9.98406E-3,9.181293E-2,-3.552061E-2,-1.580351E-1,8.045805E-2,2.3517811E-1,1.980316E-1,1.2482393E-2,1.8356116E-2,3.6692765E-1,-2.0182891E-1,1.434824E-1,3.0921107E-2,-8.30789E-2,4.9921103E-2,-1.4164978E-1,4.9873286E-1,7.036589E-1,1.954736E-1,-1.1608334E-1],"split_indices":[10,10,10,10,12,12,0,0,12,10,1,10,9,10,8,10,0,10,5,0,3,4,12,5,0,0,1,3,1,9,1,1,0,11,12,2,0,0,0,0,4,12,0,0,0,0,8,0,0,0,0,0,0,0,0,0,0,0,0,0,0,0,0,0,0,0,0,0,0,0,0,0,0,0,0],"split_type":[0,0,0,0,0,0,0,0,0,0,0,0,0,0,0,0,0,0,0,0,0,0,0,0,0,0,0,0,0,0,0,0,0,0,0,0,0,0,0,0,0,0,0,0,0,0,0,0,0,0,0,0,0,0,0,0,0,0,0,0,0,0,0,0,0,0,0,0,0,0,0,0,0,0,0],"sum_hessian":[1.597E3,1.418E3,1.79E2,1.188E3,2.3E2,1.42E2,3.7E1,1.087E3,1.01E2,1.87E2,4.3E1,1.2E2,2.2E1,1.072E3,1.5E1,7E1,3.1E1,1.14E2,7.3E1,3.1E1,1.2E1,5.5E1,6.5E1,2E1,2E0,9.92E2,8E1,1.3E1,2E0,2.7E1,4.3E1,3E1,1E0,7.9E1,3.5E1,7.1E1,2E0,2.9E1,2E0,3E0,9E0,5.3E1,2E0,5.9E1,6E0,1E0,1.9E1,3.6E1,4.4E1,1.2E1,1E0,1E0,1E0,2.4E1,3E0,3.9E1,4E0,3E0,2.7E1,7.3E1,6E0,3.4E1,1E0,2E0,6.9E1,1E0,1E0,1E0,1E0,1E0,8E0,4.5E1,8E0,3E0,1.6E1],"tree_param":{"num_deleted":"0","num_feature":"14","num_nodes":"75","size_leaf_vector":"1"}},{"base_weights":[7.74358E-3,-8.67943E-1,6.91103E0,-1.2987078E0,1.3530412E0,4.88302E0,1.0885666E1,-1.3791378E0,-4.2805573E-1,1.9280256E0,-1.1344614E0,5.7185183E0,9.6737236E-2,1.149569E1,-5.286015E-1,-1.3892541E0,-6.1451495E-1,-4.030693E-2,-1.2749966E0,1.1437571E0,3.1207666E0,-1.3830444E0,-4.3529874E-1,4.252757E0,6.290544E0,-5.017591E-1,3.455971E-1,9.99195E0,1.397728E0,-1.0032014E-1,4.47599E-2,-1.4125036E-1,-1.087082E0,-1.3599637E0,3.0690842E0,-3.817655E-1,1.7790096E-1,-1.332166E0,2.4862546E-2,8.4129655E-1,1.7115958E0,3.2228518E0,-3.6952782E-1,-1.4422141E-1,-3.3033267E-1,1.2519744E-1,-1.0666782E0,5.7564497E-2,4.3528047E-1,6.334425E-1,1.5875016E-1,1.8081306E0,-1.1258876E0,8.881087E-1,1.3186411E0,-9.181171E-2,-1.3437185E-1,-1.4125763E-1,-3.3799954E-2,-7.8924954E-2,5.3928757E-1,-5.0759744E-2,8.3603285E-2,-7.216077E-2,2.3791585E-2,1.369713E-2,-1.385703E-1,9.392771E-2,-7.574783E-2,1.4778034E-1,2.4328159E-1,2.9741642E-1,5.107212E-1,-1.9173746E-1,1.3630828E-1,2.9375052E-2,-7.8924954E-2,4.7425043E-2,-1.290587E-1,2.872087E-1,4.9611617E-2,-1.3890481E-1,1.147599E-1],"categories":[],"categories_nodes":[],"categories_segments":[],"categories_sizes":[],"default_left":[0,0,0,0,0,0,0,0,0,0,0,0,0,0,0,0,0,0,0,0,0,0,0,0,0,0,0,0,0,0,0,0,0,0,0,0,0,0,0,0,0,0,0,0,0,0,0,0,0,0,0,0,0,0,0,0,0,0,0,0,0,0,0,0,0,0,0,0,0,0,0,0,0,0,0,0,0,0,0,0,0,0,0],"id":2,"left_children":[1,3,5,7,9,11,13,15,17,19,21,23,25,27,29,31,33,35,37,39,41,43,45,47,49,51,-1,53,-1,-1,-1,-1,55,57,59,61,63,65,-1,67,69,71,73,-1,75,-1,77,-1,-1,-1,-1,79,81,-1,-1,-1,-1,-1,-1,-1,-1,-1,-1,-1,-1,-1,-1,-1,-1,-1,-1,-1,-1,-1,-1,-1,-1,-1,-1,-1,-1,-1,-1],"loss_changes":[9.666092E3,1.3593456E3,1.3977529E3,8.2671265E1,3.3258087E2,4.8331763E2,4.2385596E2,7.5620117E0,3.3445442E1,1.7229126E2,7.045162E0,5.96084E1,3.9933357E1,7.304443E1,2.3022506E0,6.0026855E0,4.810879E1,5.3580523E0,3.1185532E0,1.8311142E1,2.7557617E1,1.5168228E0,1.5184477E1,9.266663E0,4.8029785E0,2.6544113E1,0E0,2.1286377E1,0E0,0E0,0E0,0E0,2.2786713E0,2.753048E-1,3.1154219E1,4.7150297E0,2.5469737E0,2.628048E0,0E0,1.27734375E1,2.9807892E0,1.8550781E1,1.0658986E1,0E0,1.0910493E0,0E0,4.062336E0,0E0,0E0,0E0,0E0,4.1588163E0,9.970152E0,0E0,0E0,0E0,0E0,0E0,0E0,0E0,0E0,0E0,0E0,0E0,0E0,0E0,0E0,0E0,0E0,0E0,0E0,0E0,0E0,0E0,0E0,0E0,0E0,0E0,0E0,0E0,0E0,0E0,0E0],"parents":[2147483647,0,0,1,1,2,2,3,3,4,4,5,5,6,6,7,7,8,8,9,9,10,10,11,11,12,12,13,13,14,14,15,15,16,16,17,17,18,18,19,19,20,20,21,21,22,22,23,23,24,24,25,25,27,27,32,32,33,33,34,34,35,35,36,36,37,37,39,39,40,40,41,41,42,42,44,44,46,46,51,51,52,52],"right_children":[2,4,6,8,10,12,14,16,18,20,22,24,26,28,30,32,34,36,38,40,42,44,46,48,50,52,-1,54,-1,-1,-1,-1,56,58,60,62,64,66,-1,68,70,72,74,-1,76,-1,78,-1,-1,-1,-1,80,82,-1,-1,-1,-1,-1,-1,-1,-1,-1,-1,-1,-1,-1,-1,-1,-1,-1,-1,-1,-1,-1,-1,-1,-1,-1,-1,-1,-1,-1,-1],"split_conditions":[6.3E0,2.155E0,1.091E1,1.3E0,3.9E0,8.9E0,2.32E1,4.9122807E-1,6E-1,3.97E0,3.472222E-1,7.52E0,3.28E0,1.67E1,4.7945204E-1,6.2E-1,3.01E-1,1.525E0,3.4285715E-1,3.085E0,3.2857144E0,2.9850745E-1,9.859155E-2,2.48E0,8.7E0,1.25E-1,3.455971E-1,1E-1,1.397728E0,-1.0032014E-1,4.47599E-2,-1.4125036E-1,1E-1,4.0983605E-1,2.5333333E-1,3.59E0,1.24E-1,5.588235E-1,2.4862546E-2,2.8E0,1.4857143E0,5E-1,1.4285714E-2,-1.4422141E-1,3.114754E-1,1.2519744E-1,1.5714285E0,5.7564497E-2,4.3528047E-1,6.334425E-1,1.5875016E-1,1.3157895E-2,4.6666667E-1,8.881087E-1,1.3186411E0,-9.181171E-2,-1.3437185E-1,-1.4125763E-1,-3.3799954E-2,-7.8924954E-2,5.3928757E-1,-5.0759744E-2,8.3603285E-2,-7.216077E-2,2.3791585E-2,1.369713E-2,-1.385703E-1,9.392771E-2,-7.574783E-2,1.4778034E-1,2.4328159E-1,2.9741642E-1,5.107212E-1,-1.9173746E-1,1.3630828E-1,2.9375052E-2,-7.8924954E-2,4.7425043E-2,-1.290587E-1,2.872087E-1,4.9611617E-2,-1.3890481E-1,1.147599E-1],"split_indices":[10,10,10,10,12,12,12,0,12,10,1,10,9,10,0,10,8,10,0,10,5,0,3,9,12,8,0,12,0,0,0,0,12,3,1,9,8,4,0,12,6,11,0,0,0,0,4,0,0,0,0,0,0,0,0,0,0,0,0,0,0,0,0,0,0,0,0,0,0,0,0,0,0,0,0,0,0,0,0,0,0,0,0],"split_type":[0,0,0,0,0,0,0,0,0,0,0,0,0,0,0,0,0,0,0,0,0,0,0,0,0,0,0,0,0,0,0,0,0,0,0,0,0,0,0,0,0,0,0,0,0,0,0,0,0,0,0,0,0,0,0,0,0,0,0,0,0,0,0,0,0,0,0,0,0,0,0,0,0,0,0,0,0,0,0,0,0,0,0],"sum_hessian":[1.597E3,1.418E3,1.79E2,1.188E3,2.3E2,1.2E2,5.9E1,1.087E3,1.01E2,1.87E2,4.3E1,1.02E2,1.8E1,5.6E1,3E0,1.072E3,1.5E1,7E1,3.1E1,1.14E2,7.3E1,3.1E1,1.2E1,3.1E1,7.1E1,1.6E1,2E0,3.8E1,1.8E1,2E0,1E0,9.92E2,8E1,1.3E1,2E0,2.7E1,4.3E1,3E1,1E0,7.6E1,3.8E1,7.1E1,2E0,2.9E1,2E0,3E0,9E0,1E0,3E1,7E1,1E0,3E0,1.3E1,3.1E1,7E0,5.1E1,2.9E1,1.2E1,1E0,1E0,1E0,2.5E1,2E0,2E0,4.1E1,1E0,2.9E1,7.2E1,4E0,3.1E1,7E0,6.5E1,6E0,1E0,1E0,1E0,1E0,1E0,8E0,1E0,2E0,1.2E1,1E0],"tree_param":{"num_deleted":"0","num_feature":"14","num_nodes":"83","size_leaf_vector":"1"}},{"base_weights":[1.0915603E-2,-7.80575E-1,6.250439E0,-1.1690032E0,1.2221168E0,4.410778E0,9.856248E0,-1.2412995E0,-3.8638285E-1,1.7414036E0,-1.0244291E0,5.1591425E0,1.2170947E-1,1.0409358E1,-4.8963147E-1,-1.2506711E0,-5.352319E-1,-3.649487E-2,-1.1506222E0,1.0329401E0,2.8188617E0,-1.2507952E0,-3.8841778E-1,4.3255863E0,6.024143E-1,-4.3319052E-1,3.225573E-1,9.049338E0,1.2653116E0,-9.363213E-2,4.2521905E-2,-1.2713955E-1,-9.8116624E-1,-1.2364714E0,2.9156299E0,-3.4241593E-1,1.5901159E-1,-1.2029775E0,2.3619419E-2,8.043754E-1,1.6830155E0,2.9117906E0,-3.5105142E-1,-1.3188533E-1,-4.446754E-1,1.1580763E-1,-9.681736E-1,3.9236045E0,5.9888697E0,1.7115227E0,-1.0150236E0,8.020731E-1,1.2032599E1,-1.3528144E-1,-8.613094E-2,-1.2821847E-1,-3.2109953E-2,-7.497871E-2,5.123232E-1,-7.261414E-2,3.8555567E-3,7.170704E-3,8.256457E-2,-2.6270483E-2,-1.2943387E-1,6.850967E-2,2.0696905E-1,1.2725879E-1,2.1584053E-1,-2.6953856E-3,2.9961398E-1,-1.8215059E-1,1.2949286E-1,-7.7894256E-2,2.7906299E-2,4.505379E-2,-1.1758681E-1,3.990764E-1,1.5859568E-1,6.706002E-1,2.3192714E-1,2.7284828E-1,4.6304177E-2,-1.2608282E-1,1.090219E-1,3.4700546E-1,1.2760099E0],"categories":[],"categories_nodes":[],"categories_segments":[],"categories_sizes":[],"default_left":[0,0,0,0,0,0,0,0,0,0,0,0,0,0,0,0,0,0,0,0,0,0,0,0,0,0,0,0,0,0,0,0,0,0,0,0,0,0,0,0,0,0,0,0,0,0,0,0,0,0,0,0,0,0,0,0,0,0,0,0,0,0,0,0,0,0,0,0,0,0,0,0,0,0,0,0,0,0,0,0,0,0,0,0,0,0,0],"id":3,"left_children":[1,3,5,7,9,11,13,15,17,19,21,23,25,27,29,31,33,35,37,39,41,43,45,47,-1,49,-1,51,-1,-1,-1,-1,53,55,57,59,61,63,-1,65,67,69,71,-1,73,-1,75,77,79,81,83,-1,85,-1,-1,-1,-1,-1,-1,-1,-1,-1,-1,-1,-1,-1,-1,-1,-1,-1,-1,-1,-1,-1,-1,-1,-1,-1,-1,-1,-1,-1,-1,-1,-1,-1,-1],"loss_changes":[7.8966406E3,1.105272E3,1.1505488E3,6.6794556E1,2.712689E2,3.8775635E2,3.484414E2,6.5300293E0,2.7232624E1,1.4059613E2,5.8489113E0,4.8207764E1,3.4121628E1,5.9436523E1,2.0327594E0,4.7456055E0,4.232318E1,4.3009257E0,2.607563E0,1.5733414E1,2.2820862E1,1.1691513E0,1.27768755E1,1.3944214E1,0E0,2.2950941E1,0E0,2.3165283E1,0E0,0E0,0E0,0E0,2.4429169E0,1.7411613E-1,2.811668E1,4.1212735E0,2.501604E0,2.3230057E0,0E0,1.1712559E1,2.9115143E0,1.7928162E1,9.619736E0,0E0,1.1850617E0,0E0,3.4763575E0,1.206543E0,8.131256E0,3.815219E0,8.619279E0,0E0,5.555664E0,0E0,0E0,0E0,0E0,0E0,0E0,0E0,0E0,0E0,0E0,0E0,0E0,0E0,0E0,0E0,0E0,0E0,0E0,0E0,0E0,0E0,0E0,0E0,0E0,0E0,0E0,0E0,0E0,0E0,0E0,0E0,0E0,0E0,0E0],"parents":[2147483647,0,0,1,1,2,2,3,3,4,4,5,5,6,6,7,7,8,8,9,9,10,10,11,11,12,12,13,13,14,14,15,15,16,16,17,17,18,18,19,19,20,20,21,21,22,22,23,23,25,25,27,27,32,32,33,33,34,34,35,35,36,36,37,37,39,39,40,40,41,41,42,42,44,44,46,46,47,47,48,48,49,49,50,50,52,52],"right_children":[2,4,6,8,10,12,14,16,18,20,22,24,26,28,30,32,34,36,38,40,42,44,46,48,-1,50,-1,52,-1,-1,-1,-1,54,56,58,60,62,64,-1,66,68,70,72,-1,74,-1,76,78,80,82,84,-1,86,-1,-1,-1,-1,-1,-1,-1,-1,-1,-1,-1,-1,-1,-1,-1,-1,-1,-1,-1,-1,-1,-1,-1,-1,-1,-1,-1,-1,-1,-1,-1,-1,-1,-1],"split_conditions":[6.3E0,2.155E0,1.091E1,1.3E0,3.9E0,8.9E0,2.32E1,4.9122807E-1,6E-1,3.97E0,3.472222E-1,8.575E0,3.28E0,1.67E1,4.7945204E-1,6.2E-1,3.01E-1,1.525E0,3.4285715E-1,3.49E0,3.2857144E0,5E-1,9.859155E-2,1E-1,6.024143E-1,1.25E-1,3.225573E-1,1E-1,1.2653116E0,-9.363213E-2,4.2521905E-2,-1.2713955E-1,-2.5373134E-1,4.0983605E-1,2.5333333E-1,2.09E-1,3.75E-1,7.575758E-2,2.3619419E-2,5E-1,1.5352113E0,-4.21875E-1,1.4285714E-2,-1.3188533E-1,1.8055555E-1,1.1580763E-1,1.5714285E0,6.533333E-1,1.83E-1,1.3157895E-2,4.6666667E-1,8.020731E-1,1.1935484E0,-1.3528144E-1,-8.613094E-2,-1.2821847E-1,-3.2109953E-2,-7.497871E-2,5.123232E-1,-7.261414E-2,3.8555567E-3,7.170704E-3,8.256457E-2,-2.6270483E-2,-1.2943387E-1,6.850967E-2,2.0696905E-1,1.2725879E-1,2.1584053E-1,-2.6953856E-3,2.9961398E-1,-1.8215059E-1,1.2949286E-1,-7.7894256E-2,2.7906299E-2,4.505379E-2,-1.1758681E-1,3.990764E-1,1.5859568E-1,6.706002E-1,2.3192714E-1,2.7284828E-1,4.6304177E-2,-1.2608282E-1,1.090219E-1,3.4700546E-1,1.2760099E0],"split_indices":[10,10,10,10,12,12,12,0,12,10,1,10,9,10,0,10,8,10,0,10,5,11,3,12,0,8,0,12,0,0,0,0,2,3,1,8,1,1,0,11,5,2,0,0,0,0,4,1,8,0,0,0,4,0,0,0,0,0,0,0,0,0,0,0,0,0,0,0,0,0,0,0,0,0,0,0,0,0,0,0,0,0,0,0,0,0,0],"split_type":[0,0,0,0,0,0,0,0,0,0,0,0,0,0,0,0,0,0,0,0,0,0,0,0,0,0,0,0,0,0,0,0,0,0,0,0,0,0,0,0,0,0,0,0,0,0,0,0,0,0,0,0,0,0,0,0,0,0,0,0,0,0,0,0,0,0,0,0,0,0,0,0,0,0,0,0,0,0,0,0,0,0,0,0,0,0,0],"sum_hessian":[1.597E3,1.418E3,1.79E2,1.188E3,2.3E2,1.2E2,5.9E1,1.087E3,1.01E2,1.87E2,4.3E1,1.02E2,1.8E1,5.6E1,3E0,1.072E3,1.5E1,7E1,3.1E1,1.14E2,7.3E1,3.1E1,1.2E1,5.5E1,4.7E1,1.6E1,2E0,3.8E1,1.8E1,2E0,1E0,9.92E2,8E1,1.3E1,2E0,2.7E1,4.3E1,3E1,1E0,8.6E1,2.8E1,7.1E1,2E0,2.8E1,3E0,3E0,9E0,4.7E1,8E0,3E0,1.3E1,3.1E1,7E0,1.7E1,6.3E1,1.2E1,1E0,1E0,1E0,1.3E1,1.4E1,3.9E1,4E0,3E0,2.7E1,8E1,6E0,1.7E1,1.1E1,2E0,6.9E1,1E0,1E0,2E0,1E0,1E0,8E0,4.5E1,2E0,6E0,2E0,1E0,2E0,1.2E1,1E0,1E0,6E0],"tree_param":{"num_deleted":"0","num_feature":"14","num_nodes":"87","size_leaf_vector":"1"}},{"base_weights":[1.4122028E-2,-7.021358E-1,5.6605425E0,-1.0522566E0,1.1030405E0,3.9919093E0,8.931277E0,-1.1172353E0,-3.4883383E-1,1.6116881E0,-7.7049774E-1,4.663254E0,1.4241476E-1,9.433166E0,-4.534459E-1,-1.1259289E0,-4.6439517E-1,-3.254992E-2,-1.0396878E0,8.491861E-1,2.3483837E0,-1.0517423E0,-4.414432E-2,3.4373672E0,5.143325E0,-3.7210143E-1,3.010535E-1,8.349558E0,1.191063E0,-8.739E-2,4.0395807E-2,-1.1443839E-1,-8.857831E-1,-1.1242763E0,2.7698483E0,-7.733198E-1,3.5285976E-2,-1.0877024E0,2.243845E-2,7.5329316E-1,1.8922884E0,2.072631E0,3.8646796E0,1.5420541E-1,-1.1660467E0,-9.086827E-1,8.259121E-1,4.6756495E-2,3.5180845E0,5.1765504E0,1.392163E-1,1.6201586E0,-9.147399E-1,7.521479E-1,1.1032216E1,-1.0441827E-1,-6.587785E-2,-1.1638291E-1,-3.0504454E-2,-7.122978E-2,4.8670703E-1,1.9798668E-3,-1.5730378E-1,-2.4370257E-2,2.0051045E-2,-4.5815457E-2,-1.2204678E-1,4.9301703E-2,9.846183E-2,4.788349E-2,2.0480584E-1,2.1591444E-1,3.430988E-2,-1.2860987E-1,4.401086E-1,-4.867002E-2,1.0384611E-1,-1.21426046E-1,-2.7915642E-2,-1.033084E-1,-1.8936873E-3,1.502971E-1,-8.035098E-2,3.1253383E-1,4.935298E-1,4.8815885E-1,7.1759725E-1,2.5920588E-1,4.321723E-2,-1.1444443E-1,1.035708E-1,3.296552E-1,1.1666375E0],"categories":[],"categories_nodes":[],"categories_segments":[],"categories_sizes":[],"default_left":[0,0,0,0,0,0,0,0,0,0,0,0,0,0,0,0,0,0,0,0,0,0,0,0,0,0,0,0,0,0,0,0,0,0,0,0,0,0,0,0,0,0,0,0,0,0,0,0,0,0,0,0,0,0,0,0,0,0,0,0,0,0,0,0,0,0,0,0,0,0,0,0,0,0,0,0,0,0,0,0,0,0,0,0,0,0,0,0,0,0,0,0,0],"id":4,"left_children":[1,3,5,7,9,11,13,15,17,19,21,23,25,27,29,31,33,35,37,39,41,43,45,47,49,51,-1,53,-1,-1,-1,-1,55,57,59,61,63,65,-1,67,69,71,73,75,77,79,81,-1,83,85,-1,87,89,-1,91,-1,-1,-1,-1,-1,-1,-1,-1,-1,-1,-1,-1,-1,-1,-1,-1,-1,-1,-1,-1,-1,-1,-1,-1,-1,-1,-1,-1,-1,-1,-1,-1,-1,-1,-1,-1,-1,-1],"loss_changes":[6.4667544E3,8.980109E2,9.467256E2,5.3956543E1,2.2137805E2,3.1204053E2,2.8688232E2,5.6518555E0,2.2253767E1,1.0024097E2,1.0167717E1,4.29375E1,2.9158413E1,5.357373E1,1.7950149E0,3.7419434E0,3.726153E1,3.595093E0,2.1862755E0,7.6769257E0,3.0457275E1,5.1422424E0,1.203345E1,6.02594E0,1.7668457E0,1.986033E1,0E0,1.2543945E1,0E0,0E0,0E0,0E0,2.2246704E0,9.862137E-2,2.53753E1,3.8367708E0,3.091183E0,2.0318794E0,0E0,4.6322823E0,5.605297E-1,1.1229431E1,4.157808E1,2.7723167E0,1.0721169E0,8.6592054E-1,1.0033369E1,0E0,1.8302917E0,6.842407E0,0E0,3.4982004E0,7.457677E0,0E0,7.862549E-1,0E0,0E0,0E0,0E0,0E0,0E0,0E0,0E0,0E0,0E0,0E0,0E0,0E0,0E0,0E0,0E0,0E0,0E0,0E0,0E0,0E0,0E0,0E0,0E0,0E0,0E0,0E0,0E0,0E0,0E0,0E0,0E0,0E0,0E0,0E0,0E0,0E0,0E0],"parents":[2147483647,0,0,1,1,2,2,3,3,4,4,5,5,6,6,7,7,8,8,9,9,10,10,11,11,12,12,13,13,14,14,15,15,16,16,17,17,18,18,19,19,20,20,21,21,22,22,23,23,24,24,25,25,27,27,32,32,33,33,34,34,35,35,36,36,37,37,39,39,40,40,41,41,42,42,43,43,44,44,45,45,46,46,48,48,49,49,51,51,52,52,54,54],"right_children":[2,4,6,8,10,12,14,16,18,20,22,24,26,28,30,32,34,36,38,40,42,44,46,48,50,52,-1,54,-1,-1,-1,-1,56,58,60,62,64,66,-1,68,70,72,74,76,78,80,82,-1,84,86,-1,88,90,-1,92,-1,-1,-1,-1,-1,-1,-1,-1,-1,-1,-1,-1,-1,-1,-1,-1,-1,-1,-1,-1,-1,-1,-1,-1,-1,-1,-1,-1,-1,-1,-1,-1,-1,-1,-1,-1,-1,-1],"split_conditions":[6.3E0,2.155E0,1.091E1,1.3E0,3E0,8.9E0,2.32E1,4.9122807E-1,6E-1,3.645E0,3.472222E-1,7.52E0,3.28E0,1.755E1,4.7945204E-1,6.2E-1,3.01E-1,1.24E-1,3.4285715E-1,5E-1,1E-1,1.2727273E-1,4.58E0,2.48E0,8.7E0,1.25E-1,3.010535E-1,1E-1,1.191063E0,-8.739E-2,4.0395807E-2,-1.1443839E-1,3.01E0,4.0983605E-1,2.5333333E-1,1.21E-1,1.525E0,1.83E-1,2.243845E-2,2.8E0,4.2592594E-1,3.1351352E0,-4.21875E-1,1.3333334E-2,2.9850745E-1,6.447368E-1,-5.7142857E-2,4.6756495E-2,1E-1,1E-1,1.392163E-1,1.3157895E-2,4.6666667E-1,7.521479E-1,1.1935484E0,-1.0441827E-1,-6.587785E-2,-1.1638291E-1,-3.0504454E-2,-7.122978E-2,4.8670703E-1,1.9798668E-3,-1.5730378E-1,-2.4370257E-2,2.0051045E-2,-4.5815457E-2,-1.2204678E-1,4.9301703E-2,9.846183E-2,4.788349E-2,2.0480584E-1,2.1591444E-1,3.430988E-2,-1.2860987E-1,4.401086E-1,-4.867002E-2,1.0384611E-1,-1.21426046E-1,-2.7915642E-2,-1.033084E-1,-1.8936873E-3,1.502971E-1,-8.035098E-2,3.1253383E-1,4.935298E-1,4.8815885E-1,7.1759725E-1,2.5920588E-1,4.321723E-2,-1.1444443E-1,1.035708E-1,3.296552E-1,1.1666375E0],"split_indices":[10,10,10,10,12,12,12,0,12,10,1,10,9,10,0,10,8,8,0,11,12,1,10,9,12,8,0,12,0,0,0,0,9,3,1,8,10,8,0,10,4,5,2,3,0,1,2,0,12,12,0,0,0,0,4,0,0,0,0,0,0,0,0,0,0,0,0,0,0,0,0,0,0,0,0,0,0,0,0,0,0,0,0,0,0,0,0,0,0,0,0,0,0],"split_type":[0,0,0,0,0,0,0,0,0,0,0,0,0,0,0,0,0,0,0,0,0,0,0,0,0,0,0,0,0,0,0,0,0,0,0,0,0,0,0,0,0,0,0,0,0,0,0,0,0,0,0,0,0,0,0,0,0,0,0,0,0,0,0,0,0,0,0,0,0,0,0,0,0,0,0,0,0,0,0,0,0,0,0,0,0,0,0,0,0,0,0,0,0],"sum_hessian":[1.597E3,1.418E3,1.79E2,1.188E3,2.3E2,1.2E2,5.9E1,1.087E3,1.01E2,1.81E2,4.9E1,1.02E2,1.8E1,5.6E1,3E0,1.072E3,1.5E1,7E1,3.1E1,9E1,9.1E1,3.5E1,1.4E1,3.1E1,7.1E1,1.6E1,2E0,4.2E1,1.4E1,2E0,1E0,9.92E2,8E1,1.3E1,2E0,5E0,6.5E1,3E1,1E0,8.4E1,6E0,7.9E1,1.2E1,3E0,3.2E1,7E0,7E0,1E0,3E1,7E1,1E0,3E0,1.3E1,3.5E1,7E0,4.5E1,3.5E1,1.2E1,1E0,1E0,1E0,3E0,2E0,2.4E1,4.1E1,6E0,2.4E1,4.1E1,4.3E1,1E0,5E0,7.5E1,4E0,1E0,1.1E1,2E0,1E0,3E1,2E0,6E0,1E0,5E0,2E0,2.6E1,4E0,6.4E1,6E0,1E0,2E0,1.2E1,1E0,1E0,6E0],"tree_param":{"num_deleted":"0","num_feature":"14","num_nodes":"93","size_leaf_vector":"1"}},{"base_weights":[1.6899109E-2,-6.5785E-1,4.9323416E0,-9.4730103E-1,9.238706E-1,3.4795551E0,8.094691E0,-1.0102795E0,-3.6163217E-1,1.3161285E0,-8.01636E-1,4.1361737E0,-5.1237453E-2,8.550191E0,-4.198499E-1,-1.0196859E0,-2.7884015E-1,-5.2000634E-2,-9.795619E-1,6.5415746E-1,1.9278171E0,-9.890047E-1,-2.6641127E-1,3.4259062E0,4.8756105E-1,-4.7783604E-1,2.8098324E-1,7.566891E0,1.0798973E0,-8.1564E-2,3.8376015E-2,-1.0339456E-1,-8.8726366E-1,-9.884962E-2,2.8892827E0,-4.8743647E-1,8.447939E-2,-1.0165591E0,2.1316528E-2,7.280472E-1,-7.0324373E-1,1.7260321E0,4.131486E-1,-1.0477811E-1,-3.450129E-1,9.5849776E-1,-7.81214E-1,3.011485E-1,5.238306E0,2.4624558E-1,-7.621912E-1,6.7902243E-1,1.0116032E0,-1.1354752E-1,-7.459035E-2,4.6237165E-1,-2.897923E-2,-8.426565E-2,1.0632311E-2,-7.45482E-4,5.5408936E-2,1.6616572E-2,-1.0530156E-1,6.266729E-2,1.739158E-1,-1.1592528E-2,-1.0561476E-1,1.4569382E-1,2.3997705E-1,-6.4606234E-2,2.7906764E-2,1.1186647E-1,2.3899853E-2,3.5286248E-2,-9.670814E-2,6.449121E-1,2.7376664E-1,-9.138598E-2,9.839226E-2],"categories":[],"categories_nodes":[],"categories_segments":[],"categories_sizes":[],"default_left":[0,0,0,0,0,0,0,0,0,0,0,0,0,0,0,0,0,0,0,0,0,0,0,0,0,0,0,0,0,0,0,0,0,0,0,0,0,0,0,0,0,0,0,0,0,0,0,0,0,0,0,0,0,0,0,0,0,0,0,0,0,0,0,0,0,0,0,0,0,0,0,0,0,0,0,0,0,0,0],"id":5,"left_children":[1,3,5,7,9,11,13,15,17,19,21,23,25,27,29,31,33,35,37,39,41,43,45,47,-1,49,-1,51,-1,-1,-1,-1,53,-1,55,57,59,61,-1,63,65,67,-1,-1,69,71,73,-1,75,-1,77,-1,-1,-1,-1,-1,-1,-1,-1,-1,-1,-1,-1,-1,-1,-1,-1,-1,-1,-1,-1,-1,-1,-1,-1,-1,-1,-1,-1],"loss_changes":[5.3033154E3,6.44585E2,8.5851855E2,4.3490356E1,1.4860696E2,3.1087524E2,2.3629199E2,7.0981445E0,2.2334736E1,7.08147E1,3.8481789E0,4.2644043E1,2.8194262E1,4.4325195E1,1.5852537E0,1.0822754E0,3.6580204E1,4.7360134E0,1.9376678E0,9.237923E0,3.377829E1,7.7404785E-1,8.31583E0,3.004187E1,0E0,1.8598604E1,0E0,1.6442627E1,0E0,0E0,0E0,0E0,3.012642E0,0E0,1.7881601E1,4.096985E0,2.6376972E0,1.8134575E0,0E0,7.417675E0,9.139006E-1,1.2095398E1,0E0,0E0,9.3181145E-1,1.9360042E-1,2.238337E0,0E0,1.2622559E1,0E0,5.930952E0,0E0,0E0,0E0,0E0,0E0,0E0,0E0,0E0,0E0,0E0,0E0,0E0,0E0,0E0,0E0,0E0,0E0,0E0,0E0,0E0,0E0,0E0,0E0,0E0,0E0,0E0,0E0,0E0],"parents":[2147483647,0,0,1,1,2,2,3,3,4,4,5,5,6,6,7,7,8,8,9,9,10,10,11,11,12,12,13,13,14,14,15,15,16,16,17,17,18,18,19,19,20,20,21,21,22,22,23,23,25,25,27,27,32,32,34,34,35,35,36,36,37,37,39,39,40,40,41,41,44,44,45,45,46,46,48,48,50,50],"right_children":[2,4,6,8,10,12,14,16,18,20,22,24,26,28,30,32,34,36,38,40,42,44,46,48,-1,50,-1,52,-1,-1,-1,-1,54,-1,56,58,60,62,-1,64,66,68,-1,-1,70,72,74,-1,76,-1,78,-1,-1,-1,-1,-1,-1,-1,-1,-1,-1,-1,-1,-1,-1,-1,-1,-1,-1,-1,-1,-1,-1,-1,-1,-1,-1,-1,-1],"split_conditions":[6E0,2.155E0,1.091E1,1.12E0,3.9E0,8.9E0,2.32E1,4.9122807E-1,6E-1,3.49E0,3.472222E-1,8.4E0,3.28E0,1.755E1,4.7945204E-1,3.9E-1,1.05E-1,1.79E-1,3.4285715E-1,2.8E0,5E-1,5E-1,9.859155E-2,1E-1,4.8756105E-1,1.3157895E-2,2.8098324E-1,1E-1,1.0798973E0,-8.1564E-2,3.8376015E-2,-1.0339456E-1,1E0,-9.884962E-2,5.070422E-1,1.735E0,1.1578947E0,5.588235E-1,2.1316528E-2,5E-1,1.780822E-1,5.22E0,4.131486E-1,-1.0477811E-1,1.8055555E-1,4.3661973E-1,1.5714285E0,3.011485E-1,2.3E0,2.4624558E-1,4.6666667E-1,6.7902243E-1,1.0116032E0,-1.1354752E-1,-7.459035E-2,4.6237165E-1,-2.897923E-2,-8.426565E-2,1.0632311E-2,-7.45482E-4,5.5408936E-2,1.6616572E-2,-1.0530156E-1,6.266729E-2,1.739158E-1,-1.1592528E-2,-1.0561476E-1,1.4569382E-1,2.3997705E-1,-6.4606234E-2,2.7906764E-2,1.1186647E-1,2.3899853E-2,3.5286248E-2,-9.670814E-2,6.449121E-1,2.7376664E-1,-9.138598E-2,9.839226E-2],"split_indices":[10,10,10,10,12,12,12,0,12,10,1,10,9,10,0,10,10,8,0,12,11,11,3,12,0,0,0,12,0,0,0,0,11,0,0,10,6,4,0,11,1,10,0,0,0,1,4,0,12,0,0,0,0,0,0,0,0,0,0,0,0,0,0,0,0,0,0,0,0,0,0,0,0,0,0,0,0,0,0],"split_type":[0,0,0,0,0,0,0,0,0,0,0,0,0,0,0,0,0,0,0,0,0,0,0,0,0,0,0,0,0,0,0,0,0,0,0,0,0,0,0,0,0,0,0,0,0,0,0,0,0,0,0,0,0,0,0,0,0,0,0,0,0,0,0,0,0,0,0,0,0,0,0,0,0,0,0,0,0,0,0],"sum_hessian":[1.597E3,1.405E3,1.92E2,1.188E3,2.17E2,1.33E2,5.9E1,1.072E3,1.16E2,1.77E2,4E1,1.12E2,2.1E1,5.6E1,3E0,1.058E3,1.4E1,7.8E1,3.8E1,8.6E1,9.1E1,2.9E1,1.1E1,6E1,5.2E1,1.9E1,2E0,4.2E1,1.4E1,2E0,1E0,9.49E2,1.09E2,1.2E1,2E0,1.8E1,6E1,3.7E1,1E0,8.2E1,4E0,8.5E1,6E0,2.6E1,3E0,3E0,8E0,5.1E1,9E0,1E0,1.8E1,3.5E1,7E0,3.7E1,7.2E1,1E0,1E0,1.1E1,7E0,5.1E1,9E0,1E0,3.6E1,7.6E1,6E0,2E0,2E0,6.3E1,2.2E1,2E0,1E0,2E0,1E0,1E0,7E0,5E0,4E0,1.7E1,1E0],"tree_param":{"num_deleted":"0","num_feature":"14","num_nodes":"79","size_leaf_vector":"1"}},{"base_weights":[1.8824149E-2,-5.679815E-1,4.644704E0,-8.5260737E-1,8.994998E-1,3.6693308E0,8.580696E-1,-9.050922E-1,-2.844102E-1,1.2835793E0,-7.620105E-1,4.2631E0,3.0860397E-1,-9.12543E-1,-3.4885204E-1,-5.3145576E-2,-9.2484367E-1,7.53597E-1,2.0898547E0,3.595814E-2,-8.6523616E-1,3.5486937E0,5.6746364E0,-3.6649488E-2,2.6225102E-1,-9.276253E-2,-7.163796E-1,-9.365841E-1,2.5101817E0,-1.22638606E-1,4.7781795E-1,1.5785743E-2,-9.725574E-1,8.193376E-1,-5.772463E-1,1.885408E0,3.7773588E-1,-7.302051E-2,1.04552306E-1,-9.055353E-1,3.3306528E-2,3.2283232E0,5.4104285E0,5.124853E-1,8.498147E-1,1.5098283E0,-6.142881E-1,-1.166785E-1,-6.289332E-2,-9.662748E-2,-2.7530272E-2,-6.2725805E-2,4.3925306E-1,1.9630691E-2,-2.5031764E-2,9.8980844E-2,5.6854626E-3,-1.0187633E-1,-4.6373453E-2,6.1996527E-2,1.1807809E-1,-1.2656614E-2,-9.8573774E-2,1.3539328E-1,2.4080656E-1,-9.4661705E-2,-3.1968653E-2,2.3504196E-1,3.5714266E-1,6.703064E-1,2.5186533E-1,-2.1788526E-2,3.3101705E-1,-8.876576E-2,8.6619906E-2],"categories":[],"categories_nodes":[],"categories_segments":[],"categories_sizes":[],"default_left":[0,0,0,0,0,0,0,0,0,0,0,0,0,0,0,0,0,0,0,0,0,0,0,0,0,0,0,0,0,0,0,0,0,0,0,0,0,0,0,0,0,0,0,0,0,0,0,0,0,0,0,0,0,0,0,0,0,0,0,0,0,0,0,0,0,0,0,0,0,0,0,0,0,0,0],"id":6,"left_children":[1,3,5,7,9,11,-1,13,15,17,19,21,23,25,27,29,31,33,35,37,39,41,43,45,-1,-1,47,49,51,53,55,-1,57,59,61,63,-1,-1,-1,65,-1,67,69,-1,-1,71,73,-1,-1,-1,-1,-1,-1,-1,-1,-1,-1,-1,-1,-1,-1,-1,-1,-1,-1,-1,-1,-1,-1,-1,-1,-1,-1,-1,-1],"loss_changes":[4.3403965E3,5.9345935E2,6.5954517E2,3.5200623E1,1.4839124E2,2.9002698E2,0E0,4.190796E0,1.505803E1,7.8759705E1,3.6554298E0,1.0490552E2,1.8470451E1,2.5100098E0,2.9236528E1,2.8628669E0,1.5483379E0,1.0534355E1,1.8408508E1,5.4043956E0,2.184929E0,3.32312E1,1.8540894E1,1.968688E1,0E0,0E0,2.456459E0,8.85582E-3,2.0472513E1,2.8182793E0,1.8834879E0,0E0,1.3883972E-1,7.1947556E0,9.7983277E-1,1.5628647E1,0E0,0E0,0E0,6.1195374E-1,0E0,1.4196533E1,2.4235443E1,0E0,0E0,1.938409E1,7.2444096E0,0E0,0E0,0E0,0E0,0E0,0E0,0E0,0E0,0E0,0E0,0E0,0E0,0E0,0E0,0E0,0E0,0E0,0E0,0E0,0E0,0E0,0E0,0E0,0E0,0E0,0E0,0E0,0E0],"parents":[2147483647,0,0,1,1,2,2,3,3,4,4,5,5,7,7,8,8,9,9,10,10,11,11,12,12,13,13,14,14,15,15,16,16,17,17,18,18,19,19,20,20,21,21,22,22,23,23,26,26,27,27,28,28,29,29,30,30,32,32,33,33,34,34,35,35,39,39,41,41,42,42,45,45,46,46],"right_children":[2,4,6,8,10,12,-1,14,16,18,20,22,24,26,28,30,32,34,36,38,40,42,44,46,-1,-1,48,50,52,54,56,-1,58,60,62,64,-1,-1,-1,66,-1,68,70,-1,-1,72,74,-1,-1,-1,-1,-1,-1,-1,-1,-1,-1,-1,-1,-1,-1,-1,-1,-1,-1,-1,-1,-1,-1,-1,-1,-1,-1,-1,-1],"split_conditions":[6.3E0,2.155E0,1.3425E1,1.3E0,3.9E0,8.9E0,8.580696E-1,4.9122807E-1,1.9E0,3.97E0,3.3802816E-1,9.91E0,3.28E0,6.2E-1,3.01E-1,2.5333333E0,5.588235E-1,2.8E0,5E-1,2.8E-1,3.49E0,1E-1,1E-1,2.9411765E-2,2.6225102E-1,-9.276253E-2,8E-1,4.0983605E-1,2.5333333E-1,-1.4814815E-1,2.72E0,1.5785743E-2,1.25E-1,3.085E0,-1.369863E-2,5.22E0,3.7773588E-1,-7.302051E-2,1.04552306E-1,5E-1,3.3306528E-2,7.38E0,4.7E0,5.124853E-1,8.498147E-1,1.75E-1,4.7945204E-1,-1.166785E-1,-6.289332E-2,-9.662748E-2,-2.7530272E-2,-6.2725805E-2,4.3925306E-1,1.9630691E-2,-2.5031764E-2,9.8980844E-2,5.6854626E-3,-1.0187633E-1,-4.6373453E-2,6.1996527E-2,1.1807809E-1,-1.2656614E-2,-9.8573774E-2,1.3539328E-1,2.4080656E-1,-9.4661705E-2,-3.1968653E-2,2.3504196E-1,3.5714266E-1,6.703064E-1,2.5186533E-1,-2.1788526E-2,3.3101705E-1,-8.876576E-2,8.6619906E-2],"split_indices":[10,10,10,10,12,12,0,0,12,10,5,10,9,10,8,4,4,12,11,5,9,12,12,3,0,0,4,3,1,2,9,0,2,10,2,10,0,0,0,11,0,10,12,0,0,1,0,0,0,0,0,0,0,0,0,0,0,0,0,0,0,0,0,0,0,0,0,0,0,0,0,0,0,0,0],"split_type":[0,0,0,0,0,0,0,0,0,0,0,0,0,0,0,0,0,0,0,0,0,0,0,0,0,0,0,0,0,0,0,0,0,0,0,0,0,0,0,0,0,0,0,0,0,0,0,0,0,0,0,0,0,0,0,0,0,0,0,0,0,0,0,0,0,0,0,0,0,0,0,0,0,0,0],"sum_hessian":[1.597E3,1.418E3,1.79E2,1.188E3,2.3E2,1.45E2,3.4E1,1.087E3,1.01E2,1.87E2,4.3E1,1.23E2,2.2E1,1.072E3,1.5E1,7.5E1,2.6E1,1.14E2,7.3E1,5E0,3.8E1,8.4E1,3.9E1,2E1,2E0,9.92E2,8E1,1.3E1,2E0,6.7E1,8E0,1E0,2.5E1,1.09E2,5E0,6.7E1,6E0,3E0,2E0,3.7E1,1E0,7.4E1,1E1,3.5E1,4E0,5E0,1.5E1,1.1E1,6.9E1,1.2E1,1E0,1E0,1E0,1.9E1,4.8E1,3E0,5E0,2.2E1,3E0,7.2E1,3.7E1,3E0,2E0,3.5E1,3.2E1,3.4E1,3E0,2.3E1,5.1E1,6E0,4E0,3E0,2E0,1.3E1,2E0],"tree_param":{"num_deleted":"0","num_feature":"14","num_nodes":"75","size_leaf_vector":"1"}},{"base_weights":[2.007809E-2,-5.3215307E-1,4.0429635E0,-7.673913E-1,7.5330776E-1,2.7453303E0,6.4423137E0,-8.1846654E-1,-2.924249E-1,1.0722557E0,-6.497666E-1,3.2708948E0,-4.1424084E-1,6.767168E0,-3.65934E-1,-8.267221E-1,-1.8105961E-1,-3.3324573E-2,-8.0977106E-1,5.277912E-1,1.575475E0,-8.103045E-1,-1.9427472E-1,4.3588285E0,2.9292517E0,-7.299816E-1,9.522823E-1,5.835403E0,8.666854E-1,-7.020869E-2,3.2126226E-2,-8.3799504E-2,-7.218493E-1,-8.106636E-2,2.6075776E0,-4.2845568E-1,9.029536E-2,-3.0081597E-1,-8.931927E-1,4.340642E-1,1.5369475E0,1.404286E0,3.453585E-1,-8.4753565E-2,-1.9271207E-1,8.857903E-1,-6.5271753E-1,3.0136994E-1,5.674554E-1,2.3768601E0,3.666255E-1,6.09108E-2,-8.5986143E-1,1.5847826E-1,-4.726092E-2,5.14907E-1,8.084875E0,-9.5157094E-2,-5.9237994E-2,4.1729042E-1,-2.6153756E-2,-2.2649188E-2,-1.4300989E-1,7.8690884E-4,5.0988246E-2,1.840512E-2,-5.3157307E-2,-9.306685E-2,1.5301657E-2,4.8935793E-2,-7.526796E-2,1.8135613E-1,5.636085E-2,-9.136677E-5,1.4728436E-1,2.8109862E-2,-5.701667E-2,1.1807891E-1,3.9386097E-2,2.8294325E-2,-8.0504306E-2,2.441999E-1,-4.726092E-2,-9.416511E-2,1.4259661E-2,9.6534866E-1,3.710738E-1],"categories":[],"categories_nodes":[],"categories_segments":[],"categories_sizes":[],"default_left":[0,0,0,0,0,0,0,0,0,0,0,0,0,0,0,0,0,0,0,0,0,0,0,0,0,0,0,0,0,0,0,0,0,0,0,0,0,0,0,0,0,0,0,0,0,0,0,0,0,0,0,0,0,0,0,0,0,0,0,0,0,0,0,0,0,0,0,0,0,0,0,0,0,0,0,0,0,0,0,0,0,0,0,0,0,0,0],"id":7,"left_children":[1,3,5,7,9,11,13,15,17,19,21,23,25,27,29,31,33,35,37,39,41,43,45,47,49,51,53,55,-1,-1,-1,-1,57,-1,59,61,63,65,67,69,71,73,-1,-1,75,77,79,-1,-1,81,-1,-1,83,-1,-1,-1,85,-1,-1,-1,-1,-1,-1,-1,-1,-1,-1,-1,-1,-1,-1,-1,-1,-1,-1,-1,-1,-1,-1,-1,-1,-1,-1,-1,-1,-1,-1],"loss_changes":[3.5522085E3,4.2573788E2,5.8321436E2,2.8604553E1,9.825342E1,2.1224579E2,1.5065967E2,5.496643E0,1.5656229E1,4.793782E1,2.8406506E0,2.7745605E1,8.893022E0,6.270923E1,1.1495659E0,6.470947E-1,2.8449926E1,3.8975277E0,1.3871708E0,7.561777E0,2.4729233E1,5.264797E-1,6.5199475E0,2.5374329E1,2.6297607E1,3.3064804E0,4.35396E0,2.9389282E1,0E0,0E0,0E0,0E0,2.707924E0,0E0,1.4564674E1,3.5197122E0,2.1056726E0,8.810424E-1,1.4362545E0,5.683507E0,8.625355E-1,8.286301E0,0E0,0E0,6.9679916E-1,1.1540747E-1,1.5105066E0,0E0,0E0,1.0805878E1,0E0,0E0,1.3641367E0,0E0,0E0,0E0,2.5930359E1,0E0,0E0,0E0,0E0,0E0,0E0,0E0,0E0,0E0,0E0,0E0,0E0,0E0,0E0,0E0,0E0,0E0,0E0,0E0,0E0,0E0,0E0,0E0,0E0,0E0,0E0,0E0,0E0,0E0,0E0],"parents":[2147483647,0,0,1,1,2,2,3,3,4,4,5,5,6,6,7,7,8,8,9,9,10,10,11,11,12,12,13,13,14,14,15,15,16,16,17,17,18,18,19,19,20,20,21,21,22,22,23,23,24,24,25,25,26,26,27,27,32,32,34,34,35,35,36,36,37,37,38,38,39,39,40,40,41,41,44,44,45,45,46,46,49,49,52,52,56,56],"right_children":[2,4,6,8,10,12,14,16,18,20,22,24,26,28,30,32,34,36,38,40,42,44,46,48,50,52,54,56,-1,-1,-1,-1,58,-1,60,62,64,66,68,70,72,74,-1,-1,76,78,80,-1,-1,82,-1,-1,84,-1,-1,-1,86,-1,-1,-1,-1,-1,-1,-1,-1,-1,-1,-1,-1,-1,-1,-1,-1,-1,-1,-1,-1,-1,-1,-1,-1,-1,-1,-1,-1,-1,-1],"split_conditions":[6E0,2.155E0,1.07E1,1.12E0,3.9E0,9.4E0,2.32E1,4.9122807E-1,6E-1,3.49E0,3.472222E-1,1.63E-1,2.34E-1,1.67E1,4.7945204E-1,3.9E-1,1.05E-1,1.79E-1,1.83E-1,5E-1,5E-1,2.7450982E-1,9.859155E-2,1E-1,8.25E0,3.7037037E-2,5.2307695E-1,1E-1,8.666854E-1,-7.020869E-2,3.2126226E-2,-8.3799504E-2,1E0,-8.106636E-2,5.070422E-1,4.117647E-1,1.1578947E0,5.263158E-2,3.4285715E-1,3E0,-3.2142857E-1,1.24E-1,3.453585E-1,-8.4753565E-2,3.114754E-1,9.756097E-2,1.5714285E0,3.0136994E-1,5.674554E-1,8.9E0,3.666255E-1,6.09108E-2,1.1428572E0,1.5847826E-1,-4.726092E-2,5.14907E-1,4.117647E-1,-9.5157094E-2,-5.9237994E-2,4.1729042E-1,-2.6153756E-2,-2.2649188E-2,-1.4300989E-1,7.8690884E-4,5.0988246E-2,1.840512E-2,-5.3157307E-2,-9.306685E-2,1.5301657E-2,4.8935793E-2,-7.526796E-2,1.8135613E-1,5.636085E-2,-9.136677E-5,1.4728436E-1,2.8109862E-2,-5.701667E-2,1.1807891E-1,3.9386097E-2,2.8294325E-2,-8.0504306E-2,2.441999E-1,-4.726092E-2,-9.416511E-2,1.4259661E-2,9.6534866E-1,3.710738E-1],"split_indices":[10,10,10,10,12,12,12,0,12,10,1,8,8,10,0,10,10,8,8,11,11,0,3,12,10,1,1,12,0,0,0,0,11,0,0,1,6,0,0,12,2,8,0,0,0,0,4,0,0,12,0,0,6,0,0,0,1,0,0,0,0,0,0,0,0,0,0,0,0,0,0,0,0,0,0,0,0,0,0,0,0,0,0,0,0,0,0],"split_type":[0,0,0,0,0,0,0,0,0,0,0,0,0,0,0,0,0,0,0,0,0,0,0,0,0,0,0,0,0,0,0,0,0,0,0,0,0,0,0,0,0,0,0,0,0,0,0,0,0,0,0,0,0,0,0,0,0,0,0,0,0,0,0,0,0,0,0,0,0,0,0,0,0,0,0,0,0,0,0,0,0,0,0,0,0,0,0],"sum_hessian":[1.597E3,1.405E3,1.92E2,1.188E3,2.17E2,1.26E2,6.6E1,1.072E3,1.16E2,1.77E2,4E1,1.08E2,1.8E1,6.3E1,3E0,1.058E3,1.4E1,7.8E1,3.8E1,8.6E1,9.1E1,2.9E1,1.1E1,2.3E1,8.5E1,1.5E1,3E0,4.5E1,1.8E1,2E0,1E0,9.49E2,1.09E2,1.2E1,2E0,1.8E1,6E1,6E0,3.2E1,8E1,6E0,8.5E1,6E0,2.7E1,2E0,3E0,8E0,1.3E1,1E1,5.1E1,3.4E1,1E0,1.4E1,2E0,1E0,3.7E1,8E0,3.7E1,7.2E1,1E0,1E0,1.6E1,2E0,5.1E1,9E0,2E0,4E0,3.1E1,1E0,7.7E1,3E0,4E0,2E0,4E0,8.1E1,1E0,1E0,1E0,2E0,1E0,7E0,5E1,1E0,1.3E1,1E0,5E0,3E0],"tree_param":{"num_deleted":"0","num_feature":"14","num_nodes":"87","size_leaf_vector":"1"}},{"base_weights":[2.1039963E-2,-4.5503932E-1,3.8456936E0,-6.907822E-1,7.447611E-1,3.0358996E0,7.044403E0,-7.365529E-1,-2.6511744E-1,1.0553579E0,-6.2043804E-1,3.5488183E0,3.4481037E-1,6.147095E-1,8.953616E-1,-7.442748E-1,-1.4228225E-1,-3.143368E-2,-7.3167896E-1,6.0616654E-1,1.7125223E0,5.418246E-2,-7.0831716E-1,3.199298E0,5.966666E0,6.6453256E-2,2.271159E-1,-7.519429E-2,-6.195175E-1,-7.358331E-2,2.477199E0,-3.9432904E-1,8.211461E-2,-2.7569893E-1,-8.062299E-1,6.6279936E-1,-5.3312945E-1,1.4624408E0,2.7334282E0,-6.1399918E-2,9.270305E-1,-7.4257386E-1,2.9671896E-2,2.4410965E0,3.9257464E-1,6.991854E-1,2.7229586E-1,1.3609242E0,-5.040311E-1,-8.6443774E-2,-4.3258537E-2,3.9642593E-1,-2.4846066E-2,-7.0568256E-2,1.219923E-2,7.097318E-4,4.6399307E-2,1.7178115E-2,-4.890472E-2,-8.4051E-2,1.4536572E-2,4.246098E-2,8.542138E-2,-1.4731172E-2,-8.698433E-2,1.5415226E-1,-6.593933E-2,-1.4359795E-1,3.1646118E-1,2.6879609E-2,1.12174965E-1,-7.7646755E-2,-2.6036073E-2,2.4856548E-1,8.402028E-2,-1.69689E-2,2.5513065E-1,-7.356608E-2,7.449177E-2],"categories":[],"categories_nodes":[],"categories_segments":[],"categories_sizes":[],"default_left":[0,0,0,0,0,0,0,0,0,0,0,0,0,0,0,0,0,0,0,0,0,0,0,0,0,0,0,0,0,0,0,0,0,0,0,0,0,0,0,0,0,0,0,0,0,0,0,0,0,0,0,0,0,0,0,0,0,0,0,0,0,0,0,0,0,0,0,0,0,0,0,0,0,0,0,0,0,0,0],"id":8,"left_children":[1,3,5,7,9,11,13,15,17,19,21,23,25,-1,-1,27,29,31,33,35,37,39,41,43,45,47,-1,-1,49,-1,51,53,55,57,59,61,63,65,67,-1,69,71,-1,73,-1,-1,-1,75,77,-1,-1,-1,-1,-1,-1,-1,-1,-1,-1,-1,-1,-1,-1,-1,-1,-1,-1,-1,-1,-1,-1,-1,-1,-1,-1,-1,-1,-1,-1],"loss_changes":[2.9114495E3,4.0271912E2,4.370962E2,2.2970032E1,9.9877014E1,1.9616077E2,4.921509E0,4.817993E0,1.273326E1,5.5343704E1,2.6469193E0,8.232129E1,1.2718183E1,0E0,0E0,5.472412E-1,2.5144735E1,3.2876658E0,1.1034794E0,7.7733307E0,1.5661346E1,4.0685225E0,1.563076E0,4.935193E1,2.7517181E1,1.6932411E1,0E0,0E0,2.69355E0,0E0,1.3144621E1,3.1404982E0,1.7442033E0,7.5229275E-1,1.1986656E0,4.652519E0,6.5132296E-1,1.1755554E1,2.9713226E1,0E0,8.299041E-2,4.1891098E-1,0E0,1.8348389E0,0E0,0E0,0E0,1.3187032E1,5.1767044E0,0E0,0E0,0E0,0E0,0E0,0E0,0E0,0E0,0E0,0E0,0E0,0E0,0E0,0E0,0E0,0E0,0E0,0E0,0E0,0E0,0E0,0E0,0E0,0E0,0E0,0E0,0E0,0E0,0E0,0E0],"parents":[2147483647,0,0,1,1,2,2,3,3,4,4,5,5,6,6,7,7,8,8,9,9,10,10,11,11,12,12,15,15,16,16,17,17,18,18,19,19,20,20,21,21,22,22,23,23,24,24,25,25,28,28,30,30,31,31,32,32,33,33,34,34,35,35,36,36,37,37,38,38,40,40,41,41,43,43,47,47,48,48],"right_children":[2,4,6,8,10,12,14,16,18,20,22,24,26,-1,-1,28,30,32,34,36,38,40,42,44,46,48,-1,-1,50,-1,52,54,56,58,60,62,64,66,68,-1,70,72,-1,74,-1,-1,-1,76,78,-1,-1,-1,-1,-1,-1,-1,-1,-1,-1,-1,-1,-1,-1,-1,-1,-1,-1,-1,-1,-1,-1,-1,-1,-1,-1,-1,-1,-1,-1],"split_conditions":[6.4E0,2.155E0,1.3425E1,1.12E0,3.9E0,8.7E0,1.98E1,4.9122807E-1,6E-1,3.97E0,3.3802816E-1,1E-1,3.28E0,6.147095E-1,8.953616E-1,6.2E-1,1.05E-1,1.79E-1,1.83E-1,2.8E0,1E-1,2.8E-1,3.49E0,8.975E0,4.9E0,2.9411765E-2,2.271159E-1,-7.519429E-2,1E0,-7.358331E-2,5.070422E-1,1.735E0,1.1578947E0,5.263158E-2,3.4285715E-1,2.82E0,-1.369863E-2,3.1351352E0,-4.21875E-1,-6.1399918E-2,9.677419E-2,5E-1,2.9671896E-2,7.846154E-1,3.9257464E-1,6.991854E-1,2.7229586E-1,1.75E-1,4.7945204E-1,-8.6443774E-2,-4.3258537E-2,3.9642593E-1,-2.4846066E-2,-7.0568256E-2,1.219923E-2,7.097318E-4,4.6399307E-2,1.7178115E-2,-4.890472E-2,-8.4051E-2,1.4536572E-2,4.246098E-2,8.542138E-2,-1.4731172E-2,-8.698433E-2,1.5415226E-1,-6.593933E-2,-1.4359795E-1,3.1646118E-1,2.6879609E-2,1.12174965E-1,-7.7646755E-2,-2.6036073E-2,2.4856548E-1,8.402028E-2,-1.69689E-2,2.5513065E-1,-7.356608E-2,7.449177E-2],"split_indices":[10,10,10,10,12,12,10,0,12,10,5,12,9,0,0,10,10,8,8,12,12,5,9,10,12,3,0,0,11,0,0,10,6,0,0,10,2,5,2,0,0,11,0,1,0,0,0,1,0,0,0,0,0,0,0,0,0,0,0,0,0,0,0,0,0,0,0,0,0,0,0,0,0,0,0,0,0,0,0],"split_type":[0,0,0,0,0,0,0,0,0,0,0,0,0,0,0,0,0,0,0,0,0,0,0,0,0,0,0,0,0,0,0,0,0,0,0,0,0,0,0,0,0,0,0,0,0,0,0,0,0,0,0,0,0,0,0,0,0,0,0,0,0,0,0,0,0,0,0,0,0,0,0,0,0,0,0,0,0,0,0],"sum_hessian":[1.597E3,1.421E3,1.76E2,1.188E3,2.33E2,1.42E2,3.4E1,1.072E3,1.16E2,1.9E2,4.3E1,1.19E2,2.3E1,2.6E1,8E0,1.058E3,1.4E1,7.8E1,3.8E1,1.14E2,7.6E1,5E0,3.8E1,1.06E2,1.3E1,2.1E1,2E0,9.92E2,6.6E1,1.2E1,2E0,1.8E1,6E1,6E0,3.2E1,1.09E2,5E0,6.3E1,1.3E1,3E0,2E0,3.7E1,1E0,5.4E1,5.2E1,9E0,4E0,6E0,1.5E1,2.7E1,3.9E1,1E0,1E0,1.1E1,7E0,5.1E1,9E0,2E0,4E0,3.1E1,1E0,5E1,5.9E1,3E0,2E0,6.1E1,2E0,1E0,1.2E1,1E0,1E0,3.4E1,3E0,5.2E1,2E0,3E0,3E0,1.3E1,2E0],"tree_param":{"num_deleted":"0","num_feature":"14","num_nodes":"79","size_leaf_vector":"1"}},{"base_weights":[2.140429E-2,-4.35122E-1,3.289185E0,-6.2172025E-1,5.9883344E-1,2.170891E0,5.2274365E0,-6.6281086E-1,-2.3956726E-1,8.7333846E-1,-4.2865974E-1,2.6211114E0,-3.463329E-1,5.4769235E0,-3.2070112E-1,-6.700408E-1,-1.0818757E-1,-2.8432883E-2,-6.61107E-1,7.478081E-1,2.3318357E0,-5.5649775E-1,3.630803E-1,3.5612001E0,2.321311E0,-6.0223824E-1,8.27848E-1,4.843102E0,7.575728E-1,-6.06237E-2,2.6795328E-2,-6.674737E-1,-1.1802473E-1,-6.679101E-2,2.3533392E0,-3.579682E-1,7.467538E-2,-2.526614E-1,-7.277134E-1,3.827921E-1,1.0900728E0,9.558902E-1,2.837157E0,-4.982643E-2,-6.816085E-1,1.1435262E0,-5.0813567E-2,2.4310401E-1,4.6758398E-1,1.9570876E0,2.8808835E-1,5.871371E-2,-7.1327025E-1,1.3785945E-1,-4.1219573E-2,4.3398005E-1,6.933331E0,-6.768244E-2,-5.1196277E-2,3.7660465E-1,-2.3603762E-2,-1.728386E-2,-1.2877133E-1,1.6224899E-3,5.2326124E-2,1.603291E-2,-4.4992343E-2,-7.590856E-2,1.3809741E-2,1.7394094E-2,5.028481E-2,9.549314E-2,1.9540833E-1,2.87526E-2,1.0510998E-1,2.995451E-1,7.854023E-2,9.0611465E-2,-4.5239743E-2,-7.116415E-2,-1.5407467E-2,1.3367796E-1,2.8188301E-2,2.0095685E-1,-4.1219573E-2,-7.837883E-2,1.722498E-2,8.294534E-1,3.1581938E-1],"categories":[],"categories_nodes":[],"categories_segments":[],"categories_sizes":[],"default_left":[0,0,0,0,0,0,0,0,0,0,0,0,0,0,0,0,0,0,0,0,0,0,0,0,0,0,0,0,0,0,0,0,0,0,0,0,0,0,0,0,0,0,0,0,0,0,0,0,0,0,0,0,0,0,0,0,0,0,0,0,0,0,0,0,0,0,0,0,0,0,0,0,0,0,0,0,0,0,0,0,0,0,0,0,0,0,0,0,0],"id":9,"left_children":[1,3,5,7,9,11,13,15,17,19,21,23,25,27,29,31,33,35,37,39,41,43,45,47,49,51,53,55,-1,-1,-1,57,-1,-1,59,61,63,65,67,69,71,73,75,77,79,81,-1,-1,-1,83,-1,-1,85,-1,-1,-1,87,-1,-1,-1,-1,-1,-1,-1,-1,-1,-1,-1,-1,-1,-1,-1,-1,-1,-1,-1,-1,-1,-1,-1,-1,-1,-1,-1,-1,-1,-1,-1,-1],"loss_changes":[2.385372E3,2.710591E2,4.1348853E2,1.8511932E1,6.101555E1,1.4370435E2,1.00033936E2,4.2301636E0,1.0394381E1,2.9380798E1,4.8579197E0,2.1890076E1,6.5081444E0,5.376819E1,8.3477104E-1,5.9921265E-1,2.2238398E1,2.7109787E0,8.771343E-1,1.9321999E1,6.3268127E0,2.5016384E0,5.3406253E0,1.886618E1,1.1481842E1,2.6637864E0,3.3000498E0,2.7771606E1,0E0,0E0,0E0,1.1890869E0,0E0,0E0,1.1863022E1,3.047777E0,1.5909338E0,6.424072E-1,1.0011845E0,1.8682928E0,7.5918274E0,1.5954494E-2,5.703888E-1,3.873431E0,3.973446E-1,2.8924656E-1,0E0,0E0,0E0,7.542801E0,0E0,0E0,1.1341286E0,0E0,0E0,0E0,2.0052795E1,0E0,0E0,0E0,0E0,0E0,0E0,0E0,0E0,0E0,0E0,0E0,0E0,0E0,0E0,0E0,0E0,0E0,0E0,0E0,0E0,0E0,0E0,0E0,0E0,0E0,0E0,0E0,0E0,0E0,0E0,0E0,0E0],"parents":[2147483647,0,0,1,1,2,2,3,3,4,4,5,5,6,6,7,7,8,8,9,9,10,10,11,11,12,12,13,13,14,14,15,15,16,16,17,17,18,18,19,19,20,20,21,21,22,22,23,23,24,24,25,25,26,26,27,27,31,31,34,34,35,35,36,36,37,37,38,38,39,39,40,40,41,41,42,42,43,43,44,44,45,45,49,49,52,52,56,56],"right_children":[2,4,6,8,10,12,14,16,18,20,22,24,26,28,30,32,34,36,38,40,42,44,46,48,50,52,54,56,-1,-1,-1,58,-1,-1,60,62,64,66,68,70,72,74,76,78,80,82,-1,-1,-1,84,-1,-1,86,-1,-1,-1,88,-1,-1,-1,-1,-1,-1,-1,-1,-1,-1,-1,-1,-1,-1,-1,-1,-1,-1,-1,-1,-1,-1,-1,-1,-1,-1,-1,-1,-1,-1,-1,-1],"split_conditions":[5.98E0,2.155E0,1.03E1,1.12E0,3E0,9.4E0,2.32E1,4.9122807E-1,6E-1,5E-1,1.9577465E0,1.63E-1,2.34E-1,1.77E1,4.7945204E-1,1.095E0,1.05E-1,1.79E-1,1.83E-1,3.49E0,2.435E0,4.4444445E-1,2.7E0,1E-1,8.25E0,3.7037037E-2,5.2307695E-1,1E-1,7.575728E-1,-6.06237E-2,2.6795328E-2,6.2E-1,-1.1802473E-1,-6.679101E-2,5.070422E-1,4.117647E-1,2.3913043E0,5.263158E-2,3.4285715E-1,2.54E0,1E-1,4.2592594E-1,4.761905E-2,1.83E-1,3.49E0,3.4848484E-1,-5.0813567E-2,2.4310401E-1,4.6758398E-1,8.9E0,2.8808835E-1,5.871371E-2,1.1428572E0,1.3785945E-1,-4.1219573E-2,4.3398005E-1,4.117647E-1,-6.768244E-2,-5.1196277E-2,3.7660465E-1,-2.3603762E-2,-1.728386E-2,-1.2877133E-1,1.6224899E-3,5.2326124E-2,1.603291E-2,-4.4992343E-2,-7.590856E-2,1.3809741E-2,1.7394094E-2,5.028481E-2,9.549314E-2,1.9540833E-1,2.87526E-2,1.0510998E-1,2.995451E-1,7.854023E-2,9.0611465E-2,-4.5239743E-2,-7.116415E-2,-1.5407467E-2,1.3367796E-1,2.8188301E-2,2.0095685E-1,-4.1219573E-2,-7.837883E-2,1.722498E-2,8.294534E-1,3.1581938E-1],"split_indices":[10,10,10,10,12,12,12,0,12,11,5,8,8,10,0,10,10,8,8,10,10,5,5,12,10,1,1,12,0,0,0,10,0,0,0,1,4,0,0,10,12,4,2,8,9,1,0,0,0,12,0,0,6,0,0,0,1,0,0,0,0,0,0,0,0,0,0,0,0,0,0,0,0,0,0,0,0,0,0,0,0,0,0,0,0,0,0,0,0],"split_type":[0,0,0,0,0,0,0,0,0,0,0,0,0,0,0,0,0,0,0,0,0,0,0,0,0,0,0,0,0,0,0,0,0,0,0,0,0,0,0,0,0,0,0,0,0,0,0,0,0,0,0,0,0,0,0,0,0,0,0,0,0,0,0,0,0,0,0,0,0,0,0,0,0,0,0,0,0,0,0,0,0,0,0,0,0,0,0,0,0],"sum_hessian":[1.597E3,1.402E3,1.95E2,1.188E3,2.14E2,1.25E2,7E1,1.072E3,1.16E2,1.69E2,4.5E1,1.06E2,1.9E1,6.7E1,3E0,1.058E3,1.4E1,7.8E1,3.8E1,1.57E2,1.2E1,3.9E1,6E0,2.3E1,8.3E1,1.6E1,3E0,5.4E1,1.3E1,2E0,1E0,1.055E3,3E0,1.2E1,2E0,1.8E1,6E1,6E0,3.2E1,7.7E1,8E1,4E0,8E0,8E0,3.1E1,3E0,3E0,1.3E1,1E1,5.3E1,3E1,1E0,1.5E1,2E0,1E0,4.6E1,8E0,9.92E2,6.3E1,1E0,1E0,1.6E1,2E0,5.4E1,6E0,2E0,4E0,3.1E1,1E0,2.9E1,4.8E1,7.1E1,9E0,1E0,3E0,7E0,1E0,2E0,6E0,2.9E1,2E0,2E0,1E0,5.2E1,1E0,1.4E1,1E0,5E0,3E0],"tree_param":{"num_deleted":"0","num_feature":"14","num_nodes":"89","size_leaf_vector":"1"}},{"base_weights":[2.1993674E-2,-4.3243086E-1,2.713036E0,-5.745046E-1,3.2379663E-1,1.8035722E0,4.737129E0,-5.9648377E-1,-2.725272E-1,5.492963E-1,-5.503198E-1,2.149321E0,-3.6436942E-1,4.9635963E0,-2.9708812E-1,-6.032604E-1,-7.828816E-2,-3.2646593E-1,6.0184705E-1,3.0157912E-1,9.094862E-1,5.472827E-2,-5.877035E-1,1.681143E0,2.671699E0,-5.728695E-1,7.692232E-1,4.502758E0,7.4843407E-1,-5.6582123E-2,2.5455559E-2,-6.008389E-1,-1.0917288E-1,-6.0625684E-2,2.2356722E0,-1.6970113E-1,-6.0467976E-1,1.8662894E-2,8.1644945E-2,9.209435E-1,1.9500086E-1,8.044199E-1,2.114464E-1,-6.150669E-1,-8.715272E-3,1.7569638E0,-2.0027085E-1,2.960811E0,1.9851763E0,5.5778027E-2,-6.617342E-1,1.2866883E-1,-3.9158594E-2,3.9131517E0,5.7639295E-1,-6.092101E-2,-4.6156645E-2,3.577744E-1,-2.2423571E-2,-4.5562707E-2,3.610373E-3,-9.049174E-3,-6.651828E-2,5.835272E-2,1.3298135E-1,4.717204E-3,4.0548075E-2,6.348561E-2,1.338613E-1,-6.35035E-2,-1.43803E-2,-2.9104907E-2,2.7797615E-2,1.8447556E-1,-2.62528E-2,2.6139453E-1,4.1516048E-1,2.1170025E-1,-3.9158594E-2,-7.166792E-2,1.6363729E-2,3.2131818E-1,4.4125515E-1],"categories":[],"categories_nodes":[],"categories_segments":[],"categories_sizes":[],"default_left":[0,0,0,0,0,0,0,0,0,0,0,0,0,0,0,0,0,0,0,0,0,0,0,0,0,0,0,0,0,0,0,0,0,0,0,0,0,0,0,0,0,0,0,0,0,0,0,0,0,0,0,0,0,0,0,0,0,0,0,0,0,0,0,0,0,0,0,0,0,0,0,0,0,0,0,0,0,0,0,0,0,0,0],"id":10,"left_children":[1,3,5,7,9,11,13,15,17,19,21,23,25,27,29,31,33,35,37,39,41,-1,43,45,47,49,51,53,-1,-1,-1,55,-1,-1,57,59,61,-1,-1,63,65,67,-1,69,71,73,-1,75,77,-1,79,-1,-1,81,-1,-1,-1,-1,-1,-1,-1,-1,-1,-1,-1,-1,-1,-1,-1,-1,-1,-1,-1,-1,-1,-1,-1,-1,-1,-1,-1,-1,-1],"loss_changes":[1.9553285E3,1.4716403E2,4.166902E2,7.48349E0,4.3075798E1,1.2146283E2,8.242041E1,3.7207642E0,3.969493E0,1.5161682E1,2.1681042E0,2.9503174E1,5.87681E0,4.529248E1,7.3701257E-1,5.966797E-1,1.968087E1,3.21206E0,2.931608E-1,6.6855373E0,7.1612663E0,0E0,6.9173336E-1,2.474643E1,6.8250732E0,2.3785996E0,2.9065619E0,2.2060547E1,0E0,0E0,0E0,9.500122E-1,0E0,0E0,1.0706377E1,2.958697E0,7.797737E-1,0E0,0E0,1.2934084E0,2.7812219E0,5.128441E0,0E0,3.0391312E-1,3.2373273E-1,1.3781418E1,0E0,6.9088745E0,7.7220154E0,0E0,9.789257E-1,0E0,0E0,1.2025146E0,0E0,0E0,0E0,0E0,0E0,0E0,0E0,0E0,0E0,0E0,0E0,0E0,0E0,0E0,0E0,0E0,0E0,0E0,0E0,0E0,0E0,0E0,0E0,0E0,0E0,0E0,0E0,0E0,0E0],"parents":[2147483647,0,0,1,1,2,2,3,3,4,4,5,5,6,6,7,7,8,8,9,9,10,10,11,11,12,12,13,13,14,14,15,15,16,16,17,17,18,18,19,19,20,20,22,22,23,23,24,24,25,25,26,26,27,27,31,31,34,34,35,35,36,36,39,39,40,40,41,41,43,43,44,44,45,45,47,47,48,48,50,50,53,53],"right_children":[2,4,6,8,10,12,14,16,18,20,22,24,26,28,30,32,34,36,38,40,42,-1,44,46,48,50,52,54,-1,-1,-1,56,-1,-1,58,60,62,-1,-1,64,66,68,-1,70,72,74,-1,76,78,-1,80,-1,-1,82,-1,-1,-1,-1,-1,-1,-1,-1,-1,-1,-1,-1,-1,-1,-1,-1,-1,-1,-1,-1,-1,-1,-1,-1,-1,-1,-1,-1,-1],"split_conditions":[4.9E0,1.83E0,1.03E1,1.12E0,3E0,9.4E0,2.32E1,4.9122807E-1,3.59E0,3.085E0,1.25E-1,7.52E0,2.34E-1,1.98E1,4.7945204E-1,1.095E0,1.05E-1,6E-1,5.882353E-2,2.61E0,5E-1,5.472827E-2,4.84E0,3.2857144E0,2.42E-1,3.7037037E-2,5.2307695E-1,2.4133334E0,7.4843407E-1,-5.6582123E-2,2.5455559E-2,6.2E-1,-1.0917288E-1,-6.0625684E-2,5.070422E-1,2.09E-1,1.83E-1,1.8662894E-2,8.1644945E-2,5E-1,2.54E0,1.5555556E0,2.114464E-1,3.49E0,4.347826E-2,6.8E0,-2.0027085E-1,1E-1,8.9E0,5.5778027E-2,1.1428572E0,1.2866883E-1,-3.9158594E-2,1.2505E1,5.7639295E-1,-6.092101E-2,-4.6156645E-2,3.577744E-1,-2.2423571E-2,-4.5562707E-2,3.610373E-3,-9.049174E-3,-6.651828E-2,5.835272E-2,1.3298135E-1,4.717204E-3,4.0548075E-2,6.348561E-2,1.338613E-1,-6.35035E-2,-1.43803E-2,-2.9104907E-2,2.7797615E-2,1.8447556E-1,-2.62528E-2,2.6139453E-1,4.1516048E-1,2.1170025E-1,-3.9158594E-2,-7.166792E-2,1.6363729E-2,3.2131818E-1,4.4125515E-1],"split_indices":[10,10,10,10,12,12,12,0,9,10,8,10,8,10,0,10,10,12,0,9,11,0,10,5,8,1,1,4,0,0,0,10,0,0,0,8,8,0,0,11,10,6,0,9,0,12,0,12,12,0,6,0,0,10,0,0,0,0,0,0,0,0,0,0,0,0,0,0,0,0,0,0,0,0,0,0,0,0,0,0,0,0,0],"split_type":[0,0,0,0,0,0,0,0,0,0,0,0,0,0,0,0,0,0,0,0,0,0,0,0,0,0,0,0,0,0,0,0,0,0,0,0,0,0,0,0,0,0,0,0,0,0,0,0,0,0,0,0,0,0,0,0,0,0,0,0,0,0,0,0,0,0,0,0,0,0,0,0,0,0,0,0,0,0,0,0,0,0,0],"sum_hessian":[1.597E3,1.367E3,2.3E2,1.151E3,2.16E2,1.6E2,7E1,1.072E3,7.9E1,1.72E2,4.4E1,1.38E2,2.2E1,6.7E1,3E0,1.058E3,1.4E1,7.5E1,4E0,1.03E2,6.9E1,1E0,4.3E1,7.5E1,6.3E1,1.9E1,3E0,5.9E1,8E0,2E0,1E0,1.055E3,3E0,1.2E1,2E0,4.9E1,2.6E1,2E0,2E0,1.4E1,8.9E1,6.5E1,4E0,4.1E1,2E0,7.4E1,1E0,4.2E1,2.1E1,1E0,1.8E1,2E0,1E0,4.3E1,1.6E1,9.92E2,6.3E1,1E0,1E0,2E1,2.9E1,3E0,2.3E1,9E0,5E0,5.3E1,3.6E1,5.1E1,1.4E1,3.9E1,2E0,1E0,1E0,7.1E1,3E0,3.5E1,7E0,2E1,1E0,1.7E1,1E0,2.1E1,2.2E1],"tree_param":{"num_deleted":"0","num_feature":"14","num_nodes":"83","size_leaf_vector":"1"}},{"base_weights":[2.2056818E-2,-3.3089602E-1,2.8575194E0,-5.0390667E-1,5.4961926E-1,2.246321E0,5.273058E0,-5.344301E-1,-1.7338313E-1,7.972428E-1,-3.7758029E-1,2.6226435E0,2.7111155E-1,4.5624238E-1,6.8190664E-1,-5.410832E-1,-2.298977E-1,-3.019541E-2,-5.7000846E-1,4.9338207E-1,1.2781829E0,-5.397315E-1,3.6754627E-2,2.3366318E0,4.6212587E0,4.7777176E-2,1.8185264E-1,-5.5125386E-2,-4.5953757E-1,2.0821795E0,-5.2147742E-2,-8.4602036E-2,3.842319E-1,-1.2042147E-1,-4.7110334E-1,4.2486548E-1,1.3566834E0,1.0749053E0,2.1880555E0,7.4317396E-2,-5.9780616E-1,-5.164922E-1,5.8540714E-1,1.7710139E0,2.879506E0,5.4708374E-1,1.9978511E-1,9.219947E-1,-4.2165732E-1,-6.0108423E-2,-3.0349616E-2,-2.7558772E-2,3.3988568E-1,1.8728472E-2,-1.9384965E-2,8.050405E-2,3.9654197E-3,-5.3074975E-2,1.4322007E-2,3.4227647E-2,9.140991E-2,1.6053078E-1,4.0720694E-2,1.1447382E-1,-6.335007E-2,-1.5541224E-1,2.6695374E-1,-2.4752242E-2,5.1991846E-2,-1.7219858E-2,-6.505728E-2,-5.5145074E-2,-1.35891205E-2,9.8880425E-2,-4.1652273E-2,1.3391224E-1,1.9795483E-1,2.9051012E-1,7.742858E-2,-2.626729E-3,1.8768236E-1,-6.2245008E-2,5.8899682E-2],"categories":[],"categories_nodes":[],"categories_segments":[],"categories_sizes":[],"default_left":[0,0,0,0,0,0,0,0,0,0,0,0,0,0,0,0,0,0,0,0,0,0,0,0,0,0,0,0,0,0,0,0,0,0,0,0,0,0,0,0,0,0,0,0,0,0,0,0,0,0,0,0,0,0,0,0,0,0,0,0,0,0,0,0,0,0,0,0,0,0,0,0,0,0,0,0,0,0,0,0,0,0,0],"id":11,"left_children":[1,3,5,7,9,11,13,15,17,19,21,23,25,-1,-1,27,29,31,33,35,37,39,41,43,45,47,-1,-1,49,51,-1,53,55,-1,57,59,61,63,65,67,69,71,73,75,77,-1,-1,79,81,-1,-1,-1,-1,-1,-1,-1,-1,-1,-1,-1,-1,-1,-1,-1,-1,-1,-1,-1,-1,-1,-1,-1,-1,-1,-1,-1,-1,-1,-1,-1,-1,-1,-1],"loss_changes":[1.6001992E3,2.1690234E2,2.4947314E2,1.1902832E1,5.402658E1,1.0558313E2,7.3411255E0,2.079956E0,5.7755594E0,2.6405037E1,3.3790832E0,5.779718E1,8.207298E0,0E0,0E0,6.291199E-1,1.793968E1,1.7461237E0,1.126298E0,6.225897E0,1.07799835E1,1.3282118E0,4.855462E0,2.7755676E1,2.0273163E1,9.417299E0,0E0,0E0,2.5563774E0,1.024994E1,0E0,2.0561078E0,1.2730881E0,0E0,9.920683E-1,4.0509014E0,1.2348108E0,7.883377E0,2.5770267E1,7.023402E-1,6.290817E-1,3.150487E-2,3.6452644E0,2.3026733E0,6.064453E-1,0E0,0E0,7.292722E0,3.4106011E0,0E0,0E0,0E0,0E0,0E0,0E0,0E0,0E0,0E0,0E0,0E0,0E0,0E0,0E0,0E0,0E0,0E0,0E0,0E0,0E0,0E0,0E0,0E0,0E0,0E0,0E0,0E0,0E0,0E0,0E0,0E0,0E0,0E0,0E0],"parents":[2147483647,0,0,1,1,2,2,3,3,4,4,5,5,6,6,7,7,8,8,9,9,10,10,11,11,12,12,15,15,16,16,17,17,18,18,19,19,20,20,21,21,22,22,23,23,24,24,25,25,28,28,29,29,31,31,32,32,34,34,35,35,36,36,37,37,38,38,39,39,40,40,41,41,42,42,43,43,44,44,47,47,48,48],"right_children":[2,4,6,8,10,12,14,16,18,20,22,24,26,-1,-1,28,30,32,34,36,38,40,42,44,46,48,-1,-1,50,52,-1,54,56,-1,58,60,62,64,66,68,70,72,74,76,78,-1,-1,80,82,-1,-1,-1,-1,-1,-1,-1,-1,-1,-1,-1,-1,-1,-1,-1,-1,-1,-1,-1,-1,-1,-1,-1,-1,-1,-1,-1,-1,-1,-1,-1,-1,-1,-1],"split_conditions":[6.4E0,2.155E0,1.3425E1,1.3E0,3E0,8.7E0,1.98E1,3.8356164E-1,1.9E0,4.07E0,3.472222E-1,1E-1,3.28E0,4.5624238E-1,6.8190664E-1,3.9E-1,3.888889E-1,2.5333333E0,2.55E0,5E-1,1E-1,1.2727273E-1,4.58E0,8.975E0,4.9E0,3.125E-2,1.8185264E-1,-5.5125386E-2,2.21E-1,2.8333333E-1,-5.2147742E-2,-1.4814815E-1,2.72E0,-1.2042147E-1,5E-1,1.5294118E0,2E-1,3.1351352E0,-4.21875E-1,1.3333334E-2,3.090909E-1,6.447368E-1,-5.7142857E-2,7.38E0,4.090909E-1,5.4708374E-1,1.9978511E-1,2.3188406E-1,4.7945204E-1,-6.0108423E-2,-3.0349616E-2,-2.7558772E-2,3.3988568E-1,1.8728472E-2,-1.9384965E-2,8.050405E-2,3.9654197E-3,-5.3074975E-2,1.4322007E-2,3.4227647E-2,9.140991E-2,1.6053078E-1,4.0720694E-2,1.1447382E-1,-6.335007E-2,-1.5541224E-1,2.6695374E-1,-2.4752242E-2,5.1991846E-2,-1.7219858E-2,-6.505728E-2,-5.5145074E-2,-1.35891205E-2,9.8880425E-2,-4.1652273E-2,1.3391224E-1,1.9795483E-1,2.9051012E-1,7.742858E-2,-2.626729E-3,1.8768236E-1,-6.2245008E-2,5.8899682E-2],"split_indices":[10,10,10,10,12,12,10,3,12,10,1,12,9,0,0,10,3,4,9,11,12,1,10,10,12,3,0,0,8,0,0,2,9,0,11,6,12,5,2,3,6,1,2,10,2,0,0,1,0,0,0,0,0,0,0,0,0,0,0,0,0,0,0,0,0,0,0,0,0,0,0,0,0,0,0,0,0,0,0,0,0,0,0],"split_type":[0,0,0,0,0,0,0,0,0,0,0,0,0,0,0,0,0,0,0,0,0,0,0,0,0,0,0,0,0,0,0,0,0,0,0,0,0,0,0,0,0,0,0,0,0,0,0,0,0,0,0,0,0,0,0,0,0,0,0,0,0,0,0,0,0,0,0,0,0,0,0,0,0,0,0,0,0,0,0,0,0,0,0],"sum_hessian":[1.597E3,1.421E3,1.76E2,1.188E3,2.33E2,1.42E2,3.4E1,1.087E3,1.01E2,1.84E2,4.9E1,1.19E2,2.3E1,2.6E1,8E0,1.063E3,2.4E1,7.5E1,2.6E1,1.14E2,7E1,3.5E1,1.4E1,1.06E2,1.3E1,2.1E1,2E0,9.4E2,1.23E2,2E0,2.2E1,6.7E1,8E0,2E0,2.4E1,1.07E2,7E0,5.9E1,1.1E1,3E0,3.2E1,7E0,7E0,5.4E1,5.2E1,9E0,4E0,7E0,1.4E1,6.3E1,6E1,1E0,1E0,1.9E1,4.8E1,3E0,5E0,2.2E1,2E0,9.3E1,1.4E1,5E0,2E0,5.7E1,2E0,1E0,1E1,2E0,1E0,4E0,2.8E1,6E0,1E0,5E0,2E0,2E1,3.4E1,5.1E1,1E0,4E0,3E0,1.2E1,2E0],"tree_param":{"num_deleted":"0","num_feature":"14","num_nodes":"83","size_leaf_vector":"1"}},{"base_weights":[2.1985453E-2,-3.166972E-1,2.446219E0,-4.5348302E-1,4.4123313E-1,1.6626362E0,4.03638E0,-4.8313013E-1,-1.7771499E-1,6.24872E-1,-3.7780884E-1,2.0019438E0,-1.4032325E-1,4.251858E0,-2.5876334E-1,-4.8912585E-1,-2.7623551E-2,-1.43916E-2,-5.039928E-1,5.2349424E-1,1.8557249E0,-4.9610063E-1,-6.0452912E-2,1.8227746E0,3.2261734E0,-4.0616977E-1,8.4478885E-1,3.838623E0,6.212927E-1,-4.866031E-2,2.1237796E-2,-4.8683283E-1,-9.7220755E-1,-4.998678E-2,2.027976E0,-2.933224E-1,7.272442E-2,1.0766405E-2,-5.229223E-1,1.9416177E-1,7.6667625E-1,2.1970382E0,5.3851087E-2,-5.2554655E-1,-6.57203E-2,6.712196E-1,-5.1019162E-2,1.3985261E0,2.172608E-1,3.616949E0,7.179382E-2,-5.020877E-1,6.1221767E-2,-1.2274355E-1,1.530725E-1,3.4048193E0,5.5811286E0,-4.9378388E-2,-3.713762E-2,-1.1105567E-1,-2.7858004E-2,3.228914E-1,-1.8695002E-2,-1.2577337E-2,-1.14499286E-1,8.70966E-4,3.983287E-2,9.546453E-3,-5.4221552E-2,2.3980416E-2,-4.562787E-2,6.588915E-2,1.3875744E-1,1.0793417E-1,2.521859E-1,-9.95394E-2,-4.6919115E-2,-3.132175E-2,2.1463705E-2,8.231225E-2,2.955768E-2,1.4362726E-1,3.535723E-2,3.9481652E-1,1.4176516E-1,5.312046E-2,-5.998688E-2,1.567688E-2,-3.4088414E-2,2.9542994E-1,4.1913778E-1,6.7424184E-1,2.443912E-1],"categories":[],"categories_nodes":[],"categories_segments":[],"categories_sizes":[],"default_left":[0,0,0,0,0,0,0,0,0,0,0,0,0,0,0,0,0,0,0,0,0,0,0,0,0,0,0,0,0,0,0,0,0,0,0,0,0,0,0,0,0,0,0,0,0,0,0,0,0,0,0,0,0,0,0,0,0,0,0,0,0,0,0,0,0,0,0,0,0,0,0,0,0,0,0,0,0,0,0,0,0,0,0,0,0,0,0,0,0,0,0,0,0],"id":12,"left_children":[1,3,5,7,9,11,13,15,17,19,21,23,25,27,29,31,33,35,37,39,41,43,45,47,49,51,53,55,-1,-1,-1,57,59,-1,61,63,65,-1,67,69,71,73,-1,75,77,79,-1,81,-1,83,-1,85,-1,87,-1,89,91,-1,-1,-1,-1,-1,-1,-1,-1,-1,-1,-1,-1,-1,-1,-1,-1,-1,-1,-1,-1,-1,-1,-1,-1,-1,-1,-1,-1,-1,-1,-1,-1,-1,-1,-1,-1],"loss_changes":[1.3128059E3,1.4565485E2,2.375094E2,9.635086E0,3.25738E1,8.1644745E1,6.0332886E1,2.9169464E0,6.2275352E0,2.099002E1,1.4716334E0,1.8685944E1,6.1046777E0,2.558435E1,5.327227E-1,6.9976807E-1,1.5574895E1,1.9409797E0,5.078554E-1,1.2985527E1,4.6614494E0,3.3297682E-1,4.291188E0,1.1803192E1,1.0145309E1,2.0656562E0,3.5062144E0,2.1060242E1,0E0,0E0,0E0,6.6412354E-1,7.447195E-2,0E0,8.583613E0,2.567225E0,1.267983E0,0E0,5.0512886E-1,2.2172413E0,5.3765335E0,9.085655E-1,0E0,2.4788809E-1,2.7539104E-1,4.2010307E-2,0E0,1.3854446E0,0E0,2.415741E0,0E0,2.0362725E0,0E0,2.3635894E-1,0E0,3.5636597E0,1.6311066E1,0E0,0E0,0E0,0E0,0E0,0E0,0E0,0E0,0E0,0E0,0E0,0E0,0E0,0E0,0E0,0E0,0E0,0E0,0E0,0E0,0E0,0E0,0E0,0E0,0E0,0E0,0E0,0E0,0E0,0E0,0E0,0E0,0E0,0E0,0E0,0E0],"parents":[2147483647,0,0,1,1,2,2,3,3,4,4,5,5,6,6,7,7,8,8,9,9,10,10,11,11,12,12,13,13,14,14,15,15,16,16,17,17,18,18,19,19,20,20,21,21,22,22,23,23,24,24,25,25,26,26,27,27,31,31,32,32,34,34,35,35,36,36,38,38,39,39,40,40,41,41,43,43,44,44,45,45,47,47,49,49,51,51,53,53,55,55,56,56],"right_children":[2,4,6,8,10,12,14,16,18,20,22,24,26,28,30,32,34,36,38,40,42,44,46,48,50,52,54,56,-1,-1,-1,58,60,-1,62,64,66,-1,68,70,72,74,-1,76,78,80,-1,82,-1,84,-1,86,-1,88,-1,90,92,-1,-1,-1,-1,-1,-1,-1,-1,-1,-1,-1,-1,-1,-1,-1,-1,-1,-1,-1,-1,-1,-1,-1,-1,-1,-1,-1,-1,-1,-1,-1,-1,-1,-1,-1,-1],"split_conditions":[5.98E0,2.155E0,1.0815E1,1.12E0,3.9E0,8.9E0,2.32E1,4.9122807E-1,6E-1,5E-1,1.7971015E0,1E-1,1.1428572E0,1.98E1,4.7945204E-1,1.095E0,1.05E-1,1.79E-1,5.588235E-1,3.085E0,4E-1,1.7741935E-1,9.859155E-2,7.9E0,1.83E-1,4.6666667E-1,8.25E0,1E-1,6.212927E-1,-4.866031E-2,2.1237796E-2,6.2E-1,1.7333333E-1,-4.998678E-2,5.070422E-1,4.117647E-1,1.1578947E0,1.0766405E-2,1.25E-1,2.8E0,1E-1,2.72E0,5.3851087E-2,-2.739726E-1,9.375E-2,6.8E0,-5.1019162E-2,2.887097E0,2.172608E-1,1.9642857E-1,7.179382E-2,3.7037037E-2,6.1221767E-2,7.8431375E-2,1.530725E-1,1.48E1,4.117647E-1,-4.9378388E-2,-3.713762E-2,-1.1105567E-1,-2.7858004E-2,3.228914E-1,-1.8695002E-2,-1.2577337E-2,-1.14499286E-1,8.70966E-4,3.983287E-2,9.546453E-3,-5.4221552E-2,2.3980416E-2,-4.562787E-2,6.588915E-2,1.3875744E-1,1.0793417E-1,2.521859E-1,-9.95394E-2,-4.6919115E-2,-3.132175E-2,2.1463705E-2,8.231225E-2,2.955768E-2,1.4362726E-1,3.535723E-2,3.9481652E-1,1.4176516E-1,5.312046E-2,-5.998688E-2,1.567688E-2,-3.4088414E-2,2.9542994E-1,4.1913778E-1,6.7424184E-1,2.443912E-1],"split_indices":[10,10,10,10,12,12,12,0,12,11,4,12,6,10,0,10,10,8,4,10,12,3,3,10,8,0,10,12,0,0,0,10,0,0,0,1,6,0,8,12,12,10,0,2,0,12,0,4,0,2,0,1,0,0,0,10,1,0,0,0,0,0,0,0,0,0,0,0,0,0,0,0,0,0,0,0,0,0,0,0,0,0,0,0,0,0,0,0,0,0,0,0,0],"split_type":[0,0,0,0,0,0,0,0,0,0,0,0,0,0,0,0,0,0,0,0,0,0,0,0,0,0,0,0,0,0,0,0,0,0,0,0,0,0,0,0,0,0,0,0,0,0,0,0,0,0,0,0,0,0,0,0,0,0,0,0,0,0,0,0,0,0,0,0,0,0,0,0,0,0,0,0,0,0,0,0,0,0,0,0,0,0,0,0,0,0,0,0,0],"sum_hessian":[1.597E3,1.402E3,1.95E2,1.188E3,2.14E2,1.32E2,6.3E1,1.072E3,1.16E2,1.75E2,3.9E1,1.11E2,2.1E1,6E1,3E0,1.058E3,1.4E1,7.8E1,3.8E1,1.63E2,1.2E1,2.8E1,1.1E1,9.9E1,1.2E1,1.7E1,4E0,5.2E1,8E0,2E0,1E0,1.055E3,3E0,1.2E1,2E0,1.8E1,6E1,1E0,3.7E1,7E1,9.3E1,9E0,3E0,2.6E1,2E0,4E0,7E0,4.7E1,5.2E1,1E1,2E0,1.6E1,1E0,2E0,2E0,4.4E1,8E0,9.92E2,6.3E1,2E0,1E0,1E0,1E0,1.6E1,2E0,5.1E1,9E0,1E0,3.6E1,6.6E1,4E0,8.1E1,1.2E1,3E0,6E0,1E0,2.5E1,1E0,1E0,2E0,2E0,4.5E1,2E0,8E0,2E0,1E0,1.5E1,1E0,1E0,3.1E1,1.3E1,5E0,3E0],"tree_param":{"num_deleted":"0","num_feature":"14","num_nodes":"93","size_leaf_vector":"1"}},{"base_weights":[2.2184094E-2,-3.1557938E-1,2.0223496E0,-4.2734632E-1,1.959241E-1,1.3349539E0,3.5526083E0,-4.329215E-1,-1.6516694E-1,3.4609944E-1,-3.9968514E-1,1.5890641E0,-2.5879753E-1,3.7234435E0,-2.3974264E-1,-4.4080153E-1,-2.623514E-1,1.8868995E0,-4.256466E-2,1.16962485E-1,6.063431E-1,4.2454388E-2,-4.251703E-1,1.5080359E0,3.4590125E-1,-4.2391214E-1,6.314748E-1,3.3708029E0,5.660666E-1,-4.5416288E-2,2.0175904E-2,-4.3858695E-1,-9.097152E-1,-1.4930779E-1,-7.7329844E-1,-2.3711914E-2,3.0674684E-1,5.22528E-1,4.4368964E-2,5.266545E-1,1.6607709E0,-4.425561E-1,-1.1068801E-2,1.1277231E0,1.8771933E0,5.046444E-2,-4.9934375E-1,1.0492269E-1,-3.1089067E-2,3.0023537E0,5.125086E0,-4.4489678E-2,-3.3481885E-2,-1.03651956E-1,-2.6465103E-2,-2.2435285E-2,4.6590522E-2,3.1548818E-3,-1.0077619E-1,-1.2846284E-2,7.502302E-2,2.855753E-3,7.33699E-2,4.2059015E-2,9.386494E-2,1.8009226E-1,4.8000645E-2,-4.8354544E-2,-2.644507E-2,-2.2050843E-2,2.0390524E-2,1.2003028E-1,-1.9038425E-1,2.0876999E-1,1.4400345E-1,-5.4363288E-2,1.4893032E-2,2.638254E-1,3.8021782E-1,6.18055E-1,2.2606185E-1],"categories":[],"categories_nodes":[],"categories_segments":[],"categories_sizes":[],"default_left":[0,0,0,0,0,0,0,0,0,0,0,0,0,0,0,0,0,0,0,0,0,0,0,0,0,0,0,0,0,0,0,0,0,0,0,0,0,0,0,0,0,0,0,0,0,0,0,0,0,0,0,0,0,0,0,0,0,0,0,0,0,0,0,0,0,0,0,0,0,0,0,0,0,0,0,0,0,0,0,0,0],"id":13,"left_children":[1,3,5,7,9,11,13,15,17,19,21,23,25,27,29,31,33,35,-1,37,39,-1,41,43,-1,45,47,49,-1,-1,-1,51,53,55,57,-1,-1,59,61,63,65,67,69,71,73,-1,75,-1,-1,77,79,-1,-1,-1,-1,-1,-1,-1,-1,-1,-1,-1,-1,-1,-1,-1,-1,-1,-1,-1,-1,-1,-1,-1,-1,-1,-1,-1,-1,-1,-1],"loss_changes":[1.0802196E3,7.829117E1,2.3824481E2,1.5700073E0,2.2141998E1,6.561444E1,4.6891235E1,1.3615112E0,1.4166191E1,1.1676474E1,1.2307839E0,1.5844727E1,3.6486197E0,2.7372742E1,4.7029907E-1,6.903534E-1,2.830264E0,8.250009E0,0E0,3.0976076E0,6.855728E0,0E0,3.478756E-1,1.6836426E1,0E0,1.652842E0,1.900895E0,2.3394531E1,0E0,0E0,0E0,5.359192E-1,5.2871943E-2,2.0897813E0,1.7301583E0,0E0,0E0,2.468089E0,9.7088313E-1,3.4069386E0,1.2846184E-1,2.152462E-1,1.8003505E-1,1.7467224E1,3.1593018E0,0E0,6.26482E-1,0E0,0E0,5.1121216E0,1.323822E1,0E0,0E0,0E0,0E0,0E0,0E0,0E0,0E0,0E0,0E0,0E0,0E0,0E0,0E0,0E0,0E0,0E0,0E0,0E0,0E0,0E0,0E0,0E0,0E0,0E0,0E0,0E0,0E0,0E0,0E0],"parents":[2147483647,0,0,1,1,2,2,3,3,4,4,5,5,6,6,7,7,8,8,9,9,10,10,11,11,12,12,13,13,14,14,15,15,16,16,17,17,19,19,20,20,22,22,23,23,25,25,26,26,27,27,31,31,32,32,33,33,34,34,37,37,38,38,39,39,40,40,41,41,42,42,43,43,44,44,46,46,49,49,50,50],"right_children":[2,4,6,8,10,12,14,16,18,20,22,24,26,28,30,32,34,36,-1,38,40,-1,42,44,-1,46,48,50,-1,-1,-1,52,54,56,58,-1,-1,60,62,64,66,68,70,72,74,-1,76,-1,-1,78,80,-1,-1,-1,-1,-1,-1,-1,-1,-1,-1,-1,-1,-1,-1,-1,-1,-1,-1,-1,-1,-1,-1,-1,-1,-1,-1,-1,-1,-1,-1],"split_conditions":[4.9E0,1.54E0,1.03E1,3.8356164E-1,3E0,9.4E0,2.32E1,1.12E0,3.888889E-1,2.82E0,1.25E-1,5E-1,2.34E-1,1.98E1,4.7945204E-1,1.095E0,1E0,2.8333333E-1,-4.256466E-2,2.61E0,5E-1,4.2454388E-2,4.84E0,7.38E0,3.4590125E-1,3.7037037E-2,5.2307695E-1,1E-1,5.660666E-1,-4.5416288E-2,2.0175904E-2,6.2E-1,1.7333333E-1,3.54E0,-9.803922E-2,-2.3711914E-2,3.0674684E-1,2E0,4.520548E-1,1.5555556E0,1.0810811E-1,1.02564104E-1,4.347826E-2,3.0869565E0,2.42E-1,5.046444E-2,1.1428572E0,1.0492269E-1,-3.1089067E-2,1.48E1,4.117647E-1,-4.4489678E-2,-3.3481885E-2,-1.03651956E-1,-2.6465103E-2,-2.2435285E-2,4.6590522E-2,3.1548818E-3,-1.0077619E-1,-1.2846284E-2,7.502302E-2,2.855753E-3,7.33699E-2,4.2059015E-2,9.386494E-2,1.8009226E-1,4.8000645E-2,-4.8354544E-2,-2.644507E-2,-2.2050843E-2,2.0390524E-2,1.2003028E-1,-1.9038425E-1,2.0876999E-1,1.4400345E-1,-5.4363288E-2,1.4893032E-2,2.638254E-1,3.8021782E-1,6.18055E-1,2.2606185E-1],"split_indices":[10,10,10,3,12,12,12,10,3,10,8,11,8,10,0,10,7,0,0,9,11,0,10,10,0,1,1,12,0,0,0,10,0,9,2,0,0,10,0,6,0,2,0,5,8,0,6,0,0,10,1,0,0,0,0,0,0,0,0,0,0,0,0,0,0,0,0,0,0,0,0,0,0,0,0,0,0,0,0,0,0],"split_type":[0,0,0,0,0,0,0,0,0,0,0,0,0,0,0,0,0,0,0,0,0,0,0,0,0,0,0,0,0,0,0,0,0,0,0,0,0,0,0,0,0,0,0,0,0,0,0,0,0,0,0,0,0,0,0,0,0,0,0,0,0,0,0,0,0,0,0,0,0,0,0,0,0,0,0,0,0,0,0,0,0],"sum_hessian":[1.597E3,1.367E3,2.3E2,1.122E3,2.45E2,1.6E2,7E1,1.098E3,2.4E1,1.96E2,4.9E1,1.38E2,2.2E1,6.7E1,3E0,1.048E3,5E1,2E0,2.2E1,1.05E2,9.1E1,1E0,4.8E1,1.34E2,4E0,1.9E1,3E0,5.9E1,8E0,2E0,1E0,1.045E3,3E0,4.2E1,8E0,1E0,1E0,1.5E1,9E1,8.6E1,5E0,4.6E1,2E0,6.8E1,6.6E1,1E0,1.8E1,2E0,1E0,5.1E1,8E0,9.82E2,6.3E1,2E0,1E0,3.8E1,4E0,2E0,6E0,4E0,1.1E1,8.9E1,1E0,7E1,1.6E1,4E0,1E0,3.6E1,1E1,1E0,1E0,6.7E1,1E0,4.2E1,2.4E1,1.7E1,1E0,3.8E1,1.3E1,5E0,3E0],"tree_param":{"num_deleted":"0","num_feature":"14","num_nodes":"81","size_leaf_vector":"1"}},{"base_weights":[2.1949084E-2,-2.5638214E-1,2.0141776E0,-3.6586148E-1,3.708149E-1,1.36394E0,3.333981E0,-3.912811E-1,-1.4113714E-1,5.3080535E-1,-3.1841484E-1,1.6413321E0,-1.10235676E-1,3.5125098E0,-2.2207844E-1,-3.9659277E-1,9.809045E-3,-9.683148E-3,-3.94425E-1,4.4053856E-1,1.6826065E0,-4.1764066E-1,-5.2084554E-2,1.4783437E0,2.768833E0,7.242535E-1,-3.3591402E-1,3.1668987E0,5.157496E-1,-4.2388536E-2,1.9167114E-2,-3.9449492E-1,-8.5127294E-1,-4.129549E-2,1.8385165E0,-2.4905007E-1,6.1530206E-2,-2.8501704E-2,-4.6679533E-1,3.0870482E-1,8.382653E-1,1.8568391E0,5.409624E-2,-1.0056394E-1,-3.6072502E-1,5.597425E-1,-4.279659E-2,1.1289349E0,1.7668961E0,3.1215796E0,5.5248436E-2,-1.1702349E-1,1.3241126E-1,-4.1792604E-1,5.2914537E-2,2.7886295E0,4.706368E0,-4.0200766E-2,-3.241064E-2,-9.6741825E-2,-2.5141848E-2,2.914095E-1,-1.5632022E-2,-1.0161906E-2,-1.0014758E-1,3.7425698E-3,7.900572E-2,-3.0099833E-2,3.1924453E-2,1.218617E-2,-4.876929E-2,2.1746636E-3,3.9089765E-2,-4.6678003E-2,1.08969115E-1,1.0731002E-1,2.2004817E-1,1.9370997E-2,-3.884341E-2,7.370526E-2,1.9585157E-2,1.8807292E-2,1.1657534E-1,1.8824409E-1,1.3105617E-1,3.4008902E-1,1.2431212E-1,-3.1701904E-2,1.4148379E-2,4.794122E-2,-5.0397296E-2,2.361738E-1,3.3528194E-1,5.665504E-1,2.091072E-1],"categories":[],"categories_nodes":[],"categories_segments":[],"categories_sizes":[],"default_left":[0,0,0,0,0,0,0,0,0,0,0,0,0,0,0,0,0,0,0,0,0,0,0,0,0,0,0,0,0,0,0,0,0,0,0,0,0,0,0,0,0,0,0,0,0,0,0,0,0,0,0,0,0,0,0,0,0,0,0,0,0,0,0,0,0,0,0,0,0,0,0,0,0,0,0,0,0,0,0,0,0,0,0,0,0,0,0,0,0,0,0,0,0,0,0],"id":14,"left_children":[1,3,5,7,9,11,13,15,17,19,21,23,25,27,29,31,33,35,37,39,41,43,45,47,49,51,53,55,-1,-1,-1,57,59,-1,61,63,65,67,69,71,73,75,-1,-1,77,79,-1,81,83,85,-1,87,-1,89,-1,91,93,-1,-1,-1,-1,-1,-1,-1,-1,-1,-1,-1,-1,-1,-1,-1,-1,-1,-1,-1,-1,-1,-1,-1,-1,-1,-1,-1,-1,-1,-1,-1,-1,-1,-1,-1,-1,-1,-1],"loss_changes":[8.866065E2,9.6472824E1,1.6365704E2,6.771103E0,2.3215483E1,5.4567932E1,4.141107E1,2.2898712E0,4.091552E0,1.6933537E1,1.0353212E0,1.6488922E1,4.3864617E0,1.834674E1,4.1523665E-1,6.7430115E-1,1.2355899E1,1.413106E0,1.098939E0,8.078194E0,1.3824615E0,6.0776424E-1,2.9992433E0,8.087555E0,8.438896E0,2.6781902E0,1.4981587E0,1.773938E1,0E0,0E0,0E0,4.2811584E-1,3.5454273E-2,0E0,6.8923416E0,2.005918E0,1.0943218E0,8.541693E-1,4.8998356E-1,2.8453932E0,1.330541E1,3.3192062E-1,0E0,0E0,5.0540423E-1,1.7825484E-1,0E0,1.4435272E0,3.2748413E-1,1.5436935E0,0E0,1.9995394E-1,0E0,1.5542347E0,0E0,2.9196777E0,1.0728836E1,0E0,0E0,0E0,0E0,0E0,0E0,0E0,0E0,0E0,0E0,0E0,0E0,0E0,0E0,0E0,0E0,0E0,0E0,0E0,0E0,0E0,0E0,0E0,0E0,0E0,0E0,0E0,0E0,0E0,0E0,0E0,0E0,0E0,0E0,0E0,0E0,0E0,0E0],"parents":[2147483647,0,0,1,1,2,2,3,3,4,4,5,5,6,6,7,7,8,8,9,9,10,10,11,11,12,12,13,13,14,14,15,15,16,16,17,17,18,18,19,19,20,20,21,21,22,22,23,23,24,24,25,25,26,26,27,27,31,31,32,32,34,34,35,35,36,36,37,37,38,38,39,39,40,40,41,41,44,44,45,45,47,47,48,48,49,49,51,51,53,53,55,55,56,56],"right_children":[2,4,6,8,10,12,14,16,18,20,22,24,26,28,30,32,34,36,38,40,42,44,46,48,50,52,54,56,-1,-1,-1,58,60,-1,62,64,66,68,70,72,74,76,-1,-1,78,80,-1,82,84,86,-1,88,-1,90,-1,92,94,-1,-1,-1,-1,-1,-1,-1,-1,-1,-1,-1,-1,-1,-1,-1,-1,-1,-1,-1,-1,-1,-1,-1,-1,-1,-1,-1,-1,-1,-1,-1,-1,-1,-1,-1,-1,-1,-1],"split_conditions":[5.98E0,2.3E0,1.0815E1,1.12E0,3.9E0,8.9E0,2.32E1,4.9122807E-1,6E-1,5E-1,1.7971015E0,1E-1,8.4745765E-2,1.98E1,4.7945204E-1,1.095E0,1.05E-1,1.79E-1,1.83E-1,4.58E0,4E-1,-2.739726E-1,9.859155E-2,7.9E0,1.83E-1,2.3188406E-1,4.6666667E-1,1E-1,5.157496E-1,-4.2388536E-2,1.9167114E-2,3.9E-1,1.7333333E-1,-4.129549E-2,5.070422E-1,4.117647E-1,1.76E0,1.52E-1,4.2592594E-1,2.54E0,1.52E-1,-3.2142857E-1,5.409624E-2,-1.0056394E-1,-2.3076923E-1,6.8E0,-4.279659E-2,2.48E0,1.1666666E0,1.9642857E-1,5.5248436E-2,4.6511628E-2,1.3241126E-1,3.7037037E-2,5.2914537E-2,1.45E1,4.117647E-1,-4.0200766E-2,-3.241064E-2,-9.6741825E-2,-2.5141848E-2,2.914095E-1,-1.5632022E-2,-1.0161906E-2,-1.0014758E-1,3.7425698E-3,7.900572E-2,-3.0099833E-2,3.1924453E-2,1.218617E-2,-4.876929E-2,2.1746636E-3,3.9089765E-2,-4.6678003E-2,1.08969115E-1,1.0731002E-1,2.2004817E-1,1.9370997E-2,-3.884341E-2,7.370526E-2,1.9585157E-2,1.8807292E-2,1.1657534E-1,1.8824409E-1,1.3105617E-1,3.4008902E-1,1.2431212E-1,-3.1701904E-2,1.4148379E-2,4.794122E-2,-5.0397296E-2,2.361738E-1,3.3528194E-1,5.665504E-1,2.091072E-1],"split_indices":[10,10,10,10,12,12,12,0,12,11,4,12,0,10,0,10,10,8,8,10,12,2,3,10,8,1,0,12,0,0,0,10,0,0,0,1,6,8,4,10,8,2,0,0,2,12,0,9,6,2,0,0,0,1,0,10,1,0,0,0,0,0,0,0,0,0,0,0,0,0,0,0,0,0,0,0,0,0,0,0,0,0,0,0,0,0,0,0,0,0,0,0,0,0,0],"split_type":[0,0,0,0,0,0,0,0,0,0,0,0,0,0,0,0,0,0,0,0,0,0,0,0,0,0,0,0,0,0,0,0,0,0,0,0,0,0,0,0,0,0,0,0,0,0,0,0,0,0,0,0,0,0,0,0,0,0,0,0,0,0,0,0,0,0,0,0,0,0,0,0,0,0,0,0,0,0,0,0,0,0,0,0,0,0,0,0,0,0,0,0,0,0,0],"sum_hessian":[1.597E3,1.402E3,1.95E2,1.194E3,2.08E2,1.32E2,6.3E1,1.072E3,1.22E2,1.69E2,3.9E1,1.11E2,2.1E1,6E1,3E0,1.058E3,1.4E1,8.1E1,4.1E1,1.58E2,1.1E1,2.8E1,1.1E1,9.9E1,1.2E1,4E0,1.7E1,5.2E1,8E0,2E0,1E0,1.055E3,3E0,1.2E1,2E0,1.8E1,6.3E1,7E0,3.4E1,1.2E2,3.8E1,9E0,2E0,1E0,2.7E1,4E0,7E0,4.7E1,5.2E1,1E1,2E0,2E0,2E0,1.6E1,1E0,4.4E1,8E0,9.49E2,1.06E2,2E0,1E0,1E0,1E0,1.6E1,2E0,6.2E1,1E0,4E0,3E0,1E0,3.3E1,2.7E1,9.3E1,6E0,3.2E1,4E0,5E0,1E0,2.6E1,2E0,2E0,2E0,4.5E1,3.9E1,1.3E1,8E0,2E0,1E0,1E0,1E0,1.5E1,2.8E1,1.6E1,5E0,3E0],"tree_param":{"num_deleted":"0","num_feature":"14","num_nodes":"95","size_leaf_vector":"1"}},{"base_weights":[2.1864593E-2,-2.3046371E-1,1.8279603E0,-3.2929403E-1,3.3572134E-1,1.3015265E0,3.1881838E0,-3.4649146E-1,-6.0225192E-2,4.8057786E-1,-2.8831193E-1,1.5426009E0,4.1924372E-2,3.3918555E0,-2.0567596E-1,-3.5144418E-1,-1.1490989E-1,7.7493064E-2,-3.8300356E-1,3.9713603E-1,1.5461338E0,-3.800158E-1,-4.266828E-2,1.3702062E0,2.8561401E0,-1.3707824E-1,1.3406354E-1,3.0978796E0,5.080362E-1,-3.956263E-2,1.8208755E-2,-3.5743317E-1,-2.2136788E-1,1.7088182E0,-3.4779143E-2,4.5323524E-1,1.8630276E-2,-1.0348729E-1,-2.66073E-1,3.1308597E-1,9.345561E-1,1.703891E0,5.0489824E-2,-9.553575E-2,-3.2534796E-1,5.2242637E-1,-3.9051887E-2,1.1262066E0,1.7568506E0,3.384471E-1,1.3339169E0,9.030481E-2,-2.862433E-1,2.7710898E0,4.5226965E0,-3.55412E-2,-7.966166E-2,-1.2183943E-2,-6.722962E-2,-2.051628E-2,2.7683902E-1,9.504164E-3,5.775044E-2,-5.6487434E-3,2.9470278E-2,1.777572E-2,-3.548523E-2,3.382891E-2,-1.5824711E-1,1.1598151E-1,-1.7853115E-1,7.0297405E-2,1.8662487E-1,1.8402446E-2,-3.510293E-2,6.8791576E-2,1.8279482E-2,1.7553465E-2,1.1519649E-1,1.7799272E-1,4.2843413E-2,5.9015054E-2,1.6330443E-1,-3.5422325E-2,5.0268807E-2,2.2960539E-1,3.2787234E-1,5.2393365E-1,1.8207309E-1],"categories":[],"categories_nodes":[],"categories_segments":[],"categories_sizes":[],"default_left":[0,0,0,0,0,0,0,0,0,0,0,0,0,0,0,0,0,0,0,0,0,0,0,0,0,0,0,0,0,0,0,0,0,0,0,0,0,0,0,0,0,0,0,0,0,0,0,0,0,0,0,0,0,0,0,0,0,0,0,0,0,0,0,0,0,0,0,0,0,0,0,0,0,0,0,0,0,0,0,0,0,0,0,0,0,0,0,0,0],"id":15,"left_children":[1,3,5,7,9,11,13,15,17,19,21,23,25,27,29,31,33,35,37,39,41,43,45,47,49,51,-1,53,-1,-1,-1,55,57,59,-1,61,63,-1,65,67,69,71,-1,-1,73,75,-1,77,79,-1,81,-1,83,85,87,-1,-1,-1,-1,-1,-1,-1,-1,-1,-1,-1,-1,-1,-1,-1,-1,-1,-1,-1,-1,-1,-1,-1,-1,-1,-1,-1,-1,-1,-1,-1,-1,-1,-1],"loss_changes":[7.2867633E2,7.861715E1,1.3619977E2,5.5087585E0,1.9031172E1,4.3358414E1,3.802417E1,1.2476501E0,3.274711E0,1.4500999E1,8.8484406E-1,2.3260132E1,5.7631164E0,9.577026E0,3.6666182E-1,7.770233E-1,1.1212126E1,1.1416522E0,1.4015639E0,6.8894653E0,1.1108608E0,6.0130453E-1,2.5628393E0,8.210251E0,5.940483E0,3.671802E0,0E0,8.885529E0,0E0,0E0,0E0,6.480408E-1,2.206978E0,6.651973E0,0E0,2.5670004E-1,9.705919E-1,0E0,8.511361E-1,7.175908E0,1.4936796E1,3.1313896E-1,0E0,0E0,4.3087626E-1,1.5527964E-1,0E0,1.4874496E0,4.6363068E-1,0E0,1.4866352E-1,0E0,1.2506943E0,2.1176147E0,4.014923E0,0E0,0E0,0E0,0E0,0E0,0E0,0E0,0E0,0E0,0E0,0E0,0E0,0E0,0E0,0E0,0E0,0E0,0E0,0E0,0E0,0E0,0E0,0E0,0E0,0E0,0E0,0E0,0E0,0E0,0E0,0E0,0E0,0E0,0E0],"parents":[2147483647,0,0,1,1,2,2,3,3,4,4,5,5,6,6,7,7,8,8,9,9,10,10,11,11,12,12,13,13,14,14,15,15,16,16,17,17,18,18,19,19,20,20,21,21,22,22,23,23,24,24,25,25,27,27,31,31,32,32,33,33,35,35,36,36,38,38,39,39,40,40,41,41,44,44,45,45,47,47,48,48,50,50,52,52,53,53,54,54],"right_children":[2,4,6,8,10,12,14,16,18,20,22,24,26,28,30,32,34,36,38,40,42,44,46,48,50,52,-1,54,-1,-1,-1,56,58,60,-1,62,64,-1,66,68,70,72,-1,-1,74,76,-1,78,80,-1,82,-1,84,86,88,-1,-1,-1,-1,-1,-1,-1,-1,-1,-1,-1,-1,-1,-1,-1,-1,-1,-1,-1,-1,-1,-1,-1,-1,-1,-1,-1,-1,-1,-1,-1,-1,-1,-1],"split_conditions":[5.98E0,2.3E0,1.19E1,1.54E0,3.9E0,8.7E0,2.32E1,3.8356164E-1,1.9E0,5E-1,1.7971015E0,1E-1,3.28E0,2.028E1,4.7945204E-1,1.12E0,3.888889E-1,2.61E0,2.55E0,5.22E0,4E-1,-2.739726E-1,9.859155E-2,8.975E0,4.7E0,3.1746034E-2,1.3406354E-1,1E-1,5.080362E-1,-3.956263E-2,1.8208755E-2,1.095E0,1E0,2.8333333E-1,-3.4779143E-2,3.2394367E-1,1E0,-1.0348729E-1,2.61E0,5.16E0,3.0869565E0,2.435E0,5.0489824E-2,-9.553575E-2,-2.3076923E-1,6.8E0,-3.9051887E-2,2.48E0,4.090909E-1,3.384471E-1,1.0714285E0,9.030481E-2,4.6666667E-1,1.48E1,4.117647E-1,-3.55412E-2,-7.966166E-2,-1.2183943E-2,-6.722962E-2,-2.051628E-2,2.7683902E-1,9.504164E-3,5.775044E-2,-5.6487434E-3,2.9470278E-2,1.777572E-2,-3.548523E-2,3.382891E-2,-1.5824711E-1,1.1598151E-1,-1.7853115E-1,7.0297405E-2,1.8662487E-1,1.8402446E-2,-3.510293E-2,6.8791576E-2,1.8279482E-2,1.7553465E-2,1.1519649E-1,1.7799272E-1,4.2843413E-2,5.9015054E-2,1.6330443E-1,-3.5422325E-2,5.0268807E-2,2.2960539E-1,3.2787234E-1,5.2393365E-1,1.8207309E-1],"split_indices":[10,10,10,10,12,12,12,3,12,11,4,12,9,10,0,10,3,9,9,10,12,2,3,10,12,0,0,12,0,0,0,10,7,0,0,6,7,0,9,10,5,10,0,0,2,12,0,9,2,0,5,0,0,10,1,0,0,0,0,0,0,0,0,0,0,0,0,0,0,0,0,0,0,0,0,0,0,0,0,0,0,0,0,0,0,0,0,0,0],"split_type":[0,0,0,0,0,0,0,0,0,0,0,0,0,0,0,0,0,0,0,0,0,0,0,0,0,0,0,0,0,0,0,0,0,0,0,0,0,0,0,0,0,0,0,0,0,0,0,0,0,0,0,0,0,0,0,0,0,0,0,0,0,0,0,0,0,0,0,0,0,0,0,0,0,0,0,0,0,0,0,0,0,0,0,0,0,0,0,0,0],"sum_hessian":[1.597E3,1.402E3,1.95E2,1.194E3,2.08E2,1.42E2,5.3E1,1.122E3,7.2E1,1.69E2,3.9E1,1.19E2,2.3E1,5E1,3E0,1.098E3,2.4E1,5.1E1,2.1E1,1.58E2,1.1E1,2.8E1,1.1E1,1.07E2,1.2E1,2.1E1,2E0,4.5E1,5E0,2E0,1E0,1.048E3,5E1,2E0,2.2E1,6E0,4.5E1,2E0,1.9E1,1.38E2,2E1,9E0,2E0,1E0,2.7E1,4E0,7E0,6.8E1,3.9E1,8E0,4E0,2E0,1.9E1,3.9E1,6E0,1.045E3,3E0,4.2E1,8E0,1E0,1E0,2E0,4E0,3.6E1,9E0,3E0,1.6E1,1.37E2,1E0,1.9E1,1E0,2E0,7E0,1E0,2.6E1,2E0,2E0,2E0,6.6E1,3.8E1,1E0,2E0,2E0,1.8E1,1E0,2.3E1,1.6E1,4E0,2E0],"tree_param":{"num_deleted":"0","num_feature":"14","num_nodes":"89","size_leaf_vector":"1"}},{"base_weights":[2.1528414E-2,-1.9477814E-1,1.7591916E0,-2.9146984E-1,3.6779848E-1,1.2474276E0,2.9017758E0,-3.1181833E-1,-3.9917495E-2,5.335675E-1,-2.8455558E-1,1.4422774E0,1.6209464E-1,3.0874057E0,-1.9044682E-1,-3.1647685E-1,-9.455717E-2,5.6597658E-2,-3.6892578E-1,3.7604514E-1,9.277513E-1,-2.1904208E-1,-6.520486E-1,1.2852799E0,2.551902E0,-2.8438114E-2,1.2512597E-1,2.8155587E0,4.6569988E-1,-3.6925122E-2,1.7298317E-2,-3.2510915E-1,-2.4124585E-1,1.6233773E0,-3.145244E-2,-5.206363E-4,4.5648357E-1,-1.556252E-1,-4.882165E-1,3.1115332E-1,1.1490152E0,-7.7113867E-1,1.020394E0,-2.7276412E-1,1.9007611E-1,-1.0190494E-1,-2.1378575E-2,7.593661E-1,1.417157E0,3.049735E-1,1.2449892E0,7.80156E-1,-2.4216734E-1,2.5079174E0,4.171285E0,-3.2216102E-2,-6.083669E-2,-2.8315524E-2,2.9312853E-2,-1.9490466E-2,2.6299706E-1,6.6392E-3,-2.4423663E-2,-2.2646824E-3,1.0610583E-1,1.4064044E-2,-2.6036402E-2,-5.820417E-2,-2.2168785E-2,2.4007365E-2,7.966401E-2,1.2753461E-1,4.712383E-2,3.4663964E-2,-1.5033476E-1,7.0485555E-2,2.3916523E-1,-2.9787747E-2,-6.753122E-3,5.626716E-2,-2.4587806E-2,-3.4356523E-2,8.3169095E-2,5.4885317E-2,1.4461157E-1,5.50807E-2,1.5241748E-1,9.3879424E-2,1.5212071E-2,-3.951002E-2,2.7717296E-2,2.0760153E-1,2.9701373E-1,4.8201895E-1,1.6993491E-1],"categories":[],"categories_nodes":[],"categories_segments":[],"categories_sizes":[],"default_left":[0,0,0,0,0,0,0,0,0,0,0,0,0,0,0,0,0,0,0,0,0,0,0,0,0,0,0,0,0,0,0,0,0,0,0,0,0,0,0,0,0,0,0,0,0,0,0,0,0,0,0,0,0,0,0,0,0,0,0,0,0,0,0,0,0,0,0,0,0,0,0,0,0,0,0,0,0,0,0,0,0,0,0,0,0,0,0,0,0,0,0,0,0,0,0],"id":16,"left_children":[1,3,5,7,9,11,13,15,17,19,21,23,25,27,29,31,33,35,37,39,41,43,45,47,49,51,-1,53,-1,-1,-1,55,57,59,-1,61,63,65,67,69,71,73,75,77,79,-1,-1,81,83,-1,85,87,89,91,93,-1,-1,-1,-1,-1,-1,-1,-1,-1,-1,-1,-1,-1,-1,-1,-1,-1,-1,-1,-1,-1,-1,-1,-1,-1,-1,-1,-1,-1,-1,-1,-1,-1,-1,-1,-1,-1,-1,-1,-1],"loss_changes":[6.009797E2,7.7459015E1,9.987811E1,6.201668E0,2.275311E1,2.5989334E1,3.1584381E1,1.1066742E0,2.9422746E0,1.0020611E1,8.9243126E-1,1.5011978E1,4.1860156E0,8.649078E0,3.2380575E-1,6.352844E-1,9.957824E0,1.6447755E0,4.583614E-1,5.711773E0,8.184181E0,8.87035E-1,7.471988E-1,5.443344E0,4.010605E0,3.299692E0,0E0,8.724335E0,0E0,0E0,0E0,6.248932E-1,2.7032518E0,6.0034046E0,0E0,1.0599067E0,2.631061E0,3.1589234E-1,1.960609E-1,3.7081795E0,1.6962528E-1,2.976462E0,1.7785046E1,1.55123E-1,9.5052135E-1,0E0,0E0,1.9608965E0,1.0670013E0,0E0,1.295023E-1,2.5571132E-1,1.3008739E0,1.8193207E0,3.0371628E0,0E0,0E0,0E0,0E0,0E0,0E0,0E0,0E0,0E0,0E0,0E0,0E0,0E0,0E0,0E0,0E0,0E0,0E0,0E0,0E0,0E0,0E0,0E0,0E0,0E0,0E0,0E0,0E0,0E0,0E0,0E0,0E0,0E0,0E0,0E0,0E0,0E0,0E0,0E0,0E0],"parents":[2147483647,0,0,1,1,2,2,3,3,4,4,5,5,6,6,7,7,8,8,9,9,10,10,11,11,12,12,13,13,14,14,15,15,16,16,17,17,18,18,19,19,20,20,21,21,22,22,23,23,24,24,25,25,27,27,31,31,32,32,33,33,35,35,36,36,37,37,38,38,39,39,40,40,41,41,42,42,43,43,44,44,47,47,48,48,50,50,51,51,52,52,53,53,54,54],"right_children":[2,4,6,8,10,12,14,16,18,20,22,24,26,28,30,32,34,36,38,40,42,44,46,48,50,52,-1,54,-1,-1,-1,56,58,60,-1,62,64,66,68,70,72,74,76,78,80,-1,-1,82,84,-1,86,88,90,92,94,-1,-1,-1,-1,-1,-1,-1,-1,-1,-1,-1,-1,-1,-1,-1,-1,-1,-1,-1,-1,-1,-1,-1,-1,-1,-1,-1,-1,-1,-1,-1,-1,-1,-1,-1,-1,-1,-1,-1,-1],"split_conditions":[6.4E0,2.405E0,1.19E1,1.54E0,3.9E0,8.7E0,2.32E1,3.8356164E-1,2.3E0,4.8E0,5.9E0,1E-1,3.28E0,2.028E1,4.7945204E-1,6.2E-1,3.888889E-1,3.75E-1,1.8E0,5E-1,-4.21875E-1,5.22E0,1.2765957E-1,7.38E0,4.7E0,1.25E-1,1.2512597E-1,1E-1,4.6569988E-1,-3.6925122E-2,1.7298317E-2,5.7E-1,3.49E0,2.8333333E-1,-3.145244E-2,2.0895522E0,7.887324E-1,1.83E-1,3.9E0,1.7777778E0,2E-1,1.3157895E-2,1E-1,4.84E0,1.971831E-1,-1.0190494E-1,-2.1378575E-2,2.48E0,-3.2857144E-1,3.049735E-1,1.0714285E0,1.3333334E-2,2.57E-1,1.48E1,4.117647E-1,-3.2216102E-2,-6.083669E-2,-2.8315524E-2,2.9312853E-2,-1.9490466E-2,2.6299706E-1,6.6392E-3,-2.4423663E-2,-2.2646824E-3,1.0610583E-1,1.4064044E-2,-2.6036402E-2,-5.820417E-2,-2.2168785E-2,2.4007365E-2,7.966401E-2,1.2753461E-1,4.712383E-2,3.4663964E-2,-1.5033476E-1,7.0485555E-2,2.3916523E-1,-2.9787747E-2,-6.753122E-3,5.626716E-2,-2.4587806E-2,-3.4356523E-2,8.3169095E-2,5.4885317E-2,1.4461157E-1,5.50807E-2,1.5241748E-1,9.3879424E-2,1.5212071E-2,-3.951002E-2,2.7717296E-2,2.0760153E-1,2.9701373E-1,4.8201895E-1,1.6993491E-1],"split_indices":[10,10,10,10,12,12,12,3,12,10,10,12,9,10,0,10,3,1,10,11,2,10,0,10,12,8,0,12,0,0,0,10,9,0,0,5,5,8,12,6,12,0,12,10,0,0,0,9,2,0,5,3,8,10,1,0,0,0,0,0,0,0,0,0,0,0,0,0,0,0,0,0,0,0,0,0,0,0,0,0,0,0,0,0,0,0,0,0,0,0,0,0,0,0,0],"split_type":[0,0,0,0,0,0,0,0,0,0,0,0,0,0,0,0,0,0,0,0,0,0,0,0,0,0,0,0,0,0,0,0,0,0,0,0,0,0,0,0,0,0,0,0,0,0,0,0,0,0,0,0,0,0,0,0,0,0,0,0,0,0,0,0,0,0,0,0,0,0,0,0,0,0,0,0,0,0,0,0,0,0,0,0,0,0,0,0,0,0,0,0,0,0,0],"sum_hessian":[1.597E3,1.421E3,1.76E2,1.213E3,2.08E2,1.23E2,5.3E1,1.122E3,9.1E1,1.66E2,4.2E1,1.04E2,1.9E1,5E1,3E0,1.098E3,2.4E1,7.1E1,2E1,1.2E2,4.6E1,3.7E1,5E0,9.3E1,1.1E1,1.7E1,2E0,4.5E1,5E0,2E0,1E0,9.82E2,1.16E2,2E0,2.2E1,6.3E1,8E0,8E0,1.2E1,1.12E2,8E0,2E0,4.4E1,3.3E1,4E0,2E0,3E0,2E1,7.3E1,7E0,4E0,3E0,1.4E1,3.9E1,6E0,9.74E2,8E0,1.08E2,8E0,1E0,1E0,5E1,1.3E1,5E0,3E0,2E0,6E0,8E0,4E0,9.9E1,1.3E1,6E0,2E0,1E0,1E0,3.7E1,7E0,2.9E1,4E0,2E0,2E0,1E0,1.9E1,3E0,7E1,2E0,2E0,2E0,1E0,1.1E1,3E0,2.3E1,1.6E1,4E0,2E0],"tree_param":{"num_deleted":"0","num_feature":"14","num_nodes":"95","size_leaf_vector":"1"}},{"base_weights":[2.1280292E-2,-1.7067225E-1,1.6346856E0,-2.622292E-1,3.4470186E-1,1.2741467E0,2.9889314E0,-2.8052965E-1,-3.5994112E-2,4.9665645E-1,-2.6059005E-1,1.4744326E0,2.2602807E-1,2.6333036E0,4.2689154E-1,-2.8491294E-1,-7.661927E-2,5.213311E-2,-3.3643058E-1,3.975183E-1,1.0955758E0,9.080524E-2,-3.0796906E-1,1.2924211E0,2.7891047E0,8.071992E-2,1.1678424E-1,7.0420936E-2,2.675541E0,-2.9455725E-2,-2.260436E-1,1.5422086E0,-2.8443946E-2,-7.464797E-4,4.2237318E-1,-1.4139293E-1,-4.4557738E-1,3.1293693E-1,7.888704E-1,1.9386058E0,3.5493967E-1,-2.9195461E-2,5.708833E-1,-2.436646E-1,-5.6712306E-1,1.0426155E0,1.7214362E-1,3.383157E-1,1.1619898E0,8.0786353E-1,-1.9700393E-1,2.717224E-1,7.542095E-2,-3.6951E-2,-1.0905303E-2,-1.8515943E-2,2.4984722E-1,5.988295E-3,-2.2155752E-2,-2.0759543E-3,9.814789E-2,1.312644E-2,-2.380471E-2,-5.303046E-2,-2.0395283E-2,2.6715225E-2,1.1764743E-1,2.9393911E-2,8.406467E-2,5.5417825E-2,2.184681E-1,-1.4281802E-1,6.0196277E-2,1.781999E-2,6.78125E-2,-2.8679242E-2,-7.3041096E-3,-7.947135E-2,-1.9775182E-2,2.4054324E-2,1.07645415E-1,5.1408645E-2,1.4225632E-1,1.5818676E-2,1.4048114E-1,-3.148658E-2,4.18686E-2],"categories":[],"categories_nodes":[],"categories_segments":[],"categories_sizes":[],"default_left":[0,0,0,0,0,0,0,0,0,0,0,0,0,0,0,0,0,0,0,0,0,0,0,0,0,0,0,0,0,0,0,0,0,0,0,0,0,0,0,0,0,0,0,0,0,0,0,0,0,0,0,0,0,0,0,0,0,0,0,0,0,0,0,0,0,0,0,0,0,0,0,0,0,0,0,0,0,0,0,0,0,0,0,0,0,0,0],"id":17,"left_children":[1,3,5,7,9,11,13,15,17,19,21,23,25,27,-1,29,31,33,35,37,39,41,43,45,47,49,-1,-1,51,-1,53,55,-1,57,59,61,63,65,67,69,71,-1,73,75,77,79,-1,-1,81,83,85,-1,-1,-1,-1,-1,-1,-1,-1,-1,-1,-1,-1,-1,-1,-1,-1,-1,-1,-1,-1,-1,-1,-1,-1,-1,-1,-1,-1,-1,-1,-1,-1,-1,-1,-1,-1],"loss_changes":[4.951752E2,6.75193E1,7.919556E1,5.0161133E0,1.9996426E1,2.8216309E1,4.6905823E0,9.8189545E-1,2.4533892E0,9.836494E0,7.6051044E-1,2.3673813E1,3.0533576E0,5.6025696E-1,0E0,5.573807E-1,8.849292E0,1.4099414E0,3.840406E-1,4.7183E0,1.4296995E1,1.2691996E0,5.117378E-1,9.136581E0,8.634483E0,4.3999996E0,0E0,0E0,2.7316284E-1,0E0,2.628395E0,5.4180737E0,0E0,8.700769E-1,2.2501974E0,2.6842827E-1,1.579814E-1,4.6278E0,4.1916656E-1,2.536705E0,7.026317E0,0E0,5.4944158E-3,2.2188687E-1,4.313016E-1,1.5595245E0,0E0,0E0,1.12811565E-1,2.1047165E0,1.2928915E0,0E0,0E0,0E0,0E0,0E0,0E0,0E0,0E0,0E0,0E0,0E0,0E0,0E0,0E0,0E0,0E0,0E0,0E0,0E0,0E0,0E0,0E0,0E0,0E0,0E0,0E0,0E0,0E0,0E0,0E0,0E0,0E0,0E0,0E0,0E0,0E0],"parents":[2147483647,0,0,1,1,2,2,3,3,4,4,5,5,6,6,7,7,8,8,9,9,10,10,11,11,12,12,13,13,15,15,16,16,17,17,18,18,19,19,20,20,21,21,22,22,23,23,24,24,25,25,28,28,30,30,31,31,33,33,34,34,35,35,36,36,37,37,38,38,39,39,40,40,42,42,43,43,44,44,45,45,48,48,49,49,50,50],"right_children":[2,4,6,8,10,12,14,16,18,20,22,24,26,28,-1,30,32,34,36,38,40,42,44,46,48,50,-1,-1,52,-1,54,56,-1,58,60,62,64,66,68,70,72,-1,74,76,78,80,-1,-1,82,84,86,-1,-1,-1,-1,-1,-1,-1,-1,-1,-1,-1,-1,-1,-1,-1,-1,-1,-1,-1,-1,-1,-1,-1,-1,-1,-1,-1,-1,-1,-1,-1,-1,-1,-1,-1,-1],"split_conditions":[6.7E0,2.405E0,1.3425E1,1.54E0,3.9E0,8.7E0,2.028E1,3.8356164E-1,2.3E0,1E-1,3.3802816E-1,1E-1,3.28E0,1.3157895E-2,4.2689154E-1,3.9E-1,3.888889E-1,3.75E-1,1.8E0,5.64E0,1.6E0,2.8E-1,5.705E0,9.91E0,4.9E0,2.65E0,1.1678424E-1,7.0420936E-2,1.8169014E0,-2.9455725E-2,2.13E-1,2.8333333E-1,-2.8443946E-2,2.0895522E0,7.887324E-1,1.83E-1,3.9E0,5E-1,3.1578946E-1,5.9375E-1,-4.21875E-1,-2.9195461E-2,9.677419E-2,1.9824561E0,1.2765957E-1,1.8666667E-1,1.7214362E-1,3.383157E-1,1.0714285E0,2.3188406E-1,4.7945204E-1,2.717224E-1,7.542095E-2,-3.6951E-2,-1.0905303E-2,-1.8515943E-2,2.4984722E-1,5.988295E-3,-2.2155752E-2,-2.0759543E-3,9.814789E-2,1.312644E-2,-2.380471E-2,-5.303046E-2,-2.0395283E-2,2.6715225E-2,1.1764743E-1,2.9393911E-2,8.406467E-2,5.5417825E-2,2.184681E-1,-1.4281802E-1,6.0196277E-2,1.781999E-2,6.78125E-2,-2.8679242E-2,-7.3041096E-3,-7.947135E-2,-1.9775182E-2,2.4054324E-2,1.07645415E-1,5.1408645E-2,1.4225632E-1,1.5818676E-2,1.4048114E-1,-3.148658E-2,4.18686E-2],"split_indices":[10,10,10,10,12,12,10,3,12,12,5,12,9,0,0,10,3,1,10,10,12,5,10,10,12,9,0,0,6,0,8,0,0,5,5,8,12,11,6,5,2,0,0,4,0,5,0,0,5,1,0,0,0,0,0,0,0,0,0,0,0,0,0,0,0,0,0,0,0,0,0,0,0,0,0,0,0,0,0,0,0,0,0,0,0,0,0],"split_type":[0,0,0,0,0,0,0,0,0,0,0,0,0,0,0,0,0,0,0,0,0,0,0,0,0,0,0,0,0,0,0,0,0,0,0,0,0,0,0,0,0,0,0,0,0,0,0,0,0,0,0,0,0,0,0,0,0,0,0,0,0,0,0,0,0,0,0,0,0,0,0,0,0,0,0,0,0,0,0,0,0,0,0,0,0,0,0],"sum_hessian":[1.597E3,1.428E3,1.69E2,1.213E3,2.15E2,1.35E2,3.4E1,1.122E3,9.1E1,1.72E2,4.3E1,1.13E2,2.2E1,2.9E1,5E0,1.098E3,2.4E1,7.1E1,2E1,1.49E2,2.3E1,5E0,3.8E1,1.01E2,1.2E1,2E1,2E0,1E0,2.8E1,9.4E2,1.58E2,2E0,2.2E1,6.3E1,8E0,8E0,1.2E1,1.24E2,2.5E1,1E1,1.3E1,3E0,2E0,3.2E1,6E0,6.6E1,3.5E1,8E0,4E0,5E0,1.5E1,2.7E1,1E0,7E1,8.8E1,1E0,1E0,5E1,1.3E1,5E0,3E0,2E0,6E0,8E0,4E0,1.19E2,5E0,3E0,2.2E1,2E0,8E0,1E0,1.2E1,1E0,1E0,2.5E1,7E0,3E0,3E0,3E0,6.3E1,2E0,2E0,3E0,2E0,1.3E1,2E0],"tree_param":{"num_deleted":"0","num_feature":"14","num_nodes":"87","size_leaf_vector":"1"}},{"base_weights":[2.06888E-2,-1.4816578E-1,1.5287148E0,-2.3313354E-1,3.443041E-1,1.0754151E0,2.4070048E0,-2.5236487E-1,-2.5229607E-2,4.9319363E-1,-2.353921E-1,1.1944546E0,-2.1061724E-1,2.5620077E0,-1.710327E-1,-2.56492E-1,-6.0841866E-2,5.460257E-2,-2.969383E-1,3.886269E-1,1.1742246E0,9.113091E-2,-2.795907E-1,1.1195143E0,2.3794286E0,-3.324104E-2,4.427606E-2,2.2805555E0,3.622056E-1,-3.2364342E-2,1.4339971E-2,-2.6107183E-1,-1.5726161E-1,1.465098E0,-2.5723223E-2,3.568879E-1,-2.3161722E-3,-9.263041E-2,-3.598948E-1,3.0029505E-1,6.873501E-1,-1.3567713E-1,1.3593564E0,-2.7005801E-2,5.4233915E-1,-2.1180971E-1,-4.8199296E-1,9.486379E-1,1.3981856E-1,4.033761E-2,2.772598E-1,1.9666249E-1,3.6141095E0,-2.5916506E-2,-6.944319E-2,-2.0038625E-2,5.9952814E-2,-1.7590145E-2,2.3735486E-1,-3.1162698E-2,6.886309E-2,-1.9111503E-3,5.782808E-2,-2.0319065E-2,1.2251344E-2,-2.093955E-2,-4.593547E-2,2.5939628E-2,1.1563685E-1,8.161497E-2,4.9949117E-2,1.9082706E-1,5.647238E-2,1.6928995E-2,6.4421885E-2,-2.5618747E-2,-2.3059177E-3,-7.3511004E-2,-2.329161E-2,1.0096233E-1,5.1479316E-3,4.1905585E-1,1.4486577E-1],"categories":[],"categories_nodes":[],"categories_segments":[],"categories_sizes":[],"default_left":[0,0,0,0,0,0,0,0,0,0,0,0,0,0,0,0,0,0,0,0,0,0,0,0,0,0,0,0,0,0,0,0,0,0,0,0,0,0,0,0,0,0,0,0,0,0,0,0,0,0,0,0,0,0,0,0,0,0,0,0,0,0,0,0,0,0,0,0,0,0,0,0,0,0,0,0,0,0,0,0,0,0,0],"id":18,"left_children":[1,3,5,7,9,11,13,15,17,19,21,23,25,27,29,31,33,35,37,39,41,43,45,47,49,-1,-1,51,-1,-1,-1,53,55,57,-1,59,61,63,65,67,69,-1,71,-1,73,75,77,79,-1,-1,-1,-1,81,-1,-1,-1,-1,-1,-1,-1,-1,-1,-1,-1,-1,-1,-1,-1,-1,-1,-1,-1,-1,-1,-1,-1,-1,-1,-1,-1,-1,-1,-1],"loss_changes":[4.0713657E2,6.0252037E1,6.1510162E1,4.8995056E0,1.8413958E1,1.6785156E1,2.2016785E1,8.720627E-1,2.293779E0,1.1578697E1,6.604812E-1,6.1276245E0,9.4294775E-1,6.955658E0,2.3835342E-1,4.583969E-1,7.8688674E0,1.4116942E0,2.753632E-1,3.6988354E0,1.21528225E1,1.1242917E0,4.3295145E-1,3.1973724E0,2.7662125E0,0E0,0E0,1.08940735E1,0E0,0E0,0E0,6.868439E-1,1.7845879E0,4.8898106E0,0E0,3.0976717E0,6.936441E-1,1.9139804E-1,1.7324853E-1,3.7614746E0,3.9081192E-1,0E0,8.082241E0,0E0,4.95857E-3,2.5375867E-1,3.961916E-1,3.3402672E0,0E0,0E0,0E0,0E0,2.6672287E0,0E0,0E0,0E0,0E0,0E0,0E0,0E0,0E0,0E0,0E0,0E0,0E0,0E0,0E0,0E0,0E0,0E0,0E0,0E0,0E0,0E0,0E0,0E0,0E0,0E0,0E0,0E0,0E0,0E0,0E0],"parents":[2147483647,0,0,1,1,2,2,3,3,4,4,5,5,6,6,7,7,8,8,9,9,10,10,11,11,12,12,13,13,14,14,15,15,16,16,17,17,18,18,19,19,20,20,21,21,22,22,23,23,24,24,27,27,31,31,32,32,33,33,35,35,36,36,37,37,38,38,39,39,40,40,42,42,44,44,45,45,46,46,47,47,52,52],"right_children":[2,4,6,8,10,12,14,16,18,20,22,24,26,28,30,32,34,36,38,40,42,44,46,48,50,-1,-1,52,-1,-1,-1,54,56,58,-1,60,62,64,66,68,70,-1,72,-1,74,76,78,80,-1,-1,-1,-1,82,-1,-1,-1,-1,-1,-1,-1,-1,-1,-1,-1,-1,-1,-1,-1,-1,-1,-1,-1,-1,-1,-1,-1,-1,-1,-1,-1,-1,-1,-1],"split_conditions":[6.9E0,2.54E0,1.19E1,1.54E0,3.9E0,1.33E1,2.32E1,3.8356164E-1,2.3E0,1E-1,3.3802816E-1,3.69E0,4.6666667E-1,1.98E1,4.7945204E-1,1.12E0,3.888889E-1,2.61E0,1.785E0,5.64E0,2.4657534E-1,2.8E-1,5.58E0,9.4E0,1E-1,-3.324104E-2,4.427606E-2,1E-1,3.622056E-1,-3.2364342E-2,1.4339971E-2,1.095E0,1.6805556E0,2.8333333E-1,-2.5723223E-2,6.956522E-1,4.520548E-1,7.5E-1,1.780822E-1,5E-1,6.225E0,-1.3567713E-1,2.3E0,-2.7005801E-2,9.677419E-2,1.9824561E0,1.2765957E-1,2.887097E0,1.3981856E-1,4.033761E-2,2.772598E-1,1.9666249E-1,4.117647E-1,-2.5916506E-2,-6.944319E-2,-2.0038625E-2,5.9952814E-2,-1.7590145E-2,2.3735486E-1,-3.1162698E-2,6.886309E-2,-1.9111503E-3,5.782808E-2,-2.0319065E-2,1.2251344E-2,-2.093955E-2,-4.593547E-2,2.5939628E-2,1.1563685E-1,8.161497E-2,4.9949117E-2,1.9082706E-1,5.647238E-2,1.6928995E-2,6.4421885E-2,-2.5618747E-2,-2.3059177E-3,-7.3511004E-2,-2.329161E-2,1.0096233E-1,5.1479316E-3,4.1905585E-1,1.4486577E-1],"split_indices":[10,10,10,10,12,12,12,3,12,12,5,9,0,10,0,10,3,9,10,10,5,5,10,10,0,0,0,12,0,0,0,10,6,0,0,6,0,5,1,11,10,0,12,0,0,4,0,4,0,0,0,0,1,0,0,0,0,0,0,0,0,0,0,0,0,0,0,0,0,0,0,0,0,0,0,0,0,0,0,0,0,0,0],"split_type":[0,0,0,0,0,0,0,0,0,0,0,0,0,0,0,0,0,0,0,0,0,0,0,0,0,0,0,0,0,0,0,0,0,0,0,0,0,0,0,0,0,0,0,0,0,0,0,0,0,0,0,0,0,0,0,0,0,0,0,0,0,0,0,0,0,0,0,0,0,0,0,0,0,0,0,0,0,0,0,0,0,0,0],"sum_hessian":[1.597E3,1.437E3,1.6E2,1.226E3,2.11E2,1.07E2,5.3E1,1.122E3,1.04E2,1.68E2,4.3E1,9.8E1,9E0,5E1,3E0,1.098E3,2.4E1,8.1E1,2.3E1,1.47E2,2.1E1,5E0,3.8E1,9.4E1,4E0,8E0,1E0,4.2E1,8E0,2E0,1E0,1.048E3,5E1,2E0,2.2E1,1.2E1,6.9E1,6E0,1.7E1,1.15E2,3.2E1,1E0,2E1,3E0,2E0,3E1,8E0,6.1E1,3.3E1,1E0,3E0,3.6E1,6E0,1.045E3,3E0,4.8E1,2E0,1E0,1E0,4E0,8E0,6.8E1,1E0,4E0,2E0,8E0,9E0,1.11E2,4E0,1.7E1,1.5E1,1.1E1,9E0,1E0,1E0,2.4E1,6E0,3E0,5E0,5.7E1,4E0,4E0,2E0],"tree_param":{"num_deleted":"0","num_feature":"14","num_nodes":"83","size_leaf_vector":"1"}},{"base_weights":[1.9965963E-2,-1.2450386E-1,1.4685118E0,-2.0969202E-1,3.34489E-1,1.138219E0,2.4740548E0,-2.2700496E-1,-2.2528784E-2,4.5116347E-1,-2.2516027E-1,1.321968E0,2.3606256E-1,2.1641302E0,3.6113346E-1,-2.3089324E-1,-4.6996035E-2,5.8542006E-2,-2.4756424E-1,2.5525934E-1,6.9300485E-1,9.107534E-2,-2.7293894E-1,1.1455679E0,2.6538918E0,8.773455E-1,2.0907737E-2,1.9362835E0,3.161064E0,-2.3924388E-2,-1.8002003E-1,1.391843E0,-2.326274E-2,4.3294418E-1,3.4323845E-3,7.6119654E-2,-3.2123986E-1,2.0178807E-1,8.850589E-1,5.535414E-1,1.4121097E0,-2.4980366E-2,5.1522225E-1,-5.8284044E-1,-2.364952E-1,9.326684E-1,1.3976126E0,2.6586367E-2,2.8896877E-1,1.16187885E-1,-1.3039407E-2,5.80708E-1,-2.1408468E-1,1.3209394E-1,2.2205482E-1,3.5803014E-1,9.516759E-2,-3.7590127E-2,-9.940111E-3,-1.6710637E-2,2.254871E-1,3.8460703E-3,5.9651416E-2,-3.8293093E-2,2.6796337E-3,-2.0775098E-2,2.699927E-2,-7.9366334E-2,-2.6369045E-2,1.2354255E-1,1.7863436E-2,1.02940336E-1,3.0135049E-2,5.9680153E-2,-6.4037494E-2,-1.2889327E-1,1.7446075E-1,1.608255E-2,6.1200786E-2,-7.80146E-2,-9.411472E-3,-3.134507E-2,-1.232519E-2,7.905203E-2,1.6523185E-1,4.0442467E-2,1.4144343E-1,-2.3133809E-2,8.41554E-2,-3.682721E-2,3.712349E-2],"categories":[],"categories_nodes":[],"categories_segments":[],"categories_sizes":[],"default_left":[0,0,0,0,0,0,0,0,0,0,0,0,0,0,0,0,0,0,0,0,0,0,0,0,0,0,0,0,0,0,0,0,0,0,0,0,0,0,0,0,0,0,0,0,0,0,0,0,0,0,0,0,0,0,0,0,0,0,0,0,0,0,0,0,0,0,0,0,0,0,0,0,0,0,0,0,0,0,0,0,0,0,0,0,0,0,0,0,0,0,0],"id":19,"left_children":[1,3,5,7,9,11,13,15,17,19,21,23,25,27,-1,29,31,33,35,37,39,41,43,45,47,49,51,53,55,-1,57,59,-1,61,63,65,67,69,71,73,75,-1,77,79,81,83,85,-1,-1,-1,-1,87,89,-1,-1,-1,-1,-1,-1,-1,-1,-1,-1,-1,-1,-1,-1,-1,-1,-1,-1,-1,-1,-1,-1,-1,-1,-1,-1,-1,-1,-1,-1,-1,-1,-1,-1,-1,-1,-1,-1],"loss_changes":[3.3459814E2,5.6922638E1,4.534192E1,3.9707947E0,1.4989254E1,1.8088455E1,4.5210724E0,7.7516174E-1,1.930092E0,8.777493E0,6.292305E-1,1.8575317E1,2.741159E0,6.937256E-1,0E0,4.2381287E-1,7.001122E0,1.6079005E0,6.921859E-1,3.3910813E0,7.642601E0,9.9620104E-1,2.5744987E-1,3.1502838E0,4.8626175E0,1.58518E0,2.2291017E0,1.7896423E0,2.9774475E-1,0E0,2.4735208E0,4.413053E0,0E0,6.223142E-1,6.331224E-1,3.8630044E-1,4.1603518E-1,2.148631E0,3.6382866E-1,4.1009007E0,1.3923866E1,0E0,4.475057E-3,2.1586168E-1,2.4895144E-1,3.6040573E0,2.9426575E-2,0E0,0E0,0E0,0E0,1.2537786E0,1.2197025E0,0E0,0E0,0E0,0E0,0E0,0E0,0E0,0E0,0E0,0E0,0E0,0E0,0E0,0E0,0E0,0E0,0E0,0E0,0E0,0E0,0E0,0E0,0E0,0E0,0E0,0E0,0E0,0E0,0E0,0E0,0E0,0E0,0E0,0E0,0E0,0E0,0E0,0E0],"parents":[2147483647,0,0,1,1,2,2,3,3,4,4,5,5,6,6,7,7,8,8,9,9,10,10,11,11,12,12,13,13,15,15,16,16,17,17,18,18,19,19,20,20,21,21,22,22,23,23,24,24,25,25,26,26,27,27,28,28,30,30,31,31,33,33,34,34,35,35,36,36,37,37,38,38,39,39,40,40,42,42,43,43,44,44,45,45,46,46,51,51,52,52],"right_children":[2,4,6,8,10,12,14,16,18,20,22,24,26,28,-1,30,32,34,36,38,40,42,44,46,48,50,52,54,56,-1,58,60,-1,62,64,66,68,70,72,74,76,-1,78,80,82,84,86,-1,-1,-1,-1,88,90,-1,-1,-1,-1,-1,-1,-1,-1,-1,-1,-1,-1,-1,-1,-1,-1,-1,-1,-1,-1,-1,-1,-1,-1,-1,-1,-1,-1,-1,-1,-1,-1,-1,-1,-1,-1,-1,-1],"split_conditions":[7.52E0,2.54E0,1.3425E1,1.54E0,5.5E0,8.7E0,2.028E1,3.8356164E-1,1.9E0,4.58E0,3.3802816E-1,1E-1,4.528302E-1,1E-1,3.6113346E-1,3.9E-1,3.888889E-1,2.61E0,1.83E-1,5E-1,1E-1,2.8E-1,-2.739726E-1,9.91E0,3.7037037E-2,2.9333332E-1,8.4745765E-2,1.48E1,3.4848484E-1,-2.3924388E-2,6.849315E-1,2.8333333E-1,-2.326274E-2,6.060606E-1,1.24E-1,6.551724E-1,-3.3802816E-1,-3.846154E-1,1.0810811E-1,3.2857144E0,-4.21875E-1,-2.4980366E-2,9.677419E-2,1.04477614E-1,5.689655E-1,2.4788733E0,1.3157895E-2,2.6586367E-2,2.8896877E-1,1.16187885E-1,-1.3039407E-2,9.259259E-2,4.7945204E-1,1.3209394E-1,2.2205482E-1,3.5803014E-1,9.516759E-2,-3.7590127E-2,-9.940111E-3,-1.6710637E-2,2.254871E-1,3.8460703E-3,5.9651416E-2,-3.8293093E-2,2.6796337E-3,-2.0775098E-2,2.699927E-2,-7.9366334E-2,-2.6369045E-2,1.2354255E-1,1.7863436E-2,1.02940336E-1,3.0135049E-2,5.9680153E-2,-6.4037494E-2,-1.2889327E-1,1.7446075E-1,1.608255E-2,6.1200786E-2,-7.80146E-2,-9.411472E-3,-3.134507E-2,-1.232519E-2,7.905203E-2,1.6523185E-1,4.0442467E-2,1.4144343E-1,-2.3133809E-2,8.41554E-2,-3.682721E-2,3.712349E-2],"split_indices":[10,10,10,10,12,12,10,3,12,10,5,12,6,12,0,10,3,9,8,11,12,5,2,10,1,0,0,10,1,0,5,0,0,6,8,5,2,2,0,5,2,0,0,0,6,4,0,0,0,0,0,1,0,0,0,0,0,0,0,0,0,0,0,0,0,0,0,0,0,0,0,0,0,0,0,0,0,0,0,0,0,0,0,0,0,0,0,0,0,0,0],"split_type":[0,0,0,0,0,0,0,0,0,0,0,0,0,0,0,0,0,0,0,0,0,0,0,0,0,0,0,0,0,0,0,0,0,0,0,0,0,0,0,0,0,0,0,0,0,0,0,0,0,0,0,0,0,0,0,0,0,0,0,0,0,0,0,0,0,0,0,0,0,0,0,0,0,0,0,0,0,0,0,0,0,0,0,0,0,0,0,0,0,0,0],"sum_hessian":[1.597E3,1.453E3,1.44E2,1.226E3,2.27E2,1.1E2,3.4E1,1.122E3,1.04E2,1.88E2,3.9E1,9.1E1,1.9E1,2.9E1,5E0,1.098E3,2.4E1,7.7E1,2.7E1,1.05E2,8.3E1,5E0,3.4E1,8.2E1,9E0,4E0,1.5E1,2.6E1,3E0,9.4E2,1.58E2,2E0,2.2E1,9E0,6.8E1,5E0,2.2E1,9.8E1,7E0,7.1E1,1.2E1,3E0,2E0,2E0,3.2E1,4.7E1,3.5E1,1E0,8E0,3E0,1E0,4E0,1.1E1,1E1,1.6E1,2E0,1E0,4.5E1,1.13E2,1E0,1E0,3E0,6E0,3E0,6.5E1,2E0,3E0,1E0,2.1E1,1E0,9.7E1,5E0,2E0,6.9E1,2E0,1E0,1.1E1,1E0,1E0,1E0,1E0,1.8E1,1.4E1,4.1E1,6E0,1E0,3.4E1,1E0,3E0,9E0,2E0],"tree_param":{"num_deleted":"0","num_feature":"14","num_nodes":"91","size_leaf_vector":"1"}},{"base_weights":[1.9442473E-2,-1.1186135E-1,1.3359687E0,-1.8868822E-1,3.0207914E-1,1.032561E0,2.2600343E0,-2.0420289E-1,-2.095804E-2,4.077175E-1,-2.0461407E-1,1.1978334E0,2.206796E-1,1.9746286E0,3.3103898E-1,-2.0786893E-1,-3.487587E-2,4.6337225E-2,-2.5001028E-1,2.4772911E-1,6.4759684E-1,9.068496E-2,-2.4939065E-1,1.0361458E0,2.420058E0,8.1024057E-1,2.2649307E-2,1.7557715E0,2.958257E0,-3.2876694E-1,-2.0474862E-1,1.322251E0,-2.1037607E-2,3.017368E-1,-1.7560852E-3,-1.0312186E-1,-3.1700936E-1,2.0354953E-1,8.1318724E-1,5.0797635E-1,1.2744039E0,-2.310684E-2,4.894611E-1,-5.536985E-1,-2.1416901E-1,8.444909E-1,1.2629038E-1,2.525704E-2,2.6328266E-1,1.0747379E0,-1.2387437E-2,5.348414E-1,-1.9265153E-1,8.2587145E-2,1.8815859E-1,3.3416146E-1,9.0409234E-2,-5.8298714E-2,-1.598864E-2,-2.1524437E-2,-1.3916701E-2,-1.5875107E-2,2.1421276E-1,-2.7313119E-2,5.875816E-2,-1.7666373E-3,5.4802693E-2,9.634635E-3,-1.7387656E-2,-1.7583556E-2,-4.3620374E-2,1.3451256E-2,4.6730712E-2,9.436195E-2,2.812604E-2,5.5402555E-2,-5.9768327E-2,-1.224486E-1,1.5846853E-1,1.5278423E-2,5.8140744E-2,-7.411387E-2,-8.940899E-3,-1.4945579E-2,-3.4806382E-2,7.1335055E-2,1.5106913E-1,3.0972863E-2,1.2264981E-1,-2.1977117E-2,7.784374E-2,-3.351276E-2,3.4648594E-2],"categories":[],"categories_nodes":[],"categories_segments":[],"categories_sizes":[],"default_left":[0,0,0,0,0,0,0,0,0,0,0,0,0,0,0,0,0,0,0,0,0,0,0,0,0,0,0,0,0,0,0,0,0,0,0,0,0,0,0,0,0,0,0,0,0,0,0,0,0,0,0,0,0,0,0,0,0,0,0,0,0,0,0,0,0,0,0,0,0,0,0,0,0,0,0,0,0,0,0,0,0,0,0,0,0,0,0,0,0,0,0,0,0],"id":20,"left_children":[1,3,5,7,9,11,13,15,17,19,21,23,25,27,-1,29,31,33,35,37,39,41,43,45,47,49,51,53,55,57,59,61,-1,63,65,67,69,71,73,75,77,-1,79,81,83,85,-1,-1,-1,87,-1,89,91,-1,-1,-1,-1,-1,-1,-1,-1,-1,-1,-1,-1,-1,-1,-1,-1,-1,-1,-1,-1,-1,-1,-1,-1,-1,-1,-1,-1,-1,-1,-1,-1,-1,-1,-1,-1,-1,-1,-1,-1],"loss_changes":[2.763876E2,4.629675E1,3.8319794E1,3.188717E0,1.2287405E1,1.4629822E1,3.955429E0,6.898575E-1,1.6300685E0,7.0929947E0,5.515151E-1,1.5673386E1,2.316667E0,1.2641907E0,0E0,3.4727478E-1,6.2325706E0,1.0077368E0,2.0350266E-1,2.7073717E0,5.9162655E0,8.829444E-1,2.565527E-1,2.5406036E0,3.9467583E0,1.3684871E0,1.8674443E0,1.6049118E0,1.28788E-1,1.0230422E0,7.0931244E-1,3.9827814E0,0E0,2.2966862E0,6.219861E-1,1.4377218E-1,1.9253385E-1,1.9037166E0,2.8964043E-1,3.5387611E0,1.202009E1,0E0,4.0386915E-3,1.9481516E-1,2.3391724E-1,3.1159058E0,0E0,0E0,0E0,8.451033E-2,0E0,1.0901808E0,1.0378873E0,0E0,0E0,0E0,0E0,0E0,0E0,0E0,0E0,0E0,0E0,0E0,0E0,0E0,0E0,0E0,0E0,0E0,0E0,0E0,0E0,0E0,0E0,0E0,0E0,0E0,0E0,0E0,0E0,0E0,0E0,0E0,0E0,0E0,0E0,0E0,0E0,0E0,0E0,0E0,0E0],"parents":[2147483647,0,0,1,1,2,2,3,3,4,4,5,5,6,6,7,7,8,8,9,9,10,10,11,11,12,12,13,13,15,15,16,16,17,17,18,18,19,19,20,20,21,21,22,22,23,23,24,24,25,25,26,26,27,27,28,28,29,29,30,30,31,31,33,33,34,34,35,35,36,36,37,37,38,38,39,39,40,40,42,42,43,43,44,44,45,45,49,49,51,51,52,52],"right_children":[2,4,6,8,10,12,14,16,18,20,22,24,26,28,-1,30,32,34,36,38,40,42,44,46,48,50,52,54,56,58,60,62,-1,64,66,68,70,72,74,76,78,-1,80,82,84,86,-1,-1,-1,88,-1,90,92,-1,-1,-1,-1,-1,-1,-1,-1,-1,-1,-1,-1,-1,-1,-1,-1,-1,-1,-1,-1,-1,-1,-1,-1,-1,-1,-1,-1,-1,-1,-1,-1,-1,-1,-1,-1,-1,-1,-1,-1],"split_conditions":[7.52E0,2.54E0,1.3425E1,1.54E0,5.5E0,8.7E0,2.028E1,3.8356164E-1,2.3E0,4.8E0,3.3802816E-1,1E-1,